{"layers":[{"out_depth":1,"out_sx":24,"out_sy":24,"layer_type":"input"},{"sx":5,"sy":5,"stride":1,"in_depth":1,"out_depth":8,"out_sx":24,"out_sy":24,"layer_type":"conv","l1_decay_mul":0,"l2_decay_mul":1,"pad":2,"filters":[{"sx":5,"sy":5,"depth":1,"w":{"0":-0.08576495038975677,"1":0.1740944861298046,"2":0.14023412412254652,"3":0.22130254130974303,"4":0.30507247659915043,"5":0.06685076208081557,"6":0.3084207973304074,"7":0.13031212241788684,"8":0.21400167200423167,"9":-0.1474094021320428,"10":0.14412042639172204,"11":0.3605700648262961,"12":0.03083438150097456,"13":-0.024508440431922525,"14":-0.026022851126397618,"15":-0.068711694458091,"16":0.12061907783963638,"17":-0.06079795622800617,"18":-0.005081488813891372,"19":0.03978221330597433,"20":0.6641016778934098,"21":0.012332978720507485,"22":-0.14444871766594525,"23":-0.294104299947233,"24":-0.36190645202415955}},{"sx":5,"sy":5,"depth":1,"w":{"0":0.2029792759566878,"1":0.21798243552385288,"2":-0.20575156579887202,"3":-0.33856998782713255,"4":-0.0970704372544246,"5":-0.2695793255387301,"6":-0.4232143351036158,"7":-0.25884166616248316,"8":-0.1279224364126662,"9":0.05650338111612298,"10":-0.20082174360049557,"11":0.06753625582584587,"12":0.0018447999055248255,"13":0.3176161387262807,"14":-0.04436948242496358,"15":0.2764212818198558,"16":0.16042221721445424,"17":0.17161022539407111,"18":-0.09315976643170865,"19":0.3683549016848052,"20":-0.1350967414454845,"21":-0.03640330308947434,"22":0.023370096504188954,"23":-0.005569521725738296,"24":0.021168471254829423}},{"sx":5,"sy":5,"depth":1,"w":{"0":0.12906143313664964,"1":0.14713933481212313,"2":0.018520739487927335,"3":-0.0748771125854884,"4":-0.642959381872327,"5":-0.02081326745934208,"6":0.2559850203345366,"7":-0.07743276578769491,"8":-0.026204005360355158,"9":-0.1468290006456663,"10":0.26229407130978927,"11":0.016056303806649012,"12":0.02624482892434122,"13":0.09646073732835804,"14":-0.5936924691126504,"15":-0.012632802720342173,"16":0.5797664096196219,"17":-0.26612476097974824,"18":-0.19533727964651407,"19":-0.4989146693988211,"20":0.029532789640784318,"21":0.3916882883618687,"22":0.2115708558480687,"23":-0.547076132172783,"24":-0.23624160582711445}},{"sx":5,"sy":5,"depth":1,"w":{"0":0.04355753827931173,"1":0.4744271030143032,"2":0.262704153704076,"3":0.4836357086941076,"4":0.25337607591829986,"5":0.014821765017755133,"6":0.2138178755571951,"7":0.5008961669502418,"8":0.46408569147710044,"9":0.42976336573857343,"10":-0.3582504816865606,"11":-0.13612254129203713,"12":-0.37509573273731756,"13":-0.10400488445056967,"14":0.2967121338784671,"15":-0.5705251158626006,"16":-0.19254636628923114,"17":-0.18769530828350675,"18":-0.5376916148759149,"19":-0.3834692896451517,"20":-0.3379064158767553,"21":-0.3960757817478429,"22":-0.4166255525279298,"23":-0.3400145719378385,"24":-0.09141132007283626}},{"sx":5,"sy":5,"depth":1,"w":{"0":0.47275453272916246,"1":-0.30181483053756625,"2":0.24990924821540433,"3":-0.3927821072219543,"4":-0.24181247675455642,"5":-0.18084346391583211,"6":0.17344280062183287,"7":0.23516500434891258,"8":0.1742505130248691,"9":0.28328124392579873,"10":-0.14737993393453755,"11":0.031454966773879975,"12":-0.028505677257703036,"13":0.19196267074583262,"14":0.33850782658060735,"15":-0.21086691655760775,"16":-0.03160027382753029,"17":0.15343699395248417,"18":0.11116310479162504,"19":-0.017572677620811453,"20":0.048027566992279946,"21":-0.1759461069277925,"22":-0.6737063231860377,"23":-0.252537828383495,"24":-0.17931005788984183}},{"sx":5,"sy":5,"depth":1,"w":{"0":0.2609454338340599,"1":-0.2772037644641422,"2":-0.21359221582993476,"3":0.21732946204582487,"4":-0.15951677190947258,"5":-0.2687582311511533,"6":0.09526400008159948,"7":0.012899040100875864,"8":-0.4643234399872361,"9":-0.13970707269895521,"10":-0.2238912968939985,"11":0.03905807848533648,"12":-0.10404044025170245,"13":-0.25067830139019875,"14":0.048481436706838084,"15":-0.10524150480595273,"16":-0.058480278588158796,"17":-0.3762631428353604,"18":0.09443298587896826,"19":0.03173823908026151,"20":-0.2529260760529178,"21":-0.11483443819719401,"22":-0.18239187418278743,"23":-0.04915437880248754,"24":-0.42364898712940025}},{"sx":5,"sy":5,"depth":1,"w":{"0":-0.10613276976442358,"1":0.365627199461096,"2":-0.5331952763838393,"3":0.06603575240379635,"4":-0.11528904526281161,"5":0.040836843833666724,"6":0.24356113038703703,"7":0.4028200530671756,"8":0.19699518713025685,"9":-0.14353851698168996,"10":0.08537126515574046,"11":0.33649335469595093,"12":0.1213458278776263,"13":0.29888647015296277,"14":0.2889662669007852,"15":0.36426044591672085,"16":0.023234806994291764,"17":0.2932393096647624,"18":0.26844311923711844,"19":0.26131283712136094,"20":0.0008320918155580624,"21":-0.029793342806875203,"22":-0.266108984718377,"23":-0.32098911552208326,"24":-0.07475022405898006}},{"sx":5,"sy":5,"depth":1,"w":{"0":-0.1391274206248437,"1":-0.2130152523467205,"2":0.1422668307795275,"3":0.09920732422895083,"4":0.2917446123554361,"5":0.033702706629691354,"6":0.13416191124881932,"7":-0.030439683907048435,"8":-0.14555939554074512,"9":0.2836917993136428,"10":-0.1480062016760128,"11":-0.3366173849579167,"12":-0.23625642629413965,"13":-0.0583865935972121,"14":0.13138557078835061,"15":0.10113925260483994,"16":-0.1449014623658054,"17":0.008243692879842331,"18":-0.24769014815539375,"19":0.5320983379184285,"20":-0.4199585943427644,"21":-0.36194765565803677,"22":0.09631257367036919,"23":0.053120298087849835,"24":0.27610513519549185}}],"biases":{"sx":1,"sy":1,"depth":8,"w":{"0":-0.006977862717284421,"1":0.0568808911334623,"2":0.14794458272171757,"3":0.15327418271647358,"4":0.022874674626505408,"5":0.3185485412694556,"6":-0.009304299940377694,"7":0.051682418782657766}}},{"out_depth":8,"out_sx":24,"out_sy":24,"layer_type":"relu"},{"sx":2,"sy":2,"stride":2,"in_depth":8,"out_depth":8,"out_sx":12,"out_sy":12,"layer_type":"pool","pad":0},{"sx":5,"sy":5,"stride":1,"in_depth":8,"out_depth":16,"out_sx":12,"out_sy":12,"layer_type":"conv","l1_decay_mul":0,"l2_decay_mul":1,"pad":2,"filters":[{"sx":5,"sy":5,"depth":8,"w":{"0":-0.08007653101466981,"1":-0.07357043591253266,"2":0.08107943186999243,"3":-0.09815863449045108,"4":-0.02245922124888564,"5":-0.14836417205506516,"6":-0.03709487328060461,"7":-0.0912505673872591,"8":-0.05539603020001822,"9":0.13679289306303544,"10":0.07882217673157854,"11":-0.15431927270312457,"12":-0.13119597796002894,"13":-0.10123824414957104,"14":0.036892770598160304,"15":-0.14152426405903606,"16":-0.017836537040810032,"17":0.021384398250166893,"18":-0.06496132525922078,"19":-0.18175398918754743,"20":-0.03354170746061236,"21":-0.0037712407467423367,"22":-0.0022479837278268147,"23":0.06655919414534284,"24":0.185351439051958,"25":-0.004669226988126714,"26":0.053735974679996946,"27":0.004359793214456873,"28":-0.046067078824464196,"29":0.001110733909891748,"30":0.04423604673799503,"31":0.050822638211295,"32":-0.003977844739275567,"33":0.10005946367504955,"34":-0.01371709471236592,"35":-0.07673558279180447,"36":-0.03895172946596879,"37":-0.039776171394704365,"38":0.080502977563032,"39":-0.08993042685602554,"40":-0.004932511749908992,"41":0.012698490973041168,"42":-0.06249628472708754,"43":0.0769582353403576,"44":0.029306438464721977,"45":-0.07036138990530455,"46":-0.004077804129509326,"47":-0.060754927858378285,"48":0.03192605996510929,"49":0.12460210151532276,"50":-0.07026039429214859,"51":-0.11097072894507472,"52":0.06166684409170602,"53":-0.14788534638650835,"54":0.016589452088337682,"55":0.18334276625187398,"56":0.14079346716116523,"57":0.03264462800750078,"58":-0.11051282088033858,"59":-0.1652144789470561,"60":-0.04115230915189182,"61":-0.026119489615400893,"62":0.024167995191677262,"63":0.022178668661312725,"64":-0.0122683106671603,"65":0.09240279103280728,"66":-0.1392272647318777,"67":-0.28569059204701647,"68":0.06498116426473532,"69":-0.004175662873691165,"70":-0.09025335461126124,"71":0.05147046287873069,"72":0.09207819727172868,"73":0.027976475978300906,"74":-0.036635877666839706,"75":-0.14287166925720265,"76":0.0435471969383489,"77":-0.0667291804330222,"78":0.03696913280544366,"79":-0.05763279051424547,"80":0.052595103766556815,"81":-0.13681697938747645,"82":-0.03977302414231938,"83":0.1581766497456989,"84":0.14398841423754224,"85":-0.04644405012104913,"86":0.009433103528765144,"87":-0.032466320090577885,"88":-0.10925838843221365,"89":-0.12143186228241391,"90":-0.20460598404930552,"91":0.22115051155335713,"92":0.1027341097068522,"93":-0.05083267376461222,"94":0.1100528254341421,"95":0.05440116273382309,"96":0.04253896236424493,"97":-0.09581614769948643,"98":-0.10089080041371017,"99":0.17302683363396829,"100":0.16490182830348868,"101":-0.13873542824121235,"102":0.019906019863760477,"103":0.12139766137922377,"104":0.057446832399648845,"105":-0.019599216579136026,"106":-0.17675771601912943,"107":0.2341661785824609,"108":0.17298697086143547,"109":-0.0438486098811888,"110":0.040752915865122856,"111":0.07870915704830979,"112":-0.08404688887955274,"113":-0.07876820563932921,"114":-0.07219665026900508,"115":0.10297080473819882,"116":0.21975662076361005,"117":0.07574594342713034,"118":0.019296842656930567,"119":0.020572170096713176,"120":-0.11587803440437647,"121":-0.03294278353349418,"122":0.02378786486072284,"123":0.13811428396208192,"124":-0.17004883177682736,"125":0.06752873977212337,"126":-0.08366336233483279,"127":-0.0987352878344663,"128":0.06506270635189496,"129":-0.15785584577151449,"130":0.017476023412253027,"131":0.10299979314446726,"132":0.00548568632428701,"133":0.051812583970782256,"134":-0.1780858011922129,"135":0.028553644365816987,"136":-0.1116260847115262,"137":0.03695628878502886,"138":-0.1598143971365657,"139":0.16267149682582366,"140":-0.11352942989112612,"141":0.04803528930972271,"142":-0.16703411429495899,"143":0.03001373624361073,"144":-0.0027388717844771876,"145":0.10957160554455396,"146":-0.17237974480506757,"147":0.18063315855586726,"148":0.09174923757365264,"149":-0.08687978099619194,"150":-0.1472505619164118,"151":0.08844134587617417,"152":0.03601497737036171,"153":-0.017625063953680197,"154":0.007777234231137464,"155":0.26857675429762207,"156":0.10299956888075709,"157":-0.11414468434806149,"158":-0.032726088972764744,"159":0.015584217239867557,"160":-0.19591309048518069,"161":-0.013863347052682707,"162":0.16245337516663833,"163":0.045811773564069895,"164":0.009078854802751009,"165":0.023384744147161674,"166":0.03359685516370667,"167":0.04732432211987475,"168":-0.07294885395547065,"169":0.06702732668493078,"170":-0.0586693970437509,"171":-0.04156137763486912,"172":-0.039182162822530286,"173":-0.05221580988088826,"174":-0.22686477262364374,"175":0.09095342759540634,"176":-0.10013396594549881,"177":0.02784116171124074,"178":-0.012062189440036704,"179":-0.1223095746841585,"180":-0.015508080344870863,"181":-0.013657955232224976,"182":-0.0379482462856432,"183":-0.03881668147552871,"184":0.00010253831173305875,"185":-0.03842165364676577,"186":0.18045530558800843,"187":-0.2012502266702007,"188":-0.11275513639177187,"189":0.0743272244487856,"190":-0.14893509764599555,"191":-0.09369957201180927,"192":-0.12509444322597926,"193":-0.032439155780044714,"194":0.020615380837592817,"195":-0.19823130701345182,"196":0.030683736872228144,"197":0.0013512954439951594,"198":0.09406513095925403,"199":0.015524675446766344}},{"sx":5,"sy":5,"depth":8,"w":{"0":0.08345692432823348,"1":0.038991386819614254,"2":0.16159265966576952,"3":-0.07776901040595312,"4":-0.12589245888666256,"5":0.0688150278676741,"6":-0.052016602991270075,"7":-0.11846343930564557,"8":-0.002758782763095552,"9":-0.0065769000633202745,"10":-0.04810065692079374,"11":-0.10331582374287258,"12":0.017708251970577425,"13":0.028005570218002613,"14":0.13277948504583825,"15":0.0321145448620061,"16":-0.11475625621265528,"17":-0.023750629025699445,"18":-0.0380234966840749,"19":0.03204920621050941,"20":-0.023846446750348062,"21":0.06229240520663665,"22":-0.07371777146294362,"23":-0.02030885050746836,"24":-0.006934287407161547,"25":-0.11471826685622101,"26":0.02659036106034734,"27":0.02767974157711715,"28":0.1501925585681957,"29":0.012267216924483812,"30":-0.05914321264738258,"31":0.012536540254841678,"32":0.05058802030707837,"33":-0.1632685480759452,"34":-0.04805964662486806,"35":0.23680282295037938,"36":-0.03091777779822633,"37":0.18994401088261995,"38":-0.04819958507195501,"39":0.0011141655376355388,"40":0.016002914256392227,"41":-0.060443111786929814,"42":-0.0025252765029792883,"43":0.03568689702984937,"44":0.011872124412372353,"45":0.03202839670677908,"46":0.11368469068245819,"47":-0.13942136269575256,"48":-0.04197571147229118,"49":-0.037627003543879725,"50":-0.009072058577707948,"51":-0.01776987002265393,"52":-0.04567290211977433,"53":0.16762669657915613,"54":-0.0015941486742279967,"55":-0.0645903609470607,"56":0.02056017444562365,"57":0.06799470294850679,"58":-0.1446835340311977,"59":-0.06994394907674749,"60":-0.0057437025682871325,"61":0.0393602360697458,"62":-0.09422614822704563,"63":-0.21056624069577454,"64":-0.1173252994001741,"65":0.011775172375330299,"66":0.0203418864600945,"67":-0.004247130452925176,"68":0.04803229023203144,"69":-0.043078503040969655,"70":-0.11125683177527314,"71":-0.011554529497222844,"72":-0.12903982695883473,"73":0.1644123126373957,"74":0.15201359627882982,"75":-0.05071668120572954,"76":-0.07936078569148597,"77":0.06052803311128282,"78":-0.036127113948175124,"79":-0.06839051219074092,"80":0.1597367760344632,"81":-0.014684019046736906,"82":0.09725456786532884,"83":-0.024713302191301897,"84":-0.05170786581491219,"85":0.004963418414214111,"86":-0.0770872663472367,"87":0.10702924071366167,"88":0.06091470545945901,"89":-0.16808289064284235,"90":0.12101063487994325,"91":0.021393894993595376,"92":-0.07851219995940803,"93":0.0722312222911811,"94":-0.1809282657332539,"95":-0.07043405323771627,"96":0.0014527333160945619,"97":-0.017788938283741316,"98":-0.12861481828907095,"99":-0.1286290286585624,"100":0.06721363643024018,"101":-0.03535983227243605,"102":-0.004650732154293276,"103":0.04817064030495349,"104":-0.0746723980108724,"105":0.018752599022709215,"106":-0.01327290734398937,"107":0.01936458902739495,"108":0.12660201926428666,"109":0.06475886189276743,"110":-0.05366966807059038,"111":-0.0724566845251654,"112":-0.08063200463980384,"113":0.06983586301827996,"114":0.01875684629181712,"115":0.06604939258021411,"116":-0.0529111708623885,"117":0.21550295662392277,"118":0.038149307485540865,"119":0.1676874114332038,"120":0.07818128827205313,"121":-0.001087502455337882,"122":0.16347502802234656,"123":-0.018509385719778976,"124":0.0906507338445147,"125":0.015028763709529804,"126":-0.007059060634061559,"127":-0.07747685737617087,"128":-0.12263334106228832,"129":-0.07835030870940174,"130":-0.0018963826579663176,"131":0.06622160137794017,"132":0.028207265976255932,"133":0.20432714355471107,"134":0.048638638320761395,"135":0.11895450077737942,"136":-0.09520861162344349,"137":0.016453804469666523,"138":-0.0382806042059722,"139":-0.007746703541134929,"140":0.1436903592908392,"141":0.07407527058819535,"142":-0.1418720637981765,"143":-0.06994394970694315,"144":-0.2093640317354245,"145":0.08581834607940511,"146":-0.006499973205262866,"147":-0.08784774570431184,"148":-0.0039348378462455815,"149":-0.0288487144496138,"150":-0.04775914459542849,"151":-0.05243550035260127,"152":-0.029513961488454192,"153":-0.03993912109616303,"154":0.11422925789768097,"155":-0.04079371203109402,"156":0.0487359257060733,"157":-0.03839012915447113,"158":-0.07401178616450287,"159":-0.0562717351376504,"160":-0.006233827119123505,"161":0.06892263418153309,"162":0.0472238725345234,"163":-0.013635756053483262,"164":-0.08736167691968676,"165":0.10842824203575255,"166":0.13849193793988912,"167":-0.15561019800710638,"168":-0.008868925587365203,"169":0.05149784478292906,"170":-0.022144296545039705,"171":-0.026365298718828097,"172":0.11789268058634779,"173":-0.030454370836427987,"174":-0.11576692392783687,"175":0.027425241902564644,"176":-0.040363522940137876,"177":-0.028060295727581546,"178":0.07674101289623429,"179":0.01831439088960315,"180":0.09309472077155133,"181":0.12693536838643873,"182":-0.15232474892533268,"183":-0.10112500195660291,"184":-0.04688418824976089,"185":0.13979712730250451,"186":0.05448922290203352,"187":-0.05186182566176161,"188":-0.016512673479739847,"189":0.21243447171876736,"190":-0.09444903458203086,"191":-0.1017774905620393,"192":-0.1216817805917777,"193":0.08052856885197834,"194":-0.05464609532876693,"195":0.08865345401719205,"196":0.1462531473886106,"197":0.034535878519490006,"198":-0.11488747435568922,"199":0.023515625431335337}},{"sx":5,"sy":5,"depth":8,"w":{"0":0.010072657950183188,"1":0.11122409257089297,"2":-0.1383048765848555,"3":0.0759771436619021,"4":0.06875747021261253,"5":-0.0064445903279394656,"6":0.08592413227986125,"7":-0.19109654537238213,"8":-0.07790907844187749,"9":0.19636060773468067,"10":-0.14196565117989418,"11":0.1688182674163528,"12":-0.01839936784678752,"13":-0.07966007088965614,"14":-0.031293157709492175,"15":-0.13934146928705002,"16":-0.0511581890366034,"17":0.14427225277621886,"18":-0.07738709312113493,"19":0.08099460930214003,"20":0.06713775524065292,"21":0.18700155358085604,"22":-0.035299707365333687,"23":-0.03223643194657442,"24":-0.08078757280207866,"25":-0.01905431022611239,"26":-0.014009926064040189,"27":0.0584943781104494,"28":-0.017364321084246282,"29":0.017237342490257525,"30":0.06294394342616987,"31":0.042936048074585745,"32":-0.13077395147420115,"33":-0.14440517304297637,"34":-0.20164503099072698,"35":-0.09973053812726634,"36":-0.06933167085064351,"37":-0.016050440282092265,"38":-0.004219627219206361,"39":-0.15674092633339595,"40":-0.023969124554094518,"41":0.0012498285436071646,"42":-0.08440631610676565,"43":0.011105937732919485,"44":-0.011888373871125908,"45":0.022527462976476634,"46":0.018894739554664725,"47":-0.10269604241278005,"48":-0.016171425747837528,"49":-0.15309578619323932,"50":0.06252870929491461,"51":0.14607216989286664,"52":0.0006910848633894246,"53":0.05634612153895603,"54":-0.04617169957491318,"55":-0.13248866654887226,"56":-0.17226448382731885,"57":0.057683230857186796,"58":-0.07340102787065227,"59":-0.027552828597120525,"60":0.030289626313257906,"61":0.007546346237090989,"62":-0.13600588740477293,"63":0.03115522824518844,"64":-0.012705463136869457,"65":-0.06345291028624607,"66":-0.15221158608226998,"67":0.04920448583626891,"68":0.22043667528513158,"69":0.034806051310921834,"70":0.07707634689235889,"71":-0.028991857414159692,"72":-0.0760235072527834,"73":0.044678288471868985,"74":-0.12897131667566655,"75":0.03488143213089624,"76":0.009810275883981479,"77":0.13116996345426532,"78":0.07502705329315504,"79":-0.006731010111139906,"80":-0.06483648480045745,"81":-0.03262540628354481,"82":0.12489455884586928,"83":0.07074074908831518,"84":-0.03308810075259376,"85":-0.059485418134489015,"86":0.18436141975794626,"87":-0.04867411876549996,"88":-0.07632531502939398,"89":-0.13744704519116582,"90":0.3719240191776558,"91":-0.06460153704566639,"92":0.009851163809743239,"93":-0.14030912142682894,"94":-0.11988669501084807,"95":-0.027715718266827623,"96":0.07866494784110573,"97":-0.1978306710374367,"98":0.08758768696276592,"99":0.0899357276411655,"100":-0.021331985985341972,"101":-0.0021019372283579605,"102":-0.10715962558934633,"103":-0.13403410463403653,"104":-0.005835120548350463,"105":-0.05676217720837871,"106":-0.08951282892049911,"107":0.15415639828763117,"108":0.04742506351286046,"109":0.06292850100977837,"110":-0.08831538092510456,"111":0.008096202689248625,"112":-0.06543737987890816,"113":-0.05908836155611259,"114":-0.09333807876398553,"115":0.07953204154031944,"116":-0.07394172135597275,"117":-0.15981767573237862,"118":-0.04346820002314618,"119":0.13128569834013115,"120":0.0862687661112422,"121":0.019391404447310287,"122":-0.08913947895667532,"123":0.15595289440733107,"124":0.13742913701079146,"125":0.049733253556706956,"126":0.1461951928736872,"127":0.2113561739306044,"128":-0.04700042923176043,"129":-0.038182362047622535,"130":0.21559198889669123,"131":-0.20550595847495204,"132":-0.08095437665576079,"133":-0.0728924619918612,"134":0.04405436825031114,"135":-0.13391999347944636,"136":0.0747922577383381,"137":-0.10144295642294669,"138":0.25667851386767976,"139":-0.10654054606094304,"140":-0.05397125242659055,"141":-0.11333247717302765,"142":-0.05921560058938628,"143":-0.09282202142457742,"144":0.019319320487135184,"145":-0.040048029248623926,"146":-0.010571272032702502,"147":-0.1194607781831373,"148":0.012776556037260259,"149":-0.004536227749132365,"150":-0.010191277910621134,"151":-0.01878675915276163,"152":-0.055704345389228443,"153":0.10325400185976838,"154":-0.12846540774655793,"155":-0.08160381127189376,"156":0.0952452266495909,"157":-0.04394502730204734,"158":0.03330398439121948,"159":0.12775475483220586,"160":-0.052537399040854006,"161":-0.02180982203887892,"162":0.034557704484151006,"163":-0.12050501977699515,"164":-0.03453215007891347,"165":-0.16607275919405873,"166":0.002352111946668511,"167":0.2770577159254217,"168":0.17088010050589883,"169":-0.16524346223483627,"170":0.15388957723090513,"171":-0.18984265483986545,"172":0.04026912926086968,"173":-0.1994050078443593,"174":-0.024628014534747347,"175":-0.03809440330062203,"176":0.11903429624241732,"177":-0.163371291668721,"178":0.14585569027296516,"179":-0.24201980159126227,"180":-0.07709353869752228,"181":-0.18056669606712294,"182":0.10833448492289492,"183":0.012639253453885366,"184":-0.0531185335072793,"185":-0.022321451760845056,"186":-0.07105959052990779,"187":-0.029733996528464465,"188":0.013388708958112084,"189":0.07444119375143628,"190":-0.07918413387807297,"191":0.014573183748166744,"192":-0.09935034972816434,"193":0.1122513030749305,"194":-0.10658006979828236,"195":-0.09708318929039512,"196":-0.12019889590244129,"197":-0.02414042044498786,"198":0.13241610502309215,"199":0.2129288171229865}},{"sx":5,"sy":5,"depth":8,"w":{"0":0.05819431526003584,"1":0.014358794762481301,"2":-0.07126287475655184,"3":-0.07240893587040255,"4":-0.0641715264028797,"5":-0.17048209500007738,"6":-0.005872327715855872,"7":-0.04257157852578811,"8":0.012845104953173515,"9":0.19722064089458197,"10":-0.11293547316861881,"11":-0.15439728996067373,"12":-0.026940980445223636,"13":-0.04133084771127792,"14":0.02290552827340067,"15":-0.0031948797331564287,"16":-0.09844677377799013,"17":0.1593154371248726,"18":-0.11864678569069562,"19":-0.1819909132410131,"20":0.06944962390728707,"21":-0.014124044865004322,"22":0.11308164030793035,"23":-0.09527257993850319,"24":-0.21346937587509254,"25":0.15486334987252728,"26":-0.029092676933935597,"27":-0.12421704586665423,"28":-0.13917247263152424,"29":0.019621313901291265,"30":0.0892492131990032,"31":-0.1814680846369255,"32":-0.2568496206789728,"33":0.03892547426362365,"34":0.03803292295795349,"35":-0.10668971002483038,"36":-0.10359562390455758,"37":0.043050329044657776,"38":-0.13838089273151702,"39":-0.18860191601342033,"40":0.09010409085928792,"41":0.07848412464752726,"42":-0.1824745336881629,"43":-0.11848716900115994,"44":-0.08190355553546093,"45":-0.015873227619091528,"46":0.08059873468787107,"47":-0.006824692752671643,"48":0.04455356849013803,"49":-0.11184238733605453,"50":0.00018784697707082765,"51":0.08731689638233216,"52":0.0950801894643648,"53":0.0638119554518515,"54":0.07234179977395049,"55":-0.03794103018513039,"56":0.05595637674618868,"57":0.1553235662796013,"58":-0.138561403345933,"59":0.21263756874260098,"60":0.046157866201647725,"61":-0.052559344536211604,"62":-0.06821742072055713,"63":-0.09912342750634359,"64":-0.0647456405068462,"65":0.047021945519474764,"66":-0.06086576930002783,"67":0.14724839276163107,"68":0.11378464522509746,"69":0.017594495719692956,"70":0.20546948295642367,"71":-0.08859926017052577,"72":-0.055105621828654514,"73":0.0751939711343985,"74":-0.03342723100395475,"75":-0.03759002493145716,"76":0.13258343685695054,"77":-0.028561868047519638,"78":0.2072865296304563,"79":-0.05825685951008068,"80":-0.03662468356742748,"81":0.13550586030249492,"82":-0.05654864252752784,"83":-0.05616770181889272,"84":-0.05277030252204165,"85":-0.07763298646055526,"86":-0.009925487520761184,"87":0.023190067519346973,"88":0.02574646012155551,"89":0.0690083760303208,"90":-0.15189077794224817,"91":0.19893694952883437,"92":0.08392675631072118,"93":0.027464396029014897,"94":-0.07935102247993181,"95":0.08430759173729342,"96":-0.1586817909909407,"97":-0.026631179840593395,"98":-0.1516503665525675,"99":0.30311370904552315,"100":-0.003796717796290451,"101":-0.10035804099778804,"102":-0.08429559828955697,"103":-0.028198140892660838,"104":-0.021618336528496672,"105":0.04189471789863387,"106":0.062186828024326506,"107":0.18021662182460083,"108":0.0030346226652250338,"109":-0.08732485693821203,"110":-0.0807886996379016,"111":-0.01466605629579188,"112":0.0006006698888823129,"113":0.06516110827654477,"114":-0.079570496901827,"115":0.052948825187774606,"116":-0.02567736493862644,"117":-0.07867120210195304,"118":0.07856952326515679,"119":0.09176103644236762,"120":0.04964927092384315,"121":0.008816207034369522,"122":-0.0731092797601876,"123":-0.18273802306468237,"124":0.1479098931217094,"125":-0.0616920439120741,"126":0.2242343299091141,"127":-0.0829490720706637,"128":-0.025340218226228485,"129":0.15868510571434594,"130":-0.03224604745013071,"131":-0.08944752873214964,"132":0.07056860959912091,"133":-0.07643510910524325,"134":0.27334376262349114,"135":-0.11861063590671,"136":0.016129462245667414,"137":0.07490598167434559,"138":0.04924093461526049,"139":-0.017787659302964977,"140":0.016091494907081248,"141":-0.1343722390072451,"142":0.1286415602991802,"143":0.04146433588152999,"144":0.0009394141509663576,"145":0.14993902950016255,"146":0.07738091046610977,"147":0.03816420280474354,"148":-0.09788225200695612,"149":-0.1088454989138604,"150":-0.0756906656291639,"151":-0.1297708435599527,"152":-0.024248717042405513,"153":-0.15251637851542588,"154":-0.05829218534026259,"155":-0.07778230976659826,"156":-0.03737981978908872,"157":0.009155877194397297,"158":0.014885514621151674,"159":-0.020450963743945418,"160":0.04876305341816691,"161":-0.010504808107093297,"162":-0.09118059345379555,"163":-0.011151602667678475,"164":0.1251985522830082,"165":-0.006060201213463139,"166":0.07758002413442314,"167":-0.09074205888539964,"168":-0.04550097325790613,"169":-0.0038818780650582895,"170":-0.156543482276309,"171":0.1677533267954473,"172":0.043240528940269765,"173":-0.17615418277428957,"174":0.03453491583921517,"175":0.07635612325146958,"176":0.0029044644186669412,"177":0.05609822677172296,"178":-0.07903105451259163,"179":0.24750528709070652,"180":-0.08238333156724714,"181":-0.0913054977647389,"182":0.10634923735107563,"183":-0.126100961754046,"184":0.02411585006280281,"185":0.017145958686522068,"186":-0.06816739475520268,"187":0.13886669746983998,"188":0.11581228587530938,"189":-0.05113329880759613,"190":-0.003739341464232645,"191":-0.04190742588921925,"192":0.1359732593906401,"193":0.057534152376658355,"194":-0.035029059062020855,"195":0.0358226848151162,"196":-0.052470078317807624,"197":-0.12837599777320777,"198":-0.02577769132464445,"199":0.0005555370571014425}},{"sx":5,"sy":5,"depth":8,"w":{"0":0.04628480266404258,"1":0.019320123489427,"2":-0.053819818032630716,"3":-0.15924427011523276,"4":-0.034122995679834886,"5":0.05882038335880827,"6":0.04585583759289751,"7":0.02309223891296498,"8":0.04546589448431388,"9":0.08130897006059973,"10":-0.12365663820977665,"11":-0.08595931862925987,"12":-0.031432251108614126,"13":-0.047840016428379165,"14":0.11686393802459015,"15":-0.1623330236001246,"16":0.006315102576666117,"17":-0.15225157328781685,"18":-0.1418796897294786,"19":-0.06907530375250562,"20":0.006183975982542502,"21":-0.08632992468617101,"22":0.06434103850870936,"23":0.024858285211049977,"24":-0.06241575772813017,"25":-0.204991246118631,"26":-0.0017741735902550917,"27":-0.11101263052196807,"28":-0.028131821953590073,"29":-0.19096259029736828,"30":0.09856961310938843,"31":-0.001764714763823887,"32":-0.03604409950479552,"33":-0.03706099150343819,"34":0.015684880739857687,"35":-0.2293500828647278,"36":-0.005427222568010404,"37":-0.11390877355158327,"38":0.06047147978166541,"39":0.019425131974834045,"40":0.12784346173789993,"41":0.16723148533043164,"42":-0.07004403283848072,"43":-0.12233836494835586,"44":-0.1122029879814795,"45":-0.08667763366489756,"46":0.0025860765902235923,"47":-0.014234437681859984,"48":0.13674288289318026,"49":0.020448997293984358,"50":-0.07045886799821213,"51":-0.03338280680859317,"52":0.04058970964938705,"53":0.022347635167835254,"54":-0.13835775010933518,"55":-0.11196358472131772,"56":0.05001340200918112,"57":-0.006132556636787853,"58":0.028880545214106056,"59":0.09473180979834388,"60":-0.018887805223308865,"61":-0.033828175740599806,"62":0.11632605619130834,"63":0.07077587913535448,"64":-0.05315124815385138,"65":0.033516540259632605,"66":0.005877136322137915,"67":0.02510048198877056,"68":0.1595662903158728,"69":0.0034936734172469003,"70":0.075608804765444,"71":-0.04059792356121663,"72":0.04985200512591608,"73":-0.03033205001178452,"74":-0.1130863930501158,"75":0.07349608238938751,"76":0.09342961928717734,"77":-0.16785084061595973,"78":0.11315604682989877,"79":-0.04570227054326115,"80":-0.009917416207806437,"81":-0.0398461356098311,"82":-0.15322901241277265,"83":0.029507301621214364,"84":0.05965383878944374,"85":-0.029985513500447147,"86":-0.023882978827067435,"87":-0.07628802472203733,"88":0.12553405078139623,"89":0.08747441972032052,"90":-0.20597284759306564,"91":-0.06057010863745532,"92":0.1627524132125073,"93":-0.05910455595539382,"94":0.07755368091858866,"95":-0.2454361596648126,"96":0.04473481484052277,"97":0.03428690046310161,"98":-0.14429648212047202,"99":0.08688319106435718,"100":-0.03600961322507472,"101":-0.10342570793821272,"102":0.082836036770318,"103":-0.02674627900701627,"104":0.18675769122932048,"105":-0.10756746500404939,"106":-0.15422825454688038,"107":0.18114913121549292,"108":-0.043801383505787266,"109":0.02237283857273823,"110":0.17402546408649786,"111":0.07496477573467425,"112":0.16522132743936466,"113":-0.04716923474845293,"114":-0.048701398768417774,"115":0.23711601416686215,"116":0.1336862546771342,"117":-0.12688279469433483,"118":0.03807317837457546,"119":0.16695778112584275,"120":0.018337921411453205,"121":-0.0590714850302704,"122":-0.030974022829756878,"123":0.08934665432157297,"124":0.2523938605363909,"125":0.034325173445577964,"126":0.17092025895814414,"127":-0.06651855124016494,"128":0.0383116182168528,"129":0.10423311563441554,"130":-0.14742982882885267,"131":0.2281337090573045,"132":0.08602716855533091,"133":-0.014176428374927632,"134":0.0810623136181792,"135":-0.03587902119475272,"136":-0.019767473606729542,"137":-0.023607794696934442,"138":-0.07072044187005509,"139":0.1540914174512229,"140":-0.1543295100818137,"141":0.013350199675037127,"142":0.028556288402988912,"143":-0.012867107092187809,"144":-0.13035768527621172,"145":0.18795423273318768,"146":-0.1111215476990458,"147":0.07496999842103158,"148":-0.017032657383751846,"149":-0.05551838691201644,"150":0.015182177297849795,"151":-0.031307876363084165,"152":-0.12289595605961151,"153":-0.05074714508176203,"154":-0.14087503775864263,"155":0.20490238675609326,"156":0.0001826064848259177,"157":0.08878745871627619,"158":-0.11322385167813458,"159":-0.055004580589714754,"160":-0.03231949763070883,"161":-0.014393495903707608,"162":-0.061224023573613624,"163":-0.027378778541647105,"164":-0.0626388836527998,"165":-0.030027581373810362,"166":-0.005163607355098915,"167":-0.03311751154186382,"168":0.10296235762413172,"169":0.06312492821945494,"170":0.0679601577876438,"171":-0.012663621324628137,"172":0.000833527270237063,"173":-0.027390344188737207,"174":-0.14392533206801678,"175":-0.08140825526349062,"176":-0.06116403951425831,"177":0.05765621879864585,"178":-0.03984074221382202,"179":0.07861915395099188,"180":0.07727295864151311,"181":0.10036088571849457,"182":-0.1144285728112045,"183":0.06994771909083243,"184":-0.11377718476961962,"185":-0.18548712914926963,"186":-0.0059533964056834926,"187":-0.12378559352877261,"188":0.05241551785382069,"189":0.07825857624000859,"190":-0.19013144101955975,"191":-0.07747803312551037,"192":-0.10039226128066085,"193":0.010913908113051735,"194":-0.0326507182242374,"195":-0.05943701357059249,"196":-0.0970843256745378,"197":-0.05768742823406186,"198":-0.07393781880390368,"199":-0.03226714181837343}},{"sx":5,"sy":5,"depth":8,"w":{"0":-0.03534177221933975,"1":0.061774849392734664,"2":-0.0284064061616581,"3":-0.03493925086938543,"4":0.015346066695174923,"5":-0.18735321810932634,"6":0.09056643725406371,"7":-0.03481605498790763,"8":-0.037472644258258296,"9":0.10490248951212165,"10":-0.03884356696944326,"11":0.15440575748399182,"12":0.11057562650628593,"13":-0.04919462360414132,"14":0.023063407582002038,"15":-0.04786569927185405,"16":0.10797795239656721,"17":-0.059873662163424775,"18":0.04492911107940039,"19":-0.026041379564894978,"20":0.027722550776985197,"21":0.0062675126655809665,"22":0.1798884294878284,"23":-0.040925564751825745,"24":0.043676530922389045,"25":-0.039746744255096896,"26":-0.015512157319815376,"27":0.09152176812558437,"28":0.11023469530734886,"29":-0.03337966212105128,"30":-0.06622118700450311,"31":-0.0757071526286476,"32":-0.03428648992615082,"33":-0.09680292334192028,"34":-0.1648533563554591,"35":0.010279301477438923,"36":-0.07010700957258084,"37":0.05127747151125514,"38":-0.011084340437567035,"39":0.015635277656433556,"40":-0.007967339170519727,"41":0.04047514941165113,"42":-0.08242463587425147,"43":0.09635088709231655,"44":-0.00814102755834038,"45":-0.10743319036388786,"46":0.0186101655549747,"47":0.15093439163751524,"48":0.18365651391413118,"49":0.06345680327543096,"50":0.19018286191788403,"51":0.09040239753249966,"52":0.12636198795926623,"53":-0.10304157960732727,"54":0.0456928872082928,"55":-0.0672728852364682,"56":0.07626145944940423,"57":-0.021185740987596836,"58":0.0325468124677248,"59":0.12139239877627027,"60":-0.05284823001657755,"61":-0.003124214466031186,"62":0.07556634704674207,"63":0.022769986361128838,"64":0.003868001195596983,"65":0.08550368199870136,"66":-0.05795092904404207,"67":0.019555277243470517,"68":0.05610888546107126,"69":-0.02169960485116811,"70":-0.20378630123184524,"71":-0.03719125887853004,"72":-0.024866406856354644,"73":-0.007644993962491533,"74":-0.03592551859736426,"75":-0.030657638418959774,"76":-0.055793675314546355,"77":0.050845903418544364,"78":-0.18741728443877445,"79":-0.025737363565036392,"80":-0.15427938798152627,"81":-0.17583301330957307,"82":0.04027606325887698,"83":-0.23262955153862902,"84":0.0025387462483512277,"85":0.0457116705027976,"86":0.012642688705286743,"87":0.103637028611687,"88":-0.011805130383715478,"89":-0.09901380503997714,"90":0.02054719483737513,"91":-0.06235317242438119,"92":-0.02031694715671119,"93":-0.006266531986747462,"94":0.032153253230578806,"95":-0.24645746790021847,"96":0.02558305105908067,"97":-0.10168949058881069,"98":-0.02906632787797741,"99":-0.04084502192964354,"100":-0.009198753768839963,"101":-0.199647361930384,"102":0.028245838097738916,"103":-0.15891164326570306,"104":-0.09084048703893252,"105":0.040137776189035496,"106":-0.0698319446963152,"107":-0.017573836804680228,"108":-0.005478234058026549,"109":0.018611940585074607,"110":-0.0829075762252038,"111":-0.09216199360565637,"112":-0.1745352641702112,"113":-0.05931279855641572,"114":-0.08009503575778308,"115":-0.06891012664691813,"116":-0.06263899612723964,"117":0.003967646008728979,"118":-0.19208481859089716,"119":-0.17991230837362693,"120":-0.014755622566299888,"121":-0.018967287347634056,"122":-0.006212346417323393,"123":-0.214755893367449,"124":-0.09698430631266537,"125":0.027146506894905286,"126":0.05675555525177391,"127":-0.033725729919687863,"128":0.1412348806195911,"129":-0.051574717207542156,"130":0.20438753680267868,"131":-0.043182645695668195,"132":0.011546186720754142,"133":-0.12611676918411305,"134":0.12436443160393933,"135":-0.12684343578359272,"136":0.11296699276904403,"137":-0.03232455166576027,"138":0.03589537210585811,"139":-0.0443748297054316,"140":0.04481828104039494,"141":-0.05874365979619292,"142":-0.09454005303376718,"143":0.14641021375339353,"144":-0.05825805359715009,"145":-0.09505165822340907,"146":-0.06403879055273062,"147":0.0004556129444105155,"148":-0.02562139106141221,"149":0.09038556225106624,"150":-0.06796521322091145,"151":-0.0720159935374174,"152":-0.1509003308343373,"153":-0.09586716588387145,"154":-0.04667491864318854,"155":-0.035653320812925174,"156":-0.10507125084590295,"157":0.10563582775678089,"158":-0.2284963628275954,"159":0.011290073460198766,"160":0.007279132606077684,"161":-0.0748329016136475,"162":-0.026934449703541564,"163":-0.005998433138826349,"164":-0.09843801640911423,"165":-0.0745398211901943,"166":0.04783864881785095,"167":-0.016963405240524615,"168":0.1879212394256211,"169":-0.07447556830636737,"170":0.0030714443217004926,"171":-0.1641749184911561,"172":-0.07689680767768052,"173":-0.03316438817483941,"174":0.07749164512000656,"175":0.14527439678236134,"176":-0.035488914925673735,"177":0.09618980747397107,"178":-0.10967876600636225,"179":-0.06993279262002046,"180":0.03741341388383078,"181":0.11165798741669772,"182":-0.0910686133766981,"183":0.09985207714951748,"184":-0.027028635113384786,"185":0.12427041022616732,"186":-0.00442866198435907,"187":-0.12624534211701835,"188":-0.08878204731547393,"189":0.09981569887707603,"190":0.01400729809755624,"191":-0.1287682821343172,"192":-0.04797490475411703,"193":0.0717585525619038,"194":-0.04147771499983562,"195":-0.11017716133787171,"196":0.06420412207859345,"197":0.123676837976143,"198":-0.16516092595653445,"199":0.014714241897659415}},{"sx":5,"sy":5,"depth":8,"w":{"0":-0.07099155271247302,"1":0.02449290752799783,"2":-0.09544558456764121,"3":-0.0018551670427710979,"4":0.13689555648623666,"5":0.05392975566867241,"6":0.15271064556294722,"7":-0.12015129989481962,"8":-0.08129868245853265,"9":-0.009625815007875248,"10":0.06052726804312447,"11":-0.07294165321616344,"12":-0.01692863776717816,"13":-0.04302866273724433,"14":-0.012216071970769585,"15":-0.12615626873840258,"16":-0.02756451902172948,"17":-0.08238819491555129,"18":0.15062856139529499,"19":-0.21866129519301905,"20":-0.15511225013731833,"21":-0.0703697478754233,"22":-0.10758595722254864,"23":-0.14877026290288345,"24":-0.04052875634856445,"25":-0.04790448641404679,"26":-0.03957143920900172,"27":0.09248170757197509,"28":0.10553276422102227,"29":0.02906889573485256,"30":-0.15477859682597697,"31":-0.12067365425341854,"32":-0.16784962461535619,"33":-0.08698262786510792,"34":-0.09411561669771039,"35":0.05055700185960611,"36":0.11233904028714982,"37":0.11725925864103483,"38":-0.11794796163708865,"39":-0.014569677417003955,"40":0.10019817959584358,"41":0.01812225286466532,"42":-0.10119385096251567,"43":0.3092819576778312,"44":0.08113112114909075,"45":-0.006449235815115313,"46":0.1000799069535208,"47":0.12885665257696174,"48":-0.06409395956927637,"49":-0.059573815261732437,"50":-0.13842704273222428,"51":0.22967605527884505,"52":0.17977599435801359,"53":-0.050425224579411905,"54":0.12385923749559392,"55":0.07757878319288644,"56":-0.025838258304457986,"57":-0.16434641338343745,"58":-0.09572633263386728,"59":-0.10152352785381034,"60":-0.007955428327054469,"61":-0.07590316258217104,"62":0.0056570298320856825,"63":0.0749772950687897,"64":-0.1012080125380355,"65":-0.09626304196771412,"66":0.01396679963112912,"67":-0.16610744329292818,"68":-0.028434504348768513,"69":-0.06231779731941363,"70":-0.17016378474643784,"71":-0.01560797287680049,"72":-0.07336590028762809,"73":-0.1162426673387188,"74":0.07412506975463497,"75":-0.10569324967392307,"76":0.05346858051021517,"77":0.053616173043159784,"78":-0.09036699012157677,"79":-0.04714144564608991,"80":0.11401230107606183,"81":0.0035958348112263734,"82":-0.012802530557577933,"83":0.10755199962212637,"84":0.005391367789111036,"85":-0.022568601580326333,"86":-0.06620488922961978,"87":0.2742321581574446,"88":-0.05012084851710417,"89":0.08930300846417569,"90":0.02137465665551096,"91":0.12014830041101748,"92":0.09212386028765651,"93":-0.11847635314086888,"94":0.049696886827282356,"95":0.14528768697657007,"96":0.02377987482619006,"97":0.04757825381960719,"98":0.018036577658576847,"99":-0.06272237092635642,"100":-0.01079631272140962,"101":-0.16232304014938315,"102":-0.04746683572231384,"103":0.07518989534642452,"104":0.1017649872940438,"105":0.1307772052119345,"106":-0.0799326513677104,"107":-0.12173561158167966,"108":0.09979949254959225,"109":-0.16695101166531984,"110":0.024925470820041158,"111":0.06956499327225622,"112":-0.1136925550377396,"113":0.06484794998370788,"114":-0.04612674228184345,"115":-0.04080738367538213,"116":0.06168592664598057,"117":-0.10258940356446918,"118":0.06433626595791912,"119":-0.10535334115268429,"120":-0.062539971959361,"121":0.2681651814747915,"122":-0.10124008582071263,"123":-0.12471567054947275,"124":0.015133228100274594,"125":-0.01981298118415856,"126":0.0012542029195375256,"127":-0.03431053075903745,"128":0.0988649214079756,"129":0.07323713088153153,"130":-0.11199818537391494,"131":-0.23146579923635158,"132":0.029119044421619715,"133":-0.07777660570748121,"134":0.08798991107828581,"135":-0.10805798897458146,"136":0.08726728080900259,"137":-0.05414187013396174,"138":-0.0816424405732074,"139":0.12133534171746026,"140":0.03789896480091583,"141":-0.09216646286527973,"142":0.07295718240878106,"143":0.021476600275724345,"144":0.0830343680297106,"145":0.0246760472045556,"146":0.0189084892177661,"147":0.08014145755251804,"148":-0.03572947135349205,"149":-0.046680034942437464,"150":0.07027130862025942,"151":0.028669910743236587,"152":0.013880844335027313,"153":0.017246397861786295,"154":-0.09571811275000053,"155":0.06431500217624705,"156":0.000770843616219697,"157":-0.08010973841821743,"158":0.11859357341614103,"159":-0.023026729010228404,"160":0.03543347918568156,"161":0.1529788968366571,"162":-0.012405965037663452,"163":-0.08544645172914044,"164":-0.027762524941250966,"165":-0.06976733220287504,"166":0.03204816410659057,"167":-0.12156208490855151,"168":-0.0517492493994918,"169":0.0870849775757208,"170":0.05452571435952168,"171":-0.07168157295354356,"172":-0.0895714869605416,"173":-0.1557557715097986,"174":0.005334627598265468,"175":-0.031402138081396955,"176":0.10292817574256896,"177":0.10477871661078388,"178":-0.04888694237835831,"179":-0.02276741010818268,"180":-0.12058231806848978,"181":-0.009856444200221689,"182":-0.019085231186265046,"183":-0.05588001630915615,"184":0.048813454923368256,"185":0.07646229122594791,"186":0.10920246413581844,"187":0.023580909339597188,"188":0.08015342266566713,"189":-0.0013922349659768478,"190":-0.14639037124322546,"191":0.0716686319778007,"192":-0.05441797416516243,"193":-0.04826470348060398,"194":0.0797290495367651,"195":0.011751467504583103,"196":0.03582644139958144,"197":-0.0903091629514759,"198":-0.10806616855755144,"199":-0.07183301673848398}},{"sx":5,"sy":5,"depth":8,"w":{"0":0.05274597291341862,"1":0.042192013632799334,"2":0.07336881298064511,"3":-0.08009388382953878,"4":-0.16293360300456616,"5":0.08018626222471738,"6":0.03975805079988151,"7":-0.03176724399339623,"8":0.010126180435695617,"9":-0.03654016076627999,"10":0.0013013695086720495,"11":0.030947783573080992,"12":0.03460859474812052,"13":-0.07883629623299067,"14":-0.07367790410013557,"15":-0.021807513767823087,"16":-0.0805751370622981,"17":-0.1902856634722917,"18":-0.016437583413800375,"19":-0.0381734892274414,"20":-0.011681540683251912,"21":-0.01687172436646389,"22":-0.054160626612341486,"23":-0.022006871815403287,"24":0.05074285699078986,"25":-0.09012507689032054,"26":0.06437848663309344,"27":-0.06690078429587058,"28":0.05028134497083896,"29":-0.0087084329833198,"30":-0.19328508587908388,"31":0.019294443269298918,"32":-0.05309232000534387,"33":-0.037402908285919315,"34":0.01876556049724353,"35":-0.14975395083423676,"36":-0.0766552407112209,"37":0.051561778739156294,"38":0.0915145187364506,"39":-0.08165143395063001,"40":0.03475839910946236,"41":-0.05381391351291337,"42":0.14544459213664554,"43":-0.04008881407289132,"44":-0.03724316383072063,"45":0.0842546373192592,"46":-0.0033006592715476373,"47":0.11357691455863676,"48":0.04149429475973064,"49":-0.014454244630749645,"50":-0.022365481396387263,"51":-0.05059788848312004,"52":-0.010239719305042746,"53":0.09015075984066377,"54":-0.0071058616432665075,"55":-0.06227557047959871,"56":-0.010092399543350884,"57":-0.002307334627200768,"58":0.020249720632908978,"59":-0.028912305319174804,"60":0.009524443044487999,"61":0.15339883039169952,"62":-0.07505889812405013,"63":0.016859976352892905,"64":-0.15042794062296014,"65":0.05247857845122947,"66":-0.04645828561347264,"67":-0.062265332324143816,"68":-0.15054964622144015,"69":-0.004451829754597347,"70":-0.12207356450439419,"71":0.0872561202142745,"72":-0.03313473065255561,"73":0.09723049272392256,"74":0.07641671606965335,"75":-0.1156006583685967,"76":-0.09811372924210998,"77":0.005724347761258204,"78":-0.0663270666631601,"79":-0.06038286103189669,"80":-0.007219041880131562,"81":-0.21290317898191025,"82":0.31902677873441243,"83":0.12811186448095305,"84":0.030807092235340408,"85":-0.01996600270236821,"86":-0.006259228194076028,"87":-0.028017273771076854,"88":0.11206134393705937,"89":-0.13964897677476043,"90":0.19792063257493211,"91":0.04221463164368582,"92":-0.050672424630516,"93":0.007899105350577817,"94":-0.11917858065877887,"95":-0.07710893259634045,"96":-0.040595986686048066,"97":0.08605623539242434,"98":-0.0040753086751984515,"99":-0.20047239134013314,"100":-0.07744072702381617,"101":-0.12493484852481952,"102":0.02163850951787585,"103":0.12753492410703623,"104":-0.06937410067353537,"105":0.05890251931547193,"106":0.07445150423297775,"107":-0.09906352756679283,"108":0.03489528070811831,"109":0.011160872853334544,"110":-0.05385436951988075,"111":0.02374365773500329,"112":0.14730234748394552,"113":0.0678379178002429,"114":0.07790740487752926,"115":-0.1093077466897437,"116":-0.04316392557758726,"117":-0.004868472254075383,"118":-0.0522949781673387,"119":-0.059135769286722255,"120":0.015530200221900018,"121":-0.12351171117765963,"122":0.15174407723647806,"123":-0.18032912233591508,"124":-0.018690791873865752,"125":-0.1324606828509578,"126":-0.09450217785499314,"127":-0.10441259981742175,"128":-0.04035328616239427,"129":-0.03582221616324849,"130":0.08420465107392057,"131":-0.12793786725579584,"132":0.02245562297277798,"133":-0.07560827789768745,"134":-0.08018770335556806,"135":0.08895459738083254,"136":-0.15159554929333022,"137":0.01596804923851976,"138":-0.019728943723649722,"139":0.10530078288736064,"140":-0.20392202921900354,"141":-0.19965978330667017,"142":-0.14668480638384698,"143":0.1684259140443125,"144":0.21178194430819228,"145":0.06369062375189631,"146":0.03513533778840365,"147":-0.17054196554386455,"148":-0.2192680238533531,"149":-0.16814928334751966,"150":-0.01451813374947496,"151":-0.039919885407038454,"152":0.0034392873639829975,"153":-0.06440004366834333,"154":0.12532224635132824,"155":0.008293284571056776,"156":-0.05135923692349341,"157":-0.16302090491377327,"158":0.1784051309696708,"159":-0.02297588925969559,"160":0.05577578476098314,"161":-0.018151358871921385,"162":0.12730236089195485,"163":-0.14836114083609028,"164":-0.1305040044047401,"165":0.060567738156623904,"166":-0.07701120254690139,"167":-0.057181947016387846,"168":-0.1605242738232206,"169":0.027073540730439636,"170":0.01924949456062823,"171":-0.05133250793967017,"172":0.12152349054015761,"173":-0.06150751472759905,"174":-0.1150267293323822,"175":0.1396911279190994,"176":-0.11684728335526329,"177":-0.03877604910133235,"178":-0.04125925014312518,"179":0.006316111338692889,"180":-0.15485589292398072,"181":-0.1134386725443999,"182":-0.0070417459305426805,"183":0.1852331296761872,"184":0.1362573629801629,"185":-0.01821419363689289,"186":0.09113940939190585,"187":-0.102779530485378,"188":-0.0814465415840775,"189":-0.023191395973310307,"190":0.014644855541458824,"191":0.0388313856588538,"192":0.028251941936691255,"193":-0.1040605344005804,"194":0.11995816607450596,"195":-0.11645592477174206,"196":-0.023361635136520547,"197":0.10630716093420373,"198":-0.04965622228913089,"199":-0.11120014203016004}},{"sx":5,"sy":5,"depth":8,"w":{"0":-0.15054086861655458,"1":-0.057529528553271425,"2":-0.037852785468835484,"3":0.09130722686932653,"4":0.038967582867666786,"5":0.08403807872951861,"6":-0.10443411943977228,"7":-0.08549746889372449,"8":-0.11064503508359563,"9":-0.07867846762516256,"10":-0.03452090526018687,"11":0.005012202111923015,"12":-0.05007102272867224,"13":0.17988627314028321,"14":-0.1519800809513003,"15":-0.10952460529291988,"16":-0.07755808190875972,"17":0.07488068857574263,"18":0.04405024646602333,"19":0.09875728641821639,"20":-0.04447942108125524,"21":0.12078172348800392,"22":-0.09668370488645282,"23":-0.05615683780897224,"24":-0.006800733305722987,"25":-0.03421597884732125,"26":-0.09389587828570257,"27":-0.05531771820979267,"28":-0.04523967070752988,"29":0.11369116814589662,"30":0.04147675129918837,"31":0.1509951707854591,"32":0.09922803380710163,"33":0.012148891012898094,"34":0.09287169576401602,"35":-0.11555332073149638,"36":0.012134309065936407,"37":0.011912766608126337,"38":0.03093773197309306,"39":0.055914173035646116,"40":0.023760649897533334,"41":-0.12213983530134016,"42":-0.07340656414943125,"43":-0.06261041678149434,"44":-0.031910184580088014,"45":0.0357901875369465,"46":-0.015492382836337644,"47":-0.3064379753931985,"48":-0.09326741054767672,"49":0.10280245863821107,"50":-0.05400641235592221,"51":-0.033600945832929184,"52":-0.10195524803369846,"53":-0.09213950774673946,"54":-0.02388937936525809,"55":0.16976746518784316,"56":-0.10526104614972921,"57":0.1001519047302674,"58":-0.1539312610694073,"59":-0.17940527572566253,"60":-0.03775630045193793,"61":-0.07838000109878579,"62":0.00007165829050131923,"63":0.11902323857423695,"64":0.1385645436041307,"65":0.08518148857891733,"66":-0.05736459726338968,"67":-0.11920206485044058,"68":0.0055998452089973585,"69":-0.019399099021409016,"70":0.16924979804929452,"71":0.1909653079244279,"72":0.2314321940692609,"73":0.04617794592057783,"74":0.21593496784368613,"75":-0.18688207260920128,"76":0.040512153354132795,"77":-0.09650260936673813,"78":0.08619600735667231,"79":-0.05033809742134197,"80":-0.021855468323220866,"81":-0.0538517040370031,"82":-0.047495589732216265,"83":0.002449519778239606,"84":0.02065942745658511,"85":-0.060621114857178623,"86":-0.056355133095020805,"87":0.13273482672402787,"88":0.041781197009932734,"89":0.08693081480348601,"90":-0.0002746668563984381,"91":-0.05683086100076678,"92":-0.024659165090667977,"93":-0.05003584308707037,"94":-0.07047616988520009,"95":0.14707707202963569,"96":-0.02419288547535008,"97":-0.023100935946509013,"98":0.08186061240429711,"99":-0.0685573224117197,"100":0.03611377756747242,"101":-0.0379375486955633,"102":-0.0007089977202232476,"103":0.08988463572175594,"104":0.10036288145563034,"105":0.005539311574764592,"106":0.010663199604963765,"107":-0.15355261413807744,"108":-0.07370664923045345,"109":-0.028312593864980872,"110":0.02868033326200973,"111":-0.2081293168739192,"112":0.12128507662754118,"113":-0.06080028101597812,"114":0.10215355553955856,"115":-0.06640003592177605,"116":0.08985820699644909,"117":-0.03307139533451259,"118":0.06078003499823065,"119":0.016902387052462383,"120":-0.08139941315734993,"121":-0.010893036287057997,"122":-0.050469963839904285,"123":0.08911235079564526,"124":-0.08057794907106104,"125":0.02330479154821253,"126":-0.08543734419645573,"127":0.014205778073120335,"128":0.038761773296115465,"129":-0.06316254201496116,"130":-0.08810313582271574,"131":-0.08161876618004041,"132":0.012145473403086644,"133":-0.13720627953768194,"134":-0.08824884358021491,"135":0.028752932246635103,"136":0.0954414935519596,"137":-0.004966638163432872,"138":-0.010468945993434045,"139":-0.2383197896102624,"140":0.04772596830681894,"141":-0.11675338837865222,"142":0.034714872074311814,"143":0.03591242815703132,"144":0.101094464373279,"145":-0.15315334487536436,"146":0.06631708707942106,"147":-0.14387300436280775,"148":-0.045060955970370166,"149":-0.008619680040825485,"150":-0.012271546997491431,"151":-0.1336132644521672,"152":-0.02436052702730813,"153":0.1176590999679281,"154":-0.032461759849612526,"155":-0.06653049916507293,"156":-0.01871579131858074,"157":-0.05694022330407607,"158":-0.03697221360067709,"159":-0.01885026343539631,"160":-0.08283762290256556,"161":0.12933166050656533,"162":-0.03490966289761942,"163":-0.08599514277578241,"164":0.014270697426508565,"165":0.1251924939098644,"166":-0.2075746341233707,"167":0.033713561854669505,"168":0.12278340219419664,"169":-0.0349958623977069,"170":-0.019740669577069717,"171":-0.04023902792202378,"172":-0.10337976255127213,"173":-0.042666623711016885,"174":0.0744659909380002,"175":0.12329235473854176,"176":0.16423699983734716,"177":-0.020208847694387185,"178":0.02000561245618092,"179":-0.08018419645109595,"180":-0.06647557628272505,"181":-0.07631885281692269,"182":-0.002921007500067365,"183":-0.0890205399395411,"184":0.03797852376150361,"185":0.03856951403060467,"186":0.05577522844480892,"187":-0.16440666204380108,"188":0.04577924565127797,"189":-0.13755086018873985,"190":0.016417561583827275,"191":-0.07138366235925594,"192":-0.12714166365736929,"193":0.0793921992870322,"194":-0.16084871329013398,"195":-0.009600846071922556,"196":-0.07287028568739326,"197":-0.026751628416478785,"198":-0.14987558966052825,"199":0.07915807884079702}},{"sx":5,"sy":5,"depth":8,"w":{"0":0.06940828423526885,"1":0.09876068226169053,"2":0.0006306038388690418,"3":0.04750090944663653,"4":0.09578295482030413,"5":0.012191264979235812,"6":0.20951873755437503,"7":-0.07061695271151225,"8":0.09556186878101385,"9":0.018897023355233696,"10":0.06099390347673405,"11":0.15736477569419427,"12":-0.03911052782030718,"13":0.07818850088260826,"14":0.09022754869458868,"15":-0.0313908051051216,"16":0.10313880251570505,"17":-0.004749470275314763,"18":0.023279663558033292,"19":0.18202159284424851,"20":0.0017725628013242505,"21":0.14872227479779096,"22":-0.12529964764992535,"23":0.007614754034679848,"24":0.009792231838501432,"25":0.024185808135357097,"26":-0.013840520782972656,"27":0.0519487828010223,"28":-0.1661407076177597,"29":0.1400815548993116,"30":-0.10898066571409848,"31":-0.09686146521915999,"32":-0.16844605360040385,"33":-0.033629162358833724,"34":-0.11157467892284201,"35":-0.11203895870396981,"36":-0.10132357468543535,"37":-0.13950447730932788,"38":0.003605024921011746,"39":0.20806664243496845,"40":0.14058795997299178,"41":0.00678681052526942,"42":0.04308671924296664,"43":0.20119118457475918,"44":-0.08195949635608038,"45":0.11142437858131675,"46":0.024283121284607245,"47":0.09195595127287991,"48":-0.0826317927936352,"49":0.09912774628311306,"50":-0.03237655835981207,"51":0.1508318460398698,"52":-0.1379224950238763,"53":-0.000012616123753623684,"54":0.025479394090266245,"55":0.0646107850848047,"56":0.10712453183866633,"57":0.2361453904136082,"58":-0.011072613390440003,"59":-0.030013985606209347,"60":0.09965726219480295,"61":0.051522291415577307,"62":-0.041493738063471036,"63":0.0016598903315623165,"64":-0.1279508830602744,"65":0.049268481071077064,"66":0.09603265517480385,"67":-0.011879345046385643,"68":-0.07016078288525274,"69":0.06787847276740484,"70":-0.00757542377835344,"71":0.13977382585588566,"72":-0.01010197437139505,"73":0.008445476571249635,"74":0.0700031534272929,"75":-0.10600157146711874,"76":-0.06794567482073238,"77":-0.056178263096957594,"78":-0.028588196164283868,"79":-0.016097115743890646,"80":-0.09273722726297419,"81":0.06095540644676078,"82":0.02044337666690845,"83":0.027673480755929056,"84":0.028300822828218185,"85":0.01592668932193302,"86":0.00024453206666662794,"87":-0.13471400880537399,"88":0.043273299077703754,"89":-0.06166750691337333,"90":0.00048051838516265186,"91":-0.055001288310638136,"92":-0.04884287738813867,"93":0.1653582814275159,"94":-0.016858785050797086,"95":-0.0596189207254688,"96":-0.17361923230646586,"97":0.0264679830877764,"98":-0.11178318158502348,"99":-0.0695138750402291,"100":-0.17172240773435316,"101":0.1124771244440984,"102":-0.18841716107086026,"103":-0.059777166248252724,"104":-0.10415410323420565,"105":0.08600231843387933,"106":-0.17444944518497166,"107":-0.13561555803745123,"108":-0.0947047901117103,"109":-0.05642741016390962,"110":-0.018910146439027886,"111":0.12005657277303484,"112":0.15689265268798405,"113":-0.019252691102810263,"114":-0.016799881857123566,"115":-0.31358361976273524,"116":-0.0983669612964469,"117":-0.12320735858473972,"118":-0.0745207156789327,"119":-0.13833405345444488,"120":-0.14791494345135844,"121":0.09262365516094559,"122":0.13997264819487873,"123":0.10174995422346612,"124":-0.03307960589360714,"125":0.09662092125637582,"126":-0.07106196851946105,"127":-0.0821301204232919,"128":0.0024782707399789196,"129":-0.024424918161530768,"130":-0.004177627646960126,"131":-0.12225918781042723,"132":-0.10732108990533457,"133":0.05064674690936198,"134":-0.1805339656533704,"135":0.09288556584922075,"136":-0.12150754804679252,"137":0.009367898705761948,"138":0.008728837307195758,"139":-0.227049160460646,"140":-0.09476213058375252,"141":0.0959592451629467,"142":-0.11542670815232481,"143":0.0690507495168982,"144":-0.03983092787974628,"145":0.0613661811935455,"146":-0.04028621268374346,"147":-0.22271978570715442,"148":0.015126905295361209,"149":0.023070638554332796,"150":-0.016878296299843193,"151":0.22361930997690838,"152":0.1833922000845776,"153":0.0620551292447918,"154":0.032808425012122444,"155":-0.12418163959125844,"156":-0.1755572713047864,"157":-0.14395881844283842,"158":-0.0626897998767263,"159":0.06624135346491188,"160":-0.055158312096629296,"161":0.020474782680504483,"162":0.0894102899187013,"163":0.07362965983352195,"164":-0.1482038607475084,"165":0.0501993262297704,"166":-0.05144917544354155,"167":-0.12512769116662562,"168":-0.12149022660331071,"169":-0.06558669428943643,"170":0.08598683695136104,"171":-0.08457353958740524,"172":-0.06396466743229617,"173":0.11775128984129683,"174":-0.1935775051560986,"175":0.020062374647128216,"176":-0.032429463543427406,"177":0.04332554517218718,"178":0.009282965258848601,"179":-0.1585590634971133,"180":-0.04654142978973791,"181":-0.07616532999458533,"182":-0.1769812280573256,"183":0.12454751761809585,"184":-0.02646059316653249,"185":-0.027265437763781097,"186":0.16905478443546437,"187":-0.01788929029060104,"188":-0.35982443058490676,"189":-0.036108302663532654,"190":-0.014899619051539876,"191":0.10722863983018344,"192":0.22392808349552148,"193":-0.0848824091635562,"194":0.12433262605360479,"195":-0.22006642180251754,"196":-0.06524852077428432,"197":0.07662790709712099,"198":0.008036120764448849,"199":0.00003315703972455418}},{"sx":5,"sy":5,"depth":8,"w":{"0":-0.2132436321667034,"1":-0.07111640663203932,"2":-0.16208103136744229,"3":-0.06812368847008403,"4":-0.006179575382753854,"5":0.0013352341467126284,"6":-0.12403626858810131,"7":-0.01899405064247952,"8":-0.14129416470441458,"9":0.17423159919876186,"10":-0.0942782342349384,"11":-0.1357493704531631,"12":-0.10059153351291508,"13":0.05209734403000047,"14":0.058005840317090974,"15":0.14415142226935188,"16":-0.0020756254190378697,"17":-0.1481772326177501,"18":-0.05731055000342471,"19":-0.11891526688771374,"20":-0.1629190224886743,"21":-0.015136848141768088,"22":0.006194077390859606,"23":0.04252894717520496,"24":0.0640859606671185,"25":-0.09604194080333155,"26":0.07559668677165375,"27":-0.08340852675485294,"28":-0.11161469861048232,"29":0.15498318599370134,"30":0.021893099504133064,"31":-0.04702881709833616,"32":-0.034134573490695666,"33":-0.058475465656867315,"34":0.03918733699821773,"35":-0.07097457704505616,"36":-0.041712221111586845,"37":0.05674499156394888,"38":0.05198988532049926,"39":-0.10740168908775914,"40":-0.1149359691071616,"41":-0.02849913553763278,"42":0.02375206567637729,"43":0.009440976179676581,"44":-0.10447723257610105,"45":0.05584332794983513,"46":-0.20904650276998726,"47":0.059968838934610934,"48":-0.16597306747144958,"49":0.03673018771814167,"50":-0.06430491168525491,"51":-0.04564912918071069,"52":-0.005605942805357951,"53":0.04567698822632563,"54":-0.010117407275582559,"55":0.17134534099874862,"56":0.06075186587136303,"57":0.05925598558078013,"58":-0.0031014814828819997,"59":0.001973016589553917,"60":-0.048266622326689414,"61":-0.06903566517196809,"62":-0.01822890759299004,"63":-0.07855155368757291,"64":-0.001372616726291541,"65":-0.07785686584723804,"66":-0.05758955872625697,"67":-0.007675557018078437,"68":-0.0316103228669187,"69":0.19258321869230816,"70":-0.012712566691262498,"71":-0.1508238276361605,"72":0.07873823721920907,"73":-0.042362706268311276,"74":0.0104456366670879,"75":-0.014778196252692154,"76":0.08875637122619558,"77":-0.02365379589611868,"78":-0.1931054663207952,"79":-0.21747412367509533,"80":0.0038384883180300235,"81":-0.04234826365942624,"82":0.06860728439815877,"83":-0.0918005143333073,"84":-0.05469763631127298,"85":0.00006315298810836154,"86":-0.08702493093061611,"87":0.017093885996299595,"88":-0.016577365101477285,"89":-0.0023664045911881365,"90":0.13121155212978194,"91":-0.06863129716345662,"92":-0.03526039370311178,"93":-0.024146361332761133,"94":0.03320383437987209,"95":-0.040854760965993595,"96":0.14357386350349305,"97":-0.11286970635078336,"98":0.00102912964695045,"99":0.023178375286316593,"100":-0.15932660806310048,"101":0.009372627137474766,"102":-0.02973221669063042,"103":-0.0338979658391582,"104":-0.05490765462996313,"105":-0.024738959295035945,"106":0.05909412560768846,"107":-0.10673479198892634,"108":-0.03471735591983914,"109":-0.07261594310653881,"110":-0.13138874121828267,"111":-0.055705432155079934,"112":-0.07644582816638451,"113":0.0008534307894803063,"114":0.08505086282181994,"115":0.0029578253198729674,"116":-0.07548413455967848,"117":0.04905205626623371,"118":-0.15007040089841006,"119":0.09744660649701767,"120":-0.16147127423387997,"121":0.1319942083495664,"122":0.05029451514870481,"123":-0.0934188925216994,"124":0.05508141410472562,"125":-0.04577863772585788,"126":0.0775696351734823,"127":-0.03136185967077978,"128":0.09487062466554562,"129":-0.035123611332958396,"130":0.031120246599165628,"131":0.04361899941292965,"132":-0.03206579546406313,"133":-0.17613631136397212,"134":-0.01506853770871069,"135":0.09721852215230067,"136":0.1669584607362774,"137":-0.07680238246824077,"138":0.1704946162039953,"139":-0.011877631534573661,"140":0.1592461569266488,"141":-0.01970222988519949,"142":0.08007159243846614,"143":-0.031387538825580104,"144":0.0004646054595640408,"145":-0.03248344224429645,"146":0.06893441493142527,"147":0.009959605171076618,"148":-0.049774448447443435,"149":-0.05500071538924329,"150":-0.13244539342093256,"151":-0.009145694856974057,"152":-0.048298563759333224,"153":0.0015072552650693576,"154":0.09514289499327401,"155":-0.15024514266607597,"156":0.010508285142755312,"157":-0.10010229376270438,"158":-0.03563901271225836,"159":-0.0859495498310361,"160":-0.07013395571581056,"161":-0.09484800442243958,"162":-0.03467850164662097,"163":-0.09161210117898325,"164":-0.06019568592230201,"165":0.002992290021094596,"166":0.012455362926513277,"167":0.18957452552975076,"168":-0.03999496268745506,"169":-0.03365350458708423,"170":0.16536721455368253,"171":-0.08863508629312261,"172":-0.045138508213571064,"173":-0.018327195120449304,"174":-0.023249435485273823,"175":0.0184841393019383,"176":0.08405569954105901,"177":-0.07464938330849608,"178":0.2409859293041387,"179":-0.14987209554564745,"180":-0.05725803078915635,"181":-0.05953094784273877,"182":0.044657758412530064,"183":-0.18170404675300605,"184":0.03671953288191695,"185":0.10224212675248961,"186":-0.06187956849144671,"187":0.005711792936548567,"188":0.21984330264044247,"189":0.1348892080657156,"190":-0.05423731175598831,"191":-0.06455691776308736,"192":0.03936027597419794,"193":-0.05540186889969683,"194":-0.140030599140183,"195":-0.10555854008207398,"196":0.05401069139703195,"197":-0.04541106431098014,"198":0.04678879327936469,"199":0.04471575976721452}},{"sx":5,"sy":5,"depth":8,"w":{"0":-0.10911184003257778,"1":0.05249018075537165,"2":0.10537213772538143,"3":0.04852350059696611,"4":0.12766504500048276,"5":-0.02119412421724651,"6":-0.02520687443446895,"7":0.03877356410827413,"8":-0.02829476205929458,"9":-0.05867438555752311,"10":-0.19600168778220703,"11":-0.04868738305867938,"12":-0.08489100858373146,"13":0.003086144799316781,"14":-0.08187862047783047,"15":0.09667986388874417,"16":0.0717062504717246,"17":0.09321867729272353,"18":-0.11046521910745642,"19":-0.13294826653042988,"20":-0.03144947119978896,"21":-0.07098306093618906,"22":0.05347006974374726,"23":0.09372893497529758,"24":0.0893005731113894,"25":-0.12882058776192484,"26":-0.08218272673333471,"27":-0.07162736414429496,"28":-0.007206674057284271,"29":0.02831816274653587,"30":0.06628225031698944,"31":0.005760978915535252,"32":0.06717641570856037,"33":-0.07544245490630708,"34":-0.05452524157547914,"35":0.01868177391048704,"36":0.018206765060469872,"37":-0.14332522875295323,"38":0.08778958973696506,"39":-0.020114512846167904,"40":-0.1406342388502387,"41":0.11412163173436618,"42":0.027044473664345304,"43":-0.020985731282415328,"44":0.05903399809355663,"45":0.07636526144139853,"46":-0.06715259466588289,"47":0.010605478003527864,"48":0.060939253801139646,"49":0.09720378549253508,"50":-0.10232296296440305,"51":-0.11915272733955297,"52":0.05412272226336721,"53":-0.028016857139198742,"54":0.03778889840344037,"55":-0.07895431890221555,"56":-0.0294796872751686,"57":-0.06432906666608863,"58":-0.06761739470742077,"59":0.0708900697394762,"60":0.014664399079054997,"61":-0.1086307393042803,"62":0.015956512103591787,"63":0.045899225358008194,"64":-0.009663482511629285,"65":-0.10802361092674076,"66":-0.008148340297200107,"67":0.0282375961652314,"68":0.1753505243562244,"69":0.056387003821553976,"70":-0.019593174052170363,"71":0.06157211218505574,"72":-0.029739892190889457,"73":0.07278786083792017,"74":-0.11055254184739939,"75":-0.11202750345364086,"76":-0.05251237029907338,"77":-0.050513667570642455,"78":0.02999957471694198,"79":-0.10346646422009773,"80":0.07393605587543683,"81":0.013016957222616856,"82":-0.11320492666402816,"83":-0.08216095191290818,"84":-0.1306301815838457,"85":0.055660346213556276,"86":-0.053107427448428085,"87":-0.040681828924901034,"88":0.05731756391121465,"89":0.03169019302125816,"90":0.0563425528643849,"91":-0.15070972754362552,"92":-0.02914360819200617,"93":0.07267349913557859,"94":0.005599734330706586,"95":-0.023193599075390797,"96":-0.08985044644783485,"97":-0.10391775971414825,"98":-0.07542403630990135,"99":0.08993846484491326,"100":-0.12307814411596392,"101":-0.09290855599795922,"102":-0.06589488780777307,"103":0.01622609659107809,"104":0.07227925789577974,"105":-0.09660782849770558,"106":-0.22744986981316023,"107":-0.0317802796222541,"108":0.1266063691036034,"109":-0.029931392108514615,"110":-0.004397531980019916,"111":-0.01872609133652517,"112":-0.06705843203727772,"113":0.04047500912963268,"114":-0.12418762520915609,"115":0.12755708072863342,"116":0.06600043585832721,"117":-0.19531577015598223,"118":0.14033690681463307,"119":-0.10055323232360787,"120":0.09035091169895103,"121":0.01739756971807729,"122":-0.05729139095659892,"123":-0.1475351550589935,"124":-0.0014272465261229502,"125":-0.0627690979204199,"126":-0.05556730130886335,"127":-0.017775389888086822,"128":0.10027228244727347,"129":0.04100690788582736,"130":0.11670886065552998,"131":-0.10938249432428365,"132":-0.009003438523740612,"133":-0.0852467013159744,"134":0.10942033753591554,"135":-0.17739610237420864,"136":0.06775093560641103,"137":-0.21138810105117709,"138":0.07202328344378181,"139":-0.00955513099165459,"140":0.0376609149574472,"141":0.04471194653124088,"142":-0.04306607548490412,"143":0.11027930132801572,"144":0.04573548434169398,"145":0.027683010648092525,"146":-0.13579707429846885,"147":0.01606637600636751,"148":0.017353229715621466,"149":0.018003204043021005,"150":-0.28129572353109694,"151":0.025871325183741006,"152":-0.024584196763300495,"153":-0.0791461466613852,"154":-0.10762018552772501,"155":0.21051180158767158,"156":-0.08037843920604461,"157":-0.11778644727084361,"158":0.09578481738663598,"159":0.10547096081674831,"160":0.07168826997720874,"161":0.010448887342897253,"162":0.1043778055352267,"163":-0.11811213861417766,"164":-0.01728476621700821,"165":0.012863200020330784,"166":0.00674237259665606,"167":-0.09485202646505125,"168":0.09098530061179483,"169":-0.030200206684972523,"170":0.09285704221132005,"171":-0.03175791421432524,"172":0.043090355235978234,"173":0.10578876689058998,"174":-0.02626768064681027,"175":-0.08029620472502216,"176":-0.0018915242571288064,"177":0.04999504128144657,"178":0.017828293394373612,"179":-0.1684258380204895,"180":0.013600573895133918,"181":-0.0015719344972103914,"182":-0.035628722350689035,"183":-0.04052971640274675,"184":-0.13061811707211465,"185":0.051617351115291414,"186":0.09566312085845433,"187":-0.022898487936384788,"188":0.05799665914549787,"189":-0.04544274088533953,"190":-0.16857340512373417,"191":-0.050193499126088115,"192":-0.010470826398375013,"193":-0.021011786960684443,"194":0.07760460772089893,"195":-0.05883720442041529,"196":-0.08811527886174747,"197":-0.03249027169927954,"198":-0.06547178755186418,"199":-0.127907751890139}},{"sx":5,"sy":5,"depth":8,"w":{"0":-0.021832159853623804,"1":-0.05328527315457914,"2":-0.04534853062293173,"3":-0.008475485827192819,"4":0.03405613887082285,"5":-0.002155217476375297,"6":0.045106725719433464,"7":0.02633006475118333,"8":-0.1237193953879203,"9":0.11957253023187767,"10":0.0318654363112882,"11":-0.11189938967165275,"12":-0.05847880405394885,"13":-0.05588289154561423,"14":0.09871316900588163,"15":0.006698228714424225,"16":-0.011417689465127778,"17":0.11321295593091213,"18":-0.06966260706591539,"19":-0.1510153990902977,"20":-0.07152834590109229,"21":-0.01270273372846383,"22":0.0032887325962726597,"23":-0.04659084652817579,"24":0.0035608471316488036,"25":0.10933989935495143,"26":-0.14407080978314352,"27":-0.17598728646427572,"28":-0.08643183589546315,"29":-0.033401074185571526,"30":-0.052860069473295766,"31":-0.08503773828973166,"32":0.029274827952778422,"33":0.13348796153900383,"34":-0.07232368649521179,"35":-0.09151689997130957,"36":-0.04163758977211042,"37":-0.02484824733120153,"38":0.06765030696371664,"39":0.01535725953351557,"40":0.0334019640617051,"41":0.05903895670066644,"42":0.11056036252807373,"43":0.029362683367531395,"44":0.06600463072322628,"45":-0.025787035253095777,"46":0.0986601818204871,"47":0.04994072193493037,"48":-0.059067768182121824,"49":-0.0029628784472924756,"50":-0.02793882770077731,"51":-0.07115589902436105,"52":0.12812696948730415,"53":0.05364727384946691,"54":0.08670887631435067,"55":-0.15083546856615207,"56":0.08458411072183455,"57":0.04910002194977091,"58":-0.0007425942542430993,"59":0.059198592535025595,"60":0.12432780617187161,"61":-0.11971171182374807,"62":0.01406708514901034,"63":-0.06579952554114125,"64":0.022340651813431752,"65":0.05144888336719334,"66":-0.010680884868461488,"67":0.024662125247632467,"68":-0.08869624531850795,"69":-0.039598740900802405,"70":0.12512217585937602,"71":-0.02158268704659763,"72":0.05937591134774804,"73":0.11407705107192649,"74":-0.054167095249221114,"75":0.04742484231006554,"76":0.03172703907594174,"77":-0.057119262350183025,"78":0.008481501248760487,"79":-0.041191121317590014,"80":0.008620914826065739,"81":-0.0673352116921355,"82":-0.09434953773479068,"83":-0.06203803012934633,"84":0.20389412295575177,"85":-0.1490698600942939,"86":-0.01675661864143768,"87":0.050830667049757604,"88":-0.044057931583018864,"89":0.02557108501252712,"90":-0.029088561452505657,"91":0.14026468117702579,"92":0.07140717635739868,"93":-0.204623373576948,"94":-0.22267413879146356,"95":0.1019497651420409,"96":-0.015547663203303554,"97":-0.026822604166941107,"98":-0.08709501973016119,"99":0.17273524218579356,"100":0.16072543021554772,"101":-0.06368871560008306,"102":0.07780514610128196,"103":-0.1014839707644237,"104":0.21625409153817002,"105":0.09904148515828232,"106":0.05090072090584887,"107":-0.07120559460261423,"108":-0.10154634500024273,"109":0.021452909522692548,"110":0.05716142749940956,"111":-0.09682283035208143,"112":0.021744432372218084,"113":-0.0358707278479969,"114":-0.03491973682828584,"115":0.005343327460134844,"116":0.04968031002566092,"117":0.10007253064157891,"118":-0.06528467990629234,"119":-0.1156137457131172,"120":0.017272686959516326,"121":-0.05667158592419013,"122":-0.015617578396994682,"123":-0.04059188283088274,"124":0.033006602108193665,"125":0.045999196526293695,"126":0.034670397749524684,"127":0.007652177938383607,"128":0.01990988577237683,"129":0.06626080714373206,"130":-0.07630163345616023,"131":-0.019370047858844355,"132":-0.06039912881039379,"133":0.009532202067264038,"134":-0.06282056358035723,"135":0.13508957336427374,"136":-0.1592287445900144,"137":0.04576758782646169,"138":0.1363702228005393,"139":-0.035975234283270305,"140":0.05343726310004473,"141":0.08434864184978938,"142":-0.08258455185543433,"143":-0.014930626714993853,"144":-0.050350975834952794,"145":-0.021779544695146865,"146":-0.14463854237421242,"147":-0.08084756748996852,"148":0.014757777893680716,"149":0.16835409943722232,"150":-0.24719411355598625,"151":-0.07303452730292627,"152":-0.07260826667663248,"153":0.050653277542174725,"154":-0.14612033931476626,"155":0.051810790888059975,"156":0.10757734275902851,"157":0.07749294034101262,"158":0.06569999243239116,"159":-0.10965109319739691,"160":0.008024303721608322,"161":0.03631670134873813,"162":-0.017696333413440606,"163":-0.03807518673187991,"164":0.016745632835707642,"165":-0.020363685620126616,"166":0.04144511509301459,"167":-0.0052959505052231565,"168":-0.024929628171757902,"169":-0.008529995903891283,"170":0.06682289938455237,"171":0.008893711117332882,"172":0.07027268109506243,"173":0.023822473208321197,"174":-0.12546243960783068,"175":0.16834844645366037,"176":0.11126189041399373,"177":0.02235881659132175,"178":-0.10701566900136987,"179":-0.09305956403300736,"180":-0.05339837254970386,"181":0.08267661692342894,"182":-0.07907590678788941,"183":-0.061614821084753704,"184":0.005251461546585324,"185":0.05716800729400765,"186":-0.07485266390609999,"187":-0.1697111263633498,"188":0.05458493707148053,"189":0.01187899114055221,"190":0.0004449205603486669,"191":-0.0012379682454184923,"192":0.11760423536573247,"193":0.012492720067770413,"194":-0.06941465819302343,"195":-0.11043219766694905,"196":-0.056678596761329844,"197":-0.032661822139479976,"198":0.06086122325661633,"199":-0.027446326789472317}},{"sx":5,"sy":5,"depth":8,"w":{"0":-0.030704785457403305,"1":0.04188791511905504,"2":0.007686752716387767,"3":0.01266107939311575,"4":0.16265031742810526,"5":0.09038685945360034,"6":-0.19129066649743456,"7":0.0745744343461356,"8":-0.08015470623934379,"9":-0.0767161659462553,"10":0.0036989160741856403,"11":-0.0369451881932111,"12":-0.11242721437781207,"13":0.05219798268392988,"14":-0.051120178779754916,"15":0.0477673318260353,"16":-0.04368469873048105,"17":-0.1604053340400013,"18":-0.03175230747265952,"19":0.0006940156819806934,"20":-0.05379770841095735,"21":0.040912778053377105,"22":-0.01809311042645735,"23":-0.083381324402544,"24":0.044904806023451524,"25":-0.08382590235061403,"26":0.013863186568188555,"27":0.10236127737180661,"28":-0.06482087721085922,"29":0.0687521468789918,"30":-0.22706833192593504,"31":-0.12055855237669884,"32":-0.09097447624484939,"33":-0.05522935512180182,"34":-0.0662171467906022,"35":0.1155774017541781,"36":0.031020519054403915,"37":0.09081413685638896,"38":-0.13257587841686386,"39":-0.10231869820802923,"40":-0.12905869564803024,"41":0.00800305439189648,"42":-0.02814585745328507,"43":0.028963144482054424,"44":-0.07259966538223345,"45":0.022031539404378638,"46":-0.04673811633072304,"47":0.007501155316690407,"48":0.051280612984309734,"49":-0.035271389281884336,"50":0.021384546432257415,"51":-0.07517765780646705,"52":-0.049226412468819106,"53":-0.06804886432926197,"54":-0.001409171812205551,"55":-0.031025682213470362,"56":-0.1508956213860681,"57":-0.03301110030098759,"58":-0.07917074744664565,"59":-0.10567532410453939,"60":-0.0235762911710142,"61":0.03752091175427013,"62":-0.1706884844369838,"63":0.010289737647964252,"64":-0.08690648299217726,"65":0.015421403375499564,"66":-0.13343308170156054,"67":-0.10015994656422703,"68":-0.006635317674015094,"69":0.06297971656392448,"70":-0.052108748550753016,"71":-0.011293797037346044,"72":-0.24022991354381198,"73":-0.012331711559901292,"74":-0.09153348358224545,"75":0.028336435144865814,"76":-0.183028525757423,"77":-0.008552738840529626,"78":-0.13975641942172642,"79":0.09757656512889551,"80":0.03354183476913505,"81":0.08033827397583186,"82":-0.023692123038284694,"83":-0.027170238983591638,"84":-0.0008089536247612662,"85":0.03095915368302981,"86":0.1130759930797724,"87":-0.05935033619787973,"88":-0.09129756103480084,"89":0.08563843275526654,"90":-0.028148284493280173,"91":0.0535354940033193,"92":-0.012033267467173696,"93":-0.241259438173359,"94":0.10415155177390471,"95":-0.07195465982121363,"96":-0.0010494278122152798,"97":0.10738115590183997,"98":-0.1607107834658304,"99":0.02517738709785109,"100":0.12775803304257852,"101":-0.031800171929608566,"102":0.18317028286921538,"103":-0.004545200679615377,"104":0.04775028594806488,"105":0.20132426336934106,"106":-0.14990461085920156,"107":-0.04466795918424615,"108":0.20729490951033655,"109":-0.10859212931394305,"110":0.20574357632003462,"111":-0.194520426298242,"112":0.01040336535299478,"113":0.13351082817347332,"114":-0.07449200282222292,"115":-0.05986226775166513,"116":0.10812189050728903,"117":-0.09987600606128424,"118":0.047408883639556136,"119":-0.05968169627003696,"120":-0.01525082143201094,"121":0.13731967972459996,"122":-0.11919935768511396,"123":0.09257930755269138,"124":0.09455492562091006,"125":0.12464483190496475,"126":0.04445109882963322,"127":-0.09243150437437861,"128":0.010413887394035839,"129":-0.0046765744239584146,"130":-0.14597841403292877,"131":0.13667890028485627,"132":0.11531334284124917,"133":0.044828516912753164,"134":0.06004154924718619,"135":0.061012339283091604,"136":0.019894724915800428,"137":0.1142105279438842,"138":-0.10672272229100974,"139":0.1878543491651319,"140":0.1165994972817938,"141":-0.1852885280107031,"142":0.04625831155247401,"143":-0.0308296735876293,"144":0.02691239178682161,"145":-0.04819196072292121,"146":-0.21032746408687536,"147":0.1834392044743127,"148":0.18304061636688176,"149":-0.07230175745476282,"150":0.06377150985877439,"151":0.023363334671536787,"152":0.07800929497384888,"153":-0.21873632914554222,"154":-0.12290782503695759,"155":0.17528271227788927,"156":0.01982604753909478,"157":-0.007903682778395043,"158":0.02963475761891085,"159":0.08649031007790563,"160":0.05547228848080427,"161":-0.024199605518185997,"162":-0.005858651924809054,"163":0.08519784237653824,"164":-0.018119804471225232,"165":-0.03873154707226545,"166":0.00859159765139323,"167":-0.11734504448179472,"168":-0.01633346109708844,"169":0.0573550013140807,"170":-0.06372268430342515,"171":0.042934078404574326,"172":-0.016646615080814105,"173":0.06390346495692913,"174":-0.11571966359763136,"175":-0.0010266773173309273,"176":0.01643598530418306,"177":-0.06494355885118765,"178":-0.012418881582649439,"179":0.15946347119542809,"180":0.006178945926213679,"181":0.09347462158438388,"182":-0.05597426997275592,"183":0.08714304350474042,"184":-0.007022071582579434,"185":0.06258871862071824,"186":-0.00478801851273683,"187":0.07015043356833739,"188":-0.08078408648917104,"189":-0.045527026192646564,"190":-0.16278364033821577,"191":0.07306859871946988,"192":0.014916832896832745,"193":-0.03707967198885575,"194":-0.09100662885160246,"195":-0.005330355707146565,"196":-0.20147490050728198,"197":0.0044258536384545405,"198":-0.16456664965169052,"199":0.03320673545020369}},{"sx":5,"sy":5,"depth":8,"w":{"0":-0.07877410458604989,"1":0.1133629333744014,"2":-0.06983178199852141,"3":0.07388313033745483,"4":0.16688064116544077,"5":0.06930547342789671,"6":0.03303415718294987,"7":0.08315989721632795,"8":-0.015919345856290457,"9":-0.035118122032942865,"10":-0.057823922215823324,"11":0.09851973841709628,"12":0.171747170501687,"13":-0.06967352419106061,"14":0.03170694193393655,"15":0.04325005439858604,"16":-0.19938543266470982,"17":0.10294038126928542,"18":-0.06170962001981456,"19":-0.04528266012409106,"20":0.14877139300767972,"21":-0.09173837862869724,"22":0.09450297660493145,"23":-0.09548277324959686,"24":-0.008332852075308301,"25":0.1615896378350099,"26":-0.21109973307373803,"27":-0.19669199591636818,"28":0.06303434519761128,"29":-0.06974512893696394,"30":0.15936930273282432,"31":-0.031187321174740778,"32":-0.1612353765700432,"33":0.1744269538310491,"34":-0.06626375285591003,"35":-0.08194316855871846,"36":-0.07067613477003966,"37":-0.2760905282397782,"38":0.01772650544438703,"39":-0.1742870218501911,"40":-0.07326411521884493,"41":-0.08133546472190224,"42":-0.0635761145338098,"43":0.217625057296715,"44":0.019451610896153815,"45":0.037486660778887425,"46":-0.06565134079231619,"47":-0.0035423043406349174,"48":-0.07640090067252281,"49":0.07455064117711804,"50":-0.23006327225041706,"51":0.2461667485570421,"52":0.13112924601874973,"53":-0.1637592531252486,"54":-0.07718517146124299,"55":-0.03248328665853678,"56":0.052166774786747167,"57":-0.0390377317062726,"58":-0.01204452000458864,"59":0.35091078601636116,"60":0.14140539581986392,"61":-0.1635452113878793,"62":0.058929677276710314,"63":0.09267293538598072,"64":0.10921856648401723,"65":-0.01846961456393859,"66":-0.05248430370289153,"67":0.3782330637843146,"68":0.03326251729592082,"69":-0.1957679980779018,"70":0.02459375329876509,"71":-0.008448775481357347,"72":0.0902968477179516,"73":-0.08687541319878095,"74":-0.24084125112800836,"75":-0.03782471187416323,"76":-0.2384240789250448,"77":-0.11922834698105439,"78":0.08371337594452723,"79":-0.001070934486135473,"80":-0.010638934966128348,"81":-0.066256089850424,"82":-0.10324914259338687,"83":-0.004440985971017887,"84":0.04861535664307571,"85":-0.08176704801455144,"86":-0.016342872513263454,"87":-0.01768187224854889,"88":0.11347041849202129,"89":-0.12696054982446583,"90":-0.20702768550016812,"91":0.13034513451847154,"92":-0.10060947469910449,"93":-0.04364247524697029,"94":-0.09187041938258644,"95":0.12386960030300019,"96":-0.09912265913370133,"97":-0.02714741248493833,"98":-0.129490543230446,"99":0.2487251710418732,"100":-0.0942938277217546,"101":-0.09572448011763848,"102":-0.04690585012152223,"103":-0.10285677137577223,"104":-0.07615097311381679,"105":0.09453360022187413,"106":-0.02777477458425327,"107":0.006832480749145972,"108":-0.004789590438418852,"109":-0.10579809960306477,"110":-0.13874478146352578,"111":0.18949197425169523,"112":-0.13091414841480384,"113":0.07196903131062835,"114":-0.07496247791177463,"115":-0.2341558499275323,"116":-0.050452249540699795,"117":-0.3230889646922452,"118":0.06039157412942348,"119":0.12942588901779667,"120":-0.2037737923001476,"121":0.023807459194022662,"122":-0.11608690538342091,"123":0.000513857604791011,"124":0.0431127572487354,"125":-0.013628632936550632,"126":-0.04643055268171519,"127":-0.11540306326457551,"128":-0.023526739865816885,"129":-0.09143298243791524,"130":-0.1730661794843416,"131":-0.0270009900947519,"132":-0.10513366833648846,"133":-0.025903351297443304,"134":-0.3657127727998228,"135":0.07844985049982207,"136":-0.10194742528807879,"137":0.06906075920257335,"138":0.013826571220395106,"139":-0.06701544431014092,"140":-0.062436057752975185,"141":0.07714528206036213,"142":-0.1567872728361666,"143":0.054719758933527485,"144":-0.10565052326093806,"145":-0.03518083058781124,"146":0.0360101631328763,"147":-0.07825813265708927,"148":0.11632108323437279,"149":0.05646704577960664,"150":-0.047423121908003185,"151":0.08942680867638621,"152":0.10366670015202493,"153":0.11796845644859728,"154":-0.051681772012348484,"155":-0.33373469906450437,"156":-0.16267593384416446,"157":-0.14188650193457503,"158":0.15758616405747955,"159":-0.00644847288551161,"160":-0.03275095720601907,"161":-0.012280850699980389,"162":-0.04896655618893894,"163":0.1364018149549187,"164":-0.05181919051673035,"165":-0.053524852801142116,"166":-0.00016807558442578896,"167":0.04834916498162543,"168":0.004191648287588501,"169":0.08652098910340246,"170":0.023274377071076238,"171":-0.14220344904582774,"172":-0.14351361686798306,"173":-0.05075596391387817,"174":-0.20447794629880622,"175":-0.15384813759287658,"176":-0.09546713154862568,"177":-0.048923823540501565,"178":0.1563379568247601,"179":-0.0740363471198229,"180":-0.008289365454918885,"181":-0.08094592614973624,"182":-0.03702024367769322,"183":0.06798098894489728,"184":0.017702977335843723,"185":0.02691707666031442,"186":0.009767399959467118,"187":-0.21525998035643287,"188":-0.14161381527971903,"189":-0.06452053458675289,"190":0.07078891878935638,"191":0.2012446928206864,"192":0.29932006989882687,"193":-0.1601044538040535,"194":0.0629339243922823,"195":-0.24746050118909155,"196":-0.21394377882999627,"197":0.034712038698265675,"198":0.04548428158157441,"199":0.012550856811288496}},{"sx":5,"sy":5,"depth":8,"w":{"0":-0.17911152091569,"1":-0.1562258739331269,"2":-0.04068685161185931,"3":0.013586260084668091,"4":0.03476938611554129,"5":0.06046386653309785,"6":0.05598730617690814,"7":0.005401671901130609,"8":0.032275279271614596,"9":0.03223553563670009,"10":0.055533266037766385,"11":-0.1903151994149818,"12":-0.02960152992520367,"13":0.033410166646407224,"14":0.09965595189606766,"15":0.035449507129108444,"16":0.057329146962926895,"17":-0.026158788331705346,"18":0.23682265152548834,"19":-0.11069647402982315,"20":-0.12321866136683336,"21":-0.031190625587098023,"22":0.0037346838825916837,"23":-0.046100120313106466,"24":0.14856622861034732,"25":-0.15761668226691783,"26":0.012587628372517316,"27":-0.23465955813678668,"28":0.026957410600669102,"29":-0.10485639185248036,"30":0.07938660318197355,"31":-0.0367553073270797,"32":0.014562632661188105,"33":-0.0053873177137210475,"34":0.0960940483027141,"35":-0.019122657962582314,"36":-0.09930817950954254,"37":-0.015145449143962375,"38":-0.02022357452598182,"39":-0.023389809944007266,"40":-0.16303134108013084,"41":-0.10912666386207305,"42":-0.1391076686711724,"43":-0.04303688517813132,"44":0.012129943169099284,"45":0.0995156134293107,"46":-0.12238885276257626,"47":0.2960239439750993,"48":-0.06722469818601469,"49":-0.08555973133941817,"50":-0.042368229331016215,"51":-0.08919425457588656,"52":-0.12342152926949887,"53":0.06413191615156966,"54":0.04121771874906905,"55":0.07555384234569625,"56":0.17780707095293805,"57":-0.046912167525849924,"58":0.132574183455394,"59":-0.21415132128875114,"60":-0.10734901886831097,"61":-0.033624461579401216,"62":-0.07672464365068198,"63":-0.1518999999532437,"64":0.08472131609362651,"65":0.06241879397764028,"66":0.08671012860909183,"67":-0.1444435294187983,"68":0.07132893015958547,"69":-0.17564766869436121,"70":0.0891565555329978,"71":-0.09866652083908616,"72":-0.005813919161665751,"73":0.011933343438399207,"74":0.03163270637055036,"75":-0.09618156647648354,"76":-0.11136977262027356,"77":-0.1864723492285996,"78":-0.018344654565469302,"79":-0.005179890239675643,"80":-0.1512338392866421,"81":-0.00844068658230483,"82":-0.10030612012091619,"83":-0.09228154458828147,"84":-0.08965931123527111,"85":-0.07636734409544209,"86":-0.13798125255263866,"87":0.2551231869819916,"88":0.10827790245674392,"89":-0.006338811098770729,"90":-0.07871519537091946,"91":-0.11236883648868032,"92":-0.12508115670388656,"93":-0.06681296798459518,"94":0.06640962608207028,"95":0.022749782982247432,"96":0.00001989642542258533,"97":-0.016711200618819703,"98":0.1467883886425055,"99":-0.17629422831229047,"100":0.011224151318337466,"101":-0.15421135267347047,"102":0.10257970785608347,"103":-0.09683958999181588,"104":0.10688568873371926,"105":-0.03594469501703648,"106":-0.11722106324296766,"107":0.04070486326384338,"108":0.0446436578907148,"109":-0.053869848676031985,"110":0.18991123402149618,"111":-0.06847532876762749,"112":-0.13529760361358126,"113":0.14955769494280496,"114":-0.06896135229107252,"115":-0.03740188636964107,"116":-0.06189969240951322,"117":-0.06129902990388397,"118":0.05160137672937406,"119":0.041891201474328274,"120":-0.1797954366360334,"121":0.08192823519990525,"122":-0.1108509204712705,"123":-0.13231233690000294,"124":0.01737920567970738,"125":-0.06862397248300464,"126":-0.11564416677556891,"127":0.22303604587038292,"128":0.07832685611198008,"129":-0.06683353196968043,"130":0.16058976486899976,"131":-0.1528309060581484,"132":0.006111634200920514,"133":-0.06110059528493037,"134":-0.03533318179917193,"135":0.019671028263739954,"136":0.03936105730908096,"137":-0.20272586757985214,"138":0.19678079198369416,"139":-0.17620867156331488,"140":-0.009530072554514081,"141":-0.02106673917199296,"142":0.02279485968945407,"143":-0.04090790209958695,"144":0.043444365944376596,"145":0.09199014350568954,"146":0.07361633975949534,"147":-0.048941267019952696,"148":0.06669109662811816,"149":-0.04390498332616827,"150":0.013260402879657825,"151":0.05862799251984923,"152":0.032573066218217976,"153":-0.02732085709346242,"154":-0.1451522953882253,"155":-0.1239426802297525,"156":0.13562742425728636,"157":-0.04079271317125227,"158":-0.0007393127350622869,"159":0.02344866115327363,"160":-0.13261945943249934,"161":0.026562177505805022,"162":0.036460294845098135,"163":-0.050732597465009674,"164":-0.029538386006972363,"165":-0.061865196086472146,"166":-0.11607293583894832,"167":0.2663871059838851,"168":0.055841955727691926,"169":-0.14990037022858102,"170":0.15114871689160056,"171":-0.08108517096955117,"172":-0.1157203650154396,"173":-0.14046023247741082,"174":0.16515208140617188,"175":0.08022376717467487,"176":0.06768532025880637,"177":0.05901592381515014,"178":0.000712111578378782,"179":-0.10647276865112379,"180":-0.07320472876762701,"181":0.015261715559370781,"182":0.03980337349525466,"183":-0.11533275724715496,"184":0.007205583117846542,"185":-0.00633186416034774,"186":-0.13539221865704568,"187":-0.09190861574313333,"188":0.040012065515514,"189":-0.024478211093564985,"190":0.05351088206526173,"191":-0.022441873253970058,"192":-0.01222156692784163,"193":0.13320805400911728,"194":-0.2820305803720159,"195":0.0074693794866340195,"196":0.15351416358487033,"197":-0.05817144493206151,"198":0.01963554384829098,"199":-0.06505413134130204}}],"biases":{"sx":1,"sy":1,"depth":16,"w":{"0":0.06122027544863662,"1":0.09720034045356613,"2":0.05836574782170886,"3":0.06239809973851426,"4":0.055742559400429055,"5":0.04863877741998282,"6":0.0702767325194749,"7":0.08533511252076555,"8":0.08976509827047298,"9":0.07337315550678775,"10":0.07208357990900915,"11":0.06267067714418739,"12":0.08792691628420966,"13":0.06093092319465459,"14":0.029736826166998638,"15":0.07843298049897396}}},{"out_depth":16,"out_sx":12,"out_sy":12,"layer_type":"relu"},{"sx":3,"sy":3,"stride":3,"in_depth":16,"out_depth":16,"out_sx":4,"out_sy":4,"layer_type":"pool","pad":0},{"out_depth":10,"out_sx":1,"out_sy":1,"layer_type":"fc","num_inputs":256,"l1_decay_mul":0,"l2_decay_mul":1,"filters":[{"sx":1,"sy":1,"depth":256,"w":{"0":-0.0030016310369863765,"1":-0.10150966959971522,"2":0.052450774227133456,"3":-0.030973526887956526,"4":-0.005734609088709852,"5":-0.03189176397036345,"6":0.004149430229456926,"7":0.06346379218756086,"8":-0.008769357714940288,"9":0.007344943986105313,"10":0.06288590279459368,"11":-0.0010753564089984187,"12":-0.06580263593965721,"13":-0.09418646673842389,"14":0.08134140028836412,"15":-0.0021189365423327534,"16":-0.10691386795316277,"17":-0.1293028903765769,"18":-0.1139775416268764,"19":-0.04588089485365356,"20":-0.003709836588695871,"21":-0.12338222562813854,"22":-0.02750407837581923,"23":0.06455365567010071,"24":0.048234803650550474,"25":0.056271051368780925,"26":-0.08346204822687137,"27":0.013586702275250244,"28":0.021639115228203477,"29":-0.1330709094556208,"30":-0.07230045051357183,"31":-0.07301417314683478,"32":-0.08962990276152491,"33":-0.16575328745647672,"34":-0.07178438147989419,"35":-0.0021018279322636974,"36":-0.041996205759261815,"37":-0.039333003328666766,"38":-0.021706453666951953,"39":-0.1349829826704522,"40":-0.06725153966575796,"41":-0.13395499668043834,"42":-0.02660611909079528,"43":0.007422021298392068,"44":-0.09976677871785192,"45":0.04978233807732797,"46":0.030672293905698582,"47":0.042381984924202656,"48":-0.0075324985988609785,"49":0.08568381007766473,"50":-0.033958685804559643,"51":0.08421601630196152,"52":-0.10951257902210669,"53":0.09881614055883088,"54":0.06125821459839826,"55":-0.052066988029898786,"56":-0.17931339937710325,"57":-0.18427878127779074,"58":-0.05467518612150564,"59":0.0481119145118925,"60":-0.02455987046979069,"61":-0.02709230996975395,"62":-0.04461976562859958,"63":-0.03187608031904435,"64":-0.20459670493781237,"65":-0.0861943271384773,"66":0.025012214150399184,"67":0.1134063752901145,"68":-0.11361456405376369,"69":-0.11977740392367685,"70":0.007424573416280981,"71":0.08046865087526406,"72":0.026709428926744567,"73":0.09802549747935485,"74":0.027295090108188532,"75":-0.10335167076998729,"76":-0.07474409369439404,"77":-0.13550576152867966,"78":0.08846122520820993,"79":-0.0472936470957932,"80":-0.05671041134545947,"81":-0.0027566698001332754,"82":0.05738689846554586,"83":-0.021515350135340592,"84":0.16446628051502354,"85":0.31538875047235754,"86":-0.02785265452660387,"87":-0.03480643433093135,"88":0.0866082524199492,"89":0.17623525592200226,"90":0.004218875013879403,"91":0.11323621501922293,"92":-0.023140778544439477,"93":0.024621248609791663,"94":-0.13097417784184387,"95":0.03637594471596485,"96":0.08044361162776127,"97":-0.0020882631530177763,"98":-0.05801931527604341,"99":-0.018163574678282814,"100":0.04875994931858879,"101":-0.23232628092188343,"102":-0.05788673010548138,"103":-0.011630124002232293,"104":-0.04820472938894297,"105":0.08098059872959558,"106":-0.09459499680554986,"107":0.22711298223911852,"108":-0.10247186193141,"109":-0.06141779150796223,"110":0.06951335915723368,"111":-0.0127465756141362,"112":-0.015370330512392408,"113":-0.03157326657104382,"114":0.040385390968494576,"115":-0.06341450862964196,"116":-0.028787383731153922,"117":-0.04841373557158876,"118":0.04953022879321349,"119":-0.06424672274984354,"120":-0.0305272375983809,"121":-0.10588112298173595,"122":-0.09415314649183375,"123":-0.03068909231785792,"124":-0.018008769719144897,"125":-0.07414947419275568,"126":0.11349391494826555,"127":0.13754993337312735,"128":-0.12065165300501357,"129":-0.13951873661558165,"130":-0.08988489800878466,"131":-0.06658381182840306,"132":0.034012599785814356,"133":-0.05573032979775833,"134":0.011109369565606922,"135":0.12348511135466753,"136":0.02898769045234039,"137":-0.009001400554771243,"138":0.03809390052635153,"139":-0.1174506751983095,"140":0.11053511656609404,"141":0.024158925662238196,"142":0.06284458162337538,"143":0.05785160743269191,"144":-0.2412978774696788,"145":0.08308206071843031,"146":-0.07644819477481535,"147":-0.09626672928086015,"148":-0.16103954095424447,"149":0.13627931279217664,"150":-0.09596517949236734,"151":-0.08209591373089295,"152":0.00946424984351067,"153":-0.1865952412195345,"154":0.08812151420462747,"155":-0.062413829059581816,"156":0.0072053468314981104,"157":-0.13030223566666418,"158":-0.23214233501806622,"159":0.14909580264899117,"160":-0.12407490323670113,"161":0.011746112348137086,"162":-0.07516461327604022,"163":-0.013822074198690366,"164":-0.029703045102858528,"165":-0.2477223667285744,"166":-0.1167554995915511,"167":0.009101185222625477,"168":0.0364052540363742,"169":0.13001736930570276,"170":-0.038851523169169594,"171":-0.06236930337554222,"172":-0.17615375655434326,"173":0.009065224421757844,"174":-0.029793319086797897,"175":0.04328378034044839,"176":-0.021364869771214448,"177":-0.0509984782894798,"178":-0.05788827204745459,"179":-0.1256474944944433,"180":0.17062850029039603,"181":0.050863294923670595,"182":0.06821394516455885,"183":-0.09874469197998917,"184":0.059733291850420756,"185":-0.0757606508653065,"186":0.04284407865916057,"187":0.03456758407161122,"188":0.08092342468225983,"189":0.1029275286103362,"190":-0.022757985242681977,"191":0.1724478361549227,"192":0.07797796598228587,"193":-0.1637168269769298,"194":-0.0513206435203703,"195":-0.017378358218710206,"196":0.23314300690537842,"197":-0.08584770764219644,"198":0.15052210879274494,"199":-0.09850865935035094,"200":-0.13917928203545146,"201":0.08611702711937691,"202":0.08908831366663432,"203":0.09251460316200345,"204":-0.07860804270448662,"205":0.045966720347038484,"206":-0.03693528623969605,"207":0.046277396154137104,"208":-0.06749515755136039,"209":-0.07391462011342445,"210":0.02428021316527938,"211":0.0933008109445482,"212":-0.08861699789606188,"213":0.0028357697973883443,"214":-0.003649119205398273,"215":0.03245851055455125,"216":-0.2037247055584023,"217":-0.2187246421138698,"218":0.0021327759014455874,"219":-0.08735757568294783,"220":0.07660045654290298,"221":0.11481076517264807,"222":0.020640012923041053,"223":0.06839824955911801,"224":0.12988247771138606,"225":0.04436466030198124,"226":0.005126127864161438,"227":-0.039292892051585954,"228":-0.009041193543934588,"229":-0.03547034483513076,"230":0.042398809169045,"231":0.05787127326726133,"232":-0.11457341580602445,"233":-0.04048451630830807,"234":-0.005249777254419641,"235":0.025615685960384875,"236":0.15362303894290932,"237":0.01264930487890253,"238":-0.14440316737350506,"239":-0.08238818278456497,"240":0.08344690235620122,"241":-0.024570745279094648,"242":-0.0662631473985206,"243":-0.006819057667354381,"244":0.18673344717765164,"245":-0.06742965768987937,"246":0.003691740795880836,"247":-0.08536753593653901,"248":-0.03617459803995514,"249":0.06739102691938885,"250":0.05425439802281885,"251":0.09953615267211169,"252":-0.06440613612173651,"253":0.06718556090756149,"254":-0.023131785585627722,"255":-0.04399296083360347}},{"sx":1,"sy":1,"depth":256,"w":{"0":0.047678991469329385,"1":0.05648297192624808,"2":-0.0360598632071003,"3":-0.08540167970428582,"4":0.10089800895820619,"5":-0.08183345147096337,"6":-0.11910195894768216,"7":-0.06208186012814354,"8":0.041384467169115854,"9":-0.08252475933540158,"10":-0.01501328353660687,"11":-0.05564691505494697,"12":0.04173769701276954,"13":-0.1462690049890941,"14":-0.22046137603017538,"15":-0.12848390764109624,"16":0.061469076404363866,"17":0.1381887419851298,"18":0.01590171866670307,"19":-0.16876418822937994,"20":-0.09103838984127702,"21":0.0028866252527938127,"22":-0.15571355987230695,"23":-0.014011358582472872,"24":-0.0369123892630042,"25":0.1561103599746932,"26":-0.04081546754361042,"27":-0.21572861057644183,"28":0.010046798996648135,"29":-0.13675836468186167,"30":0.143804682187009,"31":-0.16571871132233634,"32":-0.05859961940175696,"33":0.04385857812256772,"34":0.11884228041215675,"35":-0.09165155165187078,"36":0.021064504098772648,"37":0.17395501521820786,"38":0.059001070241591125,"39":0.06506365782002173,"40":0.02708721956890242,"41":0.07153080070080788,"42":0.04497757948640988,"43":0.1733741249190814,"44":-0.11111344971798272,"45":-0.1710635853106074,"46":0.06026498975464302,"47":0.06839508158479655,"48":-0.0016739010099760534,"49":0.08968086650399565,"50":0.0020346852686377276,"51":-0.0312270468544959,"52":-0.04176044782749794,"53":-0.004427079723620691,"54":0.012762652563419801,"55":0.23269759797089068,"56":0.026847885571785083,"57":0.09140233710981298,"58":-0.16852349882864479,"59":-0.041708157202984444,"60":-0.009131584081632409,"61":-0.007904581493597473,"62":0.059399971164066874,"63":0.1307390593870827,"64":-0.17697969788067563,"65":0.010820602654235206,"66":-0.09260417460445344,"67":-0.12979429704504428,"68":-0.3194228465166499,"69":-0.07182726942346791,"70":-0.14824746904971695,"71":0.0716311353532213,"72":-0.1111517879070786,"73":-0.08480549647666515,"74":-0.04567733377348756,"75":-0.053380116334532116,"76":-0.026799694305734454,"77":0.006955002596733936,"78":-0.13047621737058845,"79":-0.1746681984620547,"80":-0.1853915112798708,"81":0.08735144413989814,"82":-0.029551776536322866,"83":-0.2056432554532802,"84":-0.17220580197899968,"85":-0.08926965786438731,"86":-0.1224890216301207,