{"layers":[{"out_depth":1,"out_sx":24,"out_sy":24,"layer_type":"input"},{"sx":5,"sy":5,"stride":1,"in_depth":1,"out_depth":8,"out_sx":24,"out_sy":24,"layer_type":"conv","l1_decay_mul":0,"l2_decay_mul":1,"pad":2,"filters":[{"sx":5,"sy":5,"depth":1,"w":{"0":-0.09479502205552391,"1":0.17620041909151418,"2":0.14916476822420582,"3":0.23150675216747144,"4":0.3138667462305655,"5":0.06187365160571003,"6":0.3122911263643703,"7":0.13913498026579588,"8":0.2224648007927131,"9":-0.13963693576926464,"10":0.15164291167792493,"11":0.3662373423074226,"12":0.038263785952832086,"13":-0.024009913313831295,"14":-0.028500992774209553,"15":-0.05766171681705909,"16":0.13046997586093625,"17":-0.06004545198507478,"18":-0.01562376491977682,"19":0.03020804663049892,"20":0.6680921467194919,"21":0.017383126692442134,"22":-0.15323379169799362,"23":-0.30994054729770176,"24":-0.37232700032190386}},{"sx":5,"sy":5,"depth":1,"w":{"0":0.21280486774867427,"1":0.21209298704103371,"2":-0.2156625719052974,"3":-0.3406994054565552,"4":-0.10148466463830434,"5":-0.2656312816603539,"6":-0.4393011657284747,"7":-0.275382942099637,"8":-0.12924693527848263,"9":0.06476476381681798,"10":-0.20248874489463164,"11":0.0694630454738479,"12":0.005348224237752259,"13":0.3349150217991969,"14":-0.022214637523972014,"15":0.2996823215720339,"16":0.1968321305251684,"17":0.19448192969883127,"18":-0.0738045718566302,"19":0.385019311717249,"20":-0.1132439682602027,"21":-0.019360318623546396,"22":0.0336126585698334,"23":0.006384637301675177,"24":0.03163892965642236}},{"sx":5,"sy":5,"depth":1,"w":{"0":0.14047414503024905,"1":0.15343397761114386,"2":0.02705886063904565,"3":-0.0716847543510148,"4":-0.6431462036202722,"5":0.0022381792180654883,"6":0.2683486235012482,"7":-0.07635809059253737,"8":-0.038644030645520196,"9":-0.16309200188730746,"10":0.2793249332436985,"11":0.022217054336129777,"12":0.020657017111804187,"13":0.07676035967195716,"14":-0.6194256177732734,"15":0.002321225669912815,"16":0.5903069992278355,"17":-0.2702827880453008,"18":-0.21461175912074915,"19":-0.5286052577590243,"20":0.03843785248606894,"21":0.3982783342803149,"22":0.21032353304164172,"23":-0.5412902308940666,"24":-0.22941286595745694}},{"sx":5,"sy":5,"depth":1,"w":{"0":0.049037702752263754,"1":0.47439604328838547,"2":0.26204018464148043,"3":0.47725071691513943,"4":0.2621036009999054,"5":0.029950081531376672,"6":0.22344020117007585,"7":0.5043085110463832,"8":0.47757414409779125,"9":0.45186559958202954,"10":-0.3444738781867452,"11":-0.13292939713540097,"12":-0.3766942911125864,"13":-0.09638918313408693,"14":0.30010931721684864,"15":-0.5814434145088212,"16":-0.20147130567900218,"17":-0.1841028311996874,"18":-0.51483676998099,"19":-0.3891026942984339,"20":-0.3473150928490863,"21":-0.40669807919743983,"22":-0.4075256057460704,"23":-0.32985685374117024,"24":-0.10334129661321385}},{"sx":5,"sy":5,"depth":1,"w":{"0":0.47677311992802257,"1":-0.2971796115614455,"2":0.24486163966447363,"3":-0.40886389763795494,"4":-0.2579296607070168,"5":-0.17327115388457373,"6":0.1793071349444371,"7":0.2370518947269675,"8":0.17215064533666752,"9":0.28062149179977136,"10":-0.14008818261997008,"11":0.0344679927638374,"12":-0.02739207250065882,"13":0.19332280823781808,"14":0.34169335303373083,"15":-0.20973365048114165,"16":-0.03898400241549396,"17":0.14391322720905508,"18":0.10397683900589665,"19":-0.02020376699397322,"20":0.045649206447812354,"21":-0.18612297385026835,"22":-0.6799073716527327,"23":-0.2486907065868914,"24":-0.17843376858837393}},{"sx":5,"sy":5,"depth":1,"w":{"0":0.28582142101660785,"1":-0.2576528441959247,"2":-0.2092309714683998,"3":0.2143227503972108,"4":-0.16198594281294978,"5":-0.2496613831609211,"6":0.11887855356090797,"7":0.023148984973416654,"8":-0.46557358119371467,"9":-0.12717291757468713,"10":-0.21514462493634112,"11":0.0510551643714416,"12":-0.10627483499152224,"13":-0.24958049749677685,"14":0.05168398668508241,"15":-0.12522753662880473,"16":-0.0635189678128056,"17":-0.382063734826867,"18":0.09174881881732722,"19":0.0296241428377358,"20":-0.27249241683577297,"21":-0.1043262953432502,"22":-0.17455655779265472,"23":-0.03999156742504569,"24":-0.4232070411764933}},{"sx":5,"sy":5,"depth":1,"w":{"0":-0.10848696274660098,"1":0.3648754271700814,"2":-0.5333745244362863,"3":0.049253940531516,"4":-0.13201375952710112,"5":0.030265864568132576,"6":0.23869439454322086,"7":0.3990616414148872,"8":0.19320158504598225,"9":-0.1499732508498472,"10":0.0817486993832694,"11":0.3400637400075692,"12":0.13052777219096737,"13":0.3121896762218993,"14":0.2984364574487515,"15":0.37085322855125225,"16":0.03625627975105654,"17":0.3082130074351595,"18":0.28193404602570815,"19":0.27638591448320005,"20":0.00018066464123363594,"21":-0.034216861595931944,"22":-0.27442858677025467,"23":-0.3189717164402738,"24":-0.060831598511510154}},{"sx":5,"sy":5,"depth":1,"w":{"0":-0.12133885859488124,"1":-0.2012790360040808,"2":0.1530094740676324,"3":0.10630964009408805,"4":0.2996122193865702,"5":0.04181911380064873,"6":0.12956029473313993,"7":-0.033682903860857906,"8":-0.14353371732608103,"9":0.2967986799131667,"10":-0.1614386697402704,"11":-0.35167031316869724,"12":-0.241278347115413,"13":-0.048731288419487595,"14":0.15231710419754246,"15":0.0775678923634713,"16":-0.16112226142876604,"17":-0.000540783887227549,"18":-0.23700489395361096,"19":0.5549932997699781,"20":-0.43867348206624235,"21":-0.3740318550731285,"22":0.10159147650539802,"23":0.0788602061912024,"24":0.3071841193257174}}],"biases":{"sx":1,"sy":1,"depth":8,"w":{"0":-0.00822745298727295,"1":0.06368721693462465,"2":0.14490693947830938,"3":0.15598748828127543,"4":0.019545714274578713,"5":0.32384849635453444,"6":-0.014887741281178164,"7":0.05723168105667047}}},{"out_depth":8,"out_sx":24,"out_sy":24,"layer_type":"relu"},{"sx":2,"sy":2,"stride":2,"in_depth":8,"out_depth":8,"out_sx":12,"out_sy":12,"layer_type":"pool","pad":0},{"sx":5,"sy":5,"stride":1,"in_depth":8,"out_depth":16,"out_sx":12,"out_sy":12,"layer_type":"conv","l1_decay_mul":0,"l2_decay_mul":1,"pad":2,"filters":[{"sx":5,"sy":5,"depth":8,"w":{"0":-0.07533494355538353,"1":-0.06111443649524012,"2":0.06697584210463742,"3":-0.10278634079705667,"4":-0.022777646290382876,"5":-0.16817859869361762,"6":-0.03617412620042315,"7":-0.0877618969091796,"8":-0.043437768634692446,"9":0.14457870692805885,"10":0.07469891631093643,"11":-0.16753486966406833,"12":-0.13109204287149887,"13":-0.11344932395360316,"14":0.038981178808296595,"15":-0.1616679484166658,"16":-0.01261515579912581,"17":0.029355792240035282,"18":-0.08060384763366384,"19":-0.19614640861557966,"20":-0.04702606348991444,"21":-0.01564108158049861,"22":-0.0060762961138400694,"23":0.045028895994164334,"24":0.1759737919321023,"25":0.016214644185359717,"26":0.04808136377141916,"27":0.0017786349945762999,"28":-0.05437194152422102,"29":-0.015854497891978524,"30":0.030936467594687673,"31":0.03759920857273377,"32":-0.011184070715896782,"33":0.11734065065271859,"34":-0.017577441664697397,"35":-0.08573771809185353,"36":-0.03980274212469852,"37":-0.057911397767432295,"38":0.06841880699353348,"39":-0.09869016048492503,"40":0.0013889575446500136,"41":0.010651979389157016,"42":-0.0730399536985269,"43":0.085824686151212,"44":0.043838631035809573,"45":-0.08181675748801875,"46":0.006588380049113371,"47":-0.06959890393916385,"48":0.03875839178643766,"49":0.1280739386744739,"50":-0.07479752239875398,"51":-0.09293850488353267,"52":0.07785432806894628,"53":-0.14886396613053157,"54":0.02805110849622764,"55":0.16176320240878453,"56":0.1395167653132438,"57":0.04294883736566373,"58":-0.123251227618186,"59":-0.153256285660223,"60":-0.022237842064722315,"61":-0.026949208315890448,"62":0.03240134271744048,"63":-0.0087964044446188,"64":-0.01815566519859739,"65":0.11281694127874956,"66":-0.15618749224790507,"67":-0.2998320789766578,"68":0.07642654143960094,"69":-0.010304439502054744,"70":-0.08475578033245044,"71":0.04666958006170819,"72":0.08449010440967335,"73":0.043641350968026814,"74":-0.04569375557219744,"75":-0.15917898531229524,"76":0.037279998468971225,"77":-0.07900370461339841,"78":0.03483489717328178,"79":-0.06039327701350852,"80":0.06166255152990435,"81":-0.16091775973986952,"82":-0.03790459223611691,"83":0.15805845690574435,"84":0.14392816939030223,"85":-0.05225657762400086,"86":0.014141483408842925,"87":-0.04274111664307843,"88":-0.10751210595088316,"89":-0.13552742564097123,"90":-0.20739135303889983,"91":0.22510211133836344,"92":0.09715590060065414,"93":-0.052903117666478615,"94":0.10680244767616974,"95":0.04901278451590644,"96":0.04436730531123252,"97":-0.10023995755419124,"98":-0.1018291406057476,"99":0.17285832846080684,"100":0.16005672916807226,"101":-0.14155993014117899,"102":0.009081149402603033,"103":0.11731494499833332,"104":0.048892600438224645,"105":-0.026339613276966413,"106":-0.1840518994191057,"107":0.24101214692859402,"108":0.16196291077869657,"109":-0.04598817779492836,"110":0.029479311843745044,"111":0.09297381711262406,"112":-0.09646320653178492,"113":-0.08482059909400579,"114":-0.09415391369341722,"115":0.08517966158148788,"116":0.21156004032765185,"117":0.07202336245111893,"118":0.007845538322684205,"119":0.02884826066808737,"120":-0.12179652074772396,"121":-0.034591447584960515,"122":0.027183263255392838,"123":0.12040137737572487,"124":-0.17294022825365082,"125":0.0526767037012065,"126":-0.08173224988394058,"127":-0.0994433260862833,"128":0.05616602667653542,"129":-0.1552719266657921,"130":0.02235285288111455,"131":0.07275640614460567,"132":-0.006734959079352131,"133":0.04387896159059099,"134":-0.1796604097799381,"135":0.014762998423430679,"136":-0.1210039458362041,"137":0.04676708789678881,"138":-0.16168015445913805,"139":0.1178031649309293,"140":-0.1398780304056804,"141":0.03952951649405254,"142":-0.1727526865635232,"143":0.027928508434649012,"144":-0.014132047470712367,"145":0.12240141599433231,"146":-0.1675603504712139,"147":0.12792292707477998,"148":0.06575581521047572,"149":-0.09064238042519417,"150":-0.15355302725490605,"151":0.0898703067911582,"152":0.03456025014821875,"153":-0.018353559953761398,"154":-0.004535739754728894,"155":0.21694138004180955,"156":0.08160719444476396,"157":-0.12333274816173789,"158":-0.0337460442578562,"159":0.009061320544732042,"160":-0.19591453129466982,"161":-0.00835145445102226,"162":0.16200166446247344,"163":0.05722094314225843,"164":0.0158107944069775,"165":0.009500512596768809,"166":0.0414877135974443,"167":0.07730778844422102,"168":-0.06736065542862435,"169":0.0729062393596098,"170":-0.05290329166472022,"171":-0.05087505705499079,"172":-0.04372237865894569,"173":-0.07103144145749773,"174":-0.21957077988708976,"175":0.11418872309948111,"176":-0.08718626201110426,"177":0.04009102399178539,"178":0.0012600286647083715,"179":-0.14588593681711823,"180":-0.025276280227089262,"181":-0.04051007782119144,"182":-0.02620059614737673,"183":-0.025088950060899316,"184":0.023465278850862626,"185":-0.033395168358862345,"186":0.1879424509126885,"187":-0.2295805864784665,"188":-0.10991305793087078,"189":0.051817240616376554,"190":-0.1352198052508579,"191":-0.10134777050048042,"192":-0.10934429798759224,"193":-0.04274886535587247,"194":0.03938959782533936,"195":-0.2139317941764371,"196":0.036461315019630625,"197":-0.0188081188215242,"198":0.10271500514010314,"199":0.0020009264730712364}},{"sx":5,"sy":5,"depth":8,"w":{"0":0.08788128414677268,"1":0.0463534499684832,"2":0.1766423933715752,"3":-0.08867347025588274,"4":-0.12893295163666285,"5":0.06680313383415451,"6":-0.04892807624569855,"7":-0.14519094492249973,"8":-0.0034400713118494545,"9":-0.019227681828085146,"10":-0.057023222615334636,"11":-0.1037788650441787,"12":0.015873212737753873,"13":0.021437733515174598,"14":0.13129067262771463,"15":0.024831521206248493,"16":-0.1229426274546566,"17":-0.02822346043961393,"18":-0.04886845833970813,"19":0.033733221401662815,"20":-0.021607052740396187,"21":0.0540306767886492,"22":-0.07744768670749375,"23":-0.025654853312913232,"24":-0.018996000756640687,"25":-0.10984164001418953,"26":0.02111029446808844,"27":0.007600173214466651,"28":0.15005416903427046,"29":0.007122134400607574,"30":-0.060260657647698015,"31":0.009193510650797987,"32":0.04329705540056796,"33":-0.16593195147803327,"34":-0.04689824906856033,"35":0.2062002645785554,"36":-0.05023206787739014,"37":0.18540029775169406,"38":-0.0635996776838492,"39":-0.007631608043653711,"40":0.021244889559033548,"41":-0.07494834101668664,"42":0.009454609160654982,"43":0.04317183904622893,"44":0.011122678904912161,"45":0.03329171689961247,"46":0.11408374174039679,"47":-0.1543292508091744,"48":-0.04916526879789653,"49":-0.04189856880444416,"50":-0.02671771809750882,"51":-0.01259789658558007,"52":-0.05009030538411208,"53":0.17014599560033172,"54":-0.009219081224273258,"55":-0.06603569753559534,"56":0.005682863893830716,"57":0.06662423842378021,"58":-0.1597000919793625,"59":-0.06438361538792033,"60":-0.006412475815917071,"61":0.03691354267245896,"62":-0.11218587367922966,"63":-0.20629661504969365,"64":-0.1250824050704725,"65":0.009015066551011513,"66":0.010666879719817954,"67":-0.0007463167604214863,"68":0.05355476479464649,"69":-0.049519740084051155,"70":-0.11120514879660383,"71":-0.008093282585622703,"72":-0.1356836514160929,"73":0.16454778783075186,"74":0.1505506589733842,"75":-0.06862629164444622,"76":-0.07859249010349521,"77":0.04879631177363762,"78":-0.026558061415680734,"79":-0.07408890213405162,"80":0.15817435653867945,"81":-0.014258978322271059,"82":0.11008792646099971,"83":-0.02457967700593426,"84":-0.055069055698096295,"85":0.0011866854549721947,"86":-0.08092968019625325,"87":0.10041823645329287,"88":0.04000509307557236,"89":-0.16707980851078905,"90":0.10400077004998028,"91":0.011720325210188223,"92":-0.07655222470201704,"93":0.07226007943185363,"94":-0.19844940994795052,"95":-0.07458450393549076,"96":-0.01167983340810353,"97":-0.025005255908072378,"98":-0.1445010912284934,"99":-0.1370221009133931,"100":0.05719717243250008,"101":-0.043392411003988884,"102":-0.016614711766511192,"103":0.04591675048487836,"104":-0.07473157589837384,"105":0.013320022396803003,"106":-0.020898859149560137,"107":0.028930268854336715,"108":0.12464381170136385,"109":0.05665431701869196,"110":-0.05876938079700615,"111":-0.07017364164928308,"112":-0.0812040528467973,"113":0.06860935752032654,"114":0.010568647867704574,"115":0.08374447704486368,"116":-0.0422650332664482,"117":0.2048702688310716,"118":0.04283551644029672,"119":0.1659220952458881,"120":0.06764356174938668,"121":-0.000703558556176755,"122":0.17063258700825473,"123":-0.02614029357534403,"124":0.08850389578852691,"125":0.019097163759164544,"126":-0.0105549741594695,"127":-0.08552771161229845,"128":-0.13648509806637493,"129":-0.08214704084716612,"130":-0.01842971524799901,"131":0.048980790359648384,"132":0.018183427871560905,"133":0.19722567506151972,"134":0.037639742894531446,"135":0.11573680944293249,"136":-0.10375553700202275,"137":0.01151687344741923,"138":-0.04853700473877113,"139":-0.016368952880477072,"140":0.1340753052843902,"141":0.06570501506453329,"142":-0.14812015407364648,"143":-0.07370067262171594,"144":-0.21194673772871497,"145":0.08146914941004875,"146":-0.01484996741030421,"147":-0.09024813427471112,"148":-0.008549510142642734,"149":-0.03707191668564932,"150":-0.052735857092974105,"151":-0.05714991725369827,"152":-0.024958100884874,"153":-0.04735079163804614,"154":0.10617435082802153,"155":-0.02758626725583331,"156":0.055233636625285354,"157":-0.041440248955333915,"158":-0.07421288326402734,"159":-0.07151113374577077,"160":-0.015653088758447144,"161":0.06721730480650451,"162":0.05437757329090727,"163":-0.026347414735030744,"164":-0.08806628272882334,"165":0.10450738508252032,"166":0.1339334377510722,"167":-0.1655853060927266,"168":-0.009618592392945475,"169":0.04418410627181945,"170":-0.03139040375472412,"171":-0.04085743433778918,"172":0.10820852937391164,"173":-0.0464960604742537,"174":-0.11947875200841518,"175":0.012756677775404974,"176":-0.045072629561166595,"177":-0.032931311002118754,"178":0.06042154044675312,"179":0.009331520490232082,"180":0.09124895987887646,"181":0.11912499336484657,"182":-0.15392642674378182,"183":-0.10747989844797314,"184":-0.0543981117973572,"185":0.13302838120131286,"186":0.03454063493965747,"187":-0.06740375608328396,"188":-0.019959391604102678,"189":0.20294079400940848,"190":-0.09970688478643505,"191":-0.11735910395471114,"192":-0.1196765072760796,"193":0.06362251446575576,"194":-0.05318706839979035,"195":0.08177338481631628,"196":0.13152258872316133,"197":0.029620363255345054,"198":-0.13955077829485932,"199":0.0022444751335974292}},{"sx":5,"sy":5,"depth":8,"w":{"0":0.019896030396944955,"1":0.10269313769043595,"2":-0.1340733131959487,"3":0.07781104901932002,"4":0.07522083066376871,"5":-0.01994609754084326,"6":0.09123886636414966,"7":-0.20920479499044717,"8":-0.07524816075277399,"9":0.1942730508276429,"10":-0.17578917256596405,"11":0.18945621157290726,"12":-0.010368719165997286,"13":-0.0884756067861007,"14":-0.025132507208947576,"15":-0.15504561717712306,"16":-0.05029612158742908,"17":0.1502200403483863,"18":-0.08897970170217057,"19":0.09293417238080415,"20":0.07272975191253023,"21":0.16848533182616723,"22":-0.0319875470952937,"23":-0.03105057678992148,"24":-0.0845531249881129,"25":-0.015171230643329396,"26":-0.016582602157019944,"27":0.05968679361362421,"28":-0.005750660248763849,"29":0.005974711306084263,"30":0.06530466873503418,"31":0.03296154266506184,"32":-0.12798706685918687,"33":-0.13749303022005377,"34":-0.1985975963516257,"35":-0.1209685045111711,"36":-0.0768746446337243,"37":-0.027317587524196017,"38":-0.002483022056308407,"39":-0.165174690562919,"40":-0.012201293687804843,"41":-0.0038703332518170664,"42":-0.05983047570664233,"43":0.002804381115715992,"44":-0.01963963252502234,"45":0.011512569564055756,"46":0.013614343184422622,"47":-0.11598044812653674,"48":-0.004548982562994623,"49":-0.1668323297554638,"50":0.08417669014433705,"51":0.160072170295677,"52":0.01768548447910064,"53":0.05757115387988298,"54":-0.055926235450488526,"55":-0.14421241356224396,"56":-0.17277324419892162,"57":0.04508841167601297,"58":-0.09112470098419803,"59":-0.01803176717690868,"60":0.04099790231391213,"61":0.0015975323635310018,"62":-0.14007149585095008,"63":0.03134506375901438,"64":-0.018921898738821198,"65":-0.07146607208344358,"66":-0.1675282722810671,"67":0.051299580886936515,"68":0.2215742614419856,"69":0.022847437546779495,"70":0.0752833690409448,"71":-0.017220476528557047,"72":-0.0778358892543884,"73":0.039822203053118004,"74":-0.12062373914010564,"75":0.02266681735950455,"76":-0.0009081637974625587,"77":0.12142667363259568,"78":0.0746136816579866,"79":-0.010415037157435228,"80":-0.0645403860151238,"81":-0.01880747857481954,"82":0.13744773365520274,"83":0.04954909373499458,"84":-0.020300937453326118,"85":-0.09718539070430277,"86":0.22899878908696802,"87":-0.06932009166445988,"88":-0.07275578609395945,"89":-0.13687634722989125,"90":0.4136854227264928,"91":-0.07617838767835726,"92":-0.01559301708931187,"93":-0.19203277498021826,"94":-0.11322324488803284,"95":-0.04216305250494814,"96":0.07077818641185721,"97":-0.2013680876314398,"98":0.08666071702579546,"99":0.08666454691688862,"100":-0.02605769350819921,"101":-0.03580199448267046,"102":-0.12207296912310447,"103":-0.13129994459959562,"104":-0.007173488891552952,"105":-0.05541944932618653,"106":-0.10659927608425561,"107":0.1524160918948427,"108":0.05399157847537722,"109":0.04721460490206162,"110":-0.08630857570365558,"111":0.010394473844004872,"112":-0.06753042777559166,"113":-0.06381955118246706,"114":-0.10077950943086583,"115":0.07244464904625121,"116":-0.06902236561254965,"117":-0.17794129477274348,"118":-0.030477103325536496,"119":0.1300624304724302,"120":0.10055820521077284,"121":-0.00220113253349998,"122":-0.07703490074532218,"123":0.1875223102964204,"124":0.16385379631863614,"125":0.027857673697368707,"126":0.17630140756833956,"127":0.2338335228042924,"128":-0.0428992872062751,"129":-0.0473595981607776,"130":0.24639740403422578,"131":-0.22769083173289015,"132":-0.083791503631115,"133":-0.1055810753145088,"134":0.06385892929668238,"135":-0.15143098309456723,"136":0.07534418788597128,"137":-0.10793273478733838,"138":0.2699138561676311,"139":-0.12711620138741853,"140":-0.07102859775209015,"141":-0.14221338096124955,"142":-0.04963657978020774,"143":-0.10441271925461398,"144":0.028051809945673224,"145":-0.05270076304513233,"146":-0.002804100156500631,"147":-0.11756841530245538,"148":-0.0033225419268858485,"149":-0.017757005389451012,"150":-0.007603334213223872,"151":-0.025116971193673784,"152":-0.04334991527634745,"153":0.08073608054602609,"154":-0.12574247044542164,"155":-0.06433064182215771,"156":0.0980362137208157,"157":-0.054687108333069424,"158":0.03450845472989045,"159":0.1343835834983377,"160":-0.0463529374828209,"161":-0.0578555330547647,"162":0.04684416111054127,"163":-0.11208975475122449,"164":-0.04017769419217155,"165":-0.1882773330299726,"166":-0.001085784340917789,"167":0.3203231122626121,"168":0.19461135201837423,"169":-0.19576993868293027,"170":0.1739995845668775,"171":-0.21197910039723503,"172":0.049679005641644895,"173":-0.21637308700930408,"174":-0.016008853508766283,"175":-0.03936951629278124,"176":0.1335710919677204,"177":-0.18219297647722357,"178":0.16095643322401926,"179":-0.26120220231604757,"180":-0.08290136998336292,"181":-0.21123231145710206,"182":0.11722161174388598,"183":-0.0005303370460367673,"184":-0.052974248406335835,"185":-0.02598343447946954,"186":-0.07444636236129322,"187":-0.037046604926097675,"188":0.003982647144458951,"189":0.06631760388301461,"190":-0.07354078551583546,"191":0.016852696306236183,"192":-0.10771360847416063,"193":0.09920518588857408,"194":-0.09808309290306227,"195":-0.1029295826431352,"196":-0.1344811111595572,"197":-0.03994380252850008,"198":0.12905145989109923,"199":0.21132918091833813}},{"sx":5,"sy":5,"depth":8,"w":{"0":0.0660840858922204,"1":0.016700402542746285,"2":-0.07843151415865668,"3":-0.07873235755933897,"4":-0.06118413983595309,"5":-0.1634551771456737,"6":-0.0014532330825940522,"7":-0.04371621451635676,"8":0.016455534956878924,"9":0.19705246930686715,"10":-0.1060711636106636,"11":-0.16882839102596803,"12":-0.03534341286901371,"13":-0.028302038628098977,"14":0.02371760743122809,"15":-0.0208113440991877,"16":-0.09452960623145909,"17":0.15729475674726384,"18":-0.11031658571874486,"19":-0.1850334667588122,"20":0.06666015457273389,"21":-0.00204198608636943,"22":0.10343734144607389,"23":-0.12443365994124092,"24":-0.22455303245011518,"25":0.15901820857998095,"26":-0.05086218263412592,"27":-0.11974417470418422,"28":-0.13374353625312294,"29":0.04763629123010126,"30":0.07588288445262292,"31":-0.19283173680290458,"32":-0.2787163555922531,"33":0.046603264936832874,"34":0.017516881312503636,"35":-0.11114398785387924,"36":-0.10390619872486423,"37":0.06603214200631252,"38":-0.1566625763506831,"39":-0.1865383423094538,"40":0.10156691724635235,"41":0.07850977385976188,"42":-0.18448548789072883,"43":-0.12413515297375965,"44":-0.0790289081625207,"45":-0.01984174724830294,"46":0.0869084536068877,"47":-0.01583334236882221,"48":0.055184263269756846,"49":-0.10684913496194068,"50":0.006299012918160192,"51":0.08448641826158731,"52":0.10721869424356568,"53":0.0636690580012096,"54":0.07982901371751083,"55":-0.06955492806785787,"56":0.0476498322706197,"57":0.15436386726598392,"58":-0.1464705746091027,"59":0.21103259333042218,"60":0.053067952222196346,"61":-0.04455220955306913,"62":-0.07120939431104646,"63":-0.1173295318903501,"64":-0.08460987199044813,"65":0.056207176729115335,"66":-0.09410848116614193,"67":0.1496699751210158,"68":0.11301119397868203,"69":0.03131182183355868,"70":0.19366220042048107,"71":-0.08228398310343339,"72":-0.07503911960523897,"73":0.09383801770854025,"74":-0.0600641594496554,"75":-0.04026154750210034,"76":0.13045868771033287,"77":-0.024453560535523708,"78":0.20324381854993762,"79":-0.04921409289023928,"80":-0.022324867283162683,"81":0.13534087955097995,"82":-0.04105350205544675,"83":-0.0738132714362792,"84":-0.05837011821627135,"85":-0.07053884249390037,"86":-0.0056641802363374474,"87":-0.0006991080329847297,"88":0.03661146235223162,"89":0.05509835239798171,"90":-0.13456575695270798,"91":0.20867979612167442,"92":0.08016986072998293,"93":0.03098060875154723,"94":-0.0854280790043971,"95":0.06241985679897518,"96":-0.1691360600708584,"97":-0.02748297402046215,"98":-0.17082003811440133,"99":0.3163515700487541,"100":0.004611518881852635,"101":-0.09123712476581972,"102":-0.0947137989583514,"103":-0.019625296997249304,"104":-0.03774228140610694,"105":0.06200478206387263,"106":0.047161229974911026,"107":0.18265036288911776,"108":0.01199690532789379,"109":-0.07260134854961399,"110":-0.09133433229331948,"111":0.000263287924058524,"112":0.0016793855208248557,"113":0.07557100332240643,"114":-0.08103240844245148,"115":0.054831611360580665,"116":-0.025686890299664648,"117":-0.08771183252167292,"118":0.08076934564801641,"119":0.09494507492764717,"120":0.05295507638778063,"121":-0.0009129156682990479,"122":-0.0741034558183205,"123":-0.18980255874087118,"124":0.15024673615314368,"125":-0.06381530977139196,"126":0.23530015360042597,"127":-0.10050575304848725,"128":-0.03591131347334798,"129":0.16491514919111125,"130":-0.022277820856011408,"131":-0.12286322829983151,"132":0.05913504926597362,"133":-0.08454392443374999,"134":0.27102993133674086,"135":-0.12145823025147735,"136":-0.0036487343302273835,"137":0.09668375623635403,"138":0.03501306238678189,"139":-0.05195375146057996,"140":-0.006937355827386934,"141":-0.13581780275610333,"142":0.11893936426405745,"143":0.04834064813058951,"144":0.009731982348279739,"145":0.16025290566835707,"146":0.08029954791122218,"147":0.01641129991802137,"148":-0.116949235523222,"149":-0.11076753002064157,"150":-0.07168200025364707,"151":-0.1262557932937384,"152":-0.005316081773909111,"153":-0.1542267823218512,"154":-0.05350261742453268,"155":-0.08898647367388884,"156":-0.04763297290790172,"157":0.003939464159633735,"158":0.02708089643923732,"159":-0.02221423472453904,"160":0.050079114304203226,"161":-0.016097534732386714,"162":-0.10599956378194716,"163":-0.00525872572738729,"164":0.1395086107761024,"165":-0.01188766218335664,"166":0.08862657862287214,"167":-0.08082704619916259,"168":-0.049940749593392425,"169":0.017326967001107776,"170":-0.17860966601064868,"171":0.13927656202063396,"172":0.04659795896646097,"173":-0.18934912012610058,"174":0.046386084888755744,"175":0.09620783272990122,"176":0.008280284484558715,"177":0.07432262989122386,"178":-0.08139262766152601,"179":0.205920135736791,"180":-0.09157892733205288,"181":-0.09771624837619243,"182":0.11858895125153573,"183":-0.1252222885079859,"184":0.05342873634998805,"185":0.01900301912716558,"186":-0.02604781715433594,"187":0.10148333246682353,"188":0.1024637071966519,"189":-0.05443657732372354,"190":0.005530855646264322,"191":-0.07293061363746252,"192":0.14972533128209545,"193":0.050047776148742555,"194":-0.026101253357637126,"195":0.03374222224114502,"196":-0.05598320093236906,"197":-0.11865598401569696,"198":-0.01666933645349986,"199":-0.010317310605591011}},{"sx":5,"sy":5,"depth":8,"w":{"0":0.04980823969075947,"1":0.028920705847655208,"2":-0.07417476241875831,"3":-0.18279585152189015,"4":-0.03368320462700272,"5":0.04342929177519132,"6":0.05407907715986503,"7":0.020800420520391213,"8":0.041959652584689415,"9":0.09161839721023486,"10":-0.15691922754466617,"11":-0.08692525545543331,"12":-0.029583164251886257,"13":-0.0579802485606992,"14":0.13268349085625353,"15":-0.15365145389007323,"16":0.01491921351345958,"17":-0.14973735045235148,"18":-0.15520323915686274,"19":-0.06584576459189274,"20":0.016795005876979602,"21":-0.10125748192323397,"22":0.0802216366441401,"23":0.017030530520806362,"24":-0.05113897855184117,"25":-0.2105485532127983,"26":0.019366868446336116,"27":-0.1194086152820114,"28":-0.023006335468432816,"29":-0.2008774588126219,"30":0.11521113503255578,"31":-0.018038224661957803,"32":-0.045417864161305145,"33":-0.040573587355819576,"34":0.03653609046353388,"35":-0.242245630981048,"36":-0.005572253304032342,"37":-0.12237361535834168,"38":0.06363437782232804,"39":0.007325344470917586,"40":0.13176492195521836,"41":0.15770007552214418,"42":-0.06272101008240298,"43":-0.11004980809766449,"44":-0.11497585443310199,"45":-0.09496950757909425,"46":-0.006342263870271026,"47":-0.00964755300335538,"48":0.1406701345275503,"49":0.008818355154292601,"50":-0.0945411692730341,"51":-0.027567307823165903,"52":0.040288141327881256,"53":0.02132519506361285,"54":-0.14410535889565496,"55":-0.09757421096267237,"56":0.057418154847629035,"57":-0.04211662586955348,"58":0.027648385133851382,"59":0.09436515070994186,"60":-0.027422548270525985,"61":-0.03676645806348022,"62":0.11279314855973246,"63":0.0676519822421128,"64":-0.03915803161827946,"65":0.004721861123772799,"66":0.027196681672124006,"67":0.025126877177834392,"68":0.15924085989840178,"69":0.004412864956813308,"70":0.07672520869023633,"71":-0.038700908184846575,"72":0.03715435866054674,"73":-0.050614948866998875,"74":-0.10148418672546061,"75":0.07194452967045466,"76":0.09309838501836451,"77":-0.16390797066338456,"78":0.10959508323798128,"79":-0.02976615663239747,"80":-0.012082348167503618,"81":-0.028547634297713034,"82":-0.15041369463055748,"83":-0.015002250641931131,"84":0.033996384727712985,"85":-0.03905674092941249,"86":-0.027709784236012516,"87":-0.09316183853821185,"88":0.12403927864916829,"89":0.09409861716210838,"90":-0.20559676188609766,"91":-0.08874832489437674,"92":0.1546348417114384,"93":-0.061303620826081644,"94":0.07037056685791727,"95":-0.24932658050591747,"96":0.0426932804776098,"97":0.025700121840419067,"98":-0.14066425523916787,"99":0.06507993197470603,"100":-0.041886377843571104,"101":-0.11305434071663424,"102":0.07843634933810731,"103":-0.03476586793990312,"104":0.178051238890251,"105":-0.1159749096083979,"106":-0.13494397726666665,"107":0.16717961875449036,"108":-0.057453306446130316,"109":0.031027606104021194,"110":0.17148290718008502,"111":0.08631267491431731,"112":0.1621424334950754,"113":-0.052399873957100405,"114":-0.05124188437731737,"115":0.2242064999876784,"116":0.1280485474167215,"117":-0.12812555863834377,"118":0.04142876563223038,"119":0.17521054171364092,"120":0.021078991669789927,"121":-0.05580677492240925,"122":-0.038756321938707906,"123":0.07134964966730113,"124":0.2571054573328218,"125":0.022452585424464617,"126":0.1856473040385191,"127":-0.08482094496776245,"128":0.03808041058158609,"129":0.10819460527342002,"130":-0.14703793145628674,"131":0.20983918543064695,"132":0.07875865933337929,"133":-0.029678416897103856,"134":0.08790230154229221,"135":-0.03507567399042054,"136":-0.019309490886911772,"137":-0.012161872275997038,"138":-0.07213113896177394,"139":0.14802850695747202,"140":-0.15770214087781445,"141":0.004091026825353358,"142":0.03229682431430038,"143":-0.007522705089148625,"144":-0.1291734831145496,"145":0.19188145757061284,"146":-0.11159612622075016,"147":0.05895501869213575,"148":-0.007186574101533895,"149":-0.050545916537460926,"150":0.0213448375616228,"151":-0.02946759617393428,"152":-0.11752434320005917,"153":-0.05448056466026598,"154":-0.12732686584854433,"155":0.20275017035175402,"156":0.006241058235547339,"157":0.0908508206771822,"158":-0.10273779042112818,"159":-0.055472507480200266,"160":-0.02989954974183226,"161":-0.02190871943455075,"162":-0.058067119034912726,"163":-0.031216612293895316,"164":-0.06522559278988489,"165":-0.04813401272860057,"166":-0.002214346449164467,"167":-0.04262062749246966,"168":0.09938206353654251,"169":0.06621484715023328,"170":0.072771227141617,"171":-0.024641624492542175,"172":0.0010249530182751864,"173":-0.0271814364378947,"174":-0.14607423304134792,"175":-0.09905390608980638,"176":-0.055915441045771605,"177":0.04707946787749928,"178":-0.043261491131290415,"179":0.07474567397411891,"180":0.07550504986655357,"181":0.0951019139078935,"182":-0.11637022684544449,"183":0.06114349751224376,"184":-0.10981465654691085,"185":-0.19720098179883216,"186":-0.01977465370005439,"187":-0.1214052412449904,"188":0.04957881720537019,"189":0.07738748363118841,"190":-0.1931906379086535,"191":-0.07145862826346637,"192":-0.10146220876661344,"193":0.002116476904790391,"194":-0.03667635086705991,"195":-0.048803460247765496,"196":-0.09843378199395715,"197":-0.05616911015395987,"198":-0.08097143277879211,"199":-0.02474180434254624}},{"sx":5,"sy":5,"depth":8,"w":{"0":-0.04511477333660165,"1":0.052729027873976674,"2":-0.0195925377288313,"3":-0.04514257270034842,"4":0.0038984477480630306,"5":-0.19201787036506934,"6":0.08320382652847871,"7":-0.046108826559754755,"8":-0.053219795011072275,"9":0.09716591894494468,"10":-0.046447221057262816,"11":0.1434567879355504,"12":0.10458079816878874,"13":-0.05202786960706448,"14":0.015623793086802836,"15":-0.05396388498714815,"16":0.09251668200867677,"17":-0.07198607396781732,"18":0.030199119443977625,"19":-0.04514920427217761,"20":0.021897884190840884,"21":0.013879664185114566,"22":0.16985716638410775,"23":-0.04646098996170059,"24":0.031088073951035338,"25":-0.048352500088838644,"26":-0.04802681491090993,"27":0.08231538260849292,"28":0.10056804793148011,"29":-0.04805752614367927,"30":-0.07607106903488015,"31":-0.08203431492946459,"32":-0.03720749473283335,"33":-0.09920178146935471,"34":-0.18668282633544547,"35":0.0071505233883126336,"36":-0.07039530048452404,"37":0.03982687634294293,"38":-0.013396738217364144,"39":0.006138191061837408,"40":-0.016896774508309533,"41":0.03424875944392701,"42":-0.08086028069762664,"43":0.07984851939740092,"44":-0.017185035681829497,"45":-0.11968937805153197,"46":0.005592906450397617,"47":0.15029977201613698,"48":0.16827714446616712,"49":0.06476727340884667,"50":0.1845333355119138,"51":0.07293809984139622,"52":0.12143403906765697,"53":-0.10243833424337463,"54":0.03441572210834172,"55":-0.07225895421696683,"56":0.06577423344539139,"57":-0.019241839636847356,"58":0.028760256889540307,"59":0.10627031338764893,"60":-0.053546082591706005,"61":-0.013764502610276577,"62":0.07053094921926142,"63":0.02160203356636468,"64":-0.0046096306299615,"65":0.0784019485303255,"66":-0.07126438711347789,"67":0.015923727009060678,"68":0.05141349437340779,"69":-0.03343479379682767,"70":-0.20674060159639804,"71":-0.045161285620763554,"72":-0.028111476672666634,"73":-0.017089784677768137,"74":-0.05877258661097608,"75":-0.028442117409963268,"76":-0.05416995676905476,"77":0.0423607837393076,"78":-0.18933881179402878,"79":-0.034526819811151,"80":-0.16597591608246004,"81":-0.16419453067501447,"82":0.050507864330258424,"83":-0.2567956357901899,"84":-0.0026207949375789195,"85":0.030811865322107418,"86":0.011362758925851126,"87":0.09664472866827035,"88":-0.017941268609403697,"89":-0.09373574502266947,"90":0.023582879204449434,"91":-0.07527728948307048,"92":-0.036695138045827545,"93":-0.022097459236773427,"94":0.0323765183949786,"95":-0.24294808254543504,"96":0.024825805224498548,"97":-0.11858159001899865,"98":-0.02543465852550134,"99":-0.044393747706273815,"100":-0.024716394134632613,"101":-0.2101579886078828,"102":0.02781621184274354,"103":-0.1668862536559025,"104":-0.09097592128576872,"105":0.02137632207143739,"106":-0.0813461883588527,"107":-0.020558682718044355,"108":-0.014139278689081167,"109":0.006930091483040506,"110":-0.0929209135364373,"111":-0.1001597860876538,"112":-0.18526142451107186,"113":-0.07284649258475745,"114":-0.097093314956674,"115":-0.06583739388055229,"116":-0.07034226149795106,"117":0.00037454644973592836,"118":-0.20717424437152163,"119":-0.1889477540432429,"120":-0.01900373351657292,"121":-0.02334003049344765,"122":-0.010204401383198817,"123":-0.21627716469203498,"124":-0.10045426223830897,"125":0.00882571172863909,"126":0.05939087990742865,"127":-0.03171377095018536,"128":0.14267934278676622,"129":-0.05892731027161484,"130":0.21154894915653163,"131":-0.05488789925803276,"132":-0.004664906342709021,"133":-0.15052180945754817,"134":0.12509351451691192,"135":-0.12472430371446834,"136":0.11808149471662499,"137":-0.03949967014314608,"138":0.053537928202186426,"139":-0.06219723143123159,"140":0.03089524431124401,"141":-0.06881406672899334,"142":-0.09663627094416824,"143":0.13266979639399865,"144":-0.06587798656045692,"145":-0.10095851057722999,"146":-0.07168929022792382,"147":-0.01764954616350034,"148":-0.03880252305293023,"149":0.08142632770734569,"150":-0.07520062847255134,"151":-0.09138194003853295,"152":-0.16068490971800836,"153":-0.09705944973406265,"154":-0.054840449447546506,"155":-0.046958446965312005,"156":-0.10931300826630908,"157":0.1059899457413933,"158":-0.2438795628811186,"159":0.003294406076710952,"160":0.0008403718340035315,"161":-0.06646721632182953,"162":-0.06411040167058349,"163":0.017216823678689826,"164":-0.09242003435443141,"165":-0.08297019271189517,"166":0.05045119918443225,"167":0.0033514785635538474,"168":0.18570959037879878,"169":-0.06912918428956734,"170":0.0017913332062102162,"171":-0.15322843620478072,"172":-0.0706647783237716,"173":-0.04160270505738086,"174":0.08627551003956535,"175":0.14410796395108347,"176":-0.01836564009591045,"177":0.10002585007334343,"178":-0.09176950239216607,"179":-0.07594653652113646,"180":0.044275177270800076,"181":0.08843558611408002,"182":-0.0778664568393828,"183":0.0903903660512825,"184":-0.03163638748239094,"185":0.13631701408700087,"186":-0.014910829620982741,"187":-0.13506824447583743,"188":-0.080669160437263,"189":0.0900919388882625,"190":0.021018424821292788,"191":-0.13759930296178918,"192":-0.05477231204216559,"193":0.08297043406575529,"194":-0.0448439762140948,"195":-0.12843679359437776,"196":0.06271282909787343,"197":0.11465798568487111,"198":-0.16566683284921288,"199":0.008490517003381723}},{"sx":5,"sy":5,"depth":8,"w":{"0":-0.08611542146705055,"1":0.042956123472606834,"2":-0.09053206518978034,"3":0.025076771374562032,"4":0.1468979701247285,"5":0.05731811655066672,"6":0.1595410580915133,"7":-0.11604654603014246,"8":-0.09884330726175647,"9":0.019076039363324544,"10":0.04266037389732362,"11":-0.08408623373942951,"12":0.0011658848026953118,"13":-0.03835700015492142,"14":-0.004964242057406064,"15":-0.12523286888539287,"16":-0.027839667105974172,"17":-0.06464816446982835,"18":0.15728999257687623,"19":-0.23604148829528002,"20":-0.1658817720256862,"21":-0.07762948069454595,"22":-0.1005764091751543,"23":-0.14600320249505222,"24":-0.021699161040330907,"25":-0.0480516298139772,"26":-0.013211861122290055,"27":0.09731157525518415,"28":0.10311430908055706,"29":0.02465564921422565,"30":-0.13998508711335061,"31":-0.1353979248063878,"32":-0.14565927200186451,"33":-0.08457383191591245,"34":-0.07610265194847433,"35":0.07336929968454858,"36":0.11997429417671553,"37":0.1237520142740185,"38":-0.1168926227961493,"39":-0.026065340725372657,"40":0.10124232978355184,"41":0.027625281710340316,"42":-0.11825639767384762,"43":0.31571612195876647,"44":0.08872654879812222,"45":-0.006307390476151736,"46":0.107553049020544,"47":0.1297225871075416,"48":-0.05948425355617996,"49":-0.057591429929067905,"50":-0.15215121509388413,"51":0.24207022670189768,"52":0.19274241440810377,"53":-0.050363093652389654,"54":0.1374557247551247,"55":0.08251232404322824,"56":-0.012403508405464293,"57":-0.17419148880230037,"58":-0.07851857087598495,"59":-0.09264901435797777,"60":-0.004384930946686007,"61":-0.07661061251613832,"62":0.02263057312877784,"63":0.0737004416939004,"64":-0.0833731750242432,"65":-0.1035003802488777,"66":0.03459820454261908,"67":-0.15731730965937815,"68":-0.02316477538120456,"69":-0.057361738856834744,"70":-0.15611064309376557,"71":-0.02539177604066123,"72":-0.07657273288968852,"73":-0.11771195740149724,"74":0.0932995956816289,"75":-0.10744308910374452,"76":0.05397758969523901,"77":0.06102765374333449,"78":-0.09574013626916641,"79":-0.049517454462215844,"80":0.11892959655723441,"81":0.004713462414390239,"82":-0.023574437876071858,"83":0.10081075850935986,"84":0.0012088473467154234,"85":-0.02253852161933824,"86":-0.05589648980843424,"87":0.2799472429621833,"88":-0.03666004991448681,"89":0.07862407988858242,"90":0.03712653516890845,"91":0.12537205390131356,"92":0.07994648351576014,"93":-0.10985811268411098,"94":0.05430260173824827,"95":0.1675551998203669,"96":0.03752736452399777,"97":0.03007496491115622,"98":0.044798605297309946,"99":-0.05995739056652275,"100":-0.01783326933828126,"101":-0.1667231185863339,"102":-0.04595675302520613,"103":0.0892272884728281,"104":0.10800150592528046,"105":0.12487429594659807,"106":-0.06951470481134167,"107":-0.12850855925442997,"108":0.10116547750079255,"109":-0.16037196502600476,"110":0.027491124669459757,"111":0.0757706346702057,"112":-0.11801768611428397,"113":0.07573387670386435,"114":-0.03909098978584154,"115":-0.05053640108790583,"116":0.06846091980771046,"117":-0.09741253736963452,"118":0.06768264725891732,"119":-0.10693871394966678,"120":-0.048968285663284,"121":0.27731965560177385,"122":-0.0864997700331051,"123":-0.13654028181436867,"124":0.004780173821523347,"125":-0.020151766540328065,"126":0.007727177173735098,"127":-0.03954858975735612,"128":0.10734387812947288,"129":0.08109295613603192,"130":-0.09715499256548478,"131":-0.23866944356696365,"132":0.03153371497099122,"133":-0.07624236374611881,"134":0.09199023508356888,"135":-0.10994825258525015,"136":0.09259754522821984,"137":-0.05228559316462388,"138":-0.06374515380265222,"139":0.11201816830539373,"140":0.03607790275520361,"141":-0.08627197298429733,"142":0.07571238273040876,"143":0.027322868515117543,"144":0.08482439763051818,"145":0.03479183675711045,"146":0.02930129827494525,"147":0.07815067585041768,"148":-0.02613136547201812,"149":-0.030527844907608615,"150":0.07144159666195903,"151":0.021080301661403296,"152":0.01666547883681047,"153":0.015275765478710266,"154":-0.09643186642646231,"155":0.07819161720245553,"156":0.008885945484116467,"157":-0.07025837986306373,"158":0.12382648670331652,"159":-0.022165816639206477,"160":0.043545164063469644,"161":0.15955883608531693,"162":-0.00608289434466213,"163":-0.09742471321242242,"164":-0.027357910499453592,"165":-0.06960274958138232,"166":0.0445618858483726,"167":-0.13215133627227274,"168":-0.052086418319321016,"169":0.09843051836941659,"170":0.06792751072409631,"171":-0.09219289991714821,"172":-0.09197872311661134,"173":-0.15571911843743044,"174":0.007929102068653793,"175":-0.02944335724226444,"176":0.1029006706760634,"177":0.11839095379866159,"178":-0.034880412451239545,"179":-0.04442818590396836,"180":-0.1256311925961474,"181":0.002463734346039221,"182":-0.021759875211142202,"183":-0.06627162396429578,"184":0.047419800111010366,"185":0.07726600450174553,"186":0.11186433423577584,"187":0.0023510839110427403,"188":0.077231216038367,"189":0.013255476710902712,"190":-0.14884343189325638,"191":0.06435895747642581,"192":-0.06418338063078217,"193":-0.04964761693960443,"194":0.07491074653938201,"195":-0.008021602575092527,"196":0.018799880695594864,"197":-0.08032769863787889,"198":-0.11588777799017647,"199":-0.07307181635915326}},{"sx":5,"sy":5,"depth":8,"w":{"0":0.041002398494538725,"1":0.055354636833944565,"2":0.05856693858702658,"3":-0.08681867075961554,"4":-0.17259541943053286,"5":0.06917757618076215,"6":0.03996564106666832,"7":-0.027378411769851264,"8":0.009520421742009615,"9":-0.01926092411029442,"10":-0.008865017044717859,"11":0.01779090394612665,"12":0.03524719662671471,"13":-0.08692732062611015,"14":-0.06806655624331481,"15":-0.030377332156580193,"16":-0.0749409124339281,"17":-0.19109574242963853,"18":-0.009517952583451653,"19":-0.050216861408133674,"20":-0.02141250714200176,"21":-0.03251680253599336,"22":-0.048141500960779605,"23":-0.03479115733347974,"24":0.053599406035629044,"25":-0.0879500072694353,"26":0.06801612393040571,"27":-0.06928543934042267,"28":0.04405898812539158,"29":-0.013197699918915545,"30":-0.19710306470531597,"31":0.017277464770268793,"32":-0.05982742507895001,"33":-0.027502892578343343,"34":0.014563425125512276,"35":-0.1460347932150971,"36":-0.07903339255273455,"37":0.05057999596962883,"38":0.084460022602441,"39":-0.06723685031287323,"40":0.041522670771227496,"41":-0.05035831888541152,"42":0.14310389872684837,"43":-0.02652343656333949,"44":-0.026244457590224507,"45":0.07611013544467743,"46":0.002187049357594762,"47":0.10932764907823192,"48":0.050641282501920064,"49":-0.022683351711856255,"50":-0.025299352919458073,"51":-0.038091481488882695,"52":-0.004855093916889,"53":0.07901128569443572,"54":-0.0018011224335205247,"55":-0.06867719418048933,"56":-0.007001052940020068,"57":-0.010459633783087518,"58":0.023115068552531162,"59":-0.030758715808951353,"60":0.013749946725505086,"61":0.14780130963466911,"62":-0.07063939425089874,"63":0.008932647447175058,"64":-0.1531905608909199,"65":0.05648806588190336,"66":-0.046453100187578616,"67":-0.06721479118442865,"68":-0.15089106003082953,"69":-0.007618483534532324,"70":-0.1209046082081127,"71":0.0952108620925963,"72":-0.034260683708295006,"73":0.10639971520269967,"74":0.07952640586699236,"75":-0.11700073911450008,"76":-0.09687070938021343,"77":0.006190956560642455,"78":-0.06257677360309222,"79":-0.03625036712640438,"80":0.0006973072359509054,"81":-0.22463696773186478,"82":0.33404092523647866,"83":0.1296086409617882,"84":0.021773563160081392,"85":-0.032343841609407106,"86":-0.005765680329044171,"87":-0.037067684880116,"88":0.11986362423390505,"89":-0.1532574900161963,"90":0.20556723317456485,"91":0.04996617528137731,"92":-0.05757556049318878,"93":0.0008187889825745483,"94":-0.12346531492344366,"95":-0.07711731541573529,"96":-0.047600052667521896,"97":0.07655857937318933,"98":-0.007114707503911423,"99":-0.19112583653038817,"100":-0.07730351150347808,"101":-0.12761537353785768,"102":0.008290250900289847,"103":0.13105554308833292,"104":-0.07171361566606839,"105":0.05421968847321296,"106":0.07344136658515592,"107":-0.09301742079536383,"108":0.03210986974642207,"109":0.008755945724371664,"110":-0.057320037781590394,"111":0.04555245989845934,"112":0.15934265301910866,"113":0.06885767772295484,"114":0.08117967734699696,"115":-0.10364129545652112,"116":-0.04803144196186801,"117":-0.005592284706807714,"118":-0.05089373806200986,"119":-0.040307612552644936,"120":0.020169674053125038,"121":-0.13464086336028025,"122":0.17484761821799497,"123":-0.18361426530950212,"124":-0.029021059982777576,"125":-0.13625352293819082,"126":-0.09334641374524824,"127":-0.11950414998166121,"128":-0.04641884848968814,"129":-0.03795473817102235,"130":0.0915191205483853,"131":-0.13537512957036285,"132":0.013201207010322588,"133":-0.07597816920387933,"134":-0.09085757522102102,"135":0.08952996469679621,"136":-0.16043746692803446,"137":0.009761416316949417,"138":-0.023959916677851367,"139":0.09795632115819876,"140":-0.21713851943701099,"141":-0.20433046114672163,"142":-0.1664245825468082,"143":0.1706454524459539,"144":0.2188968087647748,"145":0.061206271843264236,"146":0.034231971766878005,"147":-0.17561493839235948,"148":-0.21855389752936497,"149":-0.16828048770046433,"150":-0.02246257782150923,"151":-0.025234918893555943,"152":0.008203035838949569,"153":-0.0668199038425027,"154":0.12157181492561767,"155":0.00848701273434238,"156":-0.04606495657675928,"157":-0.1549292271137334,"158":0.17867495613125425,"159":-0.01616485834669525,"160":0.055588013964879474,"161":-0.0305197151256523,"162":0.13628119411527773,"163":-0.14880055573877596,"164":-0.12847752145298352,"165":0.06019431690850955,"166":-0.08193033859610173,"167":-0.0770240888398242,"168":-0.17681305179264453,"169":0.02428492718540712,"170":0.015818352445529482,"171":-0.05957260286493314,"172":0.12153458724773987,"173":-0.06174193060140235,"174":-0.1320517185011095,"175":0.14162004926381816,"176":-0.12800468058575262,"177":-0.040904581852930125,"178":-0.03643172899159542,"179":-0.013729498811838459,"180":-0.17661930003787926,"181":-0.1188913677313476,"182":-0.024157041475066855,"183":0.18487029805706287,"184":0.13950777545470436,"185":-0.020371536023138986,"186":0.10731941640442648,"187":-0.11385168032291057,"188":-0.09017651866163542,"189":-0.020686305634652704,"190":0.0017100145182201245,"191":0.02601595859379728,"192":0.02667349888434461,"193":-0.11139173693978903,"194":0.11009571216194396,"195":-0.12006076616529694,"196":-0.02917225719908515,"197":0.12309066046717042,"198":-0.05934929905723699,"199":-0.11335853388337731}},{"sx":5,"sy":5,"depth":8,"w":{"0":-0.1418685646648384,"1":-0.06472639779094695,"2":-0.03939413669737007,"3":0.08947130695896595,"4":0.04677389725497402,"5":0.06880853618515811,"6":-0.0888035770763197,"7":-0.10109746179713747,"8":-0.10574585503695788,"9":-0.0865106978444056,"10":-0.023801473291653382,"11":-0.017227313116739435,"12":-0.0509488433871913,"13":0.17543359279794535,"14":-0.13640431586746285,"15":-0.1299845746413056,"16":-0.08044288183524319,"17":0.06918179578764602,"18":0.04502907337702745,"19":0.07404976841683189,"20":-0.06320188492833301,"21":0.1253319898258276,"22":-0.10925247572588402,"23":-0.06576074675443531,"24":-0.015130948307710404,"25":-0.034444964188956914,"26":-0.09281069638984855,"27":-0.06458896580745722,"28":-0.05668195292905733,"29":0.10690338789833082,"30":0.0325089389169259,"31":0.14663602717795113,"32":0.08278912530323222,"33":0.020748696089451523,"34":0.08521364234693973,"35":-0.13662537064692046,"36":0.015111538138207089,"37":0.0014933419241807532,"38":0.024388246366821464,"39":0.07540061883579816,"40":0.03699233494120287,"41":-0.1380810413845748,"42":-0.07445766488706222,"43":-0.030922136042792057,"44":-0.0340249253772674,"45":0.03163971598115404,"46":-0.016792276696270564,"47":-0.32535714930191956,"48":-0.09537588272239907,"49":0.09010719011625754,"50":-0.06370805175296543,"51":-0.0019255197734635498,"52":-0.1014692429166359,"53":-0.08979549618804604,"54":-0.03093230358392893,"55":0.1745923333947805,"56":-0.12218012648967556,"57":0.0877316033683168,"58":-0.1622618397247319,"59":-0.18264823005105105,"60":-0.05221356510149803,"61":-0.08588855171760983,"62":-0.011033461866316858,"63":0.12152449236180064,"64":0.1298502878982972,"65":0.09150407020191904,"66":-0.07092283214478812,"67":-0.13858997766696912,"68":-0.006017366875557727,"69":-0.025323857840531795,"70":0.1659284256444277,"71":0.1975481773322511,"72":0.22679245351916794,"73":0.05296712485467133,"74":0.20761879382807372,"75":-0.20345754480456912,"76":0.031670338319585545,"77":-0.10401317390820877,"78":0.0852203700032995,"79":-0.04806205261028723,"80":-0.022720286041276915,"81":-0.07132633102192557,"82":-0.039147441557276855,"83":-0.004585738026247536,"84":0.0029149443622961064,"85":-0.059414863567432995,"86":-0.0747419791219576,"87":0.12096055269333514,"88":0.017253428617003283,"89":0.08630150638837786,"90":-0.01750984197683594,"91":-0.07287107494577011,"92":-0.034744954494262466,"93":-0.06014079398124124,"94":-0.08798823522514033,"95":0.1624954484899162,"96":-0.03500132496323366,"97":-0.019800715308091257,"98":0.06375884656461259,"99":-0.1054611528149352,"100":0.025307562663357618,"101":-0.03792426996584254,"102":-0.005760452244261172,"103":0.09690466672182724,"104":0.10271024775362139,"105":0.008309919325991538,"106":0.0014042242120486234,"107":-0.17846390149861827,"108":-0.08178185889209574,"109":-0.03595657857404916,"110":0.029161775477025934,"111":-0.22968152028873645,"112":0.12242952501156541,"113":-0.0647090558734468,"114":0.08926485122953855,"115":-0.07733160436831697,"116":0.08698413537774528,"117":-0.04598677253877376,"118":0.06914062086818025,"119":0.01696730739001166,"120":-0.09543215914701368,"121":-0.0061391781560969205,"122":-0.05210333133940251,"123":0.0755397911386124,"124":-0.08565664305515525,"125":0.024953423011608963,"126":-0.10008236566162465,"127":0.013139809400082055,"128":0.021681344347670897,"129":-0.04506980385902124,"130":-0.10729244509463196,"131":-0.10699535613282496,"132":0.005336145429915016,"133":-0.14113225265220844,"134":-0.0977304785843715,"135":0.04935859615364397,"136":0.09744608099820931,"137":0.0013509763995038875,"138":-0.01504549790906051,"139":-0.2538271453507194,"140":0.03854815332103241,"141":-0.12142506654651122,"142":0.03188228144558806,"143":0.025254343104532437,"144":0.10989705401107114,"145":-0.16218295208009653,"146":0.07126830914996934,"147":-0.15098024416645692,"148":-0.056631420841608215,"149":-0.01930390139472383,"150":-0.013246387063209028,"151":-0.1449774014386112,"152":-0.02353620525831263,"153":0.10965360077317957,"154":-0.042694982916288295,"155":-0.06486699946930362,"156":-0.021087311687036345,"157":-0.061011688027188524,"158":-0.047347115356824496,"159":-0.004077169941636164,"160":-0.10188580982221886,"161":0.1476497923235645,"162":-0.05084076352168083,"163":-0.0700125076475956,"164":0.027276533875213442,"165":0.11947324359198024,"166":-0.21309824147581574,"167":0.04499758593935499,"168":0.12213177175915732,"169":-0.01657263765433519,"170":-0.027607723172617345,"171":-0.026701860254320777,"172":-0.09684926871544457,"173":-0.04897318784316067,"174":0.07702737726523662,"175":0.1323758984731464,"176":0.16788019494057638,"177":-0.010558834797236903,"178":0.02143552554250794,"179":-0.07834074696308717,"180":-0.05940479992993598,"181":-0.08671431734177312,"182":0.009491661039970008,"183":-0.08746062530790416,"184":0.0275733469442825,"185":0.05168068298076196,"186":0.04995224327588421,"187":-0.17103058605359364,"188":0.05487805695622116,"189":-0.13862080408157784,"190":0.021139913832108826,"191":-0.08727030272748286,"192":-0.1448139689924817,"193":0.09976935209161415,"194":-0.18830445762822354,"195":-0.03577718407218002,"196":-0.07822046303693155,"197":-0.03270516179011593,"198":-0.14470810989100158,"199":0.08259746740973903}},{"sx":5,"sy":5,"depth":8,"w":{"0":0.06371970092020753,"1":0.11091659476253064,"2":-0.006387159514931731,"3":0.028436430548568044,"4":0.08311160505704511,"5":-0.00009655744419491494,"6":0.2048989782138214,"7":-0.06306619473569543,"8":0.1077350637655729,"9":0.015551427372167635,"10":0.05173870876579796,"11":0.17097279381939895,"12":-0.040739585764315335,"13":0.05479765130096148,"14":0.09502635122795164,"15":-0.018415483627181036,"16":0.11154118951465843,"17":-0.013922315502541333,"18":0.021076397237403018,"19":0.20380525915377176,"20":0.008702764105574598,"21":0.13275650902159242,"22":-0.11523672924698831,"23":0.021917918569768054,"24":0.014952747334053863,"25":0.002972395359290924,"26":-0.004676406192639531,"27":0.06594441661196758,"28":-0.15923810673708877,"29":0.13443161849178809,"30":-0.09587087145807571,"31":-0.10287028359223079,"32":-0.16759332370469487,"33":-0.050250851095714984,"34":-0.09039443470186988,"35":-0.11086347856267992,"36":-0.10529766160345459,"37":-0.15212842758626433,"38":0.010208921888908963,"39":0.21035698175324374,"40":0.14901477313400693,"41":0.0042679155204173895,"42":0.053505238699581376,"43":0.2066422448165099,"44":-0.0799187654563186,"45":0.09239227540855606,"46":0.033888989329064145,"47":0.08046661481231052,"48":-0.07902749445145585,"49":0.0899528702471516,"50":-0.03797508508108305,"51":0.16433148566064237,"52":-0.14554768353594041,"53":-0.016577079401976884,"54":0.026907603951801046,"55":0.07556234493431016,"56":0.10832140554175455,"57":0.2345367548047644,"58":-0.008570369380067678,"59":-0.011326293136018845,"60":0.10791504687058409,"61":0.042172298911678174,"62":-0.044227741024738074,"63":0.003533229379133447,"64":-0.12173756011857197,"65":0.04364855079550522,"66":0.1013238138212518,"67":0.0023498480211781676,"68":-0.07046903937312045,"69":0.05975842858555827,"70":-0.0036579752281447313,"71":0.15350024439698207,"72":-0.013616083654998844,"73":0.00766224915614678,"74":0.08156990932542227,"75":-0.10503490922748304,"76":-0.07717064048170931,"77":-0.08789543144749438,"78":-0.022586556702530347,"79":0.008177574255883583,"80":-0.08552339411001585,"81":0.05467576271598346,"82":0.024900962883776117,"83":0.036316534828091315,"84":0.018275643471375325,"85":-0.007571545092467942,"86":-0.00221810611570015,"87":-0.14140019065096676,"88":0.031183547220416465,"89":-0.07095165060866855,"90":-0.01358680905428803,"91":-0.05002384601924428,"92":-0.03829295382190572,"93":0.16344676606883268,"94":-0.02530844703083189,"95":-0.06473157867559771,"96":-0.18220671100986344,"97":0.01407294048468707,"98":-0.12109219007661662,"99":-0.06904722410299348,"100":-0.18201482636056876,"101":0.10067897366923939,"102":-0.195987916957738,"103":-0.05976782517301493,"104":-0.10485830692399872,"105":0.08410608446578446,"106":-0.180581609324009,"107":-0.14273782846069688,"108":-0.09804553885765972,"109":-0.08271614571503268,"110":-0.01908835138246367,"111":0.14008611950569072,"112":0.16660848993282323,"113":-0.006607898889511729,"114":-0.013448908482640591,"115":-0.33003139175555707,"116":-0.10224433882284724,"117":-0.1471753328734291,"118":-0.05772539624990074,"119":-0.09947615809128187,"120":-0.14756441249540797,"121":0.09065840660716586,"122":0.13704402657905368,"123":0.09828115657368064,"124":-0.04002244260183462,"125":0.082292037899319,"126":-0.07870130815603846,"127":-0.07893021162746304,"128":-0.018916219757952518,"129":-0.022671410710233906,"130":-0.021490602417542748,"131":-0.13300254887359872,"132":-0.10907050913471071,"133":0.047679862961582685,"134":-0.19544250786284792,"135":0.09909842328762516,"136":-0.11887001195679822,"137":0.01768287433133604,"138":0.0009848303148561148,"139":-0.2430461024849092,"140":-0.10760502919144026,"141":0.08509906999230885,"142":-0.11494635068420134,"143":0.07360930401514115,"144":-0.032807298100137085,"145":0.07391125181374561,"146":-0.0529127663249833,"147":-0.23637920047221417,"148":0.008155636969262362,"149":0.006834927353378761,"150":-0.009650171967654372,"151":0.24217743959099386,"152":0.20892628009536143,"153":0.06051655516667595,"154":0.0479114439455983,"155":-0.1250409124038622,"156":-0.17669977537855044,"157":-0.15857310192369378,"158":-0.05313940084441676,"159":0.07463035250260815,"160":-0.06970511877823851,"161":0.051920705627501604,"162":0.08881148046927768,"163":0.06074304367042316,"164":-0.1518664638660201,"165":0.03677827102264566,"166":-0.038781481459006346,"167":-0.11119258470924459,"168":-0.11809341936920371,"169":-0.04793985653472979,"170":0.08652029898319522,"171":-0.10541467042919764,"172":-0.0679652589017376,"173":0.09132012463785545,"174":-0.18738892724883657,"175":0.02558079054959483,"176":-0.004419341749512148,"177":0.05257874186235817,"178":0.01790037939499816,"179":-0.17530124020381946,"180":-0.06120288995869226,"181":-0.09585491759756778,"182":-0.15923360282954574,"183":0.12860886460374496,"184":-0.011877627137237024,"185":-0.02746845868697872,"186":0.16842585181590838,"187":-0.0234561554459568,"188":-0.36981777850569636,"189":-0.045828108316045744,"190":-0.003240890059480671,"191":0.10899708239834308,"192":0.2408820135188684,"193":-0.09534415761564377,"194":0.1523514613244977,"195":-0.22305497185581574,"196":-0.06513508476483973,"197":0.07158065006745394,"198":0.015135531030913515,"199":-0.004100419252135773}},{"sx":5,"sy":5,"depth":8,"w":{"0":-0.22374215775044345,"1":-0.07825261815825306,"2":-0.15342998136422614,"3":-0.06882113658533212,"4":-0.010172799494454987,"5":0.010079287018983791,"6":-0.13143795125789579,"7":-0.0097862740554659,"8":-0.15730750045337363,"9":0.174182731748991,"10":-0.09624544137287792,"11":-0.14353554089257822,"12":-0.10749961882570995,"13":0.05701644794858625,"14":0.053169649023824976,"15":0.16792711572256558,"16":0.005604100621299749,"17":-0.14282564754917126,"18":-0.04932303704058172,"19":-0.13523028868698897,"20":-0.17303194936072647,"21":-0.01766811075945026,"22":0.010450606014873466,"23":0.04687281579627492,"24":0.07834495622809663,"25":-0.08175276180623609,"26":0.09189468830191734,"27":-0.10260689671149074,"28":-0.11844472672617201,"29":0.14906992659625393,"30":0.03431823779664478,"31":-0.05046017116792828,"32":-0.033336276249034874,"33":-0.046660671427697566,"34":0.03916816929081173,"35":-0.0690331789172279,"36":-0.04351250680539137,"37":0.06527088269973555,"38":0.05250431833824621,"39":-0.11338865909177176,"40":-0.13126892626469816,"41":-0.03231456913494597,"42":0.016994105782233017,"43":0.00921890624650747,"44":-0.10639763990309901,"45":0.06590405805520748,"46":-0.2291955809484601,"47":0.07537367826285041,"48":-0.1761473396695645,"49":0.04347147139882303,"50":-0.0812288096648762,"51":-0.04673194406724178,"52":0.00021962091278910937,"53":0.05033843976856728,"54":-0.01022137421553362,"55":0.1895898748009423,"56":0.076981389057774,"57":0.06154211399113856,"58":0.010352125213201377,"59":0.0017130121304977364,"60":-0.038779680084362944,"61":-0.0671769757173629,"62":-0.0024049756285787456,"63":-0.08249751052725869,"64":0.011173272311009464,"65":-0.07751872484106472,"66":-0.04305247761495136,"67":-0.005190455580434481,"68":-0.023715088404893638,"69":0.1858953787616863,"70":0.002614886260730376,"71":-0.15301706804096915,"72":0.07798118423232188,"73":-0.040965090635912166,"74":0.008186200300428713,"75":-0.012637670764231982,"76":0.09171576396791496,"77":-0.010540288771740888,"78":-0.1904418894054475,"79":-0.22515894705941492,"80":-0.00997281298256752,"81":-0.035338730771815804,"82":0.07454391743170674,"83":-0.09513766590036625,"84":-0.055937223512079026,"85":-0.006870975569408697,"86":-0.09867644501031268,"87":0.029618415898416177,"88":-0.008446502024715965,"89":-0.0016980299298068084,"90":0.11833326966445903,"91":-0.0567085233485075,"92":-0.033129264633672696,"93":-0.022013749193390216,"94":0.03247714478751335,"95":-0.030636065294707998,"96":0.1537837445550882,"97":-0.12753439178625345,"98":0.009272547002149599,"99":0.04421312629461994,"100":-0.15825627463975805,"101":0.007089609155890849,"102":-0.025220308595860493,"103":-0.035496246724559435,"104":-0.04682164288424848,"105":-0.0360187833743646,"106":0.06757480676564868,"107":-0.08389053959421115,"108":-0.0334312116652975,"109":-0.07539808021186752,"110":-0.12767658651876346,"111":-0.0616956378262858,"112":-0.07825266235371474,"113":-0.0003269557599067435,"114":0.08299304171459311,"115":0.01872329840467287,"116":-0.07597502125524766,"117":0.061014096086800695,"118":-0.1615110999284462,"119":0.09677400703460182,"120":-0.1581218503177233,"121":0.13087316732021184,"122":0.05824183901806461,"123":-0.08585368738309716,"124":0.058671284953421055,"125":-0.05072810848223092,"126":0.08009302658068428,"127":-0.035900327595686336,"128":0.09622363015926122,"129":-0.04504027476998456,"130":0.032193144168265714,"131":0.060768329268224106,"132":-0.023486129055711708,"133":-0.17875514926940209,"134":-0.017765751310093243,"135":0.10153383165329223,"136":0.16790847793579744,"137":-0.08918311612342089,"138":0.17343032102968006,"139":-0.003852182661461,"140":0.1619164235896404,"141":-0.012676636510097603,"142":0.07796200765905259,"143":-0.038805247221594216,"144":-0.009269624911334692,"145":-0.04180397224123982,"146":0.08491006006604042,"147":0.010096603940738537,"148":-0.05008933788932011,"149":-0.05191401443886776,"150":-0.1425948011067646,"151":-0.01908985286723442,"152":-0.06079216971302666,"153":-0.00017131682870131452,"154":0.08642226174783328,"155":-0.16176492202972362,"156":0.005725834694840424,"157":-0.09764370789525881,"158":-0.04797866400618256,"159":-0.07387554108183937,"160":-0.07541129103739432,"161":-0.12216073503070293,"162":-0.02875577476250918,"163":-0.09611715542998389,"164":-0.06997752317445094,"165":0.005964934214498492,"166":-0.008884919680620013,"167":0.1799143444895024,"168":-0.04495251469969362,"169":-0.045619380850511655,"170":0.1643015378021239,"171":-0.08014626854311441,"172":-0.048617916253623744,"173":-0.003205169841446141,"174":-0.04334807924949268,"175":0.020155688495606977,"176":0.06278688769506588,"177":-0.08362553814031456,"178":0.22466151633599352,"179":-0.14474247623365114,"180":-0.057091325514458606,"181":-0.047064742641656276,"182":0.01788987950664992,"183":-0.17976402949227885,"184":0.011280815025193949,"185":0.10009825388395974,"186":-0.0700995273458877,"187":-0.0021963643351754036,"188":0.20963713989545324,"189":0.13078036430316584,"190":-0.07062520106306552,"191":-0.06079683712862172,"192":0.034094795349966824,"193":-0.03807074730986852,"194":-0.14488462444902975,"195":-0.10864698040564125,"196":0.056339565371492185,"197":-0.05109394553062029,"198":0.04101972314691647,"199":0.05913864628974253}},{"sx":5,"sy":5,"depth":8,"w":{"0":-0.11474338294711924,"1":0.05462049538433024,"2":0.105348190054315,"3":0.02682335341427877,"4":0.11048987244074708,"5":-0.00825616859087045,"6":-0.033132128138350286,"7":0.03956352949599777,"8":-0.03298352767043552,"9":-0.05117437409781205,"10":-0.21048396602601574,"11":-0.06073029310450091,"12":-0.09397828618337671,"13":0.005081216707984769,"14":-0.08678857499852058,"15":0.1154531652522896,"16":0.07797013439937726,"17":0.10821522566368526,"18":-0.11702187857077007,"19":-0.14163427106819376,"20":-0.02490108861870728,"21":-0.0858588548265907,"22":0.06239747460568734,"23":0.11010446085541543,"24":0.1068976214761187,"25":-0.11640613566986929,"26":-0.0913028324112009,"27":-0.0712384640599332,"28":-0.002543697396299965,"29":0.013652079305056308,"30":0.08781848144893716,"31":0.010660092767197685,"32":0.08240243076833531,"33":-0.07465011726424507,"34":-0.06986494182160863,"35":0.03897337475022349,"36":0.018768745892770007,"37":-0.15977597023234577,"38":0.1055073816072587,"39":-0.012960431027533699,"40":-0.14919797898129344,"41":0.11977262509315886,"42":0.017112885343663325,"43":-0.03825291232674937,"44":0.05122831480725059,"45":0.0778619449821221,"46":-0.07496264209929675,"47":0.012359919992402414,"48":0.05525987033944364,"49":0.10679360167749719,"50":-0.1170766875279783,"51":-0.1240983635510795,"52":0.04551475998005518,"53":-0.026230055162917026,"54":0.03805603059685942,"55":-0.06468216353895352,"56":-0.01783253521431823,"57":-0.07112561693739868,"58":-0.05842600852291999,"59":0.07865822612244552,"60":0.004253542545984739,"61":-0.1188527692674692,"62":0.017716953838755475,"63":0.043276382596636985,"64":0.0051843911361193025,"65":-0.13052744234938793,"66":-0.0027482591315221303,"67":0.04646366121108351,"68":0.17537990846050466,"69":0.0552891062734582,"70":-0.01875017426935874,"71":0.06306690677319647,"72":-0.0322126436078373,"73":0.07036200581063842,"74":-0.12708757824494887,"75":-0.09497674854000117,"76":-0.03710317138855893,"77":-0.05003082229474216,"78":0.02738060632150918,"79":-0.08298563438229668,"80":0.07199681649490995,"81":0.02146166908976287,"82":-0.12350786115911334,"83":-0.09336788125212575,"84":-0.13314088421049874,"85":0.05240902418624556,"86":-0.05473239439226616,"87":-0.038504798109137275,"88":0.0622405300703498,"89":0.04063241359015172,"90":0.054063637100901014,"91":-0.15952535766653267,"92":-0.03334738102199138,"93":0.07050775109400367,"94":0.00772021339508698,"95":-0.019857589453253527,"96":-0.08428901871327085,"97":-0.11707224536876061,"98":-0.05973423420806457,"99":0.07711733004554264,"100":-0.13697818127912956,"101":-0.09991768926340516,"102":-0.06304346612838448,"103":0.005750660200667096,"104":0.07068923141247292,"105":-0.10495320416616777,"106":-0.2224271924095071,"107":-0.04189202033923315,"108":0.11983851013802721,"109":-0.026121070180145554,"110":-0.007751623675485035,"111":-0.014819239363014259,"112":-0.07418353550593482,"113":0.046043130302338225,"114":-0.1513245963883911,"115":0.12086715892809033,"116":0.06779924794562461,"117":-0.20529102313230269,"118":0.1354818912095927,"119":-0.0792587241817386,"120":0.0930326374656891,"121":0.018633933899911352,"122":-0.06429900675912555,"123":-0.14000601210094207,"124":0.0006948353044270463,"125":-0.05799030207968889,"126":-0.05172385712298688,"127":-0.0220187251316958,"128":0.10389433348700801,"129":0.035639544716365844,"130":0.10524768691211109,"131":-0.0998834881068637,"132":-0.010439903772066998,"133":-0.08195192418923619,"134":0.11455647669139266,"135":-0.18243976665354425,"136":0.06666424873860592,"137":-0.21044486551967453,"138":0.08575573524169534,"139":-0.02179345226054284,"140":0.038493209705646375,"141":0.04983777699272229,"142":-0.03930040900690937,"143":0.09713224391509069,"144":0.03798629801059971,"145":0.0304973508892229,"146":-0.12863080406015048,"147":0.0007505596192934889,"148":0.02195962087504116,"149":0.02518429057232112,"150":-0.28278953165724025,"151":0.017751013015832266,"152":-0.029111177585252557,"153":-0.0796176259356864,"154":-0.12036840731569594,"155":0.20372061882087958,"156":-0.08225385176359666,"157":-0.1213056569490174,"158":0.09622659719994454,"159":0.11336579675774465,"160":0.07260493288113443,"161":0.006637650328939186,"162":0.10854765391486867,"163":-0.11766476989762223,"164":-0.030481144273671587,"165":0.0215307092080081,"166":-0.005290168579421372,"167":-0.09736803487557447,"168":0.0918818598916356,"169":-0.04179500229200442,"170":0.0884774236825942,"171":-0.02780574530680318,"172":0.04590937752950839,"173":0.12744538428402252,"174":-0.031376442733743674,"175":-0.08369310545863386,"176":-0.004274217838216139,"177":0.044422107595181545,"178":0.014974507401775247,"179":-0.16763643700463923,"180":0.012581243749205984,"181":0.005335870834906284,"182":-0.03960258776614621,"183":-0.041118968162268524,"184":-0.1350678454026452,"185":0.04869771930820878,"186":0.0933548757569164,"187":-0.02556866734090889,"188":0.05159197299437629,"189":-0.037867580289558854,"190":-0.17267548742708227,"191":-0.04305319592768951,"192":-0.015224247611622981,"193":-0.024875054472952463,"194":0.07486496199424632,"195":-0.04984380142518739,"196":-0.0928635831876497,"197":-0.0349392454128342,"198":-0.06924199089221848,"199":-0.11578911872572116}},{"sx":5,"sy":5,"depth":8,"w":{"0":-0.032743416411893794,"1":-0.048420016221021954,"2":-0.05334323366646169,"3":-0.014235861075245902,"4":0.03129808533113759,"5":-0.0028419479122683182,"6":0.03877450641194835,"7":0.03249400308186772,"8":-0.1272693302012556,"9":0.12416695155611668,"10":0.0323647585358349,"11":-0.12908353472984738,"12":-0.06918304623848229,"13":-0.06894617111277267,"14":0.09410861092417964,"15":0.008556337127712109,"16":-0.010872344473010592,"17":0.126020275692055,"18":-0.0751226353235179,"19":-0.15189142295901753,"20":-0.08144140526854145,"21":-0.020722461974291242,"22":0.0037592213195758615,"23":-0.05480539601477883,"24":0.0013183979139619584,"25":0.12847078309812807,"26":-0.16031307009864004,"27":-0.1919302320045151,"28":-0.08840270163450138,"29":-0.030425597659196935,"30":-0.047340318024299555,"31":-0.0928236346318201,"32":0.034615263776266655,"33":0.16268381114561847,"34":-0.07673445993815384,"35":-0.09519237117388905,"36":-0.036862433796472645,"37":-0.03649651901292948,"38":0.0748382237680664,"39":0.015559089296367297,"40":0.029595344140924774,"41":0.06344444645111057,"42":0.0968945447358592,"43":0.039019460052723776,"44":0.08545772724286538,"45":-0.03298649659781248,"46":0.10724644811181125,"47":0.05735579565782279,"48":-0.05414712267715118,"49":0.005089421065734857,"50":-0.019896438194624038,"51":-0.0673240916061052,"52":0.13973113904623746,"53":0.03715421665520615,"54":0.10088476599877096,"55":-0.15462973148761802,"56":0.0894109424897696,"57":0.06515272548921004,"58":-0.002601457889792158,"59":0.06005978093319986,"60":0.1367229328988081,"61":-0.1235522613640491,"62":0.02208080419955155,"63":-0.08114413378633174,"64":0.027721319905502407,"65":0.07518678415422365,"66":-0.025281329866866327,"67":0.035937397928259014,"68":-0.08342455989703759,"69":-0.03989042518379241,"70":0.1321994297497038,"71":-0.019875870985213026,"72":0.07522627236492455,"73":0.11816252045775713,"74":-0.05804680625290278,"75":0.058748434306731774,"76":0.01996057357447858,"77":-0.06045622734834359,"78":0.01497615361895115,"79":-0.036351941061264874,"80":0.014078054539357426,"81":-0.08276542058442944,"82":-0.09614817625388068,"83":-0.030486796058233276,"84":0.21391933293505222,"85":-0.15520632090287453,"86":-0.01141149832572491,"87":0.052091915862764585,"88":-0.03728957694336454,"89":0.01360620369372182,"90":-0.027972536739015817,"91":0.18217536632530074,"92":0.08852759061191219,"93":-0.20438156125031776,"94":-0.21553953377074916,"95":0.10631642805380345,"96":-0.014188256102940316,"97":-0.039693030062209256,"98":-0.09311701093869892,"99":0.19256081548426518,"100":0.17144069162481476,"101":-0.06770533204893713,"102":0.07752303551861604,"103":-0.09990185816481031,"104":0.2172275256226196,"105":0.10321718153121025,"106":0.046117271448758095,"107":-0.06022572343971337,"108":-0.10056408814976135,"109":0.019649620228013955,"110":0.053192227136867984,"111":-0.08260123200309448,"112":0.0284260981781206,"113":-0.028945665439083074,"114":-0.025740638827824038,"115":0.0033831062294104866,"116":0.04049134848716456,"117":0.09683551561280136,"118":-0.0645441688580837,"119":-0.11776336714373854,"120":0.01959856851134393,"121":-0.0686337168817879,"122":-0.013330135875281144,"123":-0.031829572502979,"124":0.026351821114163197,"125":0.048368054138327704,"126":0.029404309618643782,"127":0.0025545206222735897,"128":0.014861696365808072,"129":0.06459383694755821,"130":-0.07206454105456808,"131":-0.004256940480811534,"132":-0.060774460213954745,"133":0.011703960428125207,"134":-0.07157652151753525,"135":0.15068233802127085,"136":-0.17571475731664118,"137":0.05057291458237592,"138":0.12373161690381955,"139":-0.03339431866854102,"140":0.056189202106239025,"141":0.0801551161722618,"142":-0.08980451567116966,"143":0.0037300232784576353,"144":-0.06181537841759682,"145":-0.011846873614378382,"146":-0.1604303426341298,"147":-0.09610338774610099,"148":0.005158505098470335,"149":0.1568940867722132,"150":-0.24447880151185683,"151":-0.06391868606448081,"152":-0.06555837743006468,"153":0.0630278840863137,"154":-0.14687513940320748,"155":0.0349780806727045,"156":0.09539078357335105,"157":0.06746785623145245,"158":0.07309574877907937,"159":-0.11375769147686557,"160":0.003250341274558169,"161":0.034480793925373496,"162":-0.013135332982516065,"163":-0.05009989345771501,"164":0.008907441341751816,"165":-0.014545707618062205,"166":0.0352463305721077,"167":-0.015185578218722883,"168":-0.03330771680687683,"169":-0.009204564551876007,"170":0.060862543830664535,"171":0.001120252275290372,"172":0.06891843025386521,"173":0.02092608867992282,"174":-0.1322271540518081,"175":0.1825651739434394,"176":0.1068350866977318,"177":0.027532097952428308,"178":-0.12467417907514908,"179":-0.09347356080413863,"180":-0.052580751717738086,"181":0.06979426711861138,"182":-0.07620065037071744,"183":-0.048254616837011946,"184":0.017028833897253133,"185":0.060974659158892205,"186":-0.08201143375149514,"187":-0.17212955568763627,"188":0.05985670659974784,"189":0.003492094072696982,"190":0.013056685354655668,"191":-0.0017746219435498414,"192":0.12599753939479602,"193":0.013824466091981317,"194":-0.07211830788197417,"195":-0.10754831376341106,"196":-0.04747991310313781,"197":-0.03827320035955463,"198":0.07617952806295315,"199":-0.03451943617386679}},{"sx":5,"sy":5,"depth":8,"w":{"0":-0.022500516946764183,"1":0.04918925515403743,"2":0.014656151321609636,"3":0.01897464909785838,"4":0.15365446413726577,"5":0.09520017126205534,"6":-0.19022330793085554,"7":0.07801214386243675,"8":-0.07534312407450532,"9":-0.07821226184199213,"10":0.005807155575712598,"11":-0.005771902228301312,"12":-0.10971330607635933,"13":0.05564977744840298,"14":-0.04826625989764949,"15":0.050878562055374305,"16":-0.03812762319789233,"17":-0.16863381551228157,"18":-0.03139235146486156,"19":0.02868043174218739,"20":-0.0483955770784232,"21":0.03992404262564115,"22":-0.013543806860179723,"23":-0.07989318521387123,"24":0.04728936155752505,"25":-0.09185830267904666,"26":0.028797791555295212,"27":0.12384664443890545,"28":-0.06670540293457898,"29":0.07285424435505987,"30":-0.22924397050013073,"31":-0.1251231633742698,"32":-0.08919512509498774,"33":-0.07390053847557883,"34":-0.05217783478096271,"35":0.1369617341702903,"36":0.02822724128505244,"37":0.09728232513434562,"38":-0.14073714346313404,"39":-0.1055245949289281,"40":-0.1220576233682637,"41":0.005453625733768735,"42":-0.007510259164317908,"43":0.0169663695711457,"44":-0.07735048544010507,"45":0.03127413700856467,"46":-0.04625769276171891,"47":-0.003832780470757119,"48":0.060386154966992484,"49":-0.04853475514356728,"50":0.03397881326576392,"51":-0.08131070600701878,"52":-0.061876247905670964,"53":-0.052083314034151354,"54":-0.010107620956802532,"55":-0.042195445305136255,"56":-0.14440274760928323,"57":-0.053849556220197714,"58":-0.0694324429550856,"59":-0.0939670887408775,"60":-0.03868698301573647,"61":0.05054544465477818,"62":-0.18174804739335612,"63":0.015439734841207964,"64":-0.09284732339251818,"65":0.000675128972254605,"66":-0.14130015794751097,"67":-0.09533155893329985,"68":-0.01298569712336349,"69":0.08404359020068558,"70":-0.06588006912069605,"71":-0.0053565472810257085,"72":-0.2512606272855163,"73":-0.02284604905003496,"74":-0.09332820652438625,"75":0.012413380104331522,"76":-0.20123602289660297,"77":0.013630265772288505,"78":-0.1547610144861505,"79":0.0896761368364665,"80":0.039064274556771625,"81":0.08820916921739026,"82":-0.01064394574746351,"83":-0.04157354515361468,"84":-0.004566105688604577,"85":0.02798618478855127,"86":0.12364899054401099,"87":-0.05730293334369158,"88":-0.09209097326429758,"89":0.09421688416526726,"90":-0.00627279379239172,"91":0.017980076570062724,"92":-0.03163834325784584,"93":-0.24509199509009943,"94":0.102560981157563,"95":-0.07736904561488532,"96":-0.002277891664261839,"97":0.1123469550013741,"98":-0.14333438438091617,"99":-0.00831368779251071,"100":0.11467865923001112,"101":-0.03033513401939257,"102":0.17657598951040582,"103":-0.007866267773127844,"104":0.045447069279902205,"105":0.2159569247365063,"106":-0.16367006409864707,"107":-0.06157336309122798,"108":0.21043904044884687,"109":-0.09937864946666529,"110":0.20745491205332084,"111":-0.18037192993748233,"112":0.00573363424517907,"113":0.15275494028744568,"114":-0.08332947831662649,"115":-0.06200245854276287,"116":0.11380961754995206,"117":-0.09529865807443233,"118":0.05346535555673875,"119":-0.0797469859547468,"120":-0.0029683160862378688,"121":0.14906222366712496,"122":-0.11461996104380216,"123":0.10358731061115711,"124":0.1131780125646552,"125":0.11264411424242803,"126":0.06602998299170405,"127":-0.08945134799220196,"128":0.018124078375208522,"129":0.001866428942745147,"130":-0.13231754106176002,"131":0.12760290357499507,"132":0.13469892119497417,"133":0.0301203261374839,"134":0.0798817525405754,"135":0.04637683807506456,"136":0.026538521349660463,"137":0.1232436146939712,"138":-0.09021124770812328,"139":0.1723716182078556,"140":0.12275995290790614,"141":-0.19371644323051537,"142":0.05551253008787529,"143":-0.05282717636588374,"144":0.026907216579522435,"145":-0.03609620937830185,"146":-0.21587130914906325,"147":0.18284149580148484,"148":0.19057654099924576,"149":-0.07207856645963273,"150":0.06695492957836238,"151":0.024212261517412376,"152":0.08077538418061274,"153":-0.21755698351150782,"154":-0.1438991458376985,"155":0.17738038873882978,"156":0.019270052291010892,"157":-0.0009445738243611269,"158":0.03217354902154158,"159":0.07064961507324191,"160":0.07311972868688099,"161":-0.021702397713373397,"162":0.0034254417785706958,"163":0.10924857597330756,"164":-0.0049528533878781264,"165":-0.04820131207906948,"166":0.02254455423819718,"167":-0.11967862408451871,"168":-0.005608136284414627,"169":0.048975081692866844,"170":-0.053443450139424434,"171":0.06625689700011221,"172":-0.005166202746370875,"173":0.05303283453136385,"174":-0.11184112338102654,"175":-0.008771066387542152,"176":0.020282701565125762,"177":-0.07918386440183574,"178":0.005354938136097529,"179":0.17303574218795809,"180":0.017136351344090025,"181":0.08665320469285152,"182":-0.05683186367800356,"183":0.08403350393856544,"184":-0.010601941798665748,"185":0.05870733159097055,"186":-0.021446265673907863,"187":0.06798223630182813,"188":-0.08383590759770035,"189":-0.03969464431110047,"190":-0.1700709388710326,"191":0.07820465096936535,"192":0.009226583648338726,"193":-0.03868858407288819,"194":-0.10085550939797873,"195":-0.011954908244608613,"196":-0.21806964685820565,"197":0.013578542470391409,"198":-0.18104913966446795,"199":0.01939702211713271}},{"sx":5,"sy":5,"depth":8,"w":{"0":-0.07004494325017475,"1":0.11751213250540511,"2":-0.0673479803602723,"3":0.046138544271550175,"4":0.15773447729765258,"5":0.053617202356669794,"6":0.04007256922155096,"7":0.07331510545045208,"8":-0.010231268962426881,"9":-0.03679957710373188,"10":-0.05575224630395195,"11":0.08099770470550564,"12":0.15603138516620502,"13":-0.08900345997573007,"14":0.030940177511037954,"15":0.041551243653258976,"16":-0.19420992217977137,"17":0.1001513337628498,"18":-0.07454513945768697,"19":-0.044640565961690304,"20":0.1410292884746392,"21":-0.11011651980007975,"22":0.0964437883773422,"23":-0.09248777290724623,"24":-0.020116105360697974,"25":0.17585958385398684,"26":-0.2338901666389595,"27":-0.19759465438164664,"28":0.08448675267149948,"29":-0.0818556578475541,"30":0.17431519466554776,"31":-0.04651884617278627,"32":-0.18714795971569792,"33":0.19705213913187491,"34":-0.05862107886100483,"35":-0.10145857519453369,"36":-0.07121653650158512,"37":-0.2916518460756343,"38":0.030522136654168794,"39":-0.19313521829687447,"40":-0.06567390457499937,"41":-0.0855907806611932,"42":-0.05811004137550919,"43":0.21583380502098656,"44":0.022885595830688978,"45":0.020327889197367152,"46":-0.05801584557741837,"47":0.01213282016693635,"48":-0.07124717017769504,"49":0.0717990379843488,"50":-0.21714826477040675,"51":0.23084160218911237,"52":0.13078301356665561,"53":-0.18088479602271484,"54":-0.07093217821941446,"55":-0.03292977213169402,"56":0.0693106307613137,"57":-0.03840248008557676,"58":-0.009897010701338636,"59":0.35068473452294435,"60":0.14698598393889406,"61":-0.16665788206052934,"62":0.06302195325270338,"63":0.06386677296720142,"64":0.12362610700608091,"65":-0.024985687891658812,"66":-0.07584465515286927,"67":0.41055072469405196,"68":0.04350674513044024,"69":-0.1973423135136339,"70":0.03491280499440107,"71":-0.010764310573339373,"72":0.08074748513334103,"73":-0.11026154667052827,"74":-0.26919652655490706,"75":-0.011419254707795003,"76":-0.23383888889736307,"77":-0.12024770367922677,"78":0.08892011384452407,"79":0.009395112194629964,"80":-0.0064966225216470915,"81":-0.05842371145738205,"82":-0.08934793737813891,"83":0.005074444736671453,"84":0.055211634834091895,"85":-0.09131230455340222,"86":-0.015223300155432657,"87":0.0008408777835474269,"88":0.12279264999831166,"89":-0.12251656618887505,"90":-0.19366035090916847,"91":0.13623979164200425,"92":-0.08757539118112202,"93":-0.057141787031283864,"94":-0.08431283058974498,"95":0.1307265341165571,"96":-0.08594723943316487,"97":-0.04081043793870504,"98":-0.11717007303473119,"99":0.24573289493431347,"100":-0.10185357295233165,"101":-0.0921986465930877,"102":-0.04523957628624253,"103":-0.13135372929211736,"104":-0.0742831354797633,"105":0.0921517653014886,"106":-0.04289705229929167,"107":0.009741940293494806,"108":-0.02110590277936628,"109":-0.09826588467811814,"110":-0.15178221873993758,"111":0.2010710301492147,"112":-0.142256134046303,"113":0.06619662657316942,"114":-0.08177107638098162,"115":-0.22183198870599116,"116":-0.059664378338870144,"117":-0.32162220898818633,"118":0.04598773952787251,"119":0.15347190435773664,"120":-0.19879316776092926,"121":0.03197510092967873,"122":-0.10986392112000794,"123":0.00975773445097524,"124":0.045682691192712475,"125":-0.027452139928252038,"126":-0.03962512168422951,"127":-0.10097440409447077,"128":-0.007587805822242028,"129":-0.09125289485965421,"130":-0.15770630676976818,"131":-0.011344528647259496,"132":-0.10737525813387998,"133":-0.04143044887068887,"134":-0.3615439790593149,"135":0.0871168976137797,"136":-0.09781677117981213,"137":0.06974105712465074,"138":0.017153139158465044,"139":-0.06797633093548885,"140":-0.062042402008549734,"141":0.06373639800242462,"142":-0.1592562916153146,"143":0.04911281727183353,"144":-0.11282626128190967,"145":-0.021916282494554865,"146":0.005392706928427658,"147":-0.10134958362362445,"148":0.11050680160724864,"149":0.05044628114993839,"150":-0.05305379571559952,"151":0.09127036629878948,"152":0.11326674243159328,"153":0.12773236307157548,"154":-0.036113832429659466,"155":-0.36300629823193886,"156":-0.17244004639787708,"157":-0.16010664903475383,"158":0.1585807289444369,"159":-0.008059928329038762,"160":-0.02474840383801921,"161":-0.004164201973515958,"162":-0.04800335490335776,"163":0.14170522737928912,"164":-0.04414376220736173,"165":-0.04997590998134628,"166":0.011182414926534115,"167":0.05830401715615985,"168":0.0206455289574299,"169":0.10274605132952025,"170":0.03754886209284219,"171":-0.1381197968144626,"172":-0.13912698362164924,"173":-0.051929592460927966,"174":-0.18937660187009983,"175":-0.1521860570942254,"176":-0.08339268592015266,"177":-0.018314337495255878,"178":0.15558503250750522,"179":-0.06872834019507829,"180":0.014898665898507062,"181":-0.08814224471853875,"182":-0.018353256151247783,"183":0.05941868556735455,"184":0.030793573781637603,"185":0.04939174660815494,"186":-0.004619299073638955,"187":-0.19943113628771003,"188":-0.12134993135079,"189":-0.06498138390335403,"190":0.0931407161310808,"191":0.19850834218732094,"192":0.3082661851335922,"193":-0.14365257014463897,"194":0.075966227971478,"195":-0.23865255095151605,"196":-0.19970075322518238,"197":0.022344776651110773,"198":0.06009587150142628,"199":0.02345466567623159}},{"sx":5,"sy":5,"depth":8,"w":{"0":-0.15661588316110328,"1":-0.15791245376242208,"2":-0.020998112171688163,"3":0.039204079734229444,"4":0.049326725576339533,"5":0.06189252606705525,"6":0.07755569427788549,"7":0.015489177682635453,"8":0.04346586351531587,"9":0.03464390316210534,"10":0.09601137214366444,"11":-0.17299281867534114,"12":-0.03032742394561709,"13":0.02481287147556586,"14":0.1155238988526921,"15":0.0509660469517143,"16":0.06442604546093492,"17":-0.019557252931118072,"18":0.2598008316309815,"19":-0.11611412938200374,"20":-0.1295015241586638,"21":-0.040822631766114996,"22":0.01933203886032305,"23":-0.025295357383237058,"24":0.15767541687949774,"25":-0.15256384129754386,"26":0.002646727431893717,"27":-0.24595683161679946,"28":0.022055843201698,"29":-0.10399689263324531,"30":0.08968274391580935,"31":-0.034251158804017995,"32":0.02755756564843494,"33":-0.007366828132169928,"34":0.10849299372678169,"35":-0.017554873017047088,"36":-0.11154615558950282,"37":-0.031552745570394544,"38":-0.011541078509994048,"39":-0.029730396340557207,"40":-0.14976920999936394,"41":-0.10652161489845746,"42":-0.12737938605164278,"43":-0.020162318207295013,"44":0.013681176838949304,"45":0.10899347346052449,"46":-0.11503928299257594,"47":0.3190395387560221,"48":-0.0566416110188204,"49":-0.0809419823089851,"50":-0.004110546384389572,"51":-0.070786381165822,"52":-0.12082161273821244,"53":0.057180103640529265,"54":0.049598355262239574,"55":0.09358478535960177,"56":0.1961477270229602,"57":-0.043574125238188495,"58":0.1562429274635661,"59":-0.2184416203417418,"60":-0.11302987590436975,"61":-0.03507521815086021,"62":-0.06369736751559439,"63":-0.1283458446412195,"64":0.09391701889748222,"65":0.056315860120225686,"66":0.0851697999386115,"67":-0.14482854318376168,"68":0.06568014663763765,"69":-0.1674902191912055,"70":0.09431584654324641,"71":-0.10001426735786349,"72":0.002777786568263156,"73":0.005774466201744591,"74":0.051652853177908714,"75":-0.09887613216322072,"76":-0.10943603316149562,"77":-0.18173187589178152,"78":-0.015686754964678466,"79":-0.022248924533635642,"80":-0.15291593688162228,"81":0.0070483171430719875,"82":-0.09402489961116556,"83":-0.07683328261232023,"84":-0.08594624866917304,"85":-0.0774837195735508,"86":-0.13277546935470183,"87":0.28287045128461535,"88":0.11709970327496393,"89":0.002803768088027005,"90":-0.03245236448251664,"91":-0.11027428750622399,"92":-0.12327730807243008,"93":-0.07633729347950033,"94":0.0738866695393184,"95":0.03494260726032388,"96":0.012631002628391676,"97":-0.0156552093643049,"98":0.1739019647116649,"99":-0.17830854484799744,"100":0.014539010971577549,"101":-0.1628101938368674,"102":0.10999975584664391,"103":-0.07665385986799193,"104":0.10821590809276692,"105":-0.033190481560967336,"106":-0.11525235668441944,"107":0.041754581693746746,"108":0.04724097078210428,"109":-0.039896940880518386,"110":0.19352362023103853,"111":-0.06796745858868936,"112":-0.13322802790474808,"113":0.15229746821303636,"114":-0.06833223427539507,"115":-0.039114486224916596,"116":-0.07270359815368133,"117":-0.0654157154186853,"118":0.054306454957558974,"119":0.02746207022169816,"120":-0.18032116017396985,"121":0.08871105065352733,"122":-0.0991419515537349,"123":-0.12201578145688097,"124":0.015853223760818467,"125":-0.07358382416017682,"126":-0.10982741422966692,"127":0.2500847487724193,"128":0.08702181325522712,"129":-0.07411458132470727,"130":0.19950908235081893,"131":-0.16340369130231178,"132":0.006859049497263439,"133":-0.06847313154399978,"134":-0.028976901467049218,"135":0.03145410034122302,"136":0.0497777261228239,"137":-0.2072458905936296,"138":0.2148879564623666,"139":-0.1892541134088578,"140":-0.010856796025223051,"141":-0.015028990478239081,"142":0.031083528043329846,"143":-0.03474568833718535,"144":0.04134284767088785,"145":0.0917730714363786,"146":0.07211038991071501,"147":-0.05466779634465913,"148":0.06911711663144064,"149":-0.04036239092481224,"150":0.010169772780491748,"151":0.0555302872733324,"152":0.03669231728371746,"153":-0.02846933006891497,"154":-0.12812088828061152,"155":-0.1367664843743762,"156":0.13099933048235543,"157":-0.05425243193680433,"158":0.0013262101502662669,"159":0.01698159957249044,"160":-0.12950583269894592,"161":0.02649429849418647,"162":0.060340059822004084,"163":-0.04168279400205694,"164":-0.03130726825751997,"165":-0.06327212847904143,"166":-0.11641637513933262,"167":0.29702727198784007,"168":0.06358473551711347,"169":-0.1694851549023537,"170":0.1739182368963415,"171":-0.08072537830920203,"172":-0.10670478516136589,"173":-0.1473373757443454,"174":0.17589173427835367,"175":0.10396234319001392,"176":0.06742501203106342,"177":0.05084848231612531,"178":-0.003974675283165972,"179":-0.10907826035256953,"180":-0.057653927537093086,"181":0.021745199823812317,"182":0.05326126411058589,"183":-0.10561310622293064,"184":0.011480968041215709,"185":0.0033148120079539295,"186":-0.14062714892548192,"187":-0.1081534209895959,"188":0.03738083823933183,"189":-0.03223283193825364,"190":0.0639709959632836,"191":-0.022822226049061176,"192":-0.005510679371007608,"193":0.1501963753550869,"194":-0.2677066755879255,"195":-0.0007656812124442404,"196":0.1499560971192853,"197":-0.06455657209424859,"198":0.02811418041759612,"199":-0.07664267544547272}}],"biases":{"sx":1,"sy":1,"depth":16,"w":{"0":0.056882296315365906,"1":0.09227809944596492,"2":0.04121808370811094,"3":0.0618945147655311,"4":0.0534800285915135,"5":0.040422825485246054,"6":0.07338836929835,"7":0.08190376131217968,"8":0.08502217779687886,"9":0.06633842798798871,"10":0.07231224037639662,"11":0.060700147961982434,"12":0.08500464968987306,"13":0.06235146173562489,"14":0.02789936375463371,"15":0.0843308421005675}}},{"out_depth":16,"out_sx":12,"out_sy":12,"layer_type":"relu"},{"sx":3,"sy":3,"stride":3,"in_depth":16,"out_depth":16,"out_sx":4,"out_sy":4,"layer_type":"pool","pad":0},{"out_depth":10,"out_sx":1,"out_sy":1,"layer_type":"fc","num_inputs":256,"l1_decay_mul":0,"l2_decay_mul":1,"filters":[{"sx":1,"sy":1,"depth":256,"w":{"0":-0.009046167382226213,"1":-0.09233341855203751,"2":0.04919519138919725,"3":-0.022473424756587496,"4":-0.01079746321625315,"5":-0.03183674072758058,"6":0.0066863507393759595,"7":0.05752585256460508,"8":-0.00774481173788654,"9":0.002096353951034859,"10":0.060416007458461214,"11":-0.010190345224603856,"12":-0.05477425438905852,"13":-0.10354110527520441,"14":0.07573365961258055,"15":0.0002612524218923299,"16":-0.11756800029763968,"17":-0.11960008213741738,"18":-0.12077794421914947,"19":-0.033665449041745954,"20":-0.009987360718906747,"21":-0.12967618307778594,"22":-0.022978939041452234,"23":0.06673997943579033,"24":0.04605365793099745,"25":0.0815176735502321,"26":-0.09668856424382166,"27":0.005501369487592048,"28":0.02820951072958352,"29":-0.12909197239859194,"30":-0.048808997007956795,"31":-0.07689524346216724,"32":-0.09325728511278447,"33":-0.18048616305710252,"34":-0.07426103224540004,"35":0.009544248929194279,"36":-0.04420575157691415,"37":-0.0440921579721004,"38":-0.007927202720097101,"39":-0.1136830879891499,"40":-0.048182908963139204,"41":-0.12823968714680523,"42":-0.026337725312393954,"43":-0.0058420615252786886,"44":-0.10083625465240474,"45":0.05608047476519057,"46":0.038038549923452264,"47":0.05553417088857261,"48":-0.011086296219796352,"49":0.10451490187108842,"50":0.016478051325734447,"51":0.09704163066166238,"52":-0.11261486571749296,"53":0.12307138064966165,"54":0.067948456388163,"55":-0.04408002087673037,"56":-0.1872830987729159,"57":-0.19054470237083196,"58":-0.021164376974104244,"59":0.06699142613142475,"60":-0.026883994606089492,"61":-0.026306432842403277,"62":-0.044615183901666765,"63":-0.02826241322839734,"64":-0.219055929580068,"65":-0.08491846175447942,"66":0.030562244556395324,"67":0.12567763362931367,"68":-0.10777607430111572,"69":-0.12075487760345795,"70":0.01913395104451532,"71":0.0767209604340025,"72":0.030935254374151507,"73":0.10448564218720556,"74":0.03338842194180303,"75":-0.10817148789363208,"76":-0.07020238438512813,"77":-0.12456254684541404,"78":0.09801683972058624,"79":-0.035972189228068385,"80":-0.05976483143079867,"81":0.005208770270676923,"82":0.05039552604389601,"83":-0.019071724376872663,"84":0.17405513260029765,"85":0.30725285256349577,"86":-0.025714690873384297,"87":-0.013928171736166194,"88":0.10465090391130416,"89":0.211534003965357,"90":0.0020221241115247392,"91":0.11691348624547847,"92":-0.02345084124312903,"93":0.023117983616624278,"94":-0.11156843303311427,"95":0.04040083046290756,"96":0.07811815992437342,"97":-0.0075002851752492775,"98":-0.027913615058157454,"99":-0.014149657835572014,"100":0.06968480457919007,"101":-0.23075161152095994,"102":-0.06070497762518149,"103":-0.003011400299179396,"104":-0.0338963025830168,"105":0.08553053324048547,"106":-0.08780116601166246,"107":0.24531489747903987,"108":-0.10301041963659792,"109":-0.06137970743150925,"110":0.07259145356026178,"111":0.0184198889974739,"112":-0.011485626836063119,"113":-0.010646053582238774,"114":0.09029614532207647,"115":-0.06334033529468987,"116":-0.031547305310249435,"117":-0.02026779802907715,"118":0.06461787947607323,"119":-0.04570967196472399,"120":-0.03638441053590957,"121":-0.09972909921974107,"122":-0.09646624303093788,"123":-0.04007848895744874,"124":-0.015329003223503898,"125":-0.07779741717445497,"126":0.12054953727110859,"127":0.17418781166337666,"128":-0.10191983143472177,"129":-0.12186045724083835,"130":-0.09114109304240808,"131":-0.06489299351516697,"132":0.040333644037962885,"133":-0.052289456527797123,"134":0.024291016072204335,"135":0.10862207549092398,"136":0.017915297498652342,"137":-0.005593305916313434,"138":0.040890747915492374,"139":-0.10996312068262241,"140":0.11831329719943562,"141":0.03635008882878483,"142":0.05406838092383422,"143":0.06450019507801164,"144":-0.23714005967035529,"145":0.084637779688848,"146":-0.09022895098274952,"147":-0.10585935264190366,"148":-0.15548288277367048,"149":0.1395541092981336,"150":-0.10830403287419672,"151":-0.058141416379865425,"152":0.03124029167756712,"153":-0.17055234992627596,"154":0.09326541855062345,"155":-0.07311447736819052,"156":0.007018839103740336,"157":-0.12176550437504102,"158":-0.23464852343333775,"159":0.16208515051603273,"160":-0.11742734846210337,"161":-0.0002108287518193274,"162":-0.06764788074725447,"163":-0.02333517134012022,"164":-0.007240510879127814,"165":-0.239445200390609,"166":-0.13141219359972273,"167":0.023243107493255758,"168":0.045996688895719735,"169":0.12868239845855986,"170":-0.04244612181048153,"171":-0.05849509751278023,"172":-0.18663095518315911,"173":0.01532188922952926,"174":-0.04168127999975637,"175":0.053016867687337016,"176":-0.006733994954396984,"177":-0.044269683185811655,"178":-0.07465410453531049,"179":-0.12989939004031095,"180":0.18346296280991095,"181":0.07824764688314002,"182":0.07122536408755031,"183":-0.09500866459791024,"184":0.07011052167453619,"185":-0.06972742804852684,"186":0.03830687673285206,"187":0.0282696559578214,"188":0.08395368115586638,"189":0.10044414218763792,"190":-0.023075714533692192,"191":0.19095244515924023,"192":0.07878488417271565,"193":-0.14406441733323652,"194":-0.054781010586624254,"195":-0.013146620566587296,"196":0.24011144235759796,"197":-0.07914465349623673,"198":0.15100472341720492,"199":-0.09442490308658573,"200":-0.14149804535305274,"201":0.10138326829955273,"202":0.09247537781366406,"203":0.08691972258671274,"204":-0.07440224385905343,"205":0.03894475545246085,"206":-0.024684838021475152,"207":0.04115851080727013,"208":-0.04851569849420204,"209":-0.07185967289308894,"210":0.026291666791840713,"211":0.09767152929122731,"212":-0.06401214252323063,"213":0.033669910251645785,"214":-0.0027222330869606467,"215":0.03229965564523888,"216":-0.1995732501465685,"217":-0.1945731757674466,"218":0.0028209799437693586,"219":-0.07978032954993207,"220":0.08787573582528413,"221":0.1078120079413019,"222":0.049465288691371456,"223":0.08349857137171547,"224":0.154864355399933,"225":0.0522958000065681,"226":0.008717849568126605,"227":-0.040909330897734984,"228":0.015447621116708696,"229":-0.022852433890846513,"230":0.04881118373768988,"231":0.054799104385265515,"232":-0.12813601893555193,"233":-0.011549511206970642,"234":-0.009086078889747846,"235":0.02441770809988757,"236":0.17458437723641748,"237":0.004364010193370028,"238":-0.12326572590346337,"239":-0.08437309792506598,"240":0.08854109194627607,"241":-0.021420472743701773,"242":-0.06229395228695257,"243":-0.0057510679011156165,"244":0.19885868034792664,"245":-0.0573221006808983,"246":-0.0076023340411132635,"247":-0.08643541892155598,"248":-0.033976377156066224,"249":0.09279981293820891,"250":0.05634809226207473,"251":0.10179663560291091,"252":-0.06410873110548293,"253":0.06369860933124137,"254":-0.027600348097403915,"255":-0.04890549501043063}},{"sx":1,"sy":1,"depth":256,"w":{"0":0.0487367811468264,"1":0.057099028852966215,"2":-0.04268537237312571,"3":-0.08553564147367738,"4":0.10452957225343656,"5":-0.08174286602912952,"6":-0.1195440978303892,"7":-0.0635562895916129,"8":0.040625886621364966,"9":-0.09123688031334026,"10":-0.015125064155368292,"11":-0.05501573329445278,"12":0.04365573415355356,"13":-0.144215766282315,"14":-0.2220029287190611,"15":-0.12842839197217248,"16":0.060113048378022324,"17":0.13716248258987065,"18":0.021808777448051188,"19":-0.1682386203043511,"20":-0.09098654256527519,"21":0.0028528690354677885,"22":-0.16440641390402136,"23":-0.011979720770606283,"24":-0.03808389505865846,"25":0.15083627096945623,"26":-0.03892759083684452,"27":-0.21524417509647914,"28":0.004704182707441346,"29":-0.13774330723518438,"30":0.1355061498080684,"31":-0.16848382706183646,"32":-0.05992423627342507,"33":0.05205191404160729,"34":0.14376949354196208,"35":-0.0946155944846242,"36":0.017695933981050817,"37":0.1860584010739388,"38":0.05002937160632859,"39":0.07889422848147447,"40":0.029739809622112503,"41":0.07839864272386547,"42":0.05563001953847099,"43":0.1781616506726596,"44":-0.11457600593235848,"45":-0.1803766613902902,"46":0.06092554026893803,"47":0.0788709168185551,"48":-0.00013494175335947457,"49":0.09974112455312391,"50":-0.0062827800831503225,"51":-0.03978800663780703,"52":-0.045585338616983884,"53":-0.006566464920160635,"54":0.007827184641245924,"55":0.2434299017586307,"56":0.029330360427899275,"57":0.09730264580376832,"58":-0.17379030277886215,"59":-0.04182829463290274,"60":-0.00286668080044069,"61":-0.01616933426647679,"62":0.05601832348397923,"63":0.12726807766112158,"64":-0.17172398007293668,"65":0.010613423582060744,"66":-0.10879934212706847,"67":-0.1261614260856101,"68":-0.3132563253668477,"69":-0.07194607572860577,"70":-0.14414106873038465,"71":0.06929650204943577,"72":-0.11296362438988951,"73":-0.09888946598403359,"74":-0.04755333964206828,"75":-0.049583681053568994,"76":-0.024309693050776952,"77":0.008371198026890929,"78":-0.14330256391537344,"79":-0.17459526340797676,"80":-0.17393697930192115,"81":0.09490420281508943,"82":-0.023980098996454806,"83":-0.2040413988136915,"84":-0.1638268963411675,"85":-0.09063732340420237,"86":-0.12033796192841453,"87":-0.06205274545901899,"88":-0.18273588002540483,