{"layers":[{"out_depth":1,"out_sx":24,"out_sy":24,"layer_type":"input"},{"sx":5,"sy":5,"stride":1,"in_depth":1,"out_depth":8,"out_sx":24,"out_sy":24,"layer_type":"conv","l1_decay_mul":0,"l2_decay_mul":1,"pad":2,"filters":[{"sx":5,"sy":5,"depth":1,"w":{"0":-0.12455297804059287,"1":-0.15959248979813065,"2":-0.2723172037261963,"3":-0.29477572654378015,"4":-0.1976767436791825,"5":-0.14047420158221943,"6":0.2633693420988209,"7":0.09023813511779291,"8":-0.3552102651762726,"9":0.028864513718918745,"10":0.2445637791080098,"11":-0.36999049432974385,"12":0.5269016128681495,"13":0.17222291028897901,"14":-0.04733330083235344,"15":0.2538423251188542,"16":0.35470225898039404,"17":0.2861079005070111,"18":0.35379943801811764,"19":-0.0807546329070426,"20":0.35934569944805067,"21":-0.06518968592803343,"22":-0.047840728450108436,"23":0.04527844889953845,"24":0.2771493281890997}},{"sx":5,"sy":5,"depth":1,"w":{"0":0.30606061937035095,"1":0.05771535244177478,"2":0.48532071495230206,"3":0.11352814602013588,"4":-0.38077466739257787,"5":0.015046425577399797,"6":0.14211109060422436,"7":0.3373332683260559,"8":-0.3017538140962507,"9":0.11559198669621265,"10":0.14175314469878,"11":0.014689060814898843,"12":0.09387032404071977,"13":-0.13943214194396036,"14":-0.3985739638404664,"15":0.5855758935238452,"16":0.7549798189261724,"17":0.09598697518571063,"18":0.005616720517249317,"19":-0.04084730139920177,"20":0.44262714705329664,"21":-0.04446048095016838,"22":-0.14673880922363772,"23":0.00019936028679251247,"24":-0.05023367162357763}},{"sx":5,"sy":5,"depth":1,"w":{"0":-0.02966532214429555,"1":0.5438457462043911,"2":-0.08227885491347095,"3":-0.16118455589935007,"4":-0.3495879042511329,"5":0.17412829499203647,"6":0.031600946432970595,"7":0.2680483250981505,"8":-0.0102705664671049,"9":-0.19275104417337247,"10":0.07851127288290438,"11":-0.005726488646586844,"12":0.051563624683714164,"13":-0.3903229287840081,"14":-0.08708161647125762,"15":0.2764509042361186,"16":0.10103766773266387,"17":0.47739806252459166,"18":0.16897810145352493,"19":-0.14464965898076548,"20":0.27662471192622146,"21":0.6200111905161418,"22":0.14287460124055046,"23":0.11220072944280174,"24":0.18625725319440248}},{"sx":5,"sy":5,"depth":1,"w":{"0":0.043707772272620155,"1":0.11047200294091399,"2":0.4483222431268299,"3":-0.023751772225119695,"4":-0.4395762014212995,"5":-0.08521595515917915,"6":0.08707499639128614,"7":0.16434359691746228,"8":-0.03429252707565964,"9":-0.37170186955276047,"10":0.24674573879108738,"11":0.03278627228999799,"12":0.3691423513120495,"13":-0.2645477875915917,"14":-0.20578936704171197,"15":0.3175123266427509,"16":0.0891754338380754,"17":0.13803343206341231,"18":0.054595917186533276,"19":-0.3739276063313602,"20":-0.33296595705042425,"21":0.3462700916601623,"22":0.16674566221539835,"23":-0.18738573548677465,"24":-0.45240977732827964}},{"sx":5,"sy":5,"depth":1,"w":{"0":-0.09676560240516054,"1":-0.21905035732005151,"2":-0.26635141995691697,"3":0.14756346702494383,"4":0.2269754252689534,"5":0.19486059417249482,"6":0.05970697408661657,"7":0.17960177839477903,"8":-0.029328579312186555,"9":0.25727346166005644,"10":0.015840878229880825,"11":0.15923293422784743,"12":0.11134306300059874,"13":-0.0047379455337517445,"14":0.048671348297836946,"15":-0.07375288144334376,"16":0.11376696961105265,"17":-0.10497780802096102,"18":-0.022945227970447676,"19":-0.23248504519069138,"20":0.03927411429896442,"21":-0.04056717450657389,"22":-0.04830851937442946,"23":-0.03176154545472361,"24":0.05143010059335269}},{"sx":5,"sy":5,"depth":1,"w":{"0":0.18004043378459844,"1":0.25854903025127207,"2":-0.031512770771923035,"3":-0.2666355155909597,"4":0.10164962496360577,"5":0.068493762315617,"6":-0.08024148074474671,"7":-0.15808007441330274,"8":-0.12545839260877736,"9":-0.07294407028985017,"10":0.29360744689578017,"11":0.24414462120578212,"12":-0.23837134865255968,"13":-0.40381704245274364,"14":0.06576532721135499,"15":0.41799295092257455,"16":0.06318000584175769,"17":-0.5269989309417574,"18":-0.03728256659748902,"19":-0.027236689969586662,"20":0.25589570603554446,"21":-0.03458829966407063,"22":0.14744203001777595,"23":-0.43995175782739965,"24":-0.043152775277097453}},{"sx":5,"sy":5,"depth":1,"w":{"0":-0.3054908876471362,"1":-0.015520092595728417,"2":0.25825883748182366,"3":-0.2743900488148914,"4":-0.13754038519188222,"5":-0.16418047638290323,"6":-0.10142907242548573,"7":-0.28027155066042925,"8":-0.0429615091038522,"9":0.2401482528220904,"10":0.24796093685583598,"11":0.08103113614924612,"12":-0.009838088588109785,"13":-0.3925392150212247,"14":-0.13184538163224788,"15":0.2940976091153133,"16":0.28697229069663704,"17":-0.1520432895179769,"18":-0.09558771374123368,"19":-0.13287889056381266,"20":0.31968062800247454,"21":0.4414331039440859,"22":0.26891806547191455,"23":-0.12734386598576775,"24":0.039164100648309344}},{"sx":5,"sy":5,"depth":1,"w":{"0":-0.000301103820492126,"1":-0.24667259758055798,"2":-0.35073859585991835,"3":0.2450377825023996,"4":-0.09514679877784991,"5":0.11591415690887773,"6":-0.3170707794632414,"7":-0.1489127315075689,"8":0.2595791233092288,"9":-0.11154058772161288,"10":-0.10274261169619003,"11":0.06438931369472294,"12":0.245269514275631,"13":0.5343201391757139,"14":0.24542652166098017,"15":0.1117965868343592,"16":0.11334363419833768,"17":0.716542816176923,"18":0.20569870301855173,"19":0.596235156724488,"20":-0.10929233569325394,"21":0.29085194251380114,"22":0.38852654056857416,"23":-0.024890074026896077,"24":0.45703304236582765}}],"biases":{"sx":1,"sy":1,"depth":8,"w":{"0":0.023686502234618507,"1":-0.013323868379512932,"2":-0.04607862237267613,"3":0.0006289637239710268,"4":0.06718864627799574,"5":0.07883525226525262,"6":0.13344465915583564,"7":-0.013466648517044036}}},{"out_depth":8,"out_sx":24,"out_sy":24,"layer_type":"relu"},{"sx":2,"sy":2,"stride":2,"in_depth":8,"out_depth":8,"out_sx":12,"out_sy":12,"layer_type":"pool","pad":0},{"sx":5,"sy":5,"stride":1,"in_depth":8,"out_depth":16,"out_sx":12,"out_sy":12,"layer_type":"conv","l1_decay_mul":0,"l2_decay_mul":1,"pad":2,"filters":[{"sx":5,"sy":5,"depth":8,"w":{"0":0.17203213725536537,"1":0.0025219022577567998,"2":-0.022373917471560905,"3":-0.1268373867978017,"4":-0.05165664358744551,"5":-0.08011885701489616,"6":-0.022391328768430946,"7":0.05994368648068322,"8":0.11973150414770643,"9":-0.12141036122669774,"10":0.11363427316528417,"11":-0.048796128059430025,"12":0.10891872032465805,"13":-0.024057495497496983,"14":0.10737328699179002,"15":0.052025516433641894,"16":0.03430593682690311,"17":0.03166135772672665,"18":-0.003239619931879243,"19":-0.14026601820267579,"20":-0.08055930475938423,"21":0.01899180932828805,"22":0.05111436395459546,"23":-0.04939397161450222,"24":0.0011770937203344975,"25":0.016763714630088387,"26":0.11269111931061598,"27":-0.16798204361548894,"28":0.009728184595847272,"29":0.06446569146582344,"30":0.0028198310323695602,"31":0.12488176471359676,"32":0.08539441452524403,"33":-0.058571971649080797,"34":0.03070521900395521,"35":-0.14988783247088003,"36":0.010972077283893536,"37":-0.13343259587135026,"38":0.16289527454176914,"39":0.14644989441201112,"40":0.17940735939463878,"41":-0.06713141696474903,"42":0.05334575955890985,"43":0.05225864040561848,"44":0.025430858312387145,"45":-0.13567039178569662,"46":-0.04676927702594506,"47":0.13147604155964054,"48":0.11108437901355622,"49":-0.15863785047683018,"50":0.1120517909001242,"51":-0.02826382095804694,"52":-0.04453279681886618,"53":-0.1433580426143551,"54":-0.010486895551087613,"55":0.18095805856445485,"56":0.17609105099923322,"57":-0.0007528698990547939,"58":0.08431748477597965,"59":0.01918029043865712,"60":0.042470285507286515,"61":-0.1317364100831041,"62":-0.06518978042042557,"63":0.2178663287269574,"64":0.12442246222755689,"65":0.007398070825627953,"66":0.030334872121635034,"67":0.05009326138755496,"68":-0.0010964153170156996,"69":-0.22682227451944992,"70":0.021272451428567988,"71":0.04500627404240893,"72":0.13530813145467735,"73":0.0672987577278882,"74":-0.036318001277214004,"75":0.008766824291900706,"76":0.00347032797114098,"77":-0.14376090686707765,"78":-0.033219951980946606,"79":0.10736703973062428,"80":-0.0383325851379122,"81":-0.08742633014884196,"82":-0.0003252782486887519,"83":0.06436062973634278,"84":0.011778736950685277,"85":-0.05295352945740037,"86":-0.0851135600502524,"87":-0.17648894598635853,"88":-0.06193089237430679,"89":0.028533130746814135,"90":-0.05152908733832794,"91":-0.14781277050861363,"92":-0.051395680348903745,"93":-0.10764329326950432,"94":-0.15965093813165349,"95":0.024768206271029145,"96":-0.03412541102250831,"97":-0.052790871050085765,"98":-0.10223897439525303,"99":0.0072395673258675046,"100":0.07821943039502019,"101":-0.024490400875637794,"102":-0.1369766806591849,"103":-0.058972494261543724,"104":-0.005173787616628563,"105":-0.11820556459265283,"106":-0.06221110114274859,"107":-0.026356912429540125,"108":0.09333378161468449,"109":-0.02620267567749108,"110":-0.285515165967859,"111":-0.014398527244177959,"112":-0.14323852682342297,"113":-0.12260556500241862,"114":0.05892584345562005,"115":-0.04600775886071221,"116":0.08048145492585253,"117":-0.16545907655641073,"118":-0.12211993331448746,"119":-0.1632156218097013,"120":-0.06964902051740597,"121":-0.012875394199399176,"122":-0.041842237146864455,"123":-0.04377294213011568,"124":0.008071403917920671,"125":0.1345843855801159,"126":0.11594010970349053,"127":-0.07092817802699534,"128":-0.0707213113909846,"129":-0.10229025552751107,"130":-0.05267724689306181,"131":-0.0850722052864548,"132":-0.06496266376379652,"133":-0.09048137686264868,"134":-0.08336218321083068,"135":0.012259144320291186,"136":-0.08972261747629745,"137":-0.015194657996286859,"138":0.005841125767229267,"139":-0.11295160267070867,"140":-0.022788183835154838,"141":-0.055675625876476044,"142":0.04194664245287778,"143":-0.1860374677777407,"144":-0.17734502492453713,"145":0.026784012968946926,"146":-0.18739372580907437,"147":-0.1447576773509182,"148":-0.041705857868654814,"149":0.011354069290268564,"150":-0.15572196638367422,"151":0.013904591836551523,"152":0.07131155896223888,"153":0.016784534643384846,"154":-0.010920048661598885,"155":-0.048035550701406735,"156":0.0974153351589773,"157":-0.06457529534811353,"158":0.06989763390858766,"159":-0.11376580347088647,"160":-0.055911149954984876,"161":0.002414257936591613,"162":0.03275460302251403,"163":-0.06866851726036577,"164":0.053393805678720735,"165":0.07026161261408685,"166":0.0597373813335675,"167":0.05281663922304122,"168":0.1562049546243008,"169":0.0593293065852569,"170":-0.04612387666641237,"171":-0.10258344513743164,"172":-0.06809006279789312,"173":0.0924108102120744,"174":0.07318347935397335,"175":-0.07591275922766164,"176":0.07081008670497407,"177":-0.00044166544246947875,"178":-0.11007642424948968,"179":-0.1625333971869958,"180":-0.1109576320990218,"181":0.08064315149930493,"182":-0.002335496085409183,"183":-0.012839006130811147,"184":-0.06464180648575689,"185":-0.057332738064871096,"186":0.010166262205337503,"187":-0.054070604911579494,"188":0.07833740405803796,"189":-0.058290319072524,"190":0.00343748297592761,"191":0.04353140233875387,"192":0.09482645325080183,"193":0.1944837889718076,"194":0.04628649550386099,"195":0.08145745730673978,"196":-0.06810373489305022,"197":-0.043947043815456346,"198":0.0371827017943216,"199":-0.0293535927895718}},{"sx":5,"sy":5,"depth":8,"w":{"0":-0.10841531430802569,"1":-0.0038634627583077315,"2":-0.062234938569742965,"3":-0.07263348790304348,"4":-0.029984319689292032,"5":0.0008235649762510886,"6":0.0979741728350324,"7":0.004920903245962982,"8":0.040305249201348946,"9":-0.04939244101819777,"10":0.05351976499815881,"11":0.0010267441958217028,"12":-0.0020221136482616335,"13":0.022549883925011147,"14":0.15973203580386566,"15":-0.08491821940972731,"16":-0.008447172789949785,"17":-0.01747359951088709,"18":-0.03513589803293107,"19":0.04743667827240795,"20":-0.16073960047968122,"21":-0.057809656947488526,"22":-0.014895242942048489,"23":0.06587565659137352,"24":-0.09681426968756757,"25":-0.06369051623796707,"26":0.005666581659285205,"27":-0.16294426978082616,"28":-0.1460531367020376,"29":-0.024527725380971206,"30":-0.05911236071569005,"31":-0.13550047961158085,"32":-0.159971775857526,"33":-0.0774219861683861,"34":-0.03729367904448781,"35":0.06239129342620443,"36":0.03531848272821011,"37":-0.08057549789359933,"38":0.008570023225707227,"39":0.006368272554774991,"40":0.1064863333836829,"41":-0.1331965332964399,"42":-0.037769329827356694,"43":-0.14298419063958187,"44":0.07808753428048892,"45":-0.001132486914855531,"46":0.011223799281931063,"47":0.10422832811104303,"48":0.054616224593970454,"49":0.0740304801089644,"50":0.09551508635518853,"51":0.006951152874621144,"52":0.02495458500874569,"53":0.05661387896744575,"54":0.06932557012864915,"55":0.007122666883125614,"56":-0.04113261195104718,"57":-0.053778763176260604,"58":-0.07264452536453132,"59":0.08585967134016882,"60":0.05185946420899428,"61":-0.06085249928145799,"62":0.1144477472762269,"63":0.029348922148342407,"64":0.0209892249075389,"65":0.04197467290356286,"66":-0.08974917830102432,"67":-0.17013100806630385,"68":-0.0398914122579476,"69":0.012842106866278732,"70":-0.024088315336053795,"71":-0.09713131324662262,"72":0.01363199999447081,"73":-0.10215560433323208,"74":-0.10583709767407251,"75":-0.06957932464310096,"76":0.05570063460400689,"77":-0.048125166573804494,"78":0.03790052813131394,"79":-0.042386929784858265,"80":-0.10361667579767647,"81":0.027801201444276297,"82":-0.020691094831002916,"83":-0.13021322334984095,"84":-0.14626021023461597,"85":-0.04713983397936378,"86":-0.04230894733145806,"87":0.03672957804127582,"88":0.02795611309129102,"89":0.04633397924109337,"90":-0.06886484893242419,"91":0.042177191466681384,"92":-0.1344551982080044,"93":-0.09072298421411698,"94":0.013826982839001157,"95":0.11961827964104091,"96":-0.0651722729881957,"97":0.10277813737729848,"98":0.1288626154821138,"99":0.12236013446370747,"100":0.08226674949505144,"101":0.006462070226276942,"102":0.005523485229485626,"103":-0.0038571192639353536,"104":-0.07812162299583723,"105":0.031124040756312896,"106":-0.08564111880599631,"107":-0.036838980565732114,"108":-0.006882928197464621,"109":0.04032711742584456,"110":0.07688809403985318,"111":0.023028080759891826,"112":0.11533927389112326,"113":-0.10141176085130528,"114":-0.028924944072717312,"115":-0.0807302330295053,"116":0.0951999906223182,"117":-0.13594840247790405,"118":-0.07374298839456554,"119":-0.041845060400946855,"120":-0.05024812477146083,"121":-0.26196087313324545,"122":0.14391430285670975,"123":-0.08249458034539159,"124":-0.050220141496158034,"125":0.009344598206195785,"126":-0.14708004614938794,"127":0.06210602241512551,"128":0.10487348260812011,"129":0.00610959162463522,"130":-0.0070906891226516855,"131":-0.08948302439520046,"132":-0.06284516358034142,"133":0.03731687037240825,"134":-0.05882895377077044,"135":0.040069609132714575,"136":0.05284575520335199,"137":0.012862745005279183,"138":0.10313498486096298,"139":0.09676432753742101,"140":-0.061245535597521626,"141":0.0326988990745311,"142":0.06923812690090382,"143":-0.07973772329964787,"144":-0.01666659838760311,"145":-0.04199097619016181,"146":0.03255932009921505,"147":-0.04100900780600923,"148":0.030401007458363334,"149":-0.0062316772721393784,"150":-0.007101084182830802,"151":-0.041697473823133484,"152":-0.04597360996022631,"153":0.02599669584695255,"154":-0.13333275066149006,"155":-0.16931333144805338,"156":-0.03591237072618612,"157":-0.025158072186692332,"158":0.02221177446943074,"159":-0.02598455417178972,"160":0.04574533296326687,"161":-0.10160822723897316,"162":-0.01934612871595181,"163":-0.09598552958264173,"164":0.016735120108410568,"165":0.06789533305769103,"166":-0.027703606792545167,"167":-0.003396966375745266,"168":0.027451477123748028,"169":0.04966855736487637,"170":0.05901235606779123,"171":0.07638712044907979,"172":-0.05430685760466588,"173":0.006719240770125106,"174":-0.031491482842808324,"175":0.015965554664755698,"176":-0.014613162196133345,"177":0.09731614576625204,"178":-0.04454311555402867,"179":0.04426853779937734,"180":0.08758624494586703,"181":-0.11430424177704665,"182":0.03711545534046811,"183":0.07390771190544453,"184":0.018782561881971,"185":-0.06742870832688036,"186":-0.054675348321175245,"187":0.01934222338214383,"188":-0.04011413410713071,"189":0.22386805626989084,"190":0.047634524759224126,"191":-0.024434685638633595,"192":-0.02977931119957415,"193":-0.16429383390141422,"194":0.038331965433139145,"195":0.10323877736917038,"196":0.04126285127572268,"197":0.0017721026669968243,"198":-0.1002575033296295,"199":-0.021846603153631346}},{"sx":5,"sy":5,"depth":8,"w":{"0":-0.01973578119905136,"1":0.009622901235627288,"2":0.07910686057821002,"3":-0.14692722526267538,"4":-0.18086515231696604,"5":-0.043267877929045476,"6":-0.023815512252843368,"7":-0.1791511927586575,"8":0.0311585154687868,"9":-0.0738267472174971,"10":0.08413247424483294,"11":0.047991283736167345,"12":-0.1204472011448077,"13":-0.07311950935296882,"14":-0.001994302219191427,"15":-0.09506984579698448,"16":0.03662301166672206,"17":-0.055984489539928586,"18":-0.022807976732039728,"19":-0.0187050687891349,"20":-0.13875923910465943,"21":-0.03117871798198898,"22":-0.07316220421669122,"23":0.06416947068935878,"24":-0.08081868747617675,"25":-0.038079789711657465,"26":-0.09256278347641052,"27":-0.046119037741478935,"28":0.07143642610058615,"29":0.07266522835004771,"30":0.0643671551143486,"31":0.21481108576723673,"32":-0.016549426346420884,"33":0.11510629491587349,"34":0.18160491596003456,"35":0.21193701161452422,"36":0.03051197665958448,"37":-0.06919331911346209,"38":-0.09343946130094853,"39":0.08754752684696743,"40":0.07498551224169941,"41":-0.06825039824961468,"42":-0.04660169287112141,"43":-0.12356061407526436,"44":0.033927663749716765,"45":-0.012195304866997774,"46":0.03428402318527725,"47":-0.16721548401194888,"48":-0.08373292740914835,"49":0.044944178397514876,"50":-0.10679282771391578,"51":-0.025150115596510442,"52":-0.009434090797932808,"53":0.014230614667173692,"54":-0.027707266595514927,"55":-0.025784090877395277,"56":-0.09284707748380347,"57":-0.053669072268714535,"58":-0.04777296932970556,"59":-0.0306176293357,"60":-0.09099979916915026,"61":-0.07513935092336725,"62":-0.08531911409839696,"63":-0.07570320764499126,"64":0.058426865992988235,"65":-0.108281795956664,"66":-0.09775358041020356,"67":-0.18754059240468243,"68":0.06814964759651634,"69":0.0015635536811221663,"70":0.07052602514118768,"71":0.11218108514747581,"72":0.13670503906590345,"73":0.04645454745766851,"74":0.1381433824733589,"75":-0.012885923646918096,"76":-0.21041368165860166,"77":0.05683263878290254,"78":-0.1008888532145392,"79":0.16216951890871592,"80":-0.12370592529244832,"81":-0.15597941932790743,"82":0.06495353594739049,"83":-0.004237274066836104,"84":0.042774701699852063,"85":0.06940637425469928,"86":0.08528559584212822,"87":-0.02338069399283051,"88":-0.08449674119189762,"89":-0.10943515595838493,"90":-0.04672700127396057,"91":0.006294653513564306,"92":-0.01354252264439448,"93":-0.04373039921060271,"94":0.05093897639556372,"95":-0.17140511305929476,"96":-0.10051013000423072,"97":-0.0049611833793154515,"98":-0.11479107340090147,"99":0.02901254340970048,"100":-0.03988499058557476,"101":-0.00792948667120074,"102":-0.058701141263295155,"103":-0.13499886173933617,"104":-0.13226321230730415,"105":0.017807109625884,"106":-0.022189997411010375,"107":-0.14243142945694656,"108":0.15803099065227633,"109":-0.00923027411100982,"110":-0.033692433376385666,"111":-0.08439157860810476,"112":-0.02513334082593002,"113":-0.0566013249401236,"114":-0.07644630986916041,"115":-0.045259176637988806,"116":-0.024540159964706685,"117":-0.16678761642913134,"118":-0.02351232922954925,"119":0.0588303861860444,"120":-0.0028899864336638485,"121":0.054120980746181435,"122":-0.02789744724708034,"123":-0.14561470291564552,"124":0.06349551922377979,"125":-0.0059867612851829425,"126":-0.007845245917056248,"127":0.07862491592354327,"128":-0.0029304690477654953,"129":-0.03116354935925524,"130":0.052178289039271956,"131":-0.03165826828936382,"132":0.07877326390174175,"133":0.003414397557229235,"134":0.010257613486936514,"135":-0.12160975971967616,"136":-0.13987064396297208,"137":0.014746199263539211,"138":-0.16934360762988915,"139":0.015467804116752996,"140":-0.0740524077153991,"141":-0.003458085145801714,"142":-0.0020121265276016927,"143":-0.1327758257591615,"144":0.01255271770858412,"145":-0.14772356797570646,"146":-0.04948879016319163,"147":-0.11447065175109217,"148":0.19845783880319107,"149":-0.07333684782852863,"150":0.03557214772638498,"151":-0.045327096691527256,"152":-0.12492088181348775,"153":-0.07547314205068961,"154":-0.061016561743785606,"155":-0.05733138317375434,"156":0.06172908427725705,"157":0.07466552787316379,"158":-0.025193724339758028,"159":-0.1369728178005938,"160":-0.04898349556297782,"161":-0.015947660439201435,"162":0.18676374235315346,"163":-0.08080189252937162,"164":-0.004831333029555211,"165":0.011075789029729076,"166":0.09897188024604286,"167":0.04374826175119375,"168":0.1309581400249545,"169":-0.0003923963721313489,"170":0.028397556306131815,"171":0.013166262581622316,"172":-0.08097374774948336,"173":-0.048467215492097926,"174":0.029165570839272882,"175":-0.05959262325226908,"176":-0.05938219757809429,"177":0.14107944892997157,"178":0.1063712615720489,"179":-0.024110130118503856,"180":-0.11920901071110493,"181":0.15913811778183495,"182":0.14166521914758387,"183":0.03263859286934452,"184":0.03533483681998797,"185":0.05895588428082021,"186":0.047647132074201425,"187":-0.015302667602626021,"188":0.06000680422569437,"189":-0.015570134424917769,"190":0.12629573118968412,"191":-0.02246124787882987,"192":-0.06603106618876547,"193":-0.02586406149391387,"194":-0.09972775027631689,"195":0.026719610046607816,"196":-0.008599105517129299,"197":-0.10266406519980247,"198":0.1414331668694145,"199":-0.030705053279945063}},{"sx":5,"sy":5,"depth":8,"w":{"0":-0.06835780315332898,"1":-0.12101396109008719,"2":-0.23332450780475536,"3":-0.13856868812969847,"4":-0.15341383728894434,"5":-0.01619517174085287,"6":0.03374733465247816,"7":-0.21467221586088342,"8":-0.1024085237400006,"9":-0.15501277252684864,"10":-0.1491982086440498,"11":-0.09458792206136374,"12":0.02646186426828457,"13":-0.09651861717973988,"14":-0.11995191496696875,"15":-0.135333338579185,"16":-0.2092019413105016,"17":-0.04635895007699443,"18":-0.029511107188264597,"19":-0.046552418684298526,"20":-0.14520075709567223,"21":-0.025426188718908366,"22":-0.05196561257775716,"23":-0.1771669961576868,"24":-0.0010313126361456986,"25":-0.2028625189991723,"26":-0.2698637599441322,"27":0.013124805318539835,"28":0.024252853523919427,"29":0.10323575358755793,"30":-0.13670792330560255,"31":0.15344316835941102,"32":-0.05141953295813404,"33":-0.06974870681595047,"34":-0.04248367094117772,"35":0.11473816697947117,"36":-0.05881061517180883,"37":-0.029242669990590508,"38":-0.0948523284296065,"39":0.1521928389313536,"40":0.07463027353169316,"41":0.04720186294660463,"42":0.07184668211207051,"43":0.04593838367076481,"44":-0.062276323659379955,"45":0.10893056774368098,"46":0.2807794918799198,"47":0.03665858039488132,"48":0.059284879458593814,"49":-0.017527525331058183,"50":-0.10111671611659295,"51":-0.11116376681918269,"52":-0.06315884194064798,"53":-0.03327857016659651,"54":-0.034431235038818474,"55":-0.03198077568814644,"56":-0.034618561237809195,"57":-0.06883392304771974,"58":-0.24241529085274044,"59":0.0027173003468252276,"60":-0.06028766601613445,"61":0.0574861255738377,"62":-0.13503810910240902,"63":-0.1562178206026169,"64":-0.13916310390888187,"65":-0.07318083318348047,"66":-0.060506172413054435,"67":-0.09701083871862262,"68":0.045942109057352645,"69":-0.01872796873593032,"70":-0.08579815861380528,"71":0.02829723711993389,"72":-0.09319946641919355,"73":-0.0157596485035392,"74":0.06255307352555353,"75":-0.011278573284179397,"76":0.07686234594022592,"77":0.058736491443822016,"78":-0.05748574782141086,"79":0.072461665954696,"80":0.15959087189217122,"81":0.07093870536952518,"82":0.04522143971984441,"83":0.04670916444399774,"84":0.1939768225898853,"85":0.06271908852851331,"86":0.09831092863088038,"87":-0.016708185194231277,"88":0.021129805980197643,"89":-0.004521700382228469,"90":-0.030905875352774163,"91":0.04802250777067019,"92":-0.08209542460261134,"93":0.1657822125402508,"94":0.09982548008013901,"95":0.0159215047213638,"96":-0.07029149682297675,"97":-0.04247362950826719,"98":-0.07884769209541913,"99":-0.08444036352988858,"100":-0.042734519092864354,"101":0.029090333401477268,"102":-0.11299988672619986,"103":0.04921728236517755,"104":-0.00885228278782561,"105":-0.09013656136063437,"106":-0.11863316994003742,"107":-0.04416811745693408,"108":0.10706148066893788,"109":-0.014717408022591461,"110":0.06161787693827643,"111":-0.04289685050129695,"112":0.09476788945564774,"113":0.18692027315526788,"114":0.06153375936071769,"115":0.2707865135362434,"116":0.044190619740478894,"117":-0.057364818199470785,"118":-0.02502470455016092,"119":0.09989089190928013,"120":0.07374149132331075,"121":0.021825281174925715,"122":0.14648545220952905,"123":0.12791332346428289,"124":-0.06906418570123204,"125":-0.00982075409183417,"126":0.07686882845989518,"127":-0.047924821814115184,"128":-0.046496898179938635,"129":-0.005232610049315855,"130":0.135868280028772,"131":0.0881404828339898,"132":-0.22926239096163392,"133":0.09483918170582406,"134":0.14710295111408986,"135":0.007975209733386213,"136":-0.007093103402326136,"137":-0.04420883463239988,"138":-0.21783547127830627,"139":-0.11358300216136143,"140":0.042579873990059906,"141":-0.03898822191144063,"142":-0.1477699243735095,"143":-0.092691716789291,"144":-0.062073256773720505,"145":-0.14084927505206524,"146":-0.13556819400612893,"147":0.038858622777347515,"148":-0.04812303196385865,"149":-0.02584716477673711,"150":-0.11428376345592267,"151":0.05621846051400837,"152":0.005593537927467594,"153":0.003219803368398727,"154":0.1126686149926886,"155":0.22126621436796276,"156":-0.05269127328812141,"157":0.02832282368229676,"158":0.037313653876994264,"159":-0.018214118524305035,"160":0.19115563696285628,"161":0.10831293963110149,"162":0.02405012627358472,"163":0.17028641874803016,"164":-0.01730393180921997,"165":0.043040210151290476,"166":0.06595863876281967,"167":-0.11734272906497814,"168":-0.0327978702346262,"169":0.0970314410722665,"170":0.0745259829938392,"171":0.0921292216921808,"172":0.05433180474980178,"173":0.17608227270586133,"174":-0.008372748215350449,"175":-0.08589439505012722,"176":-0.09703999026636795,"177":-0.11790997117993497,"178":-0.04876278758893928,"179":0.047944299456982156,"180":0.01279447194012294,"181":-0.043910381688845666,"182":0.0293458964938859,"183":0.09995330926397926,"184":-0.05099969316655468,"185":0.019510188931610717,"186":0.05356585646270217,"187":0.11447440791071228,"188":-0.026749705148924836,"189":-0.058128729278963495,"190":-0.09312037645050791,"191":-0.20193453572608455,"192":-0.1412893070069819,"193":-0.00526084122731562,"194":0.06820765363555507,"195":0.020182532901160136,"196":-0.03706717293995148,"197":0.05144648657091773,"198":0.021446639492931,"199":-0.07686681251368135}},{"sx":5,"sy":5,"depth":8,"w":{"0":-0.08497441778711827,"1":0.07170768146579466,"2":0.026831148027882067,"3":-0.027348388315314505,"4":-0.13987710926116012,"5":0.10063461299545362,"6":-0.02245528060091664,"7":0.11053373115346095,"8":-0.035094008283661694,"9":-0.07970501820253362,"10":-0.10977166371379166,"11":0.024984979685478782,"12":-0.032907017501360686,"13":-0.06866478909194745,"14":0.11623611038346,"15":-0.09992583839039779,"16":0.0023609663961997223,"17":-0.024834989061863898,"18":-0.12487407600730652,"19":-0.0751339224917343,"20":0.03145572991990763,"21":0.021194895780597425,"22":0.040004155369565406,"23":-0.10008367384652347,"24":0.06089158531925806,"25":-0.06645294294168519,"26":-0.030875904308730936,"27":-0.07648106857288259,"28":-0.007599531509925719,"29":-0.0635274272593481,"30":-0.09159117337779692,"31":-0.17368118073318506,"32":-0.14799988876119222,"33":-0.06408758983490638,"34":0.031031551070910227,"35":0.09489912683082993,"36":-0.07583323255231718,"37":0.0011485192713122706,"38":-0.04095696064185921,"39":-0.16080391720007906,"40":-0.05029987987182042,"41":0.014510715462608443,"42":0.02312386457448714,"43":-0.0066290006313924005,"44":-0.008711450829693336,"45":0.07192007929530174,"46":-0.011345690180451142,"47":-0.16260192849130034,"48":-0.020817280706514334,"49":-0.06174782731793267,"50":-0.09521793427715783,"51":0.06158504965130887,"52":0.024344650661321666,"53":-0.11285849201603802,"54":0.003628641956328428,"55":0.013724232304316061,"56":-0.11387067553469327,"57":-0.10174920040065738,"58":0.025178736030026412,"59":0.03128148027869026,"60":-0.10431781111908339,"61":-0.12673800841241453,"62":0.05730034189779533,"63":-0.05037740403297153,"64":0.07326910648468928,"65":0.05212435958240224,"66":0.013727229050682133,"67":0.002044659995767237,"68":-0.10972588982426068,"69":0.00980473716332324,"70":0.03603077126259186,"71":-0.06561909541117211,"72":-0.01136114554197461,"73":-0.08515564166859603,"74":0.027519190088410864,"75":0.09859154585697846,"76":-0.10044033290515515,"77":0.06109986085947665,"78":0.12836453978703308,"79":-0.03135438860603063,"80":-0.049862361007588306,"81":-0.011820544957566568,"82":0.01573482725636037,"83":-0.08048169056593454,"84":0.08370196711011582,"85":0.07304784468269968,"86":0.07298149898037204,"87":-0.07257680720517568,"88":-0.04278198697472682,"89":0.03756948675441103,"90":0.13372504921358372,"91":-0.1068750704927085,"92":0.1224202249196727,"93":0.05160471563551876,"94":-0.05112297581429352,"95":0.05046200814537992,"96":-0.027850839098632944,"97":-0.043163172113198305,"98":-0.025272842838732063,"99":-0.07077826642921681,"100":-0.0791871661091324,"101":-0.04076958820735309,"102":0.03829317458369048,"103":0.043477047708330524,"104":-0.05787917984901107,"105":-0.06232065066722349,"106":0.05264528474030315,"107":-0.12362741436474564,"108":0.02098868366294248,"109":0.0006446094143392964,"110":0.02376266971186857,"111":0.06755526232249008,"112":0.07455641695275442,"113":0.05001100612754048,"114":0.10385419757228415,"115":-0.14560385446412893,"116":0.006685069925976841,"117":0.017518114426301294,"118":-0.011272749993068033,"119":0.1576500882003803,"120":0.11039593578903567,"121":-0.055810585168248696,"122":0.1036280187132419,"123":-0.05985643098107824,"124":0.05517902078556504,"125":-0.07510482913593744,"126":-0.016182720127277714,"127":-0.056863612664977546,"128":-0.09356996659112649,"129":-0.06014972883125992,"130":0.04597981692679705,"131":-0.10035924589817331,"132":-0.06431488822446212,"133":-0.04926966918642868,"134":-0.11804523052321028,"135":-0.003449991215052085,"136":0.01132140086273014,"137":0.047420815477259,"138":0.07934754678590325,"139":0.03589334556681092,"140":-0.0323249100925954,"141":-0.022491391819978477,"142":-0.006171305947071133,"143":-0.03571881810135922,"144":0.17939693971668855,"145":0.022217184654105743,"146":0.05285048765392014,"147":0.029921923429719742,"148":0.02302344985419826,"149":0.007071082755780953,"150":0.06351799296351823,"151":0.07344511562488112,"152":0.03755457553911336,"153":0.03986223662629151,"154":0.02168999619779267,"155":0.07181471926582522,"156":0.10975258641125518,"157":-0.09242830179799782,"158":0.046014358774325206,"159":0.0330035680737519,"160":0.030236602335472477,"161":-0.15469510837339795,"162":0.13178385302807602,"163":0.06633858239361505,"164":0.06154570345217525,"165":-0.04364334844244643,"166":-0.0009017950395827142,"167":-0.10132980874323516,"168":-0.04181639441991807,"169":0.06393097120523261,"170":0.039728709420506145,"171":-0.11434330874675741,"172":0.040958017655349316,"173":-0.028711516450477093,"174":0.04237584395431881,"175":0.0054125158531045554,"176":-0.055907967925954524,"177":0.0459833583406891,"178":0.005880248337775019,"179":-0.012444043870475145,"180":-0.0057126652907523445,"181":-0.05722874090448195,"182":0.020674079358039915,"183":-0.20910898507685582,"184":-0.08372089064002926,"185":-0.03271377384467221,"186":0.09955779499514948,"187":-0.04479124855981829,"188":-0.054701036086092746,"189":-0.13837736048950236,"190":-0.024500194515268144,"191":-0.09566303127090278,"192":-0.27730374569553634,"193":-0.12298099339363418,"194":-0.0521231370417458,"195":0.021291015793023275,"196":0.021798056487036442,"197":-0.006567587812024446,"198":-0.20396819872630406,"199":-0.21407065531573846}},{"sx":5,"sy":5,"depth":8,"w":{"0":-0.1874298827795712,"1":-0.35524542114774516,"2":-0.08644048546930533,"3":-0.20115079516566642,"4":-0.025699170614846716,"5":-0.30685278062109145,"6":-0.06697725076386873,"7":-0.033824719915202195,"8":-0.10053683438999282,"9":-0.14565658202073536,"10":-0.22562275176312507,"11":-0.0726682254219028,"12":-0.05076204012007024,"13":0.0747433377122973,"14":-0.015194632819268946,"15":0.032200365674324244,"16":-0.05325531677762493,"17":-0.1069018043469236,"18":-0.05328620223750817,"19":0.057146015026946606,"20":-0.08979052294189677,"21":-0.026134292004377734,"22":-0.1296174207743826,"23":0.12229614190221366,"24":0.09471868974235077,"25":0.13478362561603954,"26":0.11378964404477042,"27":0.04535343837237859,"28":0.1211170628633349,"29":-0.0809274075668579,"30":-0.14089453869061044,"31":-0.04636471974076774,"32":0.10198443676889911,"33":0.18174485863250509,"34":0.09617539038688001,"35":0.014095625536727201,"36":0.0576808702053644,"37":-0.002100634559459553,"38":-0.1563547225173073,"39":-0.16242345303960626,"40":0.11788706695548974,"41":-0.025914333272365773,"42":-0.031286288232538755,"43":-0.1691266675799226,"44":0.006062668849409268,"45":-0.017898698266292253,"46":0.03886336958709757,"47":-0.029181974294473556,"48":0.10457137358282871,"49":-0.060568320995885175,"50":0.036529742304873485,"51":-0.182988843885778,"52":-0.1018507247058672,"53":-0.1580654324966961,"54":-0.1451267902392485,"55":0.06329181480144576,"56":0.09983614557141565,"57":-0.0747493927144083,"58":-0.03234288664164949,"59":0.019407333397217175,"60":-0.030944806319301014,"61":-0.06113370867300263,"62":-0.12896614316514146,"63":0.05711781147058304,"64":0.04957618542819499,"65":0.027404240253378093,"66":0.0187889916604086,"67":0.008169457545252275,"68":0.009344542001325236,"69":0.02108277717244499,"70":0.01522292453067021,"71":0.0011579183119116718,"72":0.04310853219485157,"73":0.06526636272944647,"74":0.00960297066411723,"75":-0.06110677089193303,"76":-0.13643625928763162,"77":0.0359459339710958,"78":-0.08559669032211872,"79":-0.06264823438653287,"80":0.1209846537247733,"81":-0.1688808112635507,"82":-0.11637531740670419,"83":-0.012845713900594066,"84":0.02651498836869878,"85":0.010659684391600921,"86":-0.03872481158661687,"87":0.16574980958360672,"88":-0.008392847137620054,"89":0.0027559815693189455,"90":0.00773272481605038,"91":-0.01972271744936975,"92":0.004086351416858661,"93":-0.19557959001707015,"94":0.05489158490687316,"95":0.10844383617528745,"96":-0.11908166432644475,"97":0.11229266910755,"98":-0.06241812583465319,"99":-0.11476820973949016,"100":-0.033719454306996896,"101":-0.03016759422757211,"102":0.08104959452152366,"103":0.07452500683794476,"104":-0.10716537631591089,"105":0.06327787343236625,"106":0.049656896436632354,"107":0.015692922436825404,"108":-0.010414883039312596,"109":-0.09714829976629619,"110":-0.01655183102336151,"111":-0.17911793199337875,"112":-0.0941042195936673,"113":0.0025390444505837186,"114":0.0417593724715211,"115":0.023748542101792725,"116":0.03637690644936894,"117":-0.002490580785170655,"118":-0.053229918990048856,"119":-0.005049337546067912,"120":-0.07448694899667449,"121":0.06743187515771963,"122":0.023396168532909253,"123":-0.04317065835521245,"124":-0.06284518937983548,"125":-0.15533629378049155,"126":-0.07356826335537173,"127":-0.028131050189575797,"128":0.05584485255368467,"129":0.15427770661746082,"130":-0.03876178615508519,"131":-0.1150054508762705,"132":0.08104647554849834,"133":0.000521329774656602,"134":-0.10655932199232533,"135":0.040040484834840545,"136":-0.12741163546276024,"137":0.15518999287233176,"138":0.04557115079903967,"139":0.17025736631351102,"140":0.08457638996567012,"141":-0.013357666605111238,"142":-0.0614323289365109,"143":-0.026422857595606083,"144":-0.10177846887148137,"145":0.1015571133165575,"146":0.10597474956209867,"147":0.09914822935292415,"148":-0.09104729927941035,"149":0.02076019432912162,"150":0.10103684237662043,"151":-0.17489129755568522,"152":-0.0557520341541067,"153":-0.10311856811844859,"154":-0.05536240118294971,"155":-0.029210714810916392,"156":-0.13915828175878023,"157":-0.02202124396904187,"158":-0.05689096088191127,"159":-0.17794269459853435,"160":-0.09460136344184561,"161":0.03874938551928092,"162":-0.07133615639019031,"163":0.11215407653358081,"164":-0.12948169253048913,"165":-0.046632882177603203,"166":0.08965613675181305,"167":0.10870169920288121,"168":0.054169725977677566,"169":0.06869414416835928,"170":0.1277774336842628,"171":-0.038234946416762935,"172":0.021278514041467977,"173":0.01878380960223266,"174":0.06379824486727154,"175":0.06471614496650442,"176":-0.07388784037973634,"177":0.03050847222207608,"178":-0.0021635660544840284,"179":-0.010987185156693806,"180":-0.08106076889281034,"181":0.038639033275660234,"182":-0.033465916269874545,"183":0.026559405977775393,"184":-0.11822452187745647,"185":-0.004184298490001105,"186":-0.13854294119008412,"187":-0.06617475083393545,"188":0.049717599213127746,"189":0.01579524012526185,"190":-0.04742250660866121,"191":-0.11866443313006034,"192":-0.01802475225006259,"193":-0.00856387767772046,"194":-0.016715005792738703,"195":-0.10997907038090728,"196":-0.1313105724240262,"197":0.09546990189944098,"198":-0.04560537371116877,"199":-0.11857056583603147}},{"sx":5,"sy":5,"depth":8,"w":{"0":-0.06663636074489959,"1":-0.060325202902508396,"2":-0.2781909108046692,"3":-0.1528776987722209,"4":-0.03831822831702392,"5":-0.16661720962361934,"6":0.018979400631670612,"7":-0.11785146159138706,"8":-0.10830952830721322,"9":0.03151275497013415,"10":-0.14991437617945,"11":-0.027729281358443904,"12":-0.1688859391743913,"13":-0.1707219278832135,"14":-0.11079941124019653,"15":-0.09435149919878688,"16":-0.08930820424134138,"17":-0.2092300528415585,"18":-0.14103109067034397,"19":-0.0668466325397107,"20":-0.14107386127683444,"21":-0.0145211076107322,"22":-0.03535778620814389,"23":-0.0910901400242623,"24":-0.0888120080899997,"25":0.021147622026099388,"26":-0.06276358400882064,"27":-0.029101375466516987,"28":0.006162626196375306,"29":0.13890188380679785,"30":-0.030715517652994035,"31":-0.030902667683334772,"32":-0.15443459121262185,"33":-0.04845457711363549,"34":-0.08559568896377856,"35":-0.06867727768236087,"36":-0.016643567098615954,"37":0.09008286864503835,"38":-0.06518059939405131,"39":-0.15075817483696288,"40":-0.030209779917787883,"41":-0.09050861939771795,"42":0.005364747246538859,"43":-0.04395393859968558,"44":-0.041518928978660094,"45":-0.07861748185517582,"46":0.08486620245420973,"47":-0.08021176967141985,"48":0.09182125975178597,"49":-0.03934358132893405,"50":0.08219093303941295,"51":-0.06558032424458793,"52":0.11230248678076311,"53":-0.1262965592856328,"54":0.0739684476421362,"55":-0.0021226640917660893,"56":-0.035247321088259356,"57":-0.07448970029241715,"58":0.10673495158602167,"59":-0.0896777619705355,"60":0.020994594539110803,"61":-0.0965040982660168,"62":0.025016382715932366,"63":-0.035939562880603106,"64":0.0368502177968085,"65":0.07328834606847932,"66":0.07865337109152427,"67":-0.019007549197880322,"68":-0.13803859452259934,"69":0.04839013299186941,"70":0.1036511219989434,"71":0.05778317116832499,"72":0.08255837080774706,"73":0.07461453006273411,"74":0.1668491369152131,"75":0.017597235394047017,"76":-0.023887667915617503,"77":-0.053210240837698014,"78":0.11564450383248247,"79":0.17338826042232366,"80":0.17732894062500482,"81":0.07538270257493906,"82":-0.14265873027492498,"83":0.042523799501296866,"84":-0.11176406587205316,"85":0.0034416646139706483,"86":0.10755123997707045,"87":0.17518944458386476,"88":0.12828513072858722,"89":-0.04093655420465614,"90":-0.04139979871731027,"91":-0.030513311062431103,"92":-0.023940047228194837,"93":-0.15940860886357108,"94":-0.025063637093906972,"95":0.16764192357477178,"96":0.2537547436877853,"97":0.06562364781519187,"98":-0.14732292040263414,"99":0.0899963455822871,"100":-0.10213145335853994,"101":-0.07041139729624588,"102":0.1381021845034329,"103":0.14481583617369148,"104":0.25977525489876246,"105":0.09092881715396092,"106":0.19930124448167824,"107":0.09415189956840878,"108":0.04171831280494162,"109":-0.03222316859782764,"110":0.08194671282022879,"111":0.16429110828235138,"112":0.20495506105577624,"113":0.006735937044018758,"114":0.2045362995198671,"115":-0.014061192566436887,"116":0.05343337299836132,"117":-0.10242841493818804,"118":0.12394794197194678,"119":0.21672956426563242,"120":-0.06280444045387396,"121":-0.017366659492782887,"122":0.028633371194981366,"123":-0.04574118218729041,"124":0.10310458114387903,"125":-0.1242269988116505,"126":-0.01616750941751542,"127":0.06344095020476723,"128":0.02136266744712539,"129":0.06462962667713283,"130":-0.03670683463648869,"131":-0.022886835371398084,"132":-0.05626818957379914,"133":-0.076014824985415,"134":-0.006434698853306779,"135":-0.17039471878635565,"136":0.005267123789822707,"137":-0.107556761158937,"138":-0.0878032515033242,"139":-0.09187737943361537,"140":-0.03178988456830073,"141":0.0058583993869788355,"142":0.0696498166970056,"143":-0.03870192264015816,"144":-0.03084812975620755,"145":-0.09220782465286552,"146":-0.10788932146564258,"147":-0.014411449099528791,"148":0.060566357500140146,"149":0.014720774504356125,"150":0.0011174569804714282,"151":-0.06774141674950931,"152":-0.048020289644861665,"153":-0.08749727080769679,"154":-0.0812396566598572,"155":-0.14884190253080332,"156":0.0741165783757181,"157":-0.037088650988652765,"158":-0.1965738277094318,"159":-0.061634062775965295,"160":-0.11805273617432199,"161":0.08887620252933237,"162":-0.02246671727264385,"163":0.06043045694886033,"164":-0.07210516389788794,"165":0.02112420800182302,"166":0.06644294991371423,"167":-0.08639061797259284,"168":-0.19687723054512418,"169":-0.11465896751957534,"170":-0.0436136154895322,"171":0.16039048511476234,"172":0.02343521255619767,"173":0.06284905951524779,"174":-0.03908157181701431,"175":-0.1302231971426698,"176":-0.03507905832313014,"177":-0.03957764241234098,"178":-0.1330634971660742,"179":0.04181321572416757,"180":-0.13609329523576155,"181":0.16016591352654602,"182":0.040582338232312574,"183":-0.1252256216182915,"184":-0.07198466966619733,"185":-0.07020088754458739,"186":-0.11147763671964059,"187":-0.1442442930628557,"188":-0.02369660864662957,"189":-0.02836680488798037,"190":-0.05274360019944492,"191":-0.11563554995851227,"192":0.021049604148631877,"193":-0.04878541171888313,"194":-0.029143508684063422,"195":-0.21993056429126048,"196":-0.230635269624762,"197":-0.06602459220094585,"198":-0.1869946289924177,"199":-0.0962555964719737}},{"sx":5,"sy":5,"depth":8,"w":{"0":0.02758209303333589,"1":0.03555819571478157,"2":0.08206553011800852,"3":-0.07384644947562462,"4":-0.08657929147828397,"5":-0.005795973105229578,"6":-0.01402714362153261,"7":0.060784384260467686,"8":0.1368102576968624,"9":0.014919359911665597,"10":-0.08209711613278654,"11":0.008242276019408266,"12":0.05329752861622865,"13":0.11554800769245685,"14":0.06492215434241841,"15":-0.0006382591604838618,"16":-0.006092076812434081,"17":-0.008832025057280767,"18":-0.13379196135939314,"19":-0.03140989780846869,"20":0.009930445655673144,"21":-0.17035004528643755,"22":-0.03929233532486287,"23":-0.12949131520385862,"24":-0.0643213639919572,"25":-0.06241486585821272,"26":0.015719138566430143,"27":0.006778250123113146,"28":-0.03460354869067913,"29":0.030998596104516028,"30":-0.035130839245560375,"31":-0.013496170340005588,"32":-0.09895186526926339,"33":-0.07652159577701152,"34":0.013084522980338043,"35":-0.06060653234474722,"36":-0.02193638863323517,"37":0.1328860045739721,"38":-0.06552440672381721,"39":-0.033818504122536966,"40":0.040501483992977684,"41":0.058434293985920614,"42":0.031026924359521993,"43":-0.007710354390663107,"44":-0.027352735357987552,"45":-0.1414839028124451,"46":0.12115382163799346,"47":0.05745765627225091,"48":0.12261204360230077,"49":0.05475982102009878,"50":0.0002282498225506561,"51":0.01565685144491479,"52":0.028330912352002312,"53":-0.043029738549156406,"54":0.13329975221633492,"55":-0.02768415529679755,"56":-0.0999872088583282,"57":0.13828760519689973,"58":0.04583281928779779,"59":-0.010588468053089588,"60":-0.14455650564881314,"61":0.006908681275875555,"62":0.1783995945048181,"63":-0.243916025425371,"64":-0.1435777780833477,"65":-0.007081201670981202,"66":-0.07706455817560738,"67":-0.06858942469792316,"68":-0.18596269707505192,"69":-0.0014245572734447893,"70":-0.003886292102201199,"71":-0.08534255498854834,"72":0.06010515326673985,"73":-0.0682175779209668,"74":-0.06909639965349214,"75":-0.08661673299935269,"76":0.009696490096678561,"77":0.04829027800510439,"78":0.04706743598374202,"79":-0.13618039682296826,"80":0.01571012683233318,"81":-0.025195159694446537,"82":-0.02240441045928419,"83":-0.019851963422225487,"84":-0.024107434778091148,"85":-0.23716183015827513,"86":-0.10464657347599648,"87":0.05695819093225632,"88":0.06715022710572878,"89":-0.02147046358869934,"90":-0.04436040406269576,"91":0.018119813364291786,"92":-0.04053275154350644,"93":0.10131840821544692,"94":0.08098719550522193,"95":-0.06576587768068462,"96":-0.0026065918226692267,"97":-0.018079629427770503,"98":-0.01654831842344523,"99":0.016612338648961254,"100":-0.11421686402159201,"101":0.22104077549746362,"102":0.1368391825617514,"103":0.021347572287320506,"104":0.023087802445308163,"105":0.020741154312228987,"106":-0.1514036563818923,"107":-0.07277530393422213,"108":0.009876499972325623,"109":-0.008697408564545277,"110":-0.10645822548366296,"111":-0.139747477502265,"112":-0.022068968954947265,"113":-0.2254614036155492,"114":-0.15209363372694054,"115":-0.0716734859403993,"116":-0.11028011401767095,"117":-0.013806357614486557,"118":-0.100477212506883,"119":0.08006782002925934,"120":0.0770064680855891,"121":-0.1559277544209203,"122":-0.02995802172459954,"123":-0.1307022231994558,"124":-0.053393664848011196,"125":-0.10549321320232408,"126":-0.30637849756245916,"127":0.025795470933305007,"128":0.051116684371073993,"129":0.0558087850440484,"130":0.08374391092694483,"131":0.08665119247949275,"132":-0.06082027901137104,"133":0.004833797355156633,"134":-0.08075198046385486,"135":0.024816591705746877,"136":0.12317005413605187,"137":0.1452112476180925,"138":0.11520513223618209,"139":0.20134639527045606,"140":0.07353392718751352,"141":0.18899288232076467,"142":0.09631755276180742,"143":-0.000864944962579928,"144":-0.18185284386425668,"145":-0.05617134036216101,"146":-0.14718617013044896,"147":0.00998662416573496,"148":-0.04496568052570593,"149":0.0477493810421223,"150":0.12171863706807513,"151":0.03090370855307776,"152":0.01962088208939551,"153":-0.29072178345603467,"154":-0.0628520965727223,"155":-0.11181482463050597,"156":-0.08258799280156415,"157":0.003877432205103069,"158":-0.07321147211649671,"159":0.06630292528640017,"160":-0.045945430405433474,"161":0.025653663495398937,"162":-0.07820863272159108,"163":-0.05970977460257605,"164":0.05299930833094987,"165":-0.14234400606197503,"166":-0.10651999661304534,"167":0.1390998221930588,"168":-0.016831725940653047,"169":0.05555660267468819,"170":0.08089041300117773,"171":0.16530117417784945,"172":-0.018936214598214405,"173":-0.007155145758189766,"174":-0.003160545669519221,"175":0.1133330761225429,"176":0.03231499359858204,"177":0.012988431241311415,"178":0.0632666685225419,"179":0.1066771713077308,"180":-0.18115534938087827,"181":0.08638807790336482,"182":0.1349956750437817,"183":-0.10725187520715918,"184":-0.02779291257683063,"185":-0.04515672366523538,"186":-0.09534031453578518,"187":-0.06845870346374039,"188":-0.10718638889717103,"189":-0.10271887063272968,"190":-0.01071415203118288,"191":0.01213238810154359,"192":-0.12322485765692535,"193":-0.14500399519208262,"194":-0.11897365083211076,"195":-0.05839076814626959,"196":0.03456510155880391,"197":0.027684187326848624,"198":-0.07656681351593701,"199":-0.003320227885187688}},{"sx":5,"sy":5,"depth":8,"w":{"0":0.03244842851908055,"1":-0.19103501307244086,"2":-0.1616357680058384,"3":0.0032390549954407926,"4":-0.13045637194127419,"5":-0.06259412122980872,"6":-0.04345434948091207,"7":0.1365623996328443,"8":-0.05295691722283666,"9":0.026179049497648002,"10":0.021084830880789177,"11":0.041780235034636064,"12":0.09213396243547202,"13":0.17493438723421134,"14":0.0819036770683331,"15":0.10638433777613533,"16":-0.05013935721799522,"17":0.03511253151936726,"18":-0.06330008946917025,"19":0.21466180449747077,"20":0.09040578125839524,"21":0.016384861356717392,"22":0.010911346519781593,"23":0.010298701558228554,"24":-0.11421970112435019,"25":0.16862670936855662,"26":-0.08538725759173643,"27":0.021809448508463405,"28":-0.058146004482044385,"29":0.11950224177275626,"30":-0.10628097935607475,"31":-0.0973972701652825,"32":-0.10178188821687541,"33":0.03156780888138317,"34":-0.09039076284452419,"35":0.03420437472573121,"36":-0.044043163492627976,"37":0.05946189075432151,"38":0.023432846546437597,"39":-0.03655778036312044,"40":0.10149759787035223,"41":-0.15085524230389447,"42":-0.12326374304880601,"43":0.027713290790702123,"44":-0.01859214164537406,"45":-0.1921776063047918,"46":0.04021136522455851,"47":0.1674847421019835,"48":-0.03690210115497055,"49":0.16164880358532122,"50":-0.014195196461164645,"51":0.08574523521401915,"52":-0.07698458395933166,"53":0.1332455852668721,"54":0.10478736588023116,"55":0.002316310363207486,"56":-0.10962048243289932,"57":0.022618204651197068,"58":-0.10982371206337796,"59":0.020534847311368294,"60":-0.093879896308922,"61":0.15395963863817638,"62":0.06534608897292651,"63":-0.062142362719390803,"64":-0.03735474066622038,"65":-0.16625274362513925,"66":-0.12653440697259305,"67":0.049426335650787766,"68":-0.21394223319633984,"69":-0.012888511867937243,"70":-0.030594838070704795,"71":-0.026439445484917237,"72":0.02946134720859768,"73":-0.0318968838478641,"74":-0.06005631602192664,"75":0.017488595683766588,"76":-0.04693597264146432,"77":-0.03168254160961647,"78":-0.09466337509213432,"79":0.04792548757775293,"80":-0.05195413671391115,"81":0.12707070121492203,"82":0.05526610788037241,"83":0.05230941086298105,"84":0.11816652921264661,"85":0.014006134565373585,"86":-0.027527908290390812,"87":0.01667363918694211,"88":-0.026704062619259526,"89":0.1887470052367288,"90":-0.03943802578960168,"91":0.08385257545902537,"92":0.09544737305545976,"93":0.22854935159372622,"94":-0.06244034377130257,"95":-0.14176780211163884,"96":-0.03722874331193276,"97":-0.18544108016407684,"98":-0.12085806514925473,"99":0.08101646615586353,"100":-0.27619103126992434,"101":0.002149483481451614,"102":-0.06694773741656075,"103":-0.050031084807689294,"104":-0.18079532861024117,"105":-0.16299137989339857,"106":-0.038028800009400794,"107":-0.10955178188559304,"108":0.016360970848628233,"109":-0.01731001552121165,"110":-0.03454211967404641,"111":0.017539790997029535,"112":-0.055349095411199555,"113":-0.05283586784242815,"114":-0.06651462929323518,"115":-0.0958068536733848,"116":-0.019524972577530553,"117":0.059025923754087425,"118":0.07871800485276643,"119":-0.03358560443749814,"120":0.011283311999374955,"121":0.1628620425431483,"122":0.052654056085711116,"123":0.13630073746181193,"124":0.048764987640428935,"125":0.07251895361705421,"126":0.03707817645743341,"127":-0.0077032396297361935,"128":0.1400985364544484,"129":0.046421789018162574,"130":-0.04675415934182294,"131":-0.07638414578703585,"132":-0.15005221318133694,"133":0.05572406187281161,"134":-0.11853879624326068,"135":-0.23786709513927476,"136":0.01260842571655289,"137":-0.05505881359263705,"138":-0.1154659093381677,"139":-0.14419494830111768,"140":0.0369698382631208,"141":-0.08598743574345924,"142":-0.19411292304916694,"143":0.0096983707016138,"144":-0.05565954605032263,"145":-0.00375132722195179,"146":0.11955924592202073,"147":0.03180139669263185,"148":-0.10799368920733195,"149":-0.06233657172072221,"150":0.011295262884799148,"151":0.11702163438260549,"152":0.01267905168988543,"153":0.055424208735889116,"154":0.05274925489988525,"155":-0.02079906087764396,"156":-0.052382001236407544,"157":0.08335168485911133,"158":0.11256657558867066,"159":0.005096615106684115,"160":-0.012949095566332863,"161":0.14391802184043206,"162":0.00008055396831909692,"163":0.03989089609235072,"164":-0.12296515498405726,"165":0.09118250275751623,"166":0.0369061748338756,"167":-0.11657282348443077,"168":-0.04930081476783592,"169":-0.04069358999546532,"170":0.02707812536195299,"171":0.02161798403451881,"172":-0.10958374082466273,"173":-0.013160207024949822,"174":-0.04245571478535621,"175":-0.013405451571504745,"176":0.11160505045629501,"177":-0.08287189687958381,"178":-0.04442118457043594,"179":-0.09441303387573753,"180":-0.024756606408722497,"181":-0.067365878287753,"182":0.038393619890290887,"183":0.09865284897302466,"184":0.018141452770703094,"185":-0.0001133492394369039,"186":0.08705463454196796,"187":-0.07314460581420966,"188":0.023618122219536245,"189":-0.02631245992569464,"190":0.10166951730463539,"191":0.029173775773256985,"192":0.0561693564872694,"193":-0.011487430081961385,"194":0.0367888080277078,"195":0.013144494777233687,"196":-0.0820297346945603,"197":-0.012855422433082905,"198":0.0031690314098648813,"199":-0.03426643227518319}},{"sx":5,"sy":5,"depth":8,"w":{"0":-0.020454134040548622,"1":-0.0827941807652494,"2":0.02107032609546379,"3":0.034627237136622385,"4":0.04806424827394827,"5":0.04805122036404971,"6":0.03926728857770748,"7":-0.012669512217975552,"8":0.014379091743564443,"9":0.09764658920613696,"10":-0.014878100503018427,"11":-0.07224604666924432,"12":-0.06524463814064617,"13":0.10342740605626236,"14":-0.026015844990284722,"15":-0.03709134420809497,"16":-0.03015991314111882,"17":-0.12205317868292452,"18":-0.23677965033920154,"19":0.07802142292814342,"20":-0.054890885349072153,"21":-0.053477777960190556,"22":-0.09831320757089813,"23":-0.0927205469868119,"24":-0.04059942415697039,"25":-0.030844469103251317,"26":-0.11228040675854602,"27":-0.009513604581841273,"28":-0.050285885576118516,"29":-0.16655527963937786,"30":-0.07210284825929458,"31":-0.036746557443526666,"32":-0.18351067275198776,"33":-0.11697087076371561,"34":-0.11312979238503036,"35":-0.03096418354672224,"36":0.03717185691243452,"37":-0.048071138640199566,"38":-0.07587539391834942,"39":-0.07381095884012334,"40":0.0356409908314197,"41":0.08712649036592612,"42":-0.0628677464063193,"43":-0.14864167541707532,"44":-0.11654935346053467,"45":-0.05701843947307176,"46":0.03188129181483777,"47":0.07002005561459754,"48":0.0007252380293533626,"49":-0.03171037031225314,"50":0.022408362299903423,"51":-0.08908700604427013,"52":0.03218196130147698,"53":-0.07283976728679294,"54":0.029296640414876538,"55":-0.017494102013895025,"56":-0.0022286248164728553,"57":-0.12165228381288835,"58":0.14971379601613546,"59":-0.08698016380958588,"60":0.05089208148551572,"61":-0.021765345767205964,"62":0.04466998457126321,"63":0.13890091431747364,"64":-0.07880782053114532,"65":-0.13903968911829434,"66":0.011528207539281339,"67":-0.05642897515930329,"68":-0.062392387007579576,"69":-0.13320607095091655,"70":0.09574293375696889,"71":-0.024674388856257837,"72":-0.0479635022676341,"73":-0.0970484547229646,"74":-0.13868113269772772,"75":-0.04524738355017953,"76":0.008802632498097127,"77":0.02882545820285695,"78":-0.02892879547200928,"79":-0.1522137703469412,"80":0.05720249888542091,"81":0.12850642160885792,"82":0.13718546734868528,"83":-0.06683452731566027,"84":0.07602011609661047,"85":-0.009410480868523042,"86":0.030223653405145393,"87":0.20153529544112214,"88":0.11347887273479802,"89":0.14748801805592632,"90":0.07183851516508509,"91":-0.07408944622816106,"92":-0.0850579033429489,"93":-0.08263395664603661,"94":0.003415921793766375,"95":0.17291320596216728,"96":0.20310718123943192,"97":0.13188464115672946,"98":0.1118758548772918,"99":-0.034421373699656616,"100":0.004599165460457618,"101":0.008190369255913729,"102":0.015629979119877846,"103":0.09535006310029659,"104":0.11209264806394396,"105":-0.0049068401648950325,"106":0.15718334835190167,"107":0.05075985869688472,"108":-0.0017384171134863973,"109":0.033809470643097,"110":-0.0749827419507568,"111":-0.0376292335009172,"112":0.19718580014497938,"113":0.10249984951605086,"114":0.06628218281502218,"115":-0.013396463866946269,"116":-0.05436952397977809,"117":0.057427077941174895,"118":0.027785336242240985,"119":0.206297163185044,"120":0.001182167344068519,"121":-0.0030586534572356184,"122":-0.00803864031745649,"123":-0.2256314535617823,"124":-0.034329941110784835,"125":0.037951495077801545,"126":-0.008735381128661065,"127":-0.0579712143231361,"128":0.04241869894644653,"129":0.05518840374680826,"130":-0.0038094130335306737,"131":-0.10950548315756632,"132":0.12557038485056615,"133":-0.054768254677437234,"134":-0.06268435009654115,"135":0.008823450384800357,"136":0.07210497456372106,"137":0.08810887883041632,"138":-0.022519962929246694,"139":-0.010752419692431743,"140":0.059765261435468744,"141":-0.15555050504060539,"142":-0.297974934925178,"143":0.1055677915509077,"144":0.05741728655206129,"145":-0.026214961355643916,"146":0.035976216490204535,"147":0.033760768796322255,"148":0.07749616032117143,"149":0.006497699959802427,"150":0.049330726415881127,"151":-0.0103456351744654,"152":-0.05741993469444111,"153":-0.045858549141189836,"154":0.08018231448855077,"155":0.06421987864580939,"156":0.023517797536500386,"157":-0.042937408735776394,"158":-0.0901173000305709,"159":0.030193987656593712,"160":-0.10315200173513171,"161":-0.0028336041633372556,"162":0.06944015569684305,"163":-0.11792216477818704,"164":-0.002945647146180737,"165":-0.030272470705697597,"166":-0.13571945541971758,"167":-0.09047529797933679,"168":-0.11747527667427494,"169":-0.0862977900222635,"170":-0.03337207756631256,"171":-0.03271952185991228,"172":-0.11080072771685183,"173":-0.074799739481335,"174":-0.011069494493537644,"175":-0.15835467629730546,"176":-0.15135615255888948,"177":-0.11716019290753851,"178":0.023498056157201554,"179":-0.018032606905565098,"180":-0.1398880652020547,"181":-0.09578215343990025,"182":-0.08389624496802695,"183":-0.0013154724535960269,"184":-0.022054358850793668,"185":-0.019341535575189174,"186":-0.023778418813511663,"187":-0.07811934607905452,"188":-0.05600226772167517,"189":-0.09027813306023462,"190":-0.18522879377224202,"191":-0.045129062903958475,"192":-0.009440818789216003,"193":-0.06826979231430473,"194":-0.09642792174571721,"195":-0.11930069948564434,"196":-0.11018073081590778,"197":-0.024688598395842115,"198":-0.1223313478088254,"199":0.029565525834802694}},{"sx":5,"sy":5,"depth":8,"w":{"0":0.004340626030374812,"1":0.10405116136734567,"2":-0.0011165681930685408,"3":0.01012209728929403,"4":0.06088299023778497,"5":0.06751862830467727,"6":0.01670593029031185,"7":0.06002929235461006,"8":-0.0035720427461019394,"9":-0.06222225759896785,"10":-0.19281471462918123,"11":-0.150745419007921,"12":0.04463075539213113,"13":0.00978987226299354,"14":0.057667060253664894,"15":-0.08907513687789535,"16":0.014725126729019503,"17":0.10390547818580824,"18":0.04134464267524676,"19":-0.09611151246893501,"20":0.02071255855334998,"21":-0.20686008416239837,"22":-0.06603754997753927,"23":-0.0914269333700922,"24":0.026542744183847233,"25":-0.044956452434316126,"26":-0.0393986721663165,"27":0.05015644504034435,"28":0.0933675929467654,"29":0.026589180973137307,"30":-0.11173326514735563,"31":0.01959163358302147,"32":-0.08447624883485236,"33":0.18943515436259536,"34":-0.07346164919924435,"35":0.016243985267488718,"36":0.12656051209285318,"37":0.008457351084523557,"38":-0.021992359208349983,"39":0.025967646659456372,"40":-0.1599264938217165,"41":0.04854327188919125,"42":0.013868304136775568,"43":0.21641674085198373,"44":0.04176446533536096,"45":0.01656427056270818,"46":-0.16819856298637748,"47":-0.2247277562913993,"48":-0.08669259900237296,"49":-0.07222478747869199,"50":-0.019789567514274065,"51":-0.07207398680280312,"52":-0.07123420682032654,"53":-0.029620551553578584,"54":-0.08079555254992313,"55":-0.10017459244062345,"56":0.002835464767321963,"57":-0.1191385967865813,"58":0.05715354766468153,"59":0.00566359622808364,"60":-0.031444010618436574,"61":-0.061726195690870025,"62":-0.1423579183455858,"63":0.0316024061996953,"64":-0.001285823035328034,"65":-0.02137271736145234,"66":-0.0019771429910431793,"67":0.08917291770750228,"68":-0.016718073337603376,"69":-0.0033864996864833214,"70":-0.02926463134537831,"71":0.009781247819841563,"72":0.05467994596980526,"73":0.1984873171645084,"74":0.022575023963200973,"75":-0.033947072817724105,"76":0.11410058312801492,"77":0.14619192531976438,"78":0.02173036130119778,"79":-0.028097035346983434,"80":-0.16485182685941535,"81":0.08158734894777915,"82":-0.14639299588253352,"83":0.057700278712393006,"84":-0.22685597093175539,"85":-0.06807324187227544,"86":-0.08827872967004945,"87":-0.12882790271228758,"88":-0.1436941664618049,"89":-0.25212293941357533,"90":-0.08850674935117069,"91":-0.08642319736653852,"92":-0.1371109611525322,"93":-0.014727759045945267,"94":-0.17152618604792355,"95":0.11384587123720534,"96":-0.015161380658991952,"97":0.0059550344407662695,"98":0.014654130320288096,"99":-0.022519912432569077,"100":0.02455046262700059,"101":0.02505987924441494,"102":-0.049856997647303884,"103":0.08400381678043121,"104":0.015391674421835708,"105":0.07179433460884284,"106":-0.0871659614851146,"107":0.07847742380200562,"108":0.015574834913721605,"109":-0.01779867014522024,"110":0.12600853250376767,"111":0.0035123424819268074,"112":0.006000924661409668,"113":0.08622797140223912,"114":-0.059205934074294364,"115":0.08964906628355235,"116":-0.05619597561643424,"117":-0.025956380027035098,"118":-0.14106141870130545,"119":-0.002435537004948179,"120":-0.055938712632481555,"121":-0.14660663878341224,"122":-0.17928079365207647,"123":-0.03644356747664407,"124":-0.16641726814711902,"125":-0.12333165284922337,"126":-0.0534089964324839,"127":0.1422610879884888,"128":-0.004342273830991422,"129":-0.10722989027368583,"130":-0.1364140114738614,"131":-0.040278204523420805,"132":0.005714301897432482,"133":0.012789607671098565,"134":-0.053871508917735074,"135":0.10914670924892131,"136":-0.027791825646739057,"137":0.23753862441176288,"138":-0.011562215529584294,"139":0.05654114938486427,"140":0.09524922218988115,"141":0.027124911872735958,"142":-0.0036452298509543884,"143":0.050235562013642404,"144":-0.045251334671741104,"145":0.10895448264872698,"146":0.06136209015284266,"147":0.15096234489472013,"148":-0.07497162556852605,"149":0.08258454562745551,"150":0.010868135087582425,"151":-0.17048172708257542,"152":-0.12220292557372514,"153":0.05887689659363188,"154":-0.2011270322310901,"155":-0.0209379123614193,"156":-0.1551219238031565,"157":0.06709393345485887,"158":-0.04544565939593866,"159":-0.10656834541788465,"160":0.0509740313797941,"161":-0.25570273887381745,"162":-0.01768912921599625,"163":-0.21178670619030016,"164":-0.0012798095142482913,"165":-0.06848026460026,"166":-0.017066940292797858,"167":0.037108417471139125,"168":-0.058482037030134604,"169":0.08431117484219922,"170":0.030575388265392335,"171":0.1643754271570052,"172":0.06989897027883323,"173":-0.07728918081070742,"174":0.07742334900547125,"175":0.15430251187050453,"176":-0.028475851331676353,"177":0.1538588904811362,"178":0.10047640150914924,"179":0.07094133034600449,"180":0.05693168994453938,"181":0.023518629018059643,"182":0.050589972027648804,"183":-0.1361628673938518,"184":-0.19254119282744217,"185":0.06383768453136389,"186":-0.12766543161869254,"187":0.1621303778907446,"188":-0.03166659027157296,"189":0.05376740484880102,"190":-0.08131828784416849,"191":-0.1907707601444523,"192":-0.1339599094868996,"193":-0.20146754858098956,"194":-0.02574267932598824,"195":-0.0478427057498322,"196":-0.17190286846084876,"197":0.08260627822013278,"198":-0.18795515255523415,"199":0.015053641645399721}},{"sx":5,"sy":5,"depth":8,"w":{"0":0.12034825211060281,"1":0.012472262319407984,"2":-0.040230233577763466,"3":0.18628816446504956,"4":-0.03426122987170574,"5":-0.013830662006132803,"6":0.12867585662376696,"7":0.10191453095369471,"8":-0.00996426498973085,"9":-0.07683365274473125,"10":-0.03260066327150513,"11":-0.024863871747555548,"12":0.10193999716936718,"13":0.016764489908204998,"14":0.12270048356397838,"15":-0.009735051715693187,"16":-0.11800786804282905,"17":0.003926255434677916,"18":-0.05327555090081164,"19":0.011336769044407984,"20":-0.007370713317271262,"21":0.08183090737096911,"22":0.0021993636812810188,"23":-0.09154782601561783,"24":-0.1602195352525496,"25":0.07924700186579518,"26":-0.039989896674724246,"27":0.014023193103402061,"28":-0.13525942340370994,"29":0.007537816064832574,"30":-0.04131582334229561,"31":-0.08878561799789145,"32":-0.11087402954151795,"33":-0.10171049446882932,"34":-0.16489939890073452,"35":0.09302883008165382,"36":-0.10282635923844456,"37":0.053204860859341875,"38":-0.071790668617344,"39":-0.11109834751552888,"40":0.04159262462277131,"41":0.08613890146354414,"42":0.06334700337376874,"43":0.11709007707582005,"44":0.09067955308193505,"45":0.21186245004139626,"46":0.12611363310487636,"47":-0.006131436644647316,"48":-0.013129235929118658,"49":0.050998062700438,"50":0.042066815166850915,"51":0.03480873032189622,"52":-0.08038955095223337,"53":0.0011148197884588316,"54":0.06689030597001248,"55":-0.015622882523795994,"56":-0.12428845339670844,"57":0.0181730370640262,"58":-0.12365036104574104,"59":-0.005646701656403725,"60":-0.018334148377320905,"61":0.0011302450318360154,"62":0.04550210837217013,"63":-0.15456074104593437,"64":-0.01597734336105725,"65":-0.055927521777136384,"66":-0.0807260449750016,"67":0.04768416178356851,"68":-0.07193677446849589,"69":0.06153265995024221,"70":-0.10907550221173001,"71":-0.12712860442897264,"72":-0.0011626848690452357,"73":-0.08270911863027866,"74":0.0024797487139042044,"75":0.02776484323163994,"76":-0.22017626682488214,"77":0.0779754876820467,"78":0.07983083369384171,"79":0.10296298622135797,"80":-0.03612509027364048,"81":0.1781990332090379,"82":-0.050165199155058876,"83":0.05614655151534034,"84":0.04157766878745122,"85":0.3064567588397427,"86":-0.08475704941403366,"87":-0.09140788611413866,"88":-0.01136880353191096,"89":0.010029261372471258,"90":-0.19162279474534774,"91":-0.0829461029840387,"92":-0.017211200127407667,"93":-0.12464286203187759,"94":-0.1318841486635457,"95":-0.06661020183121243,"96":0.09789183703218172,"97":-0.11873895495877704,"98":-0.11657720300678617,"99":-0.028182716224556432,"100":0.009391272155124135,"101":-0.02576263463033326,"102":0.015382079696412998,"103":-0.10265273291754749,"104":-0.1579201836440216,"105":-0.06862113435234339,"106":-0.16263477161506065,"107":-0.005182052533155116,"108":-0.02951943802895416,"109":0.15858466280451072,"110":-0.16129802046834296,"111":0.11652529019442077,"112":0.1011283883997059,"113":0.028352615778212135,"114":-0.0069627076681954185,"115":-0.023140919620947536,"116":-0.007955361954465345,"117":-0.1385189480555189,"118":-0.1486871891570444,"119":0.08231952360010857,"120":-0.17563776625705932,"121":-0.012006795577817612,"122":0.02019192297113533,"123":-0.08314713624413171,"124":0.10945133999961809,"125":0.03356472475970063,"126":-0.06155967045917414,"127":-0.10574797894242774,"128":-0.07855456899196403,"129":-0.05823074149694361,"130":-0.08508224165519447,"131":-0.02157741024255243,"132":0.000998784295419667,"133":0.05064618286544812,"134":0.11497237304152613,"135":0.0017144509498957985,"136":-0.021973361230906215,"137":-0.07056607627972494,"138":-0.1259442449085656,"139":-0.012450931255311399,"140":0.0015002655357679098,"141":-0.12479523050392913,"142":-0.17908514136171022,"143":0.013298351726510085,"144":-0.08483912110955111,"145":-0.21176348725673602,"146":-0.14232300102480905,"147":-0.06404399569060777,"148":-0.05702920518118216,"149":-0.028031167335288674,"150":-0.10301503382446808,"151":0.16036845738759214,"152":0.10914815444350437,"153":0.004387534200481303,"154":-0.008598081852618194,"155":0.056283284402225325,"156":0.03786123277198009,"157":-0.12121798178028294,"158":0.026853813889663618,"159":0.16746656799627957,"160":-0.17318707306988435,"161":0.03509914407413487,"162":-0.18421180083217856,"163":0.04924919398689254,"164":0.05277336954824229,"165":-0.053340547513306344,"166":0.02328961072012945,"167":-0.13388232226575528,"168":-0.0393340323768798,"169":-0.014492500655542369,"170":-0.19779474261141575,"171":0.03337597459131128,"172":-0.025878860516598975,"173":0.023417717731517695,"174":-0.01645380817542739,"175":-0.15625943186815272,"176":0.06582587409628907,"177":-0.020575926081920194,"178":-0.1417270242225844,"179":0.001724865565273264,"180":-0.15602429869251752,"181":0.012222953549370877,"182":-0.035119589523186584,"183":-0.019056952435464063,"184":-0.006399516006479158,"185":-0.002646605734816531,"186":-0.028279543007372253,"187":0.04197053647513001,"188":0.1705159615652186,"189":-0.145233306759195,"190":0.028792803601682664,"191":0.1277265612306435,"192":0.030981394843870306,"193":0.2873565583337148,"194":0.07219803714674711,"195":0.11305710140994028,"196":0.12038821864921764,"197":-0.09143763516707844,"198":-0.06315212332076424,"199":0.1475394934780292}},{"sx":5,"sy":5,"depth":8,"w":{"0":0.0863026831042084,"1":0.17261751557840954,"2":0.09114279793015763,"3":-0.005908840195011373,"4":-0.08763840032718499,"5":0.010551489651424635,"6":0.0802340685657924,"7":-0.04769875027516453,"8":0.04032667692826251,"9":0.030923264584576504,"10":-0.0031326744650028997,"11":0.155424500972493,"12":-0.15603392583039083,"13":0.02052367042477905,"14":0.02042991811448445,"15":-0.01567953961475871,"16":-0.05027617144602058,"17":-0.03425218039933478,"18":-0.022083090154396353,"19":0.0043537801971389135,"20":-0.08844956546657631,"21":0.07298927659527574,"22":-0.08643031568960087,"23":-0.05353057292587946,"24":-0.15497037348989395,"25":0.007983072989113254,"26":-0.0017398931832567559,"27":-0.035450755374057105,"28":0.01340762059958608,"29":-0.04212419844598138,"30":-0.1075244044071238,"31":-0.017259983016995484,"32":0.050600627539403115,"33":0.06904748645073155,"34":0.07683420658995337,"35":0.0569183372600887,"36":-0.0014014558121123394,"37":-0.002406007705206054,"38":-0.022787940135181515,"39":0.03624102514361565,"40":-0.042970951658240795,"41":0.004548271512958246,"42":-0.013498143319604767,"43":0.022819231845544376,"44":-0.04656184165836926,"45":-0.034725669919617196,"46":-0.11517532966598251,"47":-0.12089277734476206,"48":-0.01912704523685744,"49":-0.16084105095259785,"50":-0.1132848447757169,"51":-0.14277378078707187,"52":-0.04703541088180531,"53":-0.10197882470788557,"54":-0.19793074384527526,"55":-0.15429390344671065,"56":-0.18150055262060966,"57":-0.10583263901358493,"58":-0.07772039413464368,"59":0.054582006834062564,"60":-0.10098899256545024,"61":-0.11845925613623771,"62":-0.13805305868467257,"63":-0.0035984456111881496,"64":-0.12171572399808415,"65":-0.06156002607754612,"66":0.0186126245446024,"67":0.05075135869979397,"68":0.08517394649160234,"69":0.0035288567261364864,"70":-0.06810716758295098,"71":0.22682991361278101,"72":-0.06411014887849342,"73":0.20594612053027192,"74":-0.0023626645096023902,"75":0.05113296480827639,"76":-0.05978531835282897,"77":0.24660116756718417,"78":0.07890203906513238,"79":0.11644315240132888,"80":-0.05977829020534718,"81":-0.023696803003926847,"82":-0.02775470955315879,"83":-0.051906112443658836,"84":-0.02839546659073311,"85":-0.07395252415400184,"86":-0.08240611313817915,"87":0.039332281114494216,"88":0.00009227134696168665,"89":0.10795513012249887,"90":-0.0629559727325163,"91":-0.008235050169156839,"92":-0.08757201307810034,"93":0.04035055004422389,"94":-0.16587114803807582,"95":-0.14681256263830608,"96":-0.14840653297137235,"97":-0.042112576877023127,"98":-0.06536286678872608,"99":0.030580614642770954,"100":-0.05589428843218325,"101":-0.005382906510224856,"102":-0.06518572639988411,"103":-0.02221325625504664,"104":-0.13160840389417303,"105":-0.010554688250683213,"106":-0.042215232403028116,"107":0.13346377092327233,"108":-0.018324990362085493,"109":-0.02730333604902525,"110":-0.038096496839424204,"111":0.1235927477942422,"112":-0.0035119029163083737,"113":0.17915590723142585,"114":0.07534375730469556,"115":0.20468422231815414,"116":-0.07460966978847672,"117":0.20345496356136294,"118":0.11742423802869997,"119":-0.10896286367853568,"120":-0.09628406981475737,"121":-0.07491249976696397,"122":-0.14102045204224933,"123":0.03415387375627691,"124":0.03676857406845519,"125":0.021626709626569787,"126":-0.13357113788124358,"127":-0.17709434352886042,"128":-0.08426296290378055,"129":-0.08015373860054903,"130":-0.20709763725374924,"131":-0.0907727141032861,"132":-0.03161426564617333,"133":0.04764510569290114,"134":-0.09044707322727201,"135":-0.11021764778926352,"136":-0.06366714330576875,"137":-0.19183971207301395,"138":-0.2162981333924103,"139":0.04389682822265079,"140":-0.05496855855680924,"141":-0.09294064740366415,"142":-0.19415624828634098,"143":0.0893625437357722,"144":0.04546022553910172,"145":0.18125475167977875,"146":0.10798865253920772,"147":0.041322787604305695,"148":0.08536411945173959,"149":0.03589663133619842,"150":0.2634745291326852,"151":0.10384441782618457,"152":-0.004580362251566448,"153":0.2326614969312919,"154":0.17264503404712245,"155":0.04977783177644476,"156":0.013724707567283504,"157":0.11198639734271353,"158":-0.13138323492382406,"159":-0.10211539550620602,"160":-0.008228292808642148,"161":-0.13882496573746808,"162":0.01826419752217305,"163":-0.08947840706040071,"164":-0.19530116500784914,"165":-0.1114994166591814,"166":0.007340690228273969,"167":-0.027135646090918664,"168":0.0963861134368857,"169":-0.11016973872198757,"170":-0.05720045707217712,"171":-0.08453683894990624,"172":-0.09550382994889627,"173":-0.10407410591862569,"174":-0.00917499247261457,"175":0.126247266648686,"176":-0.16384016951463956,"177":-0.12515953748765415,"178":0.031514319030009195,"179":0.28403608370819844,"180":-0.04479141638283539,"181":-0.10918042467722733,"182":-0.003988605937404607,"183":0.22673207936293122,"184":-0.027560198017295114,"185":0.0879191130541358,"186":0.02128259093261835,"187":0.33071742954557115,"188":-0.06370160463211533,"189":0.12463953929104517,"190":0.002006699055595574,"191":-0.023891031341233306,"192":-0.1494234117506003,"193":0.15452054242077143,"194":0.16475889012881967,"195":0.05973481697209132,"196":-0.05590512530619466,"197":0.12807031222128973,"198":-0.0878244425224125,"199":-0.16891767053693194}},{"sx":5,"sy":5,"depth":8,"w":{"0":0.04112102665781118,"1":-0.05364489278663739,"2":-0.05596886827404883,"3":-0.012538583918778965,"4":0.0014570409420456155,"5":0.04172546657339949,"6":0.031976004088117245,"7":-0.07655222721160213,"8":-0.04482508768745926,"9":0.017960186400777123,"10":-0.10888139276992584,"11":-0.0008514763547860731,"12":-0.058008968075694986,"13":0.015538649319627713,"14":-0.0604666076311343,"15":-0.052963849415291295,"16":-0.0038401040245126857,"17":-0.03388862586273965,"18":0.06996169983090947,"19":0.2393941884719466,"20":0.02410626515331241,"21":-0.055434771994160796,"22":-0.058458182509787085,"23":0.0127525338657481,"24":-0.019248922665212324,"25":0.10247512566416545,"26":0.06008900035905393,"27":0.020610930513453432,"28":0.10038581107506682,"29":0.06268710425086116,"30":-0.06544853075738064,"31":0.14489112818517375,"32":0.05303211738239676,"33":0.09778506656097923,"34":0.07647427779121806,"35":0.04915452354630436,"36":-0.06631813677257789,"37":0.016963877321618512,"38":-0.1394035077519847,"39":-0.10217459082533396,"40":-0.041443844830914636,"41":0.02381304296583871,"42":-0.08455998453494266,"43":0.12713206640709485,"44":-0.06191290518132423,"45":0.0072819874028254685,"46":-0.03399885763114842,"47":-0.17077897771818307,"48":0.007450325317772216,"49":0.01134564223024819,"50":-0.08444268014903739,"51":-0.017944845339356596,"52":0.03221143294212174,"53":-0.037541668829514305,"54":-0.1561512165850894,"55":0.00004955182261419562,"56":-0.12089630271176256,"57":0.03349486447594222,"58":-0.06767690778857367,"59":0.0801611350041661,"60":0.04739742643957075,"61":0.006193367015270467,"62":0.10207483205553466,"63":0.06438283052370737,"64":-0.010513355195227597,"65":0.050837271539705055,"66":-0.004460025234298049,"67":0.10663639872911829,"68":0.02173326896611136,"69":0.18662077083575693,"70":0.05498499552350566,"71":0.041087989535770524,"72":-0.050744871365892855,"73":-0.05691609384074203,"74":-0.004418514911681864,"75":-0.041293728359125134,"76":-0.052982583885374926,"77":0.024478097896345936,"78":0.06847871434557253,"79":0.12472084397849593,"80":-0.12625633358151145,"81":-0.08499266498612516,"82":0.10861979351176554,"83":0.04401054593614218,"84":0.0045084588735908385,"85":-0.026185090121670255,"86":-0.1151548122624463,"87":-0.0585149821472134,"88":-0.133733442390136,"89":-0.10416209305797494,"90":-0.14243117353970386,"91":0.08111438155399502,"92":0.09593775027958112,"93":-0.09391291276641213,"94":0.017559511455880965,"95":-0.1380295904185163,"96":0.04576719421564974,"97":-0.11209837254263805,"98":0.08449133865873526,"99":0.05906851571401253,"100":0.04717280068634443,"101":-0.09756153674117486,"102":-0.061026028359758996,"103":-0.018606450574415886,"104":-0.008456435365187281,"105":0.0009068060505119015,"106":-0.03534011125196165,"107":-0.012732593917095653,"108":-0.0019872402193056864,"109":-0.1765061814333497,"110":-0.1293089105067416,"111":0.04076753102639899,"112":0.017727086047403168,"113":0.10953560098756426,"114":0.12656157524318673,"115":-0.03046382549009587,"116":-0.0624379705471439,"117":0.07676132134150455,"118":-0.03864034914454106,"119":0.05718934526229913,"120":0.08106768244353056,"121":-0.04674391955341723,"122":-0.08789887916201355,"123":-0.055448932286301135,"124":0.0013728315675887882,"125":0.08781236068469701,"126":-0.049853637037475876,"127":0.014139152909075093,"128":-0.04614669139969313,"129":-0.107658353072599,"130":-0.09424010536367151,"131":-0.06697243112916478,"132":-0.16329432758796147,"133":0.11427987654314704,"134":-0.0023954988871843757,"135":-0.05073679481568845,"136":-0.12534681072524814,"137":-0.08425633424084199,"138":-0.03725721337502696,"139":0.08081968578490965,"140":0.008463976303244086,"141":0.009452305378475221,"142":-0.057693064635430606,"143":0.004953488136858746,"144":0.019423211776434985,"145":-0.027723136697867502,"146":-0.05656024339099248,"147":-0.04281530958961454,"148":-0.0392189935471375,"149":0.013033342661248178,"150":-0.015407330884576301,"151":-0.03445784857676999,"152":0.0760047415285564,"153":-0.0025288453361166975,"154":-0.04814803534200426,"155":0.018348568392358693,"156":0.047436322215131756,"157":0.13800208716667745,"158":0.04762898643020823,"159":0.16818229277034236,"160":0.07908084125252791,"161":-0.1157186417861466,"162":-0.0403877824167945,"163":-0.10390998336655595,"164":-0.000976863680230336,"165":-0.048057428858157045,"166":-0.03529078951257952,"167":-0.02538138021157378,"168":-0.09529542869488675,"169":-0.16517545683059962,"170":-0.07408529205302009,"171":0.03537937581179092,"172":-0.001585425292814707,"173":0.09849065253985025,"174":-0.04979947451454573,"175":-0.08928907438118003,"176":-0.019574927382187184,"177":-0.12150353486355193,"178":-0.05562370657660427,"179":-0.024185417462573987,"180":-0.12630605741610906,"181":-0.1216984431918292,"182":-0.10456100057130885,"183":0.02626853264771365,"184":-0.06183798286068079,"185":-0.10995951187466606,"186":0.028081118210124864,"187":0.07169645021389937,"188":-0.07388718096055366,"189":-0.07596507816876569,"190":-0.039016235611058436,"191":0.12586052086745733,"192":-0.011590061390971953,"193":0.09135830942635383,"194":0.012040553058740229,"195":-0.1464127630108403,"196":0.01994433823955014,"197":0.0009658878786717358,"198":0.01177547037476692,"199":0.06613627157313066}},{"sx":5,"sy":5,"depth":8,"w":{"0":0.02202525802825442,"1":-0.012701826023515037,"2":0.10276444633664279,"3":-0.11218524353318599,"4":-0.022264044354061607,"5":-0.05941056591813889,"6":-0.019898701329106476,"7":0.02222346630564913,"8":-0.03294243476491577,"9":0.0474921639673554,"10":-0.022688862352387682,"11":0.005984990466559882,"12":0.009176292513048329,"13":-0.005105049072335053,"14":0.0652092825525968,"15":-0.030736847519659605,"16":0.10069501063832847,"17":0.059505970944268696,"18":0.13415216332344412,"19":0.04747286852890431,"20":-0.03670639052879313,"21":0.0442757495577192,"22":-0.04020457916938128,"23":-0.09212115718818784,"24":0.03296428036827701,"25":-0.04744643961355159,"26":-0.010959612474122762,"27":0.03529343830006888,"28":0.05141207085334965,"29":0.07825107463492788,"30":-0.023548605406032458,"31":-0.08863204086999274,"32":-0.03101403327743309,"33":0.021396987817634133,"34":-0.051594473475422266,"35":-0.03848607581282865,"36":-0.12392477087765472,"37":0.06472605611348221,"38":0.04901861416359736,"39":-0.1576594888070614,"40":-0.11054033156639875,"41":0.0073101146635148285,"42":0.003278168543217385,"43":0.08535736138227305,"44":0.06683430998037751,"45":0.0735524501101568,"46":-0.0802471763634513,"47":-0.02442150761805115,"48":0.0037628073598913285,"49":-0.043599353676345994,"50":-0.010228251920223853,"51":-0.06642558859025811,"52":-0.10405428747364506,"53":0.007250728153631632,"54":0.058538855916830154,"55":0.11853561273474496,"56":0.037748490160060086,"57":0.0527987522936704,"58":0.10167662932252104,"59":0.11410641741631052,"60":0.07792888264329313,"61":-0.11420402990277444,"62":-0.08187209742570072,"63":0.11534026222109887,"64":-0.028193556065490743,"65":0.03501772532000904,"66":-0.0005068528440953343,"67":0.22568411061190483,"68":-0.08235843722804918,"69":0.12667080829288263,"70":0.17544782138538745,"71":0.04691278525862966,"72":-0.06830067504574677,"73":-0.06943766281221563,"74":0.014743233870199369,"75":-0.04953351862844942,"76":-0.024793863072628673,"77":0.10568179816890542,"78":0.0008426207583383873,"79":-0.16996854060297917,"80":-0.17740495676944287,"81":-0.048016545795729365,"82":-0.12096511798767733,"83":-0.05815478236303209,"84":-0.06417188920270528,"85":0.0621690933009955,"86":-0.15319210777825715,"87":0.06233640322913308,"88":-0.15184471640329178,"89":-0.06568704186843587,"90":-0.07914576295699383,"91":-0.0006356984527962191,"92":0.02377463568619108,"93":0.07180535949430929,"94":-0.07647920523823769,"95":0.05396505594636546,"96":-0.08496794607516225,"97":0.029421271494908346,"98":0.03197003625411059,"99":-0.029017747848177865,"100":0.05354292369909713,"101":0.01681402044742058,"102":-0.06506162878851925,"103":-0.026445711986760857,"104":0.08877071281632902,"105":0.14756835227133305,"106":0.022594205842132568,"107":0.1483378020845042,"108":-0.06640401258295772,"109":0.06560426242809714,"110":0.05389214474512838,"111":0.13833017171719916,"112":-0.012140190261828583,"113":-0.12681635389655835,"114":0.036869728965648996,"115":-0.15890999157437077,"116":-0.10232139646273058,"117":0.08927372989110578,"118":0.07583705903436232,"119":0.05129557756241021,"120":-0.08506221099077012,"121":-0.0440237977422398,"122":-0.16743414604268952,"123":-0.008920003720230043,"124":-0.12267979905456758,"125":0.0061185368733478705,"126":-0.04808249992724161,"127":-0.1317464456262574,"128":-0.044556982988322925,"129":0.002223792598864755,"130":-0.009135190577224879,"131":-0.07620355530223813,"132":-0.013990600019844531,"133":0.034583455129165754,"134":-0.017831577284914593,"135":0.04839470066019788,"136":-0.03196192082014211,"137":-0.07291734240450291,"138":-0.025440386202155316,"139":0.1285420512434427,"140":0.043860551908107046,"141":0.04228092420207516,"142":-0.007933698033824984,"143":-0.011560222876234282,"144":-0.06077552692106353,"145":-0.003982536559779721,"146":0.09112905956301323,"147":0.07776339949735096,"148":-0.001701169972091409,"149":0.059853921448450864,"150":-0.012906147877696466,"151":0.0031398493284660405,"152":0.13861165086787441,"153":-0.10259423423522529,"154":-0.02427956916397018,"155":-0.09158923149426984,"156":-0.06241615399854999,"157":0.013292163955956476,"158":-0.0002123096217008253,"159":0.1464092958253625,"160":-0.06882025696910299,"161":0.006390470258946076,"162":-0.1555163861041232,"163":-0.1435364180422801,"164":-0.08981612559240747,"165":0.03182731352092007,"166":-0.1244404896442665,"167":-0.04233735761712583,"168":-0.03232449373595575,"169":-0.18289496656913456,"170":0.03192361709888475,"171":-0.009464916465508896,"172":-0.03610391775337909,"173":0.07028336085716264,"174":-0.059673774186544105,"175":0.06361582883451962,"176":-0.018552259435345258,"177":-0.012679913133964452,"178":0.015565703448955364,"179":-0.06048766247765224,"180":0.1037831308155558,"181":0.09102456185570389,"182":-0.009705154297148338,"183":-0.12869327509880965,"184":-0.21668098643518402,"185":-0.03739079655059778,"186":0.11573743955722163,"187":0.014010332848334146,"188":-0.02892936448541373,"189":0.0015766346125930142,"190":-0.030645354894250864,"191":-0.024858748800495885,"192":-0.1262545466357561,"193":0.05286795628130637,"194":0.009053253006317525,"195":-0.0395734193561594,"196":0.036525642446510034,"197":-0.016830338456697673,"198":-0.016493544128352577,"199":-0.08114232309411501}},{"sx":5,"sy":5,"depth":8,"w":{"0":-0.09726341446353155,"1":-0.04346037191175397,"2":-0.16967203181616225,"3":0.07243047938775643,"4":-0.12362306644177001,"5":-0.023390548657919594,"6":0.03161191465060784,"7":-0.09557247883732073,"8":-0.03245377136209184,"9":-0.11084559522120375,"10":0.00892976278812229,"11":0.09845924609806353,"12":0.038966278632164224,"13":-0.05001904662370358,"14":-0.16107877976474388,"15":0.035042267290474785,"16":0.011111080561149725,"17":-0.128094850203918,"18":0.07491552263284275,"19":0.14327002270843847,"20":-0.10337109013190814,"21":0.23768379753984986,"22":0.08786552625067774,"23":0.0015829283741083844,"24":0.008181117258952509,"25":0.026142728939920108,"26":0.0538023978852898,"27":0.013386481183769285,"28":-0.03655759797705101,"29":0.15225439599158896,"30":0.04680618346642608,"31":-0.08521757228010042,"32":0.04516007285601397,"33":-0.03520385441102753,"34":-0.09253081636919287,"35":-0.13081689795150403,"36":-0.060873323699951874,"37":-0.1455988086137342,"38":-0.027739868130287084,"39":-0.04573074369030534,"40":-0.06102737834861242,"41":-0.16160707105328698,"42":-0.02606965011028436,"43":-0.07446813001665449,"44":0.011435074046004473,"45":-0.005311275408096124,"46":-0.05464762345170264,"47":0.06160060543996996,"48":-0.18294849544084785,"49":0.046833924770285015,"50":-0.15891346250171542,"51":-0.03742625623766801,"52":-0.03822279478930159,"53":0.01684282529617386,"54":-0.06833029623689058,"55":-0.018730856055139015,"56":-0.11204903739546877,"57":-0.01743094914301748,"58":-0.0007650407410709418,"59":0.12485163003057617,"60":-0.01642318074189363,"61":0.04473027322574771,"62":-0.04734974731659514,"63":-0.1339478158039121,"64":-0.016121672922987565,"65":0.10755072710561075,"66":0.03103374527179867,"67":0.07465943329846829,"68":-0.054102351340952023,"69":0.0617478143127799,"70":-0.004588210454283139,"71":-0.020958693258116414,"72":-0.01191554278921493,"73":-0.0502305961747113,"74":-0.14674895705594765,"75":-0.1511971952418841,"76":-0.026524899735213804,"77":0.08158497436487043,"78":-0.07048458273196806,"79":-0.024248592125542406,"80":-0.09991493830061271,"81":-0.04603400462774665,"82":-0.012494405654113304,"83":0.011451623977125675,"84":0.001217739772185751,"85":0.012956356905964849,"86":0.00918810898166392,"87":-0.055030541192628034,"88":-0.06731742702421836,"89":0.05972254614245259,"90":0.060618943176418826,"91":0.06783428794866464,"92":0.14908930587676647,"93":0.014777982770338247,"94":-0.0570063605715938,"95":-0.04225123278232495,"96":-0.11359624277893474,"97":-0.07398540732929317,"98":0.05678279239503399,"99":0.010758169602928153,"100":-0.13045161086291626,"101":0.11209065916262084,"102":-0.10790096664496082,"103":-0.051308235284422195,"104":-0.2961750297079178,"105":0.03827886858082883,"106":-0.049530998219756574,"107":0.11514291717260756,"108":0.00616336207015675,"109":-0.03207995453619961,"110":-0.048830257343927805,"111":-0.05019422699279323,"112":-0.23114111043915636,"113":-0.11194905632735433,"114":-0.15950219079255895,"115":0.04804877658016946,"116":0.06421011152214899,"117":-0.09865635417324098,"118":0.1062740374610468,"119":-0.05647646952343817,"120":-0.005303631260945995,"121":-0.06259591292067831,"122":-0.05053381290306393,"123":0.040184203136898404,"124":0.0436821690128846,"125":0.010963042321072227,"126":-0.060189049903281264,"127":0.04553514632576805,"128":-0.06554764627629217,"129":-0.03690266500773077,"130":-0.0440060159542188,"131":-0.15273602463239336,"132":-0.08605566025043511,"133":-0.004436781647844441,"134":0.12354864775183998,"135":-0.010059411474108226,"136":0.05745429370582515,"137":-0.11058609961936802,"138":-0.035028654743874565,"139":-0.04419281950966854,"140":-0.1101743791370145,"141":-0.01727221919547388,"142":0.11950275800702558,"143":-0.054035347378683936,"144":-0.004403220468489387,"145":0.0248731959249217,"146":0.009027693529614477,"147":-0.04152189216688843,"148":0.0055266069510080795,"149":0.05069715073594641,"150":-0.008828302786013063,"151":0.0035669183344958447,"152":0.025847295598454372,"153":-0.09246833603488774,"154":-0.00601172783815448,"155":-0.14300204547544387,"156":-0.05755499842411932,"157":-0.04921775626613274,"158":-0.023261473328795152,"159":-0.17570312209251582,"160":0.11477444156110314,"161":0.13854527522065616,"162":0.05088743178182804,"163":-0.07690524160914278,"164":-0.02002983093110962,"165":-0.013771466339748632,"166":0.1014269053317644,"167":0.22049207486170466,"168":0.15082485708987817,"169":0.11665666778662481,"170":0.03814445311638834,"171":-0.08552281220766382,"172":0.03104354372987443,"173":-0.16049103568616727,"174":0.03779948055674477,"175":0.06149646320147451,"176":0.08940054976570096,"177":0.12825608215436463,"178":0.06389076851740773,"179":-0.04032435702197711,"180":0.04083848694955523,"181":-0.0374449964703497,"182":0.03393837653349233,"183":0.07717339015368531,"184":0.16175431024327994,"185":0.057747361170829896,"186":0.047431102617061474,"187":0.06772309236148563,"188":-0.08860982142821337,"189":-0.20082051419299712,"190":-0.058197137447384376,"191":0.11472792695651214,"192":0.1409121288438295,"193":-0.014948672669758894,"194":0.18682020963831233,"195":0.007186295392222565,"196":0.010203202334435243,"197":-0.07012277173648292,"198":0.05240488394789779,"199":0.11124173956197665}}],"biases":{"sx":1,"sy":1,"depth":16,"w":{"0":0.04819883724073562,"1":0.07508501010304057,"2":0.08253541634141329,"3":0.06387098558668948,"4":0.08582440356612119,"5":0.02496339090670147,"6":0.06258802276203593,"7":0.05879592441913187,"8":0.051591603086898245,"9":0.03769766429089634,"10":0.027035971644467437,"11":0.07420079875159558,"12":0.026752296504895596,"13":0.061289014470078305,"14":0.03278676714210954,"15":0.07742506361316047}}},{"out_depth":16,"out_sx":12,"out_sy":12,"layer_type":"relu"},{"sx":3,"sy":3,"stride":3,"in_depth":16,"out_depth":16,"out_sx":4,"out_sy":4,"layer_type":"pool","pad":0},{"out_depth":10,"out_sx":1,"out_sy":1,"layer_type":"fc","num_inputs":256,"l1_decay_mul":0,"l2_decay_mul":1,"filters":[{"sx":1,"sy":1,"depth":256,"w":{"0":-0.02601918662053792,"1":0.03183855180180785,"2":-0.020295161144414802,"3":-0.05680727037188707,"4":-0.12279183073099524,"5":0.007397619209680232,"6":-0.17184004698150543,"7":-0.09489845172469182,"8":-0.08015239056160964,"9":-0.052750681376463736,"10":0.18021807931729886,"11":0.06921837422600186,"12":-0.001288707534593542,"13":-0.027364734311131164,"14":-0.07318268769538819,"15":-0.01212058764132336,"16":-0.03648600314612149,"17":0.03186440835033444,"18":0.0015458679929461427,"19":-0.23253985706695382,"20":0.040728511982757835,"21":0.023386851391181143,"22":0.097457799227292,"23":-0.15794343826863846,"24":0.01772081155804637,"25":0.019261128113492572,"26":0.014510686941326128,"27":0.0035335313457333633,"28":0.1227730379333144,"29":0.037710108993847385,"30":-0.054459620950878564,"31":0.029448692795943792,"32":0.011285582257902122,"33":0.04034200273202562,"34":0.12589182464685927,"35":-0.08039783350301312,"36":-0.06970611932192608,"37":-0.0831359829902096,"38":-0.04714986262228473,"39":-0.10579281329966182,"40":-0.05264848212173301,"41":0.031715086583248994,"42":-0.01131019671089734,"43":0.0401226315327902,"44":0.0489401161134096,"45":-0.055907498944511705,"46":-0.1302722599852907,"47":0.044447969275972284,"48":-0.0386216707081237,"49":-0.029817459312985843,"50":-0.09009585598843499,"51":0.09967088835697234,"52":0.06308489099816167,"53":0.009313750284212831,"54":0.0056709379713350515,"55":0.035558526083016816,"56":-0.050725302732152415,"57":-0.018762546185753882,"58":-0.04198630672825217,"59":-0.09444691414613436,"60":-0.010039106129654638,"61":0.004289882993290126,"62":-0.07939586936159658,"63":0.09327291212067285,"64":0.020304511581939414,"65":-0.022621668098972036,"66":-0.23379854004398942,"67":0.12252819025595947,"68":-0.006802926924216562,"69":0.011389405523657208,"70":-0.10395042595537839,"71":-0.08272066193712488,"72":-0.10322411721364563,"73":-0.061488770868357016,"74":0.08401806635338209,"75":0.08225621730199145,"76":0.06427494064167358,"77":0.10484213479573379,"78":-0.09817917879195542,"79":0.025389828782190222,"80":-0.023541678764451585,"81":0.047019513229077756,"82":-0.08537866634290882,"83":0.012040353518325258,"84":-0.0672445003749191,"85":0.07294257858192711,"86":-0.042450870393056186,"87":0.1654887597960667,"88":-0.03290583648422522,"89":-0.12788176789008154,"90":0.1516382371716692,"91":0.005532206036854721,"92":0.00004586787856914029,"93":-0.15832611781411798,"94":-0.02028083665291257,"95":-0.09795340406446734,"96":0.158816225030962,"97":-0.029607174127670714,"98":-0.02565501779721794,"99":-0.10227498761493448,"100":-0.0344805029407214,"101":0.09780618906647065,"102":0.046535921320126676,"103":-0.084498402541852,"104":0.11687506657633076,"105":-0.06297960987269507,"106":-0.12161257002564266,"107":0.041266359825417036,"108":0.07412486691518419,"109":0.048878246485731296,"110":0.07140151276345245,"111":-0.11427312398176706,"112":0.11456750857085848,"113":-0.03822008228279916,"114":-0.030128665329646927,"115":-0.06335534057877487,"116":-0.013876591949747196,"117":0.06419116266261042,"118":-0.14453287832945014,"119":0.1838373378425495,"120":-0.1702629016686507,"121":0.010671519225186327,"122":0.0919908847457442,"123":-0.2610771739599623,"124":0.10719448406775602,"125":0.11049125078627713,"126":0.11731297131663816,"127":-0.001701219145780285,"128":0.12221504864487864,"129":-0.021894109268827764,"130":0.07676043766024568,"131":0.06905970239050273,"132":-0.026743364036986662,"133":0.10618130386887194,"134":-0.06080751724508056,"135":-0.053970058619698114,"136":-0.04859839402691288,"137":-0.020056329154620717,"138":-0.06001209558243335,"139":-0.014932011269978328,"140":0.04638226024032984,"141":0.04609569288058428,"142":0.029540812412731276,"143":0.035935402804070773,"144":-0.29197808593660757,"145":0.0740855441945622,"146":-0.07968416056190976,"147":0.01726746856601085,"148":-0.006351844157168159,"149":0.06633296884036685,"150":-0.12431594647650517,"151":0.12069686587619731,"152":0.20064347904006946,"153":0.0939252168668249,"154":-0.02543525376100476,"155":-0.10111046084607063,"156":-0.04985997708843724,"157":-0.0791738149899831,"158":0.08765380344440624,"159":0.0316228973017335,"160":-0.11418221743214826,"161":-0.07666793310474075,"162":-0.06990328154762894,"163":0.07111735828682678,"164":-0.06387033102116381,"165":-0.13766782771881125,"166":-0.012838077840589886,"167":-0.2003022636297001,"168":-0.01960466106464773,"169":-0.07851052855371747,"170":0.07513840525335663,"171":0.04541232575596673,"172":0.12987354561861564,"173":0.009151750196912506,"174":0.014565367129840957,"175":-0.062208889526065694,"176":-0.012801720517186848,"177":0.08450056139583097,"178":0.009182841935312255,"179":-0.06426135031637106,"180":0.013731831033802563,"181":0.01587148158955318,"182":0.007626976801625917,"183":-0.043593736798978044,"184":-0.013044412429643343,"185":0.001107554548596145,"186":0.10073253690598534,"187":-0.11177799312103488,"188":0.15982104985609386,"189":0.01508091831224445,"190":0.07163458280022715,"191":0.1311978252045916,"192":0.02854579282975951,"193":0.03062273584432348,"194":0.1378335586989383,"195":0.05878163589910465,"196":-0.1533828090050289,"197":0.08271969195892455,"198":0.0562660533370435,"199":0.00910982889876701,"200":-0.05217992180242403,"201":-0.053203045656372135,"202":-0.01908544505260416,"203":-0.14801938774823842,"204":0.08365135907818885,"205":0.12194350967884608,"206":0.08023843004296088,"207":-0.02453871811828383,"208":0.04837237726133161,"209":0.02580176856572331,"210":0.014976261051387897,"211":-0.14492220097899666,"212":0.03986772243747891,"213":-0.07731076089738687,"214":0.002203959622082807,"215":-0.04186114882519048,"216":-0.1634820182984133,"217":0.02585640454913844,"218":-0.18477278000336744,"219":-0.16951535384903038,"220":-0.1373975041974132,"221":-0.01979635825178171,"222":-0.04124082050610851,"223":0.04008580841594984,"224":-0.006433167674628484,"225":-0.01817461399180488,"226":0.011221028247918988,"227":0.005335430492082622,"228":0.0010564301651841777,"229":-0.012232114538000783,"230":0.0016165827561340435,"231":0.061102433462418226,"232":0.038479747237637016,"233":0.21004572528029358,"234":-0.07015919996514411,"235":-0.04852248205977785,"236":-0.21328131314466808,"237":-0.0724336017450474,"238":-0.07253425607183824,"239":-0.03764564914510727,"240":0.07210076134770678,"241":-0.051613537187059765,"242":-0.0719747727141273,"243":-0.14636659462183704,"244":-0.11417758982723415,"245":0.07040639287368264,"246":0.07577223710467805,"247":-0.19495592227545508,"248":0.0006515554839330984,"249":-0.012883617695283955,"250":-0.038520482583980324,"251":0.008170899574514669,"252":-0.07616425047086507,"253":0.08836649583312157,"254":-0.21494213598434364,"255":-0.10388677405678332}},{"sx":1,"sy":1,"depth":256,"w":{"0":-0.10119774166075844,"1":0.10207378767893163,"2":0.0399019168781424,"3":-0.17927766825208716,"4":-0.07602679552075668,"5":0.1891286856911135,"6":-0.13528370700940065,"7":-0.07909066768476362,"8":-0.21771726180951073,"9":-0.13008810575203303,"10":-0.020697469313892606,"11":-0.2519757674745184,"12":-0.05911245999910908,"13":0.017860894569150118,"14":-0.08137361892155384,"15":-0.22239685535081574,"16":-0.08041357942012249,"17":0.10082971197927883,"18":0.07162818231226616,"19":0.0363754060859509,"20":-0.10360632405788268,"21":0.027485875618461976,"22":-0.053246588920467526,"23":0.1076913266659727,"24":-0.14045329678903645,"25":-0.0788074644268628,"26":-0.2722749296978661,"27":0.07211702211637347,"28":-0.009198641595954784,"29":0.08431300154600864,"30":0.017284973616581885,"31":-0.10033280492764747,"32":-0.05695009220485067,"33":0.07750200826148328,"34":-0.06305933665344686,"35":0.17237495278542866,"36":0.010554527118573185,"37":0.00577288910747422,"38":-0.054961280765370144,"39":0.15215042689392566,"40":-0.03660201023379631,"41":0.052023108671627946,"42":0.06208673338694803,"43":0.07501399737847003,"44":0.2176169099454031,"45":-0.009416790611799312,"46":-0.005054090198380061,"47":-0.02488236607927376,"48":0.02016299965184442,"49":0.014760225553563726,"50":0.04652161816985048,"51":-0.0157161151407816,"52":0.06602168972507166,"53":0.0034442025624562512,"54":0.03221334436141346,"55":-0.023930899401190506,"56":0.06284038679749107,"57":-0.11490922339845565,"58":0.09820582376468263,"59":0.08790615192560858,"60":-0.03385638233531828,"61":-0.052996970795890434,"62":0.011227820458372994,"63":-0.013705637208387609,"64":-0.2559099233362065,"65":0.048400789716782154,"66":-0.10517102169515674,"67":-0.1912481969233581,"68":-0.06808069880166341,"69":-0.16270273378673347,"70":-0.16743976714335318,"71":0.08845504571918603,"72":0.06633805282275032,"73":-0.20297315490025458,"74":-0.053695985762480074,"75":-0.06955853336811385,"76":-0.15197974121515134,"77":-0.09870364388355701,"78":-0.1528650772914477,"79":-0.0011820890323605952,