{"layers":[{"out_depth":1,"out_sx":24,"out_sy":24,"layer_type":"input"},{"sx":5,"sy":5,"stride":1,"in_depth":1,"out_depth":8,"out_sx":24,"out_sy":24,"layer_type":"conv","l1_decay_mul":0,"l2_decay_mul":1,"pad":2,"filters":[{"sx":5,"sy":5,"depth":1,"w":{"0":-0.1272627143254096,"1":0.17555870206960625,"2":0.12188409426465419,"3":0.20261316259817694,"4":0.31547567794411707,"5":0.04591382212021566,"6":0.31465585864145634,"7":0.13364614164393424,"8":0.2227325956333359,"9":-0.11858367243474657,"10":0.17976907869485667,"11":0.39325452594122623,"12":0.06755028344024983,"13":-0.006676778881032356,"14":-0.036124796488208544,"15":-0.007388921381861076,"16":0.1738533304091378,"17":-0.03401050856213296,"18":-0.040515437653577124,"19":-0.005894815137427233,"20":0.6726349966044891,"21":0.00402079403827841,"22":-0.1779692229703295,"23":-0.3493766254309642,"24":-0.398909270047057}},{"sx":5,"sy":5,"depth":1,"w":{"0":0.2792685689068854,"1":0.2012868283056166,"2":-0.2928776590749698,"3":-0.48952666011687057,"4":-0.23581756061194234,"5":-0.30579512631746725,"6":-0.5460350279007573,"7":-0.3824652878201631,"8":-0.18151309534498636,"9":0.06482038017483922,"10":-0.2904950572972465,"11":0.024316061200693448,"12":0.02284749042144667,"13":0.38015794404785946,"14":0.024617535234308402,"15":0.3128801293154263,"16":0.27816614258152667,"17":0.27106142014988505,"18":-0.020439354839254926,"19":0.3955837208758288,"20":-0.07257446541275434,"21":0.012208179108744183,"22":0.0265900006167889,"23":-0.02540774182940967,"24":-0.020448566601883822}},{"sx":5,"sy":5,"depth":1,"w":{"0":0.20822522347741265,"1":0.14741976143346758,"2":-0.017490112887111133,"3":-0.10375690075560011,"4":-0.6827681023622175,"5":0.050616248792057866,"6":0.24074272097395308,"7":-0.11327453262798076,"8":-0.09931182115749483,"9":-0.2680614888927022,"10":0.3070841256018843,"11":0.008969812893369091,"12":-0.008849901407098995,"13":0.01553374108030517,"14":-0.7379490166870226,"15":0.05282848057893541,"16":0.5979584032929043,"17":-0.2538750193000709,"18":-0.2376808250137523,"19":-0.6557003350144704,"20":0.07449175109247738,"21":0.4280298818059648,"22":0.24899716613573944,"23":-0.5255586634390467,"24":-0.2625494444529093}},{"sx":5,"sy":5,"depth":1,"w":{"0":0.06034841046584842,"1":0.47549102516529035,"2":0.24608569480550682,"3":0.4392210488056726,"4":0.22346230956098376,"5":0.04623508116967626,"6":0.23346695352679003,"7":0.5190298478784667,"8":0.5075554541525773,"9":0.49774701625715817,"10":-0.3460897855711848,"11":-0.11136507440082742,"12":-0.3236372195615997,"13":-0.04214313676731534,"14":0.37244760222790085,"15":-0.6006011616856665,"16":-0.2047812384646835,"17":-0.21530093959811658,"18":-0.5798967128664853,"19":-0.45480534024261265,"20":-0.36800900245647317,"21":-0.45369397632682995,"22":-0.5171553624295089,"23":-0.44155891643829853,"24":-0.18786928064095115}},{"sx":5,"sy":5,"depth":1,"w":{"0":0.46864807246179646,"1":-0.26356455138444373,"2":0.28152070938173035,"3":-0.4256257236769663,"4":-0.3240352084846238,"5":-0.17987901303743917,"6":0.2215977978510398,"7":0.30223501366017713,"8":0.21195662717564578,"9":0.27830741012082555,"10":-0.1540645285507055,"11":0.05261757098190467,"12":0.01850621673067242,"13":0.24231884651159633,"14":0.37971706022324586,"15":-0.2665248033543508,"16":-0.0923559775797447,"17":0.09759408457836838,"18":0.07358921661788423,"19":-0.006240433762476805,"20":0.028740707623911763,"21":-0.2225086336799339,"22":-0.7247686077969396,"23":-0.30183456935496644,"24":-0.1946478410504165}},{"sx":5,"sy":5,"depth":1,"w":{"0":0.5171987864624062,"1":-0.024495784528817555,"2":-0.05629074333361857,"3":0.2649047778052488,"4":-0.20206352635564295,"5":-0.08770624739487194,"6":0.18922837273167634,"7":0.07964422122105407,"8":-0.47815856310561733,"9":-0.2241182534055537,"10":-0.20503101681420222,"11":-0.01662993451674417,"12":-0.18911645536413071,"13":-0.351836469713242,"14":-0.08782596358402789,"15":-0.1998690722615408,"16":-0.1308841695615922,"17":-0.44309600351102457,"18":-0.06097291332477226,"19":-0.0670812062291571,"20":-0.3766199425484489,"21":-0.18127753188135445,"22":-0.2283395223496463,"23":-0.13655411113084973,"24":-0.4295944313823114}},{"sx":5,"sy":5,"depth":1,"w":{"0":-0.1078191082790292,"1":0.3417953596298706,"2":-0.5409799773585096,"3":0.026605540891374117,"4":-0.17767321924177468,"5":-0.012023377728014262,"6":0.2147976060313712,"7":0.40061201402751223,"8":0.16462906840455624,"9":-0.21922316802254727,"10":0.02270291744158618,"11":0.32440845720438977,"12":0.1438304629783903,"13":0.33046086878735936,"14":0.2915025271621767,"15":0.35805660093638714,"16":0.033730014331773424,"17":0.3134453446797884,"18":0.3170135832648772,"19":0.3124455035254011,"20":-0.017855075819039896,"21":-0.07982478312674335,"22":-0.33209501309368344,"23":-0.3368084899374887,"24":-0.03173732044723238}},{"sx":5,"sy":5,"depth":1,"w":{"0":-0.0700346772232622,"1":-0.21918581958171796,"2":0.10609373694826824,"3":0.11943860685079054,"4":0.318908805559175,"5":0.09013459691364135,"6":0.10203395579764882,"7":-0.07476852117465696,"8":-0.11726585388401564,"9":0.3274629602179672,"10":-0.14841781479887448,"11":-0.3758823049825788,"12":-0.2573946616446465,"13":-0.021197864942298934,"14":0.19404577037371523,"15":0.060388683525754015,"16":-0.1782750918583728,"17":-0.024556463107230142,"18":-0.22103115049239788,"19":0.5927060624353582,"20":-0.49500638555099574,"21":-0.4021867344394922,"22":0.10327219414198528,"23":0.11048508383102518,"24":0.35880596202384346}}],"biases":{"sx":1,"sy":1,"depth":8,"w":{"0":-0.06503911154537013,"1":0.05283137140183293,"2":0.104726294439294,"3":0.16704329312580332,"4":0.014638786460763848,"5":0.3756747060007434,"6":-0.03410629717397713,"7":0.04907478429812739}}},{"out_depth":8,"out_sx":24,"out_sy":24,"layer_type":"relu"},{"sx":2,"sy":2,"stride":2,"in_depth":8,"out_depth":8,"out_sx":12,"out_sy":12,"layer_type":"pool","pad":0},{"sx":5,"sy":5,"stride":1,"in_depth":8,"out_depth":16,"out_sx":12,"out_sy":12,"layer_type":"conv","l1_decay_mul":0,"l2_decay_mul":1,"pad":2,"filters":[{"sx":5,"sy":5,"depth":8,"w":{"0":-0.10564284340833381,"1":-0.05625349671100759,"2":0.09165060404374316,"3":-0.08979763671966001,"4":0.0053788630549572725,"5":-0.10870529216479687,"6":-0.06381622073172424,"7":-0.11358282796672153,"8":-0.05501279527008641,"9":0.14923797961099808,"10":0.08626841710732128,"11":-0.15978673376125357,"12":-0.08747958428754656,"13":-0.06646331475351461,"14":0.013908081571640613,"15":-0.10660291121231219,"16":0.022606884267623775,"17":0.02433749784730528,"18":-0.07990280482388701,"19":-0.23572146542875613,"20":-0.0781483986834183,"21":0.00909353102002851,"22":-0.007164780688624326,"23":0.07539192078780409,"24":0.23090598858822353,"25":0.05169900861603292,"26":0.0029252883880283094,"27":-0.014525423831637763,"28":-0.041711522708085466,"29":0.05243445166525724,"30":0.04961625329395434,"31":0.08092444378765662,"32":0.017767098494037407,"33":0.19154332448236858,"34":-0.1409505367273409,"35":-0.10272491032540479,"36":0.00902093230898004,"37":-0.0831113317991818,"38":0.09503641865070131,"39":-0.013191792395378762,"40":-0.020539818956578207,"41":-0.020645961693831066,"42":-0.02179341724448756,"43":0.08985725416338566,"44":0.01792395276836552,"45":0.027319388121464866,"46":-0.014957974034982616,"47":-0.11496779375849772,"48":0.004119140777345622,"49":0.10356535858119015,"50":-0.0065113392977974895,"51":-0.060008879892151215,"52":0.06911464319594449,"53":-0.081198272552971,"54":-0.015377170005825449,"55":0.23770758447393384,"56":0.11068965032965374,"57":0.0050298286088610745,"58":-0.05011412121032134,"59":-0.15244068775787672,"60":-0.05670659720401067,"61":0.018827961986142592,"62":-0.010989347085190225,"63":0.028376030919822787,"64":-0.020636226271060525,"65":0.09162258497535201,"66":-0.22152323728393486,"67":-0.2946717486352417,"68":0.04489166150894601,"69":0.09680641480344307,"70":-0.12715018998815275,"71":0.04270971904049131,"72":0.09863335841650851,"73":0.0880897874711155,"74":-0.1935496466672989,"75":-0.1452985076745079,"76":0.014815646969765171,"77":-0.06047783534623986,"78":0.010052270919121895,"79":-0.04146909418093216,"80":0.03054133408664277,"81":-0.25980394453877365,"82":0.02479057502530147,"83":0.13252784096807532,"84":0.11910298663063658,"85":0.01406949683420684,"86":-0.018931482027027376,"87":-0.10426464807237754,"88":-0.14029250042219707,"89":-0.16305675285317361,"90":-0.1492343500955277,"91":0.2167489124815829,"92":0.09645801958156779,"93":-0.006728303666943406,"94":0.08934154499292433,"95":0.08380078649125584,"96":0.01963019872341076,"97":-0.08825197590816052,"98":-0.09526842082648582,"99":0.15646742330137448,"100":0.1742039963132073,"101":-0.10067612250141746,"102":0.012523492538095022,"103":0.08881138092678789,"104":0.020828415435495917,"105":0.058871134757663465,"106":-0.2635166998175515,"107":0.20754766194891003,"108":0.19174562451764673,"109":0.051575713701127394,"110":0.03603764963200562,"111":0.0702416195155099,"112":-0.08956243223514994,"113":0.047224262802590955,"114":-0.22685626128108785,"115":0.029263321817647812,"116":0.18681351814933245,"117":0.09928181160094425,"118":0.015567912306759978,"119":0.024291654504598807,"120":-0.17288930017505055,"121":-0.04914840726064831,"122":0.044993737609457095,"123":-0.024266923888420326,"124":-0.19700468194619541,"125":0.045783605773136254,"126":-0.07696849824656993,"127":-0.2059098217067589,"128":0.025943191023520985,"129":-0.1949965536969966,"130":0.04290079130588803,"131":-0.0025451497357350246,"132":-0.06125672393026632,"133":0.0511699853990504,"134":-0.20380841752441142,"135":-0.016565278332475945,"136":-0.17335081090698917,"137":-0.004410989021153119,"138":-0.20327250264447214,"139":0.09816885038638279,"140":-0.1236475042637208,"141":0.03203297717278248,"142":-0.2345477390200384,"143":-0.02530309968784112,"144":-0.08397698283740418,"145":0.06271941101143728,"146":-0.2139160761991398,"147":0.10409553842217215,"148":0.08103072272538177,"149":-0.04509551506080035,"150":-0.18723437073298688,"151":0.06081763888570061,"152":-0.011241343521306827,"153":-0.10019022831001803,"154":-0.1150554275460851,"155":0.15590850751484975,"156":0.05724555968603552,"157":-0.13569156747751962,"158":-0.06149721588340347,"159":-0.008384760098685986,"160":-0.17490364426633548,"161":-0.001447478485049397,"162":0.1812807679989033,"163":0.09381792305366139,"164":0.004195064944474937,"165":0.012325812112353732,"166":0.06849405691070656,"167":0.15958291117896542,"168":-0.02225228029862812,"169":0.10059557918224744,"170":0.03633892740187532,"171":-0.08867830073537214,"172":-0.0567319156121781,"173":-0.08553072568204453,"174":-0.20878451049099114,"175":0.18617271934648752,"176":-0.08203316549707239,"177":0.09564679414160701,"178":0.02352330610481234,"179":-0.19287559486498523,"180":-0.07608295873463002,"181":-0.06353120359800528,"182":-0.031691381667279146,"183":-0.017089988431568483,"184":0.038465889610560154,"185":0.02458232079203225,"186":0.16406098728045065,"187":-0.2634627084789439,"188":-0.20102511627519773,"189":0.09444730378884278,"190":-0.149754137121029,"191":-0.1073899859197599,"192":-0.11648395639364009,"193":-0.02050763108770211,"194":-0.006868057880235284,"195":-0.2769592381497131,"196":-0.0647982569786682,"197":-0.01969476782258186,"198":0.06916755287415212,"199":-0.03362929435045861}},{"sx":5,"sy":5,"depth":8,"w":{"0":0.10410867940324137,"1":0.016277243646434975,"2":0.18593104401238894,"3":-0.15369540189978892,"4":-0.203018737933637,"5":0.03984240573806327,"6":-0.0498120386257681,"7":-0.17134182964239186,"8":0.00652146593367084,"9":-0.04124635054677001,"10":-0.05985493158412178,"11":-0.10168984195768191,"12":0.00020387402978975892,"13":0.0008164651395237978,"14":0.12596139668344564,"15":0.06110639553123778,"16":-0.09978318954543851,"17":-0.06643111406882936,"18":-0.045008173723413744,"19":0.10475475392529947,"20":0.02679606167257816,"21":0.016074994508070414,"22":-0.06064204116296039,"23":-0.010075709178127683,"24":0.00147358505914884,"25":-0.11204275230834392,"26":0.03176566819299931,"27":0.04665469676470609,"28":0.23100767599469907,"29":0.0004953803469400454,"30":-0.02916842808414777,"31":-0.06148877795156408,"32":0.05330553286540468,"33":-0.16877813984561899,"34":-0.06693949884158783,"35":0.2264778456238171,"36":-0.024502409660326237,"37":0.2190012471871137,"38":-0.04986855424803453,"39":-0.046678376631681534,"40":0.038321414172197046,"41":-0.11520496052327425,"42":0.032304090794982386,"43":-0.029009075720591262,"44":-0.04088171101623997,"45":-0.007535738840306584,"46":0.12498639330597411,"47":-0.2048887947509539,"48":-0.0445028779924735,"49":-0.08417875149596507,"50":-0.036483037308435745,"51":-0.04638580303766194,"52":-0.0780820635837583,"53":0.13306312302044165,"54":-0.007699187337946251,"55":-0.07972512076835293,"56":0.004560655026617291,"57":0.03716350620532524,"58":-0.17332579800945483,"59":-0.06368168628082524,"60":-0.03448814050048481,"61":-0.0018440023171130426,"62":-0.13413895418123628,"63":-0.18452665932500614,"64":-0.09385136140612728,"65":0.007463602772145204,"66":-0.014684564189811155,"67":0.008701918663878115,"68":0.015688011061660765,"69":-0.060485691461236515,"70":-0.16884773381998935,"71":-0.018748074207001066,"72":-0.1450195844236127,"73":0.20193220951754495,"74":0.1293954288465583,"75":-0.0704548487625742,"76":-0.1102729704954708,"77":0.07075309099868356,"78":-0.049724507994505625,"79":-0.09921582679145668,"80":0.16715222766100019,"81":-0.051933518307273226,"82":0.12843336305621808,"83":-0.036786101188477104,"84":-0.07949507979925595,"85":-0.0539994452974849,"86":-0.06752276609496613,"87":0.04542237855380723,"88":0.027239567125002452,"89":-0.19185115222600813,"90":0.09896578891778444,"91":-0.0010175720169966068,"92":-0.09081633470033507,"93":0.03898064191461681,"94":-0.20810086468632696,"95":-0.0879410338143573,"96":-0.05012783062840647,"97":-0.029483234451001015,"98":-0.17416917802920842,"99":-0.17016899230862115,"100":0.06430552590658392,"101":-0.07568945170023887,"102":-0.028841084068683805,"103":0.03769782310743614,"104":-0.1344970867153646,"105":0.04805042127876739,"106":-0.04656345311746151,"107":-0.01375386446460157,"108":0.1594538763278608,"109":0.0355856197914172,"110":-0.033609834602265326,"111":-0.0923715051342213,"112":-0.06534809867816466,"113":0.13525696527501618,"114":0.017315592417881533,"115":0.09399906031535814,"116":0.0006365242116249613,"117":0.21986118686542216,"118":0.07232715840879897,"119":0.12735265546641722,"120":0.05911194915664188,"121":-0.08059150537249066,"122":0.1722138174440993,"123":-0.04436749468210348,"124":0.06969963146557476,"125":0.005469201292954685,"126":-0.020243378987030047,"127":-0.1264289687885149,"128":-0.15064413891221654,"129":-0.11173541661381854,"130":-0.022748729656387284,"131":0.02045488945238162,"132":-0.01938419016386451,"133":0.16867545506472026,"134":0.008416197612933215,"135":0.08188049342687279,"136":-0.11101319071654887,"137":-0.01658749047337046,"138":-0.07860734893616582,"139":-0.0074516989975413495,"140":0.13806077628105495,"141":0.04231265125042504,"142":-0.16971145923063094,"143":-0.0769871494465148,"144":-0.1958473728998598,"145":0.03927735289069076,"146":-0.05179874014333208,"147":-0.014338300103297931,"148":0.05586716913197476,"149":-0.046766624003300464,"150":-0.03982866759679387,"151":-0.06664941386856672,"152":0.05015489559805511,"153":-0.06878217148633341,"154":0.08561635862639656,"155":0.07062480105386967,"156":0.0982320345618977,"157":-0.015926953973972563,"158":-0.056484231718651204,"159":-0.08201812888694364,"160":-0.048199317792254184,"161":-0.0018049710573902853,"162":0.04819251706979303,"163":-0.07908743892423713,"164":-0.1255148226468965,"165":0.06479227738703779,"166":0.11405895738546912,"167":-0.17426961012375863,"168":-0.016841525903900444,"169":-0.006520234122529416,"170":-0.028365734561139132,"171":-0.09627046012767472,"172":0.02821044686368043,"173":-0.0888364366754575,"174":-0.13290162551766088,"175":0.006430527506625397,"176":-0.07060753231433968,"177":-0.0725559717960308,"178":0.03740477433644822,"179":-0.014097674018184118,"180":0.0645010784147497,"181":0.09021553099734467,"182":-0.19026377940362713,"183":-0.12583592135683236,"184":-0.0397685682269389,"185":0.10232003969455311,"186":0.02348194236909984,"187":-0.036672945457242485,"188":-0.04355019564380286,"189":0.1976233476498722,"190":-0.13376080199870216,"191":-0.10824926490270376,"192":-0.12272720945534156,"193":0.07292217588416208,"194":-0.06261266009975676,"195":0.10990316751604573,"196":0.14431707724457646,"197":0.05252535262591291,"198":-0.16701816259759392,"199":-0.01559918992655131}},{"sx":5,"sy":5,"depth":8,"w":{"0":-0.020935031807407828,"1":0.12249761430582667,"2":-0.09568863735823656,"3":0.07637691049202167,"4":0.11244388034456636,"5":0.019786618187186238,"6":0.04072888813485409,"7":-0.2893741910638053,"8":-0.12537645857747212,"9":0.2922053115621428,"10":-0.2892729174004823,"11":0.20493578566309564,"12":0.04171240216581897,"13":-0.009349387067691964,"14":-0.0737651879867852,"15":-0.15173467019628734,"16":-0.05172443105247427,"17":0.21394253614576123,"18":-0.15396115263137952,"19":0.1642809721680913,"20":0.10992069638022672,"21":0.18369112031590404,"22":-0.03802077223496204,"23":-0.007764361234204793,"24":-0.048978619815397924,"25":-0.056894208038248295,"26":-0.012942797834846422,"27":0.10528983317395793,"28":0.012022091680181736,"29":0.017856504480593383,"30":0.06198180578761381,"31":0.08795586634986033,"32":-0.09522494254119494,"33":-0.19573613195366685,"34":-0.15773439937742148,"35":-0.12103728000035863,"36":-0.1194384991341037,"37":-0.030698468492072025,"38":-0.031719811095269175,"39":-0.19565758168965391,"40":-0.03857642179719077,"41":0.03365782923516865,"42":-0.0003559256821835978,"43":-0.047916095735511234,"44":-0.005052899297182139,"45":0.004874519763988528,"46":0.024951330741065206,"47":-0.17736658824344687,"48":0.007236328841356342,"49":-0.16915072445449525,"50":0.13104806506416203,"51":0.13582602732381652,"52":0.0259290131727435,"53":0.09382757389998495,"54":-0.1042653718863249,"55":-0.23424183978895724,"56":-0.14937566628643043,"57":-0.03573385583864736,"58":-0.10966797471154838,"59":0.008238321676626938,"60":-0.005105659039276973,"61":0.0440391882288106,"62":-0.18477496786392061,"63":0.04100071408201062,"64":-0.07675129410399967,"65":-0.17215181181333727,"66":-0.17606584762789831,"67":0.04955119673912143,"68":0.2197899422151812,"69":0.06947084846370215,"70":0.03309852446556757,"71":0.042191562688462234,"72":-0.1245362868062764,"73":-0.012406012397618855,"74":-0.1599839192698773,"75":-0.060230624604423855,"76":-0.0012312510984559414,"77":0.10593940298357767,"78":0.06475329283028264,"79":-0.022670936618233065,"80":-0.05115489319853561,"81":-0.014845056714551049,"82":0.20076710146762125,"83":0.007499350358660542,"84":0.07889069307248835,"85":-0.22572904857016457,"86":0.33195470989545167,"87":-0.20566798289818938,"88":-0.08689289130490767,"89":-0.164638578136032,"90":0.5310128024120441,"91":-0.13501173347405418,"92":-0.019032757445389098,"93":-0.2873986128201877,"94":-0.13555004948478444,"95":-0.10779971560647332,"96":0.02094389087357247,"97":-0.2069799179140347,"98":0.15000982110247713,"99":0.06004719701767259,"100":-0.07862115995713279,"101":-0.05287290597085117,"102":-0.2006168981013441,"103":-0.14255045858257337,"104":-0.05860633028115408,"105":-0.13166238125021187,"106":-0.1610911720781636,"107":0.1324594000245391,"108":0.028014908956373343,"109":0.006515615834479021,"110":-0.13961211313879723,"111":0.07358004534196619,"112":-0.10807425220893341,"113":-0.15530271089749698,"114":-0.1384227688983534,"115":0.06412725702456688,"116":0.005406716184919223,"117":-0.27372359846760547,"118":0.005494116007207185,"119":0.1482900438584541,"120":0.1732637837427096,"121":-0.0746792648490194,"122":-0.03226457863524851,"123":0.20650514883533955,"124":0.2529471952320604,"125":-0.01987521343556603,"126":0.27970966419285,"127":0.242894452814795,"128":-0.07439783643466412,"129":-0.11062522446069885,"130":0.3114352972305123,"131":-0.2475076149390093,"132":0.00112803649590783,"133":-0.17736606283469128,"134":0.1147920143165828,"135":-0.13027004826521163,"136":0.061877386501260005,"137":-0.1416067011675788,"138":0.34724738177932435,"139":-0.2139703605674795,"140":-0.1172474375929735,"141":-0.20897117522654296,"142":-0.05061541990760708,"143":-0.13903590404682517,"144":-0.002038586804262673,"145":-0.09367794728936667,"146":-0.009510077697995173,"147":-0.1527493235068581,"148":-0.08245995472927847,"149":-0.10116752013417178,"150":-0.042848344934789874,"151":0.058298357132090674,"152":-0.06039867525501335,"153":0.021697294873767134,"154":-0.11840301142778717,"155":-0.07530784115839166,"156":0.05078738344167901,"157":-0.1432988295422696,"158":0.026344748338794164,"159":0.17915281352366325,"160":-0.05227168154691064,"161":-0.22199805476752163,"162":0.10043951579586977,"163":-0.2061661009565293,"164":-0.10138891933331905,"165":-0.2699302045816837,"166":-0.022993633576013417,"167":0.4307500512403678,"168":0.24317954258347688,"169":-0.33361655881425084,"170":0.2655205895293156,"171":-0.30864017319437004,"172":0.010569553663957065,"173":-0.30095457711445867,"174":-0.00020931035837778392,"175":0.0586618122015504,"176":0.2024382805485941,"177":-0.28008968288779623,"178":0.25180012690849896,"179":-0.3162162837514057,"180":-0.08965307971744418,"181":-0.32021527164295044,"182":0.1637785704997263,"183":0.020348760928707993,"184":-0.08525313981711524,"185":-0.03555266214682632,"186":-0.1043801265253724,"187":-0.04548450736067711,"188":-0.003811522765766761,"189":-0.018689129516908966,"190":-0.060184274339131594,"191":0.08479869767943041,"192":-0.10986360655461012,"193":0.10361580146906343,"194":-0.027671459298626078,"195":-0.13933873038519182,"196":-0.1376288955760228,"197":-0.09635802037982871,"198":0.13872187227371208,"199":0.23352429700828578}},{"sx":5,"sy":5,"depth":8,"w":{"0":0.09531906967793001,"1":-0.0013269768753931084,"2":-0.15960789082591423,"3":-0.04731205405350308,"4":-0.06502968094622695,"5":-0.11946773762499938,"6":-0.02399178068698767,"7":0.03508577278808126,"8":0.048592584589530384,"9":0.20549150072076983,"10":-0.12389009708461556,"11":-0.15356273640941243,"12":-0.018598280135638766,"13":-0.03408046576808507,"14":0.017316201526673593,"15":0.043039808347957856,"16":-0.036511773418342545,"17":0.19379335070317089,"18":-0.07455339919291065,"19":-0.2067787438245569,"20":0.08304451379402908,"21":-0.02312251416383914,"22":0.10622610416162273,"23":-0.11087323713852613,"24":-0.20611378922934614,"25":0.20176696983802705,"26":-0.01709055349185763,"27":-0.13108612853562476,"28":-0.10888838131344007,"29":0.048654204329831495,"30":0.04141905998584491,"31":-0.26558298622296606,"32":-0.29148923845989394,"33":0.039104297121041486,"34":0.050572192131594924,"35":-0.09654432793999569,"36":-0.09736984252633747,"37":0.08634309053879873,"38":-0.24013829778797757,"39":-0.2989630621570293,"40":0.08974507009173703,"41":0.10510296725900976,"42":-0.23250231920428446,"43":-0.17200645547426627,"44":-0.13153462411438482,"45":-0.011271685242099127,"46":0.04488942893493206,"47":0.07435737397009745,"48":0.09559740765125854,"49":0.019471004648159387,"50":-0.007317330776984365,"51":0.04034965276185656,"52":0.11196619334191764,"53":0.03077656989635944,"54":0.07864734485119029,"55":-0.059219715230543576,"56":0.06830989965106948,"57":0.2765465873077896,"58":-0.15512059198050152,"59":0.21293233641312734,"60":0.08168260483540866,"61":-0.05213748304790376,"62":-0.050031407450604255,"63":-0.1304626108100912,"64":-0.0970724278461309,"65":0.15745466779347178,"66":-0.09944628018278326,"67":0.12951544408826307,"68":0.15939072918294245,"69":0.008475297280745087,"70":0.21172032317880812,"71":-0.15748568021868156,"72":-0.11280369690528716,"73":0.13738694710702454,"74":-0.0032820961502976398,"75":-0.1036174726276099,"76":0.10884076284676661,"77":-0.04261682605151052,"78":0.16811290526258674,"79":-0.14510124571482436,"80":0.006785705914169176,"81":0.2183629219004803,"82":-0.052184533622372055,"83":-0.17858713265371734,"84":-0.08537174614899672,"85":-0.06378473477540711,"86":0.0030758730565529635,"87":0.008889286562493102,"88":0.08104914972105981,"89":0.08462327534717201,"90":-0.07879667666272604,"91":0.1466502607462975,"92":0.0844668266000628,"93":0.01358279299071129,"94":-0.0779037753536672,"95":0.04597576256204311,"96":-0.14541379874015248,"97":-0.05351734060834107,"98":-0.12298747336005,"99":0.29736468326574683,"100":-0.0024566187663322588,"101":-0.06459092195784773,"102":-0.1104198627467958,"103":-0.030245964047639688,"104":-0.032353238313375145,"105":0.022343598601303773,"106":0.07234994643225519,"107":0.18664616060331427,"108":0.03855186591573482,"109":-0.04175485042562649,"110":-0.11189152494140019,"111":0.004844064682741136,"112":-0.044641671004716624,"113":0.04885918909885986,"114":-0.08237579077335505,"115":0.03805173177583149,"116":0.011967114277484096,"117":-0.07411650176006156,"118":0.05216913495059529,"119":0.1007957080312876,"120":0.07340674925232288,"121":-0.03223262989718459,"122":-0.02404860686148828,"123":-0.21275851603394505,"124":0.15204225730243898,"125":-0.11683261345872241,"126":0.2363521485659306,"127":-0.09153352380009847,"128":-0.029982884082516318,"129":0.15284555045864132,"130":0.046885847644334726,"131":-0.11977315754005317,"132":0.07763745567567461,"133":-0.13173570355598876,"134":0.2566785603717175,"135":-0.139156175680775,"136":-0.012415605366896093,"137":0.08355454410606498,"138":0.09818202055803273,"139":-0.0760724582425889,"140":0.01778593127366596,"141":-0.15329138599860406,"142":0.08851062408553945,"143":0.005033137987995047,"144":-0.006597371437434944,"145":0.13311464460976946,"146":0.10369929783015842,"147":-0.020814676846858504,"148":-0.14225138690251174,"149":-0.09514398258426651,"150":-0.12823374788646302,"151":-0.09437635586810585,"152":-0.02536698545581702,"153":-0.18685401161600423,"154":-0.05563247675305077,"155":-0.14319161218814133,"156":-0.05238725725833226,"157":0.014585554147341437,"158":-0.0059555755892008,"159":-0.011933783594201067,"160":0.050664517126456685,"161":-0.004643677934014837,"162":-0.12534637408494398,"163":0.029744886379393525,"164":0.21175692253694478,"165":-0.07192721348558741,"166":0.1440857295990119,"167":-0.04571516045432476,"168":-0.05356289421472475,"169":0.07117496632894983,"170":-0.20561536114457818,"171":0.13436279742921034,"172":0.07801756326918491,"173":-0.2553639326883793,"174":0.07419193236446274,"175":0.08654451166352091,"176":0.009220283938164611,"177":0.14480205211993843,"178":-0.020602967421634734,"179":0.15772311632287514,"180":-0.10833850456372346,"181":-0.14195445134808507,"182":0.12922329302688584,"183":-0.15745432522828107,"184":0.06291314622384846,"185":0.11721432406984392,"186":-0.006016261991430848,"187":-0.031235544003536404,"188":0.02818098899602292,"189":-0.06860066281584717,"190":0.0007380273095410428,"191":-0.07736400520028355,"192":0.16155093441901452,"193":0.04219889269749665,"194":0.0006557767921212491,"195":-0.07029545055542592,"196":-0.14848350830534,"197":-0.14246816852037322,"198":-0.04120288003617263,"199":-0.025510229717394667}},{"sx":5,"sy":5,"depth":8,"w":{"0":0.00452896587995593,"1":0.07317029215849671,"2":-0.11504038741218735,"3":-0.24128290315241907,"4":-0.030170911649110965,"5":0.011555740312728997,"6":0.00802746101203905,"7":0.06523005459530026,"8":0.02659305130752407,"9":0.13796315915892882,"10":-0.19651578320540636,"11":-0.12060351824393892,"12":-0.03760573626601549,"13":-0.10061469872580753,"14":0.11118373498573578,"15":-0.19380019009922717,"16":-0.0057383969353155114,"17":-0.16757778216872574,"18":-0.20592351806523793,"19":-0.06619191289699004,"20":0.020729952753200026,"21":-0.11948588927137191,"22":0.06812837781503651,"23":-0.05222204086534747,"24":-0.10112780631557394,"25":-0.2258444088304719,"26":0.013095817234704776,"27":-0.11912377689071757,"28":-0.017618320543749053,"29":-0.17950576005284977,"30":0.08902038311866686,"31":-0.10793602248134176,"32":-0.11062299541496794,"33":-0.0884673374554034,"34":0.014822755432607793,"35":-0.33021898083649515,"36":-0.0017919855923647404,"37":-0.14608007654125146,"38":0.025861108802106396,"39":-0.009099210845746697,"40":0.14352662406958075,"41":0.18934821676495842,"42":-0.05142853057731115,"43":-0.15631935402549837,"44":-0.09871260687162604,"45":-0.13682768391143194,"46":-0.01626941843600086,"47":-0.028619960421215916,"48":0.1555500850047619,"49":-0.0051897512427851724,"50":-0.07977583100967708,"51":-0.03997952318241006,"52":0.04605255768653347,"53":0.006051319094228851,"54":-0.1377484025338749,"55":-0.1024658522694555,"56":0.040576553088499355,"57":-0.07256134938680539,"58":0.01697357879922415,"59":0.05720698902396017,"60":-0.0583054490886909,"61":-0.05193068140047425,"62":0.08619539192970321,"63":0.0433177186605489,"64":-0.053667124194315276,"65":-0.06783170912691076,"66":0.07888301650298228,"67":-0.015494405877784048,"68":0.08781907996512157,"69":-0.014162332871252641,"70":0.02759184160954895,"71":-0.05839467340279608,"72":0.026423262015077175,"73":-0.11744102938754915,"74":-0.04328946028416292,"75":0.0435146295641661,"76":0.049761276386088855,"77":-0.15701922219651546,"78":0.07315302127429298,"79":0.01258443281851394,"80":0.025993701583424914,"81":-0.014648199460057715,"82":-0.10047176115284172,"83":-0.03957624870477146,"84":0.04535903353002506,"85":-0.06282152965473549,"86":0.0021485738628518112,"87":-0.1447710483258978,"88":0.11996177357285459,"89":0.1323345980206408,"90":-0.1684171728523434,"91":-0.08140203438923371,"92":0.18254054880832118,"93":-0.07736816339226014,"94":0.08140579344726119,"95":-0.27327885172707267,"96":0.029603258352646898,"97":0.0183352108225544,"98":-0.13858497466268702,"99":0.02478188504779837,"100":-0.025819243018457567,"101":-0.16810001181787837,"102":0.09134271613482475,"103":-0.03463941840781727,"104":0.172029277055913,"105":-0.12294359014792922,"106":-0.09208749402339905,"107":0.08880966122167772,"108":-0.07411901814395061,"109":0.05447495718780312,"110":0.17405372279157896,"111":0.06792018510350292,"112":0.16213297449082043,"113":-0.03914738032329221,"114":0.03379700030530282,"115":0.15745756630933752,"116":0.11398122252210935,"117":-0.07779890266920335,"118":0.03314773336481618,"119":0.16229261302143594,"120":0.051838559297812954,"121":-0.04409665417814617,"122":-0.022444217044017695,"123":0.11289672942113843,"124":0.3069556951976648,"125":0.024701437463390725,"126":0.2539350515018204,"127":-0.14465523327175522,"128":0.04628225367577502,"129":0.18087705504881335,"130":-0.1521977931222063,"131":0.23935155393949872,"132":0.10932515722653346,"133":-0.004175149008941972,"134":0.10312079100244256,"135":-0.08559748536124284,"136":-0.00327759443370069,"137":0.06880133868700995,"138":-0.06699232273036464,"139":0.18660828797942264,"140":-0.1443759930504411,"141":0.022959090515675913,"142":0.032919143758717836,"143":-0.0024342020317262045,"144":-0.12252761496557055,"145":0.22353391215286034,"146":-0.11133329107944137,"147":0.08530498182952423,"148":0.03154521719478729,"149":-0.011027951750158695,"150":0.017844169170328657,"151":-0.0590125142813942,"152":-0.127273226617715,"153":-0.050674803759395544,"154":-0.06807908364595568,"155":0.18165967937241825,"156":0.004605033669778773,"157":0.14888125661628335,"158":-0.11395999872218557,"159":-0.08852732293730577,"160":-0.03975739249525213,"161":-0.09110203849184295,"162":-0.024292142615013113,"163":-0.0429912177724435,"164":-0.06896316679213804,"165":-0.010998578491151326,"166":-0.036970382058991766,"167":-0.11118303210017033,"168":0.06616268859030038,"169":0.02575646688190953,"170":0.07194873658216085,"171":-0.034253634104557125,"172":0.015293479743294421,"173":0.04759662133783629,"174":-0.21099713017091906,"175":-0.16695411629249493,"176":-0.1141626478893836,"177":0.031410512766227444,"178":-0.04665756015339796,"179":0.05230772913830757,"180":0.03338611365702444,"181":0.11191207323458696,"182":-0.19942159694905381,"183":0.08390017845535587,"184":-0.16277329999081855,"185":-0.1929037201122556,"186":-0.009309009021242636,"187":-0.15051236850491384,"188":-0.014670851145368381,"189":0.09082314333189519,"190":-0.27559274336147777,"191":-0.02771817523822867,"192":-0.12052290322122611,"193":0.031839111742765554,"194":-0.0032707569395024278,"195":-0.13605069902457556,"196":-0.17530408022221053,"197":-0.024655751240716964,"198":-0.1441650007811776,"199":-0.05508937454136782}},{"sx":5,"sy":5,"depth":8,"w":{"0":-0.06092937445643503,"1":0.017147065551764117,"2":0.016140300998777616,"3":-0.08282797230890046,"4":-0.002420919712226014,"5":-0.22873558376928085,"6":0.049875681699800146,"7":-0.05656994651477278,"8":-0.04603215807182308,"9":0.07770808311900705,"10":-0.037478375162311214,"11":0.12330864791390807,"12":0.07253601489105187,"13":-0.044247276412842595,"14":-0.013182298182212868,"15":-0.03623397864941034,"16":0.07778512951030724,"17":-0.10294781157706343,"18":-0.04532533376702093,"19":-0.06084345532608616,"20":-0.02516591043518789,"21":0.03283745085787163,"22":0.1325626006190092,"23":-0.05963210967980841,"24":0.046370910448518,"25":-0.08586540643494239,"26":-0.04332717920087608,"27":0.08464429191214733,"28":0.05242974203756064,"29":-0.028973117821484325,"30":-0.08831448021153712,"31":-0.0741869803453811,"32":-0.01381328906821269,"33":-0.11706519287976218,"34":-0.1595762862399606,"35":0.012599132766712763,"36":-0.06782712107294232,"37":0.04127847206125507,"38":-0.014681682649638301,"39":0.018408338041403984,"40":-0.03278375379641888,"41":-0.009730960167301926,"42":-0.02007451814979476,"43":0.04611461786864895,"44":-0.030321987747268627,"45":-0.16288635581010766,"46":-0.006833104827532075,"47":0.15846994804966122,"48":0.15904504674010542,"49":0.06512929504568642,"50":0.2177525951957257,"51":0.06358871667718916,"52":0.11080141834273162,"53":-0.11001984140937712,"54":0.02804077300112425,"55":-0.05583439764897651,"56":0.04834984048001252,"57":-0.0012656699019210156,"58":-0.00848129971624718,"59":0.08831465712159191,"60":-0.06485053664827307,"61":-0.03521158896824746,"62":0.058544960585152656,"63":0.0024701204726099903,"64":-0.015545597236737513,"65":0.09365541926212123,"66":-0.0759477556925735,"67":-0.005112131476700451,"68":0.04654568757943552,"69":-0.03574915508687992,"70":-0.20028173900922916,"71":-0.06489090656398813,"72":-0.04035216372366435,"73":-0.04070425545800621,"74":-0.05816908046995279,"75":-0.03222461677386168,"76":-0.035633535030407296,"77":0.018703195720682225,"78":-0.1996166747722723,"79":-0.03652321074352749,"80":-0.1890443445601518,"81":-0.1566358041936179,"82":0.056702434083867895,"83":-0.2955344853623482,"84":-0.03687303806460198,"85":-0.03304159773484713,"86":0.034766347299044924,"87":0.10819726341899948,"88":-0.017836603897420037,"89":-0.030249218458854192,"90":0.04419227416403137,"91":-0.0747351183078274,"92":-0.040147359055070456,"93":-0.07681596063265905,"94":0.03806617883285753,"95":-0.2314907662577529,"96":0.020164102212458616,"97":-0.13231252653919026,"98":-0.04876690927005152,"99":-0.023607839860708295,"100":-0.019876079556118628,"101":-0.2330405752096191,"102":0.027310829318299534,"103":-0.17560619632035207,"104":-0.11617333768224772,"105":-0.01556935811268987,"106":-0.12601120163503401,"107":-0.0019078581459209903,"108":-0.018013021784078678,"109":-0.02260635327021503,"110":-0.12278825627344636,"111":-0.12012057748329723,"112":-0.20259540740392218,"113":-0.10617487425080493,"114":-0.10632715939259887,"115":-0.06714329715357553,"116":-0.05551177048922525,"117":-0.02553527829540102,"118":-0.22054896851885472,"119":-0.2219696733000494,"120":-0.03766740133683061,"121":-0.0752645989515431,"122":0.030833118024945278,"123":-0.19522649841986833,"124":-0.10132279445967515,"125":-0.024871476997944633,"126":0.030891607099771696,"127":0.0010946339800553422,"128":0.16329881957625259,"129":-0.11943381602606606,"130":0.2336847456906685,"131":-0.057420414876216075,"132":-0.05132936281544121,"133":-0.1392509935789862,"134":0.1205501209995751,"135":-0.14800206962364004,"136":0.11095574129704132,"137":-0.068916195944183,"138":0.030457381997569165,"139":-0.05302867020044024,"140":0.003711750865501415,"141":-0.06643041016407823,"142":-0.11184048809050917,"143":0.11581448205028219,"144":-0.1342151493165966,"145":-0.14984948212671692,"146":-0.1375325524422006,"147":-0.032305658409376665,"148":-0.0509781667923227,"149":0.06948500425537235,"150":-0.13796489957477326,"151":-0.13739286343947354,"152":-0.19943388991032227,"153":-0.16065280829265596,"154":-0.06302191999670813,"155":-0.06281814177274302,"156":-0.11883807318902062,"157":0.08937919344478924,"158":-0.29620770367117066,"159":-0.04671699287289283,"160":-0.002476051955592614,"161":-0.05873229911494271,"162":-0.019900495756684868,"163":-0.04144254583988245,"164":-0.14300554781876704,"165":-0.06559649249136977,"166":0.0325652867289892,"167":0.0009688269926501664,"168":0.19756131569536495,"169":-0.03277815630086035,"170":0.012189746019637172,"171":-0.179314330376884,"172":-0.08288924268814289,"173":-0.016228234263571742,"174":0.09295728887271078,"175":0.10626091423814646,"176":-0.040319580698774726,"177":0.1286665908907464,"178":-0.12905526104723714,"179":-0.09041136117509435,"180":0.04457213668337767,"181":0.08649626284294235,"182":-0.07218158072038494,"183":0.07957988723860132,"184":-0.09903176028994687,"185":0.16679164653897927,"186":-0.07722550874883728,"187":-0.16922867787831386,"188":-0.11070171907472012,"189":0.05332205460193648,"190":0.019674155902735222,"191":-0.1675595602355609,"192":-0.09626722528314588,"193":0.11596749325093257,"194":-0.05322439273570501,"195":-0.16163246810736182,"196":0.0284863567254006,"197":0.06980767119344804,"198":-0.150292186770848,"199":-0.019374527621961797}},{"sx":5,"sy":5,"depth":8,"w":{"0":-0.0869986893428813,"1":0.001336191815133283,"2":-0.04475842351942802,"3":0.13459361116763688,"4":0.19839887092240058,"5":0.050828754174739844,"6":0.134386493262244,"7":-0.1274609288167669,"8":-0.1463738194634241,"9":0.026776337512006438,"10":0.06305587185970764,"11":-0.05101343093718528,"12":0.03737768480071774,"13":-0.02035173156778698,"14":-0.04652095219716766,"15":-0.08745930724935463,"16":-0.06978728091779368,"17":-0.035558826373307595,"18":0.1532342921248798,"19":-0.23380225747009972,"20":-0.1965355413170968,"21":-0.07103560411531457,"22":-0.1868856505408804,"23":-0.1645707273252767,"24":-0.03155402269193891,"25":0.02456970613571446,"26":-0.03391152341774008,"27":0.17634355624993983,"28":0.1340074856256429,"29":0.0357043294297958,"30":-0.18653672386024425,"31":-0.10478563311981855,"32":-0.15250470593840773,"33":-0.041289176752219804,"34":-0.10864601516178773,"35":0.18255074028226514,"36":0.1930940933532348,"37":0.10952678281413306,"38":-0.10710250735358576,"39":0.07403348045273483,"40":0.07959744316061386,"41":0.06011975102332204,"42":-0.11791539778712504,"43":0.2676456950559984,"44":0.12511050688700745,"45":0.0009137653563976453,"46":0.08305859979065579,"47":0.09750930972652368,"48":-0.12034731218015815,"49":-0.006423547339158588,"50":-0.17372304245967235,"51":0.22269332598262415,"52":0.23948177102189208,"53":-0.08954394451725434,"54":0.1306118216386402,"55":0.13818758547433319,"56":-0.08038343154413041,"57":-0.1479185929078974,"58":-0.12599112612145874,"59":-0.219305190132053,"60":0.01547041079338783,"61":-0.16573535274606924,"62":0.022207353614125444,"63":0.06129214664745165,"64":-0.09725155131374538,"65":-0.07280871678012267,"66":0.0167870838940879,"67":-0.21272450396371032,"68":-0.0026047525100663087,"69":-0.0847539403326234,"70":-0.15027419943339648,"71":-0.0812316107817229,"72":-0.03330431870894152,"73":-0.12542025854291394,"74":0.09068411556546635,"75":-0.09871173522067116,"76":0.07920898838867779,"77":0.02213878580132308,"78":-0.09750040740024969,"79":-0.020417160943403182,"80":0.11822973139597859,"81":-0.01987903285367154,"82":0.0002439930559557037,"83":0.02628560552993176,"84":-0.0095987050612638,"85":-0.029045239586038538,"86":-0.08102755434925293,"87":0.2752312021716627,"88":-0.05326409188978831,"89":0.043135476857698384,"90":0.0047360792035161655,"91":0.10869827742606314,"92":0.09729826696623275,"93":-0.15808234972410687,"94":0.02967820340076112,"95":0.26884346074434373,"96":0.02348904680981459,"97":0.006583376817144439,"98":-0.007059234917586056,"99":-0.06037814799453351,"100":0.03442363753096722,"101":-0.24845666980492156,"102":-0.040987441754760386,"103":0.15973923319962927,"104":0.10640203633524982,"105":0.11728777713855566,"106":-0.10063115521865036,"107":-0.11275905250158963,"108":0.1146662363284749,"109":-0.22184128583966067,"110":0.036259670218101045,"111":0.0953543591522725,"112":-0.09910070388742637,"113":0.06711448392899987,"114":0.02000031751518965,"115":-0.023488064066502987,"116":0.04322232123131141,"117":-0.19872449172620107,"118":0.062039048376191404,"119":-0.051088323435534676,"120":-0.0535487119033691,"121":0.33941169242713515,"122":-0.13022782460311574,"123":-0.20222373505583197,"124":-0.013176232656318362,"125":-0.08574814983321408,"126":0.015376761348457517,"127":-0.07418279659158122,"128":0.13274376779102479,"129":0.1646211349242067,"130":-0.1381926691569556,"131":-0.3064296709574675,"132":0.03763302008205556,"133":-0.13962375124390178,"134":0.10436836140005015,"135":-0.11481152834988344,"136":0.10416135198873548,"137":0.018259999226578946,"138":-0.13453102857137064,"139":0.07764637666268973,"140":0.030184181233354063,"141":-0.10080364933277015,"142":0.08733792885557948,"143":0.06920400075940418,"144":0.083136231958059,"145":0.11568616883399664,"146":-0.035911036242210155,"147":0.03960056503442934,"148":0.013776308973825386,"149":-0.02089212951362478,"150":0.0962376764071821,"151":0.03806399252788465,"152":0.01038618451457559,"153":0.12912581814861093,"154":-0.06761477812890136,"155":0.023462551825245346,"156":0.042370779628893414,"157":-0.1849728603337648,"158":0.15823939685629754,"159":0.002389222342647288,"160":0.0763864829736114,"161":0.19512175687926822,"162":0.001632534166229935,"163":-0.10194195070180825,"164":0.03914943900068493,"165":-0.14240764205435522,"166":0.058403185633472084,"167":-0.23376030637425432,"168":-0.033151730989508764,"169":0.1215627015795555,"170":0.06185184272335573,"171":-0.0755901590999789,"172":-0.053955216068304994,"173":-0.2382562961637335,"174":0.008536617800069646,"175":-0.0635471140707735,"176":0.07939069678801174,"177":0.14138961390044885,"178":-0.07731609837789827,"179":-0.03604206608483243,"180":-0.08342324688811245,"181":0.008931955659048337,"182":-0.05941449921827762,"183":-0.07926152376813819,"184":0.026197118903357783,"185":0.07055961862161533,"186":0.007963906085327554,"187":-0.017621199528674383,"188":0.11944229522728755,"189":-0.017454581221906473,"190":-0.1680104573731716,"191":0.09826606906354138,"192":-0.06690721912410909,"193":-0.0958469503629238,"194":0.05260891838252555,"195":-0.043087748076799895,"196":0.05699437664673886,"197":-0.17684748302587086,"198":-0.09053811982550419,"199":-0.028118163907195966}},{"sx":5,"sy":5,"depth":8,"w":{"0":0.03612870654280444,"1":0.008956240037246817,"2":0.10926871276585205,"3":-0.1633348865520107,"4":-0.22049426223336713,"5":0.020400140563688125,"6":0.01815206166238947,"7":-0.037247105400742844,"8":-0.002428459235167892,"9":-0.08401342965230374,"10":0.006232785179472646,"11":-0.031038760144636194,"12":-0.015203214778875034,"13":-0.11309338294584628,"14":-0.10163860759275653,"15":-0.07830382960771469,"16":-0.10753379884723945,"17":-0.25324891829895774,"18":-0.049625822836301764,"19":-0.06599093236827057,"20":-0.061424414917229504,"21":-0.034281984705625164,"22":-0.09194945158538993,"23":-0.053863962907903996,"24":0.03195111618921268,"25":-0.12343637790709516,"26":0.01993039708158002,"27":-0.055114935816938646,"28":-0.013227017116956471,"29":0.016133247622464333,"30":-0.26046089124255456,"31":-0.0007172047214223664,"32":-0.06357441810384466,"33":-0.015676312238135585,"34":-0.015944713542765873,"35":-0.11722052444359313,"36":-0.13412558870508398,"37":0.07881963644543796,"38":0.040641996813926155,"39":-0.0364581321201833,"40":0.041049045958518465,"41":-0.05772519020805736,"42":0.20351887631077703,"43":-0.0974963780707093,"44":-0.07129053718403873,"45":0.0036361326058981357,"46":0.00014613240351189858,"47":0.07968704281226364,"48":0.0773933015504209,"49":-0.0603866473545057,"50":0.04126390539672569,"51":-0.09706369006603213,"52":-0.09828244336925296,"53":0.06994386574782693,"54":-0.018832793548012965,"55":-0.11983933981391018,"56":-0.04921562459134155,"57":-0.04946245537517447,"58":-0.0075526751969288205,"59":-0.10003365906391375,"60":-0.05344644684435868,"61":0.1627600991374822,"62":-0.12234905206970208,"63":0.006177947152449768,"64":-0.18917167103210214,"65":0.04925904498629218,"66":-0.09386733650238785,"67":-0.14583635069571146,"68":-0.24547415409666531,"69":0.021781078244714938,"70":-0.16309479939107888,"71":0.10264674797381516,"72":-0.0353745931113687,"73":0.15780290317966464,"74":0.06690384543100851,"75":-0.16552772026355034,"76":-0.13215344189905198,"77":0.021945638269413946,"78":-0.04386424475047063,"79":0.035321084206659324,"80":0.012994476033160124,"81":-0.22276455497436393,"82":0.3775059422915778,"83":0.15050826446635615,"84":0.028201723995665232,"85":-0.0822736029413152,"86":0.0358326100941427,"87":-0.07277263337541112,"88":0.14640473538946877,"89":-0.15092175416867937,"90":0.2814975629987441,"91":-0.007975344217665683,"92":-0.10851605577992877,"93":-0.015613800163608162,"94":-0.10908883008814353,"95":-0.11420987836087006,"96":-0.0653810571536021,"97":0.08098958143846234,"98":-0.018743034083205764,"99":-0.26650823787920747,"100":-0.1455899740085448,"101":-0.11411311899060075,"102":-0.02153596716984394,"103":0.1511463642981016,"104":-0.05361247243193764,"105":0.08551460823561374,"106":0.04368352326644016,"107":-0.14056120106888428,"108":-0.000296671560030108,"109":0.025415983388085605,"110":-0.06651069123251932,"111":0.07615522787743914,"112":0.2133416860703382,"113":0.120623322111594,"114":0.083690303837032,"115":-0.09069031620115733,"116":-0.04495201305487848,"117":0.013751499418531583,"118":-0.030679790191087464,"119":-0.0075579021041201665,"120":0.039283473189089424,"121":-0.16514894648761416,"122":0.19783676450101662,"123":-0.2022323892800027,"124":-0.07845977034062744,"125":-0.21802289146986348,"126":-0.06913919385326843,"127":-0.13652956060491786,"128":-0.011370506232869322,"129":-0.03538242006371753,"130":0.1312644400513013,"131":-0.18356271736383598,"132":-0.02839208543807768,"133":-0.14098522525290696,"134":-0.06503348229204599,"135":0.10273540522976737,"136":-0.15459228636963762,"137":0.04777311270520046,"138":-0.040305392359682425,"139":0.03314210358563631,"140":-0.25088105447668885,"141":-0.25149255447202706,"142":-0.16334000176862534,"143":0.1865046224527775,"144":0.2700429488859814,"145":0.10281745232622562,"146":0.023059084196151877,"147":-0.24070190728528137,"148":-0.2661842211124061,"149":-0.2117260419008918,"150":-0.006826091884634629,"151":-0.02871130077081435,"152":0.059260036828978076,"153":-0.019676868773097322,"154":0.15255040896960598,"155":-0.03491360844945622,"156":-0.09477164966160273,"157":-0.12320783099045526,"158":0.17785248824573355,"159":-0.039401887425282875,"160":0.10709975681058156,"161":-0.06441140575539213,"162":0.1735899297392762,"163":-0.26151249740835547,"164":-0.2609002182089341,"165":-0.06115263615833399,"166":-0.05324096868250665,"167":-0.10537539099223443,"168":-0.14285066194872925,"169":0.026863425650212238,"170":0.051956045107510396,"171":-0.09782457116251256,"172":0.07110940884319115,"173":-0.14526170966390747,"174":-0.12291195592444377,"175":0.18585288012730522,"176":-0.09321500677225675,"177":-0.025768126042817304,"178":0.01782131151151946,"179":-0.05372714421024575,"180":-0.17514983371577825,"181":-0.17552297743373416,"182":-0.017993046033690997,"183":0.217375130407647,"184":0.17948422036036796,"185":-0.02098850457278406,"186":0.11229142815972888,"187":-0.1500981187370431,"188":-0.1054769074854817,"189":-0.047861935615022444,"190":0.01668766451798853,"191":0.009281993494080532,"192":0.023699171169095083,"193":-0.10172367789035883,"194":0.1417293969218165,"195":-0.11245306825665251,"196":-0.03828083047029367,"197":0.19594448394206004,"198":-0.067546292173197,"199":-0.18379883651196854}},{"sx":5,"sy":5,"depth":8,"w":{"0":-0.11368522618830232,"1":-0.0978528051306473,"2":-0.054605849412122265,"3":0.17066192882855583,"4":0.13667908146783178,"5":0.019526340523255154,"6":-0.05533862635671709,"7":-0.15849649148280778,"8":-0.09518414173064027,"9":-0.11083292874963149,"10":-0.059268069929394,"11":0.04253439752438465,"12":-0.0347501043410042,"13":0.17778634269997884,"14":-0.11816849735732483,"15":-0.15151042382089794,"16":-0.1360502770012092,"17":0.053652894472934504,"18":-0.062498328215087814,"19":0.08586609991462078,"20":-0.08245629122153311,"21":0.10156340796162444,"22":-0.0924857299815336,"23":0.01087769175133994,"24":0.0047457509069163675,"25":-0.04847751210780658,"26":-0.09155355572861462,"27":-0.09737002601318179,"28":-0.13129990513775516,"29":0.08425360329670822,"30":0.10121773453736087,"31":0.14977583154219073,"32":0.09647474612626633,"33":0.042957875776458224,"34":0.143905863223379,"35":-0.1979041855202884,"36":0.011699660095873901,"37":-0.03994701702196841,"38":0.08720987902798417,"39":0.05880747073128912,"40":0.07734758478929608,"41":-0.14407438043868329,"42":-0.11446381498935809,"43":0.020812331004201275,"44":-0.02305426612372958,"45":0.01268482869521358,"46":0.01114337901409613,"47":-0.3932251443989036,"48":-0.1295912347833177,"49":0.15273557677277178,"50":-0.17906114232745593,"51":0.03598050673536572,"52":-0.11031956993950967,"53":-0.04761662965367146,"54":-0.032908025281324145,"55":0.19805978811671904,"56":-0.12708905720730976,"57":0.16358590288392422,"58":-0.2687891884106185,"59":-0.17616044728209218,"60":-0.09236394467079494,"61":-0.08554248464328076,"62":0.016487919795420698,"63":0.15711452109632262,"64":0.197591200392016,"65":0.13477047442427703,"66":-0.1131393886593677,"67":-0.16623837825831556,"68":-0.01519305925820278,"69":-0.07685292290044879,"70":0.23505930323812807,"71":0.17012390111177564,"72":0.26501260693876844,"73":0.11123104551881685,"74":0.22708451597498208,"75":-0.2111016254728979,"76":0.09730335587842918,"77":-0.15978802110390755,"78":0.15465273082881237,"79":-0.0934643140056282,"80":0.009047984528095666,"81":-0.040143319239665104,"82":-0.040499437016841645,"83":0.003174731922858586,"84":0.03180723960630421,"85":-0.09361427117207435,"86":-0.046789800036991666,"87":0.0758558572748762,"88":0.02122715627279825,"89":0.1383030599165914,"90":-0.0818332656150607,"91":-0.10852306154504678,"92":-0.029302756950842564,"93":-0.1001361323602141,"94":-0.0669406640925391,"95":0.21861215562451755,"96":0.023133602942678015,"97":0.013998213509618936,"98":-0.006257091716092853,"99":-0.15559258172424592,"100":-0.04973005464120104,"101":-0.08152331383181698,"102":0.02168470340580986,"103":0.16203905858685033,"104":0.17518741301118584,"105":0.029838780914664166,"106":-0.0007282872882240794,"107":-0.15299208485524282,"108":-0.0851669702020977,"109":-0.07727565285748557,"110":0.07633444208815045,"111":-0.2715404273533671,"112":0.18155209684367837,"113":-0.058041839532659935,"114":0.11634636154623286,"115":-0.0031497463825234137,"116":0.11931380852755899,"117":-0.045061702576676375,"118":0.11920395434675976,"119":0.027808066269047468,"120":-0.05967105217175274,"121":0.016865180034383614,"122":-0.0938741368531821,"123":0.11548903659469059,"124":-0.1066356408368598,"125":-0.02499072554238291,"126":-0.12155128861141694,"127":0.01498106778110406,"128":0.035930377563278694,"129":-0.002787390775958729,"130":-0.1128781220286841,"131":-0.11144626157558257,"132":-0.052660722860043044,"133":-0.18246121738085538,"134":-0.09630136691622894,"135":0.13526765919439815,"136":0.1286678731480427,"137":-0.008917822090493785,"138":0.00009448887682890917,"139":-0.31088094498977364,"140":-0.01799999771911532,"141":-0.19175653231563997,"142":0.03344029952135696,"143":0.05357436764786082,"144":0.16569156191557521,"145":-0.26667671045425917,"146":0.1551831369551238,"147":-0.23379958653646826,"148":-0.13300936797989565,"149":-0.003394534382663188,"150":0.002433340216534346,"151":-0.22869505023073858,"152":0.004907809609873568,"153":0.03866944806326003,"154":0.007451453810361511,"155":-0.07030519668386034,"156":-0.036245032710608034,"157":-0.053141715368354596,"158":-0.07647942177777106,"159":-0.023435639573280598,"160":-0.12504939854279112,"161":0.16614878432559727,"162":-0.1035107025791377,"163":-0.1537583594581959,"164":-0.04036296682003565,"165":0.0990143669298337,"166":-0.2299661362980547,"167":0.014556544705621455,"168":0.11322767639559456,"169":-0.007452125241909255,"170":-0.0034795807042640077,"171":-0.08003547325036703,"172":-0.1488384387699992,"173":-0.06919169442250324,"174":0.06068511399928238,"175":0.1942490008887582,"176":0.17466538165997053,"177":-0.11613495747785933,"178":0.05848251710710224,"179":-0.13081927890159906,"180":-0.059766798391268,"181":-0.11124401220552499,"182":0.016593388908034436,"183":-0.06502303583528575,"184":0.035613184824226506,"185":0.009141931430746328,"186":0.11109708227997221,"187":-0.23742264242507932,"188":0.08044510804507238,"189":-0.15656787806747796,"190":0.037715807947442635,"191":-0.1956261242659572,"192":-0.1620826260249081,"193":0.08874260971408361,"194":-0.1503754639971006,"195":-0.08546939507747252,"196":-0.1021689640437495,"197":-0.02252947340486269,"198":-0.16683840771519032,"199":-0.0050760688579633475}},{"sx":5,"sy":5,"depth":8,"w":{"0":0.13648976489574566,"1":0.15165617779050497,"2":0.006000143079778089,"3":0.006860420047362331,"4":0.05323414207390478,"5":-0.06698725300455904,"6":0.24729653372130717,"7":-0.0182321970338894,"8":0.1903677096718415,"9":-0.03787520685384506,"10":0.06246642656378397,"11":0.15633702368567912,"12":-0.06819999632824116,"13":0.03507882664895266,"14":0.12755516618457505,"15":-0.05903025839060822,"16":0.16083819914902076,"17":-0.08947241898955789,"18":0.06661783825809067,"19":0.1816227979631239,"20":-0.02583994391816051,"21":0.1768883347099499,"22":-0.12291396465015103,"23":0.0026368941652818844,"24":0.017397360912949616,"25":-0.00022230535127293894,"26":-0.02796908142756781,"27":0.05113706081641077,"28":-0.2192927519185737,"29":0.24525004172843615,"30":-0.1101659523184212,"31":-0.06135540244400573,"32":-0.1377789753437167,"33":-0.09643128771659552,"34":-0.09162134268988141,"35":-0.11667252528232237,"36":-0.17006351370374237,"37":-0.10243784088827504,"38":0.01748681680188368,"39":0.2306812986474524,"40":0.232623840649915,"41":0.06676743802387125,"42":0.09811937341588173,"43":0.26718085578464146,"44":-0.00978854310244172,"45":0.06851438526796239,"46":0.15171288171672104,"47":0.03557487894413604,"48":-0.037616763844243464,"49":0.06560677223975048,"50":-0.016023070304371376,"51":0.18517782763702495,"52":-0.12898662436877167,"53":0.012072706853424599,"54":0.06855106765006869,"55":0.013376082249538774,"56":0.09233748309232802,"57":0.20632460676744463,"58":0.007228541194362308,"59":-0.06965013428334599,"60":0.056468954888968144,"61":0.09676123004291808,"62":-0.048240387922989236,"63":-0.003925190397463469,"64":-0.10855952195072073,"65":0.0003154216558238277,"66":0.11071176852898243,"67":-0.040376723889934976,"68":-0.15485374256515375,"69":0.1560824268064334,"70":-0.037241652501104935,"71":0.13973031969469069,"72":0.01735316360752458,"73":-0.041254209952378336,"74":0.0754356608290754,"75":-0.10299192019756347,"76":-0.11327556414166036,"77":0.0005887768964278852,"78":-0.015738431700011803,"79":0.0006718462509922554,"80":-0.039558463122478016,"81":0.016339918321337927,"82":0.036382194820895886,"83":0.11424605219208989,"84":0.026211720842607394,"85":0.02155986010166343,"86":-0.004107415773683883,"87":-0.21087265194097368,"88":0.026306021047021018,"89":-0.08184329412584039,"90":-0.029167968869044658,"91":-0.03893784633618581,"92":-0.023871227050421495,"93":0.20052683276569394,"94":-0.08811659344044342,"95":-0.09732195508926615,"96":-0.22513326867060782,"97":-0.004084371876917797,"98":-0.14499710923615464,"99":-0.11624222899107768,"100":-0.2220114940231203,"101":0.10529011140656765,"102":-0.24451191222524243,"103":-0.06718579328074242,"104":-0.07680037791964492,"105":0.048936764928392634,"106":-0.1181478484571842,"107":-0.1540448804208553,"108":-0.1649791448265695,"109":0.015206114770138527,"110":-0.05264714632771693,"111":0.12475155255441822,"112":0.162401878992917,"113":-0.03837079524969006,"114":-0.01567925922792035,"115":-0.27803605418676575,"116":-0.17945854105167824,"117":-0.10022773668150274,"118":-0.08166308906153827,"119":-0.05435399918662842,"120":-0.17700953082772505,"121":0.12941100917655782,"122":0.08105183816077477,"123":0.12937533026976247,"124":-0.042582003981022035,"125":0.08086980781032266,"126":-0.08412503112162807,"127":-0.14624347702119486,"128":-0.07591278304984951,"129":0.0021710994886186144,"130":-0.014501747355752114,"131":-0.16389947530531904,"132":-0.14354903078150003,"133":0.03881649985773885,"134":-0.23809544469710545,"135":0.05852193936986992,"136":-0.1431175029617514,"137":0.003632139000997638,"138":0.021138906312407314,"139":-0.30097063634278376,"140":-0.18900933823063976,"141":0.04643985770688668,"142":-0.16606235961206958,"143":0.07267402733874669,"144":-0.05097168211695127,"145":0.05440525780320221,"146":0.016729408514485296,"147":-0.27367044328543616,"148":-0.08054335163619569,"149":0.031172084524787955,"150":-0.043552465973027116,"151":0.2228928593029928,"152":0.19775168380806174,"153":0.09824421541920257,"154":0.06378467401091754,"155":-0.18102528536053275,"156":-0.19577360115892978,"157":-0.16211647337052704,"158":-0.06251775936658202,"159":0.09904624851778421,"160":-0.10977991578536231,"161":0.14116071175604308,"162":0.00925470904054497,"163":0.05580964371984841,"164":-0.127548750887246,"165":-0.011476411872159843,"166":-0.027810039082284733,"167":-0.09504645646000824,"168":-0.15744884431492295,"169":-0.00840348545404766,"170":0.07687567541440224,"171":-0.15299877555634228,"172":-0.14218363793108638,"173":-0.001363594039612834,"174":-0.15672017499971264,"175":0.02569853187780423,"176":-0.006725051522471529,"177":0.08159789397607022,"178":0.04183714683304832,"179":-0.24019134531530167,"180":-0.1572679578785231,"181":-0.1621894104399307,"182":-0.10541435497474091,"183":0.11791757499844253,"184":0.0015043431800974834,"185":-0.0023482337423402933,"186":0.21979192423495986,"187":-0.12712572223323543,"188":-0.44059079574420046,"189":-0.02802011710159616,"190":0.014472372764334912,"191":0.07217575373478671,"192":0.24170858039189122,"193":-0.1023983631819819,"194":0.1825499412884021,"195":-0.326510152891111,"196":-0.12923518495401512,"197":0.0416527682550797,"198":0.014815018667294516,"199":-0.0173718449196417}},{"sx":5,"sy":5,"depth":8,"w":{"0":-0.2755347371100132,"1":-0.1175364020932512,"2":-0.12268596697021363,"3":-0.08135452633100475,"4":-0.04058894540184714,"5":0.09467387335719865,"6":-0.18041727013247827,"7":-0.016941368938754236,"8":-0.19406515561127827,"9":0.1691906745467836,"10":-0.10230624654110772,"11":-0.16807299650836463,"12":-0.1585414212156401,"13":0.13888643066990308,"14":0.003997442144525538,"15":0.20949351659029533,"16":-0.015129613814880778,"17":-0.09218516054252976,"18":-0.024817907699639267,"19":-0.18218527165865755,"20":-0.22754655255298203,"21":0.006927582968283176,"22":-0.004353856002792446,"23":0.08710303003699998,"24":0.1050176521908475,"25":-0.0760218093427557,"26":0.10184188185282778,"27":-0.17743343108751553,"28":-0.1970900998138752,"29":0.15334512696467714,"30":0.03491062334247797,"31":-0.05595319741394352,"32":-0.00715204402171598,"33":-0.06920116108120568,"34":0.05535866342700806,"35":-0.08567762068798854,"36":-0.09359402318597083,"37":0.12090274713650352,"38":0.04842977023413153,"39":-0.13260871603183136,"40":-0.17472017442118268,"41":-0.025997868217179244,"42":0.040455493510538044,"43":-0.006540847954998722,"44":-0.11479102151900869,"45":0.1743853398558255,"46":-0.2843617097809276,"47":0.08376448228670139,"48":-0.2186603780499953,"49":0.078718858777954,"50":-0.08223747341724635,"51":-0.08305280249032905,"52":-0.020174604215834526,"53":0.11350895439743583,"54":-0.02407971874959651,"55":0.22990081592018788,"56":0.08462158525504239,"57":0.08811442451808414,"58":0.013613563145931668,"59":-0.025814686800884584,"60":-0.07080918175009882,"61":-0.03514890375728259,"62":0.0034793059182576117,"63":-0.04485280858045784,"64":0.032423266962875466,"65":-0.11364252623283842,"66":-0.018480131611074247,"67":-0.024946612224901864,"68":-0.03280363339697101,"69":0.1980968219123968,"70":0.0055018123194347755,"71":-0.1964991865965125,"72":0.09264102864606295,"73":-0.027312867189116376,"74":0.01892196033009258,"75":-0.037065715642911855,"76":0.08589570224244736,"77":0.06617663280924964,"78":-0.18157119441759503,"79":-0.24819158680883002,"80":-0.04297425668318641,"81":0.02001462297212005,"82":0.1954727302086387,"83":-0.1134530904887978,"84":-0.06955592023709888,"85":-0.03744972590223372,"86":-0.1067015951275843,"87":0.05101332614249699,"88":-0.01712299991116868,"89":0.03442662733020113,"90":0.12966922371040682,"91":-0.04724002852134919,"92":-0.015682535969787893,"93":-0.0499223656542517,"94":0.028769734865160195,"95":0.02594644849010919,"96":0.18117653451038573,"97":-0.1694009830741482,"98":0.03150151560348339,"99":0.059738057706391096,"100":-0.17613526921628322,"101":0.0057614997316339425,"102":-0.02125910078685165,"103":-0.044874552506451705,"104":-0.014851372966120074,"105":-0.0508189520437377,"106":0.09423245300632914,"107":-0.09423587040469096,"108":-0.0406221018639894,"109":-0.07773914371242348,"110":-0.11039515161282235,"111":-0.12622095712994771,"112":-0.09808598671327101,"113":0.11945388201124975,"114":0.06611116265923737,"115":0.011896194679162924,"116":-0.07724865697358697,"117":0.06349834809946538,"118":-0.17072517721700844,"119":0.1507955877625289,"120":-0.16046765740808752,"121":0.12367750790093344,"122":0.09217854763501762,"123":-0.05842891698750073,"124":0.10875008361634475,"125":-0.08300741578736837,"126":0.10824358994768613,"127":0.002656312112812283,"128":0.09664516310156071,"129":-0.03064656032943856,"130":0.02625613066433501,"131":0.04206927724781435,"132":-0.05921115794404894,"133":-0.2201198773473592,"134":-0.010475097084570265,"135":0.15095180477847908,"136":0.19980063025998343,"137":-0.08253098732123541,"138":0.21056747352495248,"139":-0.032789405406618524,"140":0.13680229693978269,"141":-0.018755964439381705,"142":0.0912815631163398,"143":-0.1142043985869028,"144":0.00661851683089189,"145":-0.05599845177286722,"146":0.10890097837521942,"147":-0.0458967325160855,"148":-0.06939910367286949,"149":-0.07604328893838617,"150":-0.14941449992800318,"151":-0.031210375897674704,"152":-0.10587815649250291,"153":0.03757685701330332,"154":0.021032850121579707,"155":-0.2036233871455389,"156":0.03812661150367851,"157":-0.11223859908653139,"158":-0.05013859504898734,"159":-0.02680972145259898,"160":-0.10643828208543354,"161":-0.15949053936570765,"162":0.011648038870010993,"163":-0.1463632228446323,"164":-0.0746214377537262,"165":-0.04807647288932724,"166":-0.04041417898028994,"167":0.21966743426153795,"168":-0.023591134573336333,"169":-0.09643140187657168,"170":0.1529953784593255,"171":-0.12987149816489027,"172":-0.09746822030603573,"173":-0.06788234175332722,"174":-0.035054676487497397,"175":0.05838062515979073,"176":0.08107801285434703,"177":-0.15446984638218003,"178":0.24504970907478188,"179":-0.19066992245537145,"180":-0.11784272123104901,"181":-0.1186808741650122,"182":0.024742446121446264,"183":-0.19379970739899224,"184":-0.002055728159000324,"185":0.0845113576120757,"186":-0.056031098680285066,"187":-0.027962100434337292,"188":0.14501351598252743,"189":0.05792205328969168,"190":-0.10527218081925352,"191":-0.06611790575974927,"192":0.049688799752508325,"193":-0.06291220243471009,"194":-0.1488151275079426,"195":-0.09088520442728955,"196":0.055423037130000546,"197":-0.09819974698518308,"198":0.040664470469429295,"199":0.11390132020489345}},{"sx":5,"sy":5,"depth":8,"w":{"0":-0.07381563369738475,"1":0.057752872718464465,"2":0.12107511041900669,"3":0.04321298720529799,"4":0.1032018496424593,"5":0.002693091457611733,"6":-0.03829997745882056,"7":0.0003180304027468869,"8":-0.03362511775589064,"9":-0.06615932849837423,"10":-0.20425092144043985,"11":-0.019389130099819837,"12":-0.09642115486078964,"13":0.04239710043866937,"14":-0.11525481441783335,"15":0.1093158342856571,"16":0.06987718238193892,"17":0.13135319350751334,"18":-0.16834342319513296,"19":-0.16011780203559994,"20":-0.022654675135555323,"21":-0.09261743350696036,"22":0.05151494265879476,"23":0.18848536094733248,"24":0.13784584472472675,"25":-0.1025043741220676,"26":-0.08760003254361423,"27":-0.133908038027222,"28":-0.017773947423147154,"29":-0.06144037665995882,"30":0.10468235210803248,"31":0.08504848090690853,"32":0.1787361970058922,"33":-0.1077207735016214,"34":-0.03321572444309548,"35":-0.020173980830018173,"36":0.012521247666041586,"37":-0.27350893880433147,"38":0.14532790145603217,"39":0.023634687087539706,"40":-0.15281816383804697,"41":0.13752427678790669,"42":0.018649923474875048,"43":-0.043669350399915374,"44":0.025075209828620992,"45":0.10339648922181056,"46":-0.10210692637988003,"47":-0.018233638903644545,"48":0.03741040054427076,"49":0.09455752849278806,"50":-0.11426982632122133,"51":-0.14748299844922821,"52":-0.036517675547171495,"53":0.026155296698085466,"54":0.006556563197039767,"55":-0.051069556625540066,"56":-0.04704447580528962,"57":-0.11022273058721593,"58":-0.0773458983656962,"59":0.05018203320975418,"60":-0.019115306300509467,"61":-0.11153973596923371,"62":-0.009917333509133801,"63":0.11580461857634033,"64":-0.014117599508439833,"65":-0.23421934678973907,"66":0.05990010820971601,"67":-0.02372462984340399,"68":0.14186709256754895,"69":0.019257234810430846,"70":-0.04490348689359125,"71":0.1203686127986614,"72":-0.0027263175340111133,"73":-0.014575560066772025,"74":-0.054169357677111916,"75":-0.17813994913133296,"76":-0.06834097468985718,"77":-0.18737186374863946,"78":0.0017426740256101412,"79":-0.043180907434362675,"80":0.04789622258116595,"81":0.05884840974747588,"82":-0.09567127454801999,"83":-0.08999280249198334,"84":-0.13727278738676965,"85":0.07725978136088985,"86":-0.052860154132945585,"87":-0.07011339162551666,"88":0.0610603563614168,"89":0.05719987575131412,"90":0.07065999135976829,"91":-0.18158034910229132,"92":-0.03573759266927563,"93":0.10988472271076376,"94":0.013297475396723758,"95":-0.058428040234166395,"96":-0.0996097147953068,"97":-0.18596411694231077,"98":-0.07206250704340902,"99":0.09978676095698337,"100":-0.13729985500578895,"101":-0.11698515659215883,"102":-0.05090214432749296,"103":0.07655551838362251,"104":0.05049539088613367,"105":-0.19688889454240685,"106":-0.23366055289013687,"107":-0.050783103708648705,"108":0.1600655908102035,"109":-0.09751787705062298,"110":0.027563654303250817,"111":0.026930596474000684,"112":-0.09620138039556356,"113":0.07124779485261401,"114":-0.20259755776894514,"115":0.08251730515754989,"116":0.12052360781581417,"117":-0.29176170449575484,"118":0.18125109723063504,"119":-0.04362919004740659,"120":0.09771279440732188,"121":-0.012762243121921693,"122":-0.0866022815204752,"123":-0.1750234528952962,"124":-0.04476326164239635,"125":-0.07236207012010222,"126":-0.048091342366075984,"127":-0.09032514098081348,"128":0.09868359975051966,"129":0.009944919821746084,"130":0.10353873056674805,"131":-0.11971173773990025,"132":-0.028281585552670095,"133":-0.07809198572198947,"134":0.11834288206948908,"135":-0.240131564615355,"136":0.0239610466478176,"137":-0.23811155706883852,"138":0.05076136781896583,"139":-0.03246782737241373,"140":0.009361098312901488,"141":0.012416636415543102,"142":-0.06974733940633812,"143":0.09156857242563697,"144":-0.006894717989911335,"145":-0.009124657520175437,"146":-0.13544163135755627,"147":0.0010018918980111632,"148":0.0657179312820678,"149":-0.013129977584221629,"150":-0.2988405648906416,"151":0.012857934061466528,"152":-0.05326374016118548,"153":-0.1348772035183027,"154":-0.15080471070114393,"155":0.24007133036380973,"156":0.021574902553516566,"157":-0.20038980011019544,"158":0.14613105327629738,"159":0.13124834207910108,"160":0.07700121507791906,"161":-0.04446791452321115,"162":0.11562180149693888,"163":-0.20793214650293343,"164":-0.10924525714866302,"165":-0.009207652369452573,"166":-0.021493220033995217,"167":-0.1761074609889902,"168":0.08399981661313517,"169":-0.03116162178477132,"170":0.07512411095843637,"171":-0.09541801949195537,"172":0.02482772370821181,"173":0.09865230848852412,"174":-0.024022666200435125,"175":-0.11971147819297803,"176":-0.05452740476282205,"177":0.06589372066986235,"178":-0.011846528869215127,"179":-0.21369612442103636,"180":-0.017776545744112453,"181":-0.05103699941610937,"182":-0.06503296526030174,"183":-0.043390146209841156,"184":-0.10764129904716396,"185":0.05468974872928507,"186":0.12100283670169631,"187":-0.03440900250050531,"188":-0.01029633125882469,"189":-0.08443423291016225,"190":-0.19704140537629047,"191":-0.045823746463410024,"192":0.019258759348985802,"193":-0.070993158157925,"194":0.08562704865127561,"195":0.03564727975936499,"196":-0.12439949623431769,"197":-0.05670203835483219,"198":-0.12104715784138523,"199":-0.11532149429548183}},{"sx":5,"sy":5,"depth":8,"w":{"0":-0.072223809093757,"1":-0.04116495868782886,"2":-0.0746471891497822,"3":-0.046363773762885176,"4":0.014432447886471474,"5":0.05085123197550299,"6":0.0023981209560308765,"7":0.0025181951611658463,"8":-0.1393623730123719,"9":0.13183576913790715,"10":0.06248314009373345,"11":-0.15100081572779328,"12":-0.1200518488796381,"13":-0.045056853628001166,"14":0.048172567824415216,"15":-0.02074992445284114,"16":-0.03684021276065323,"17":0.17137494799408187,"18":-0.08940398092825196,"19":-0.17331537032519057,"20":-0.10456278781259497,"21":-0.01551131580924444,"22":-0.022598987865954333,"23":0.013413615586792589,"24":-0.05061909917929529,"25":0.22751974320423846,"26":-0.23244939063852557,"27":-0.2184742287516733,"28":-0.08889408395216454,"29":-0.035381922817380736,"30":-0.04833482325585014,"31":0.025252000353657572,"32":0.07651205344431976,"33":0.20687709464699067,"34":-0.04707931636344799,"35":-0.1198008772504392,"36":-0.059106163330159424,"37":-0.047166871500685596,"38":0.12163729241206356,"39":0.028839438739027376,"40":0.006406406356527232,"41":0.05767144114900457,"42":0.06908466343600973,"43":0.07686965152553898,"44":0.11772176909820181,"45":-0.00033565478339694704,"46":0.11078128026073923,"47":0.03742433864336493,"48":-0.09349468583926965,"49":0.03751956855690243,"50":0.037280966780600916,"51":-0.11524973288350501,"52":0.11787717535380562,"53":0.04336559818300702,"54":0.08808603156114596,"55":-0.16073519482995602,"56":0.06791664305478945,"57":0.14078243190186024,"58":0.06449023821120198,"59":0.01203966278557953,"60":0.10975307840872107,"61":-0.14283311861238185,"62":-0.006449663482373123,"63":-0.03989911831577998,"64":0.056022236640382035,"65":0.0839252297327785,"66":-0.01912899935447141,"67":0.042659126843918566,"68":-0.1173803382718134,"69":-0.021176238890680602,"70":0.12327514938940427,"71":0.07896984724467053,"72":0.14800436151633758,"73":0.04347319830268304,"74":0.031250794889609,"75":0.08859413166303162,"76":-0.00019272851365483706,"77":-0.047873037110076476,"78":0.02258080955702844,"79":-0.06371847980115941,"80":0.018260182408528256,"81":-0.16477503636067703,"82":-0.08443761820938836,"83":0.007908686043894119,"84":0.2781450656601303,"85":-0.1951419485630116,"86":0.0117071439918847,"87":0.032647558042551365,"88":-0.060683230215572904,"89":0.005575689081467661,"90":-0.023112272820314108,"91":0.19244426696082653,"92":0.14639346649850563,"93":-0.22617279765014042,"94":-0.17662048736358169,"95":0.10784048842052213,"96":-0.015334110151266617,"97":-0.028572141606399124,"98":-0.03393239375373831,"99":0.18525677215710232,"100":0.17334004712276296,"101":-0.08375404539413267,"102":0.1023908325297919,"103":-0.08543385962199337,"104":0.2425522214471069,"105":0.10616719683676885,"106":0.06044634159413566,"107":-0.07019444451173854,"108":-0.13049752969322992,"109":0.02253226952864291,"110":0.04068642169938409,"111":-0.06882348876126414,"112":0.06973576130159585,"113":-0.05586699278684138,"114":0.0696749879208449,"115":-0.017895053861790203,"116":-0.017414739198541657,"117":0.14333191400995426,"118":-0.07812692243792474,"119":-0.16841124645054653,"120":0.009076950366782178,"121":-0.13851941032710713,"122":0.010874656392259149,"123":-0.03826690553624638,"124":0.010555607563262457,"125":0.0550537718481041,"126":0.0137603153950801,"127":-0.02583152600114235,"128":-0.003331227678531353,"129":0.05210710617545666,"130":-0.04849357362490582,"131":-0.019487508483560935,"132":-0.01838924663437226,"133":0.008433680151654237,"134":-0.11534311136498873,"135":0.1912402928268789,"136":-0.17684146217713298,"137":0.014371644208318192,"138":0.11297103016013404,"139":-0.05140212657541844,"140":0.03328115801775896,"141":0.056053903520549814,"142":-0.10178084356538006,"143":0.048526835261470516,"144":-0.07732074315439295,"145":-0.04987522983993778,"146":-0.17543451579232267,"147":-0.12561915902376813,"148":-0.03153002781410352,"149":0.19956903524109063,"150":-0.254687828990586,"151":-0.10468100794126678,"152":-0.09642616758369797,"153":0.08517262764520188,"154":-0.1389447708126902,"155":-0.04054317198336769,"156":0.015169267276445873,"157":0.14991390902492238,"158":0.030674813634357576,"159":-0.1371854313868678,"160":-0.01060094392622854,"161":0.04897760385826157,"162":0.004472829938307126,"163":-0.11788348953683328,"164":-0.04081529616571243,"165":0.011852446194139273,"166":0.0014256986156860815,"167":0.015619544801750295,"168":-0.03423730639581454,"169":-0.002704964701523874,"170":0.11962354050089888,"171":-0.07981285343284182,"172":-0.025680802749281386,"173":0.009543791769756404,"174":-0.18221065745688747,"175":0.2153266052325112,"176":0.14085040923914197,"177":0.00681529092060292,"178":-0.09036115050795115,"179":-0.1434000996827005,"180":-0.11812766501913072,"181":0.09020396922229974,"182":-0.11487006136447885,"183":-0.04513711656648997,"184":0.005450925378412133,"185":0.06269073894214426,"186":-0.08441562064288607,"187":-0.2086692894557312,"188":0.02135232639096857,"189":0.06033063521866734,"190":-0.015025927072085162,"191":0.0006151503651153937,"192":0.07362788481705368,"193":0.06318328324481157,"194":-0.11101298464592509,"195":-0.16881155000103087,"196":-0.0852373842697188,"197":0.019107463436206406,"198":0.060165932453003536,"199":-0.0340401350039664}},{"sx":5,"sy":5,"depth":8,"w":{"0":0.03717831844558238,"1":0.046255124440921246,"2":0.0012845805020487082,"3":0.07510703196961867,"4":0.10592511697614702,"5":0.07709831954683298,"6":-0.20049385899786043,"7":0.06049576410854322,"8":-0.05652104795458883,"9":-0.09261880402949954,"10":0.026382343768752786,"11":0.0679198775282144,"12":-0.1419886532458803,"13":0.07279998974382912,"14":-0.07249544942073198,"15":0.060049770327269575,"16":-0.036486847392968404,"17":-0.19527562380906208,"18":-0.042748418255096204,"19":0.08972188848577285,"20":-0.07227143617988674,"21":0.06346583500406369,"22":-0.062468462792118866,"23":-0.07349423638319608,"24":0.04444981287423734,"25":-0.14340838419531937,"26":0.047489118143664626,"27":0.19510068707132225,"28":-0.0777703316586954,"29":0.1341350375532797,"30":-0.2908115728077081,"31":-0.1319263751056943,"32":-0.10034143564687088,"33":-0.12354858153602052,"34":-0.008539221607784373,"35":0.16954924373210714,"36":0.026269167832929742,"37":0.1610241760679127,"38":-0.18777585721638093,"39":-0.13374913650888476,"40":-0.13180152484347146,"41":-0.022031746738681152,"42":-0.03717684872982036,"43":-0.042726048877300374,"44":-0.12017535013375072,"45":0.04458264903367282,"46":-0.06284106574651047,"47":-0.04009839055654301,"48":0.06981966430899902,"49":-0.06802453178492772,"50":0.05852414103427592,"51":-0.12933783772758914,"52":-0.11092500869303196,"53":-0.02498899629707386,"54":-0.017827795837295254,"55":-0.08997457864479927,"56":-0.1452593979433286,"57":-0.07871701721768475,"58":-0.10854067180753746,"59":-0.1461453448001269,"60":-0.060211698906234186,"61":0.08922191949205605,"62":-0.18923780570949575,"63":0.02009293298937186,"64":-0.1222512707045879,"65":0.010523518028235394,"66":-0.1570077951716003,"67":-0.13111079563871902,"68":-0.04427030981496521,"69":0.12696833109100925,"70":-0.07395118109653688,"71":0.016056957474301543,"72":-0.2932028604837426,"73":0.006010720878141921,"74":-0.11453331618015335,"75":-0.05133182092043108,"76":-0.25288107255301373,"77":0.044915923899337885,"78":-0.16802242391993663,"79":0.08869055419634661,"80":0.025587542618196086,"81":0.10181239908892369,"82":-0.03769425780542026,"83":-0.1184602943162059,"84":-0.045993820957556074,"85":0.03474392714520985,"86":0.1251196194009853,"87":-0.07567797280650437,"88":-0.07979424086785754,"89":0.09898422848933622,"90":0.08048782133964133,"91":-0.06758869850707738,"92":-0.10158643686271977,"93":-0.2372151034876448,"94":0.08371478535734551,"95":-0.08646824322008416,"96":-0.00240642521902073,"97":0.1308338103032352,"98":-0.07809250746196317,"99":-0.022557901498715453,"100":0.09692800906950465,"101":-0.03766088732262449,"102":0.15105680618642914,"103":0.0448722314160087,"104":0.04830627141887468,"105":0.26484928949248043,"106":-0.14411276454166344,"107":-0.008051962118240934,"108":0.2681356545031457,"109":-0.10129868982715391,"110":0.22324780717752943,"111":-0.12488089904165788,"112":0.034593213840350905,"113":0.1973800492217731,"114":-0.061530190368645696,"115":-0.007126206372693228,"116":0.17441472494781024,"117":-0.10566693743287268,"118":0.08494440161546876,"119":-0.10083060787264819,"120":0.035791114717512104,"121":0.14214177655502508,"122":-0.12557677109723012,"123":0.11310835266069065,"124":0.1771273541416814,"125":0.11662214086313503,"126":0.1010084043278394,"127":-0.1494000535837927,"128":0.015573021826517746,"129":0.029852937264813827,"130":-0.08899872916974846,"131":0.12716040300371317,"132":0.1952610102034336,"133":0.04795226267827462,"134":0.10862964064413215,"135":0.03230791978487056,"136":0.016241754390000515,"137":0.17341620416724018,"138":-0.03955469007858811,"139":0.17835418408413048,"140":0.16740547590304175,"141":-0.18525879417468014,"142":0.06202716783667469,"143":-0.050859657710542565,"144":0.03576388203615834,"145":0.034128871235345186,"146":-0.18894531399992526,"147":0.23378957374000245,"148":0.237894634608489,"149":-0.059960411086966175,"150":0.07509434166004629,"151":0.06007173473493672,"152":0.10474889777019855,"153":-0.21378306783707116,"154":-0.14774173676658006,"155":0.21054374313529287,"156":0.02590298239086877,"157":0.05896181900653896,"158":0.03821407479263382,"159":0.05690321824150203,"160":0.04411952388409379,"161":-0.1300253744327198,"162":0.04451084843733088,"163":0.1267564783782826,"164":-0.019116017760720305,"165":-0.06663714545024413,"166":-0.04324629178516928,"167":-0.17851675062401176,"168":-0.04648710412327065,"169":-0.032758432126743044,"170":-0.04212067135684209,"171":0.08730066526742207,"172":0.040916702807094335,"173":0.04909084571171742,"174":-0.18346635404194134,"175":-0.01714560048470537,"176":-0.030361520891175917,"177":-0.12720370309831927,"178":-0.02248049728278723,"179":0.1837159256935427,"180":0.05031671624815908,"181":0.08163487799411216,"182":-0.12405647207434878,"183":0.09441118776366997,"184":-0.06075531945191513,"185":0.056061022425756044,"186":-0.06731164060490193,"187":0.05877556010189916,"188":-0.10174240381657658,"189":-0.0698143313587574,"190":-0.21651470278014326,"191":0.12128119526491447,"192":-0.019287313893245228,"193":-0.05176018853131265,"194":-0.16279395888933224,"195":-0.06426832783057039,"196":-0.253358562438709,"197":-0.012956007940677987,"198":-0.20963855171590978,"199":0.012770946219836658}},{"sx":5,"sy":5,"depth":8,"w":{"0":-0.08425298169263704,"1":0.055835032078966465,"2":-0.05200373148912568,"3":0.08931904400907109,"4":0.14084728187004153,"5":0.038343011107622,"6":-0.010148211503157829,"7":0.14303183387262783,"8":-0.024722945724305754,"9":-0.07100929484169712,"10":-0.06250923105125858,"11":0.12967478829137855,"12":0.15884050671126526,"13":-0.15745023265892286,"14":-0.019325309287512606,"15":0.13997359503415474,"16":-0.2017538342980925,"17":0.07715009305172157,"18":-0.11810231925364426,"19":-0.006818603487871969,"20":0.1702639846157562,"21":-0.1411710033975739,"22":0.0762624287893286,"23":-0.022053379341656118,"24":-0.019095493128329224,"25":0.17674183934017892,"26":-0.21462030179927433,"27":-0.2268921444954695,"28":0.08198839817733121,"29":-0.12943687277702703,"30":0.1983319093830925,"31":-0.033692125512815925,"32":-0.21079446412356184,"33":0.2004414220592978,"34":-0.0343715484149209,"35":-0.14736822526893217,"36":-0.11747090523659473,"37":-0.3261331976475688,"38":0.03580700425842284,"39":-0.29073071364413816,"40":-0.1285212664335739,"41":-0.11387085681932,"42":-0.08631667992631395,"43":0.13146362982130438,"44":-0.032877788543624074,"45":-0.01410181883457233,"46":-0.11307343021528063,"47":0.09020911064029535,"48":-0.09485444817461337,"49":0.07862762223166334,"50":-0.2074192156418847,"51":0.14999735764351457,"52":0.1245822980476394,"53":-0.19211682644410888,"54":-0.09454658431825554,"55":0.00324549664760144,"56":0.10833246374810626,"57":0.018308105875615766,"58":-0.03549764123822728,"59":0.33249339644357684,"60":0.206214156457537,"61":-0.1799363539324755,"62":0.0834778774766794,"63":0.07459844724046856,"64":0.13767643130416704,"65":-0.04369415663991415,"66":-0.0787956209755228,"67":0.41397704227712034,"68":0.08892287923613103,"69":-0.2223366105637844,"70":0.07917827230720734,"71":0.005860154888878925,"72":0.06623569810334962,"73":-0.2245951794786414,"74":-0.254287648310671,"75":-0.09849395439476855,"76":-0.2993032374223838,"77":-0.19951380486316778,"78":0.1296133824739705,"79":0.017489958189539447,"80":-0.06697180100548351,"81":-0.06321517868112694,"82":-0.166819218072684,"83":-0.04069273731280009,"84":0.0918687048125784,"85":-0.1570514089053552,"86":-0.01828305643951539,"87":0.04413457205049885,"88":0.13876387058767456,"89":-0.1798250214851152,"90":-0.20180141475286612,"91":0.12103901894774255,"92":-0.04952830217407502,"93":-0.11472038305942377,"94":-0.05754999671181015,"95":0.0916203595080432,"96":-0.04261913478626744,"97":-0.15963774562956135,"98":-0.13594246267481616,"99":0.30576532276628204,"100":-0.07112905003616905,"101":-0.1456076596563333,"102":-0.027462955640116003,"103":-0.12779111302666385,"104":-0.072694274341728,"105":0.013665557068531698,"106":-0.09617556509603395,"107":0.07670647459674226,"108":-0.01820199260814154,"109":-0.10126137354676391,"110":-0.14598440333542276,"111":0.26320367976633324,"112":-0.12460525593909477,"113":0.04538893173596566,"114":-0.11229780424027629,"115":-0.26616121377019564,"116":-0.03954682124334193,"117":-0.43428461952220476,"118":0.07865511345941291,"119":0.21534181383214954,"120":-0.1870613008479534,"121":-0.012392620324917138,"122":-0.2092762968062053,"123":0.07190278814937914,"124":0.03436680776455266,"125":-0.08373820169987965,"126":-0.07789581463167139,"127":-0.07429453449511879,"128":0.01673461427172009,"129":-0.14391160534847597,"130":-0.20097991742846794,"131":0.04284407926936886,"132":-0.10087452853487819,"133":-0.04109020955149485,"134":-0.37318291384693103,"135":0.07658140994306172,"136":-0.16471994342857088,"137":0.12154838715403274,"138":-0.014902639352327855,"139":-0.1106588116447969,"140":-0.08813822664668446,"141":0.09025208639563956,"142":-0.20361091333865974,"143":0.07340829903291882,"144":-0.09822521449109578,"145":0.03906787386347181,"146":-0.03211261504470371,"147":-0.15916837147838325,"148":0.08694029742725212,"149":0.03772931332596375,"150":-0.07705329775219112,"151":0.07171111867509591,"152":0.15800290877062229,"153":0.14494453344467875,"154":-0.06461235692423861,"155":-0.36101016231811633,"156":-0.14748118399652255,"157":-0.2501203969558838,"158":0.1768328866305379,"159":0.002789683297625649,"160":0.007783021105614373,"161":0.005811972154441528,"162":-0.05506395876965734,"163":0.0829744800287172,"164":-0.12015560005540298,"165":-0.0872584394857804,"166":-0.023753902994081796,"167":0.040611452596969674,"168":0.03444123955104668,"169":0.19357583395689626,"170":0.034585382085082474,"171":-0.14246775762726605,"172":-0.14922100132048133,"173":-0.05576117029567232,"174":-0.20432383931913484,"175":-0.12935811474642203,"176":-0.09670214643843864,"177":0.08904455622582151,"178":0.08774599493747363,"179":-0.064745315852203,"180":0.0989520599580466,"181":-0.08948948932264138,"182":-0.003214275891472181,"183":0.043854779196473875,"184":0.08782669274539455,"185":0.09138555405512351,"186":0.00493150652866037,"187":-0.19400396336632847,"188":-0.05039661587693446,"189":-0.07686665418028643,"190":0.11990965569425595,"191":0.1283671734864425,"192":0.29621697609012393,"193":-0.16562463963741586,"194":0.06902191912234522,"195":-0.24078004381085802,"196":-0.21101487167902114,"197":-0.03452021880995851,"198":0.04548082861722897,"199":0.04090340328438096}},{"sx":5,"sy":5,"depth":8,"w":{"0":-0.1619404066958504,"1":-0.1751536113637398,"2":-0.05367639309100424,"3":0.025512466516745203,"4":0.01046657863913721,"5":0.0882378171051174,"6":0.07673779855408332,"7":0.007211537108057172,"8":0.04824535552799917,"9":-0.003010166603436498,"10":0.09675490989929274,"11":-0.1543357509783339,"12":-0.07312511199800786,"13":0.035433445261802275,"14":0.1250172072480469,"15":0.05194121247662306,"16":0.0822270250836265,"17":-0.05693456780536364,"18":0.2766520570381926,"19":-0.11731618005105002,"20":-0.14528380329229384,"21":-0.0899393328566163,"22":0.04907627819711027,"23":0.04358750604709434,"24":0.14180828969497744,"25":-0.11065806371344515,"26":-0.02192206555399768,"27":-0.26528180324233347,"28":0.0533323206944243,"29":-0.1448650474449842,"30":0.1029047309640685,"31":-0.012575976820062576,"32":0.05244591697712214,"33":0.06602407311922537,"34":0.1134740531745404,"35":-0.03944462698784345,"36":-0.09151891566039382,"37":-0.090687420320558,"38":0.026709796464577537,"39":-0.015335476265725805,"40":-0.14859899938969587,"41":-0.11208454806398088,"42":-0.12980950284852197,"43":-0.0792127134299821,"44":-0.04066983260984426,"45":0.13600179806298537,"46":-0.10418098229803693,"47":0.30427037426308357,"48":-0.049775947606966214,"49":-0.09056694528637528,"50":-0.0034470128139052034,"51":-0.100455254809445,"52":-0.18262401156657324,"53":0.10746057221139654,"54":0.055464112230731055,"55":0.09046956608907644,"56":0.19205613936642454,"57":-0.006848264533612015,"58":0.13167563445264466,"59":-0.2384946142178943,"60":-0.07694875893782298,"61":-0.06846371951272817,"62":-0.04865284770345506,"63":-0.05384682162773739,"64":0.09043096692618724,"65":0.10974830196500995,"66":0.04421743704567132,"67":-0.12291317875459776,"68":0.09598037988273227,"69":-0.22292456827845725,"70":0.09372361567116055,"71":-0.093416019396043,"72":0.061361681324658954,"73":0.059983218583514984,"74":0.10051925510316477,"75":-0.0281520525836338,"76":-0.08453587713330768,"77":-0.23002443257707617,"78":0.013316721558279183,"79":-0.036560553191649706,"80":-0.18006482646213687,"81":-0.02720493877395985,"82":-0.11804407728100855,"83":-0.10885326693776153,"84":-0.10917807711168499,"85":-0.05015895744508317,"86":-0.12932893873221776,"87":0.27950641642510404,"88":0.10901248808802498,"89":-0.015151258689093958,"90":-0.05677470883734763,"91":-0.19245168913901634,"92":-0.19118597363086337,"93":-0.07908013828556419,"94":0.06353591454579101,"95":0.06223011023961278,"96":0.007746605281244208,"97":0.004326554434716076,"98":0.17797543879443636,"99":-0.21300951807854637,"100":-0.027212510393443416,"101":-0.23737632851180335,"102":0.10316735657027735,"103":0.01519704649703907,"104":0.13529006287498122,"105":0.0017968491804839445,"106":-0.1260374054643804,"107":0.03681600951435156,"108":-0.0017901476221204417,"109":-0.10927341485672265,"110":0.18885485756543957,"111":-0.05304762136444398,"112":-0.09327502786953111,"113":0.20607010398222414,"114":-0.014984127426103734,"115":-0.023201892828119595,"116":-0.10848549544528625,"117":-0.09395001715778935,"118":0.043185682275719936,"119":-0.0069810097092824,"120":-0.2112344683595403,"121":0.06049494305915993,"122":-0.13327267059258216,"123":-0.06672760492062492,"124":0.02646216279885048,"125":-0.02606499323519514,"126":-0.11985976024214327,"127":0.26991168113353525,"128":0.04793475681673724,"129":-0.08310546540694501,"130":0.17150371818181842,"131":-0.166195241711776,"132":0.038115714906244345,"133":-0.10652965688802643,"134":-0.02432395118560814,"135":0.11458945407475374,"136":0.05254397453780866,"137":-0.24726460443176299,"138":0.2556485980606664,"139":-0.26655433641973664,"140":-0.032455236628297135,"141":-0.09255996785211901,"142":0.042054528421282385,"143":0.0007065083802583162,"144":0.07418924318799902,"145":0.07013784067341286,"146":0.08493448913117001,"147":-0.1330035439688239,"148":0.006689798847677935,"149":-0.11226482735439534,"150":0.023705940128002288,"151":0.023959123478198396,"152":0.05327877055778093,"153":-0.000058488158219482424,"154":-0.1171549403040848,"155":-0.1699274459058053,"156":0.1306796418289714,"157":-0.07418301459089538,"158":0.010133079283498644,"159":-0.0438269920845152,"160":-0.19124474571781752,"161":-0.013487848490475884,"162":0.06255931960826885,"163":-0.041568017949409945,"164":-0.091911994721789,"165":0.028425964704116197,"166":-0.17423701775700973,"167":0.34108085166723506,"168":0.01632346861157279,"169":-0.24570783413980551,"170":0.11974417651356598,"171":-0.0923408781446984,"172":-0.09395084717897008,"173":-0.17142434758062836,"174":0.1466088491669531,"175":0.23431888652132543,"176":0.05385105054181733,"177":-0.021878429509687564,"178":0.03408900738454333,"179":-0.11527155267806455,"180":0.0036673495682849827,"181":-0.0701778330214048,"182":0.048059843962683334,"183":-0.10374046059865272,"184":0.0034011850978846138,"185":-0.01634187003824734,"186":-0.1307767286503426,"187":-0.10420323041758675,"188":0.05552712680343079,"189":-0.09982472413876432,"190":0.058352311534115846,"191":-0.06859229176382717,"192":0.011940303086492762,"193":0.14820243108591136,"194":-0.2676814163684994,"195":0.01782805269880717,"196":0.1525439326132353,"197":-0.10023267480130446,"198":0.01274291342110775,"199":-0.11559092637800343}}],"biases":{"sx":1,"sy":1,"depth":16,"w":{"0":0.07294389528973988,"1":0.06388335264971605,"2":0.012346083711291526,"3":0.06626366572465314,"4":0.04659510875157167,"5":-0.002741970617763194,"6":0.07147204206421073,"7":0.07968134184833883,"8":0.08412509335376958,"9":0.0465907433612226,"10":0.06923442166896485,"11":0.0643831522069462,"12":0.057426734587969736,"13":0.06526101925713837,"14":0.023840059218858154,"15":0.08180698610345709}}},{"out_depth":16,"out_sx":12,"out_sy":12,"layer_type":"relu"},{"sx":3,"sy":3,"stride":3,"in_depth":16,"out_depth":16,"out_sx":4,"out_sy":4,"layer_type":"pool","pad":0},{"out_depth":10,"out_sx":1,"out_sy":1,"layer_type":"fc","num_inputs":256,"l1_decay_mul":0,"l2_decay_mul":1,"filters":[{"sx":1,"sy":1,"depth":256,"w":{"0":-0.02847464775017458,"1":-0.12422424199794957,"2":0.055123444561367835,"3":-0.016735045979993902,"4":-0.04916829411410467,"5":-0.03774028797205233,"6":0.014029479719515571,"7":0.06682909673109726,"8":-0.00606637463321469,"9":0.004466667797898545,"10":0.013915323121483882,"11":-0.039660557804859574,"12":-0.031452297232493015,"13":-0.11243365544884375,"14":0.08306109020242808,"15":0.000545021936570058,"16":-0.12419126260702357,"17":-0.13301815416610885,"18":-0.15092556381679076,"19":-0.013706687163324606,"20":-0.022823939848516005,"21":-0.15609589975350543,"22":-0.023883706199615665,"23":0.02417827615062898,"24":0.0049478723459604095,"25":0.08349963534968337,"26":-0.1349389491419069,"27":0.00039571855400462016,"28":0.025746439386976534,"29":-0.15400154280460743,"30":-0.055120730779690943,"31":-0.09755771392881868,"32":-0.09742953956068894,"33":-0.19499054558075188,"34":-0.0735246605877028,"35":-0.00865378395785164,"36":-0.0734986502251514,"37":-0.0965329594150431,"38":-0.021168381365634394,"39":-0.15190189349249908,"40":-0.07316505900465572,"41":-0.15027686238542715,"42":-0.05391908043050341,"43":-0.014883643124786327,"44":-0.117633045082653,"45":0.026434320445252298,"46":0.030170791398315484,"47":0.033299140065854556,"48":-0.011426322117641542,"49":0.06068659725716773,"50":-0.003618147011340752,"51":0.08354241962803383,"52":-0.12206501919144706,"53":0.0998229659295632,"54":0.06280384661141794,"55":-0.06968651563437105,"56":-0.21767675229844022,"57":-0.22807533065815155,"58":-0.0562558036537077,"59":0.032225042723889895,"60":-0.054165020949029495,"61":-0.03530130912135395,"62":-0.03159583564739813,"63":-0.037786155033188724,"64":-0.29629265625210377,"65":-0.1494661562022216,"66":0.020873630470024402,"67":0.1465729069634343,"68":-0.16011799966718482,"69":-0.12460671470721538,"70":0.04254437498956248,"71":0.12057241514479031,"72":0.0618856965761058,"73":0.14797331650223736,"74":0.042082295807000465,"75":-0.1880370294566175,"76":-0.06058245428769429,"77":-0.1329192551478096,"78":0.12327348176659181,"79":-0.005364628496729704,"80":-0.08001657588765068,"81":0.003747420936419929,"82":0.06935676347964666,"83":-0.006574742248689817,"84":0.1638021851558683,"85":0.31336297341611213,"86":-0.02938546990448296,"87":-0.014204529237934275,"88":0.10636985296732704,"89":0.21613445404031112,"90":-0.01822462446746479,"91":0.14320343619459558,"92":-0.06951857126049896,"93":-0.0022624228812709373,"94":-0.16220824475605355,"95":0.027307295745176322,"96":0.06408424625801923,"97":-0.0049213070517816135,"98":0.01303121124417455,"99":-0.02761838497360483,"100":0.0613212767899094,"101":-0.2593195549018415,"102":-0.07723093068794598,"103":-0.014457372393394945,"104":-0.06055700822808156,"105":0.01758382422115481,"106":-0.11952389589233389,"107":0.26085227481242645,"108":-0.1375388856487193,"109":-0.08674995706110795,"110":0.014328124829636942,"111":0.013513423436715464,"112":0.006295182373624906,"113":-0.05048187883570462,"114":0.06042226388154469,"115":-0.06509636800577043,"116":-0.03734310043190037,"117":-0.05829291925987739,"118":0.04380634045483716,"119":-0.06134882604765508,"120":-0.04971271556627729,"121":-0.13705757252171946,"122":-0.1434762950193203,"123":-0.10483492347601378,"124":-0.018693052961815674,"125":-0.06888317224067991,"126":0.18045075773788385,"127":0.15819024892824193,"128":-0.12126829871489478,"129":-0.17883774025267846,"130":-0.08839776656927585,"131":-0.08340273038886685,"132":0.015047054372249445,"133":-0.04663393089405636,"134":0.029840008059247396,"135":0.12395058780229078,"136":0.01828837663313163,"137":0.029132711581782253,"138":0.05462478718771069,"139":-0.11114760476971171,"140":0.11774662530121868,"141":0.016611408727101984,"142":0.047431233034125435,"143":0.10709517965636793,"144":-0.2579887622363128,"145":0.1007795603201608,"146":-0.05535981788754014,"147":-0.15241471853351793,"148":-0.1826653766558757,"149":0.13747760257922925,"150":-0.15557008091622118,"151":-0.046282901527332006,"152":0.04621956532496564,"153":-0.19636238590881439,"154":0.12854557039660966,"155":-0.06924744120570345,"156":-0.024303223653795142,"157":-0.15305017661443,"158":-0.2723648986996236,"159":0.1799967241416248,"160":-0.10860860968741644,"161":0.00678523343238368,"162":-0.08545977187547178,"163":-0.08163835720618624,"164":-0.01836801499108901,"165":-0.25050359456185356,"166":-0.1528377466653844,"167":0.06465951548087932,"168":0.000023030010752809045,"169":0.07910186838827939,"170":-0.057882094061897406,"171":-0.05188428997697689,"172":-0.20567853099924757,"173":0.004080456655943906,"174":-0.05885765798870889,"175":0.05198258503323938,"176":0.014946481127528204,"177":-0.07708575347415363,"178":-0.1660888257317578,"179":-0.19045522818624916,"180":0.1844384835471716,"181":0.04947493036376982,"182":0.05525740759216518,"183":-0.11785940632005629,"184":0.08441604531418422,"185":-0.06760256541817661,"186":0.006187100555050573,"187":-0.03228098973816591,"188":0.089507781463881,"189":0.08047531433079011,"190":0.04269397965395967,"191":0.16173050563672026,"192":0.014486721772156869,"193":-0.1601604102034072,"194":-0.06079171173680908,"195":-0.03306439290943864,"196":0.1959638912407289,"197":-0.06597935169790116,"198":0.1261739554358858,"199":-0.08865454710724989,"200":-0.18854964554155937,"201":0.12035069925550476,"202":0.11864085125419038,"203":0.048562305971728226,"204":-0.11158419462456245,"205":-0.024087905859757223,"206":-0.04560698652131987,"207":0.06467270248694228,"208":-0.07697370650946384,"209":-0.0815860039041845,"210":0.03075691247737445,"211":0.065270844287055,"212":-0.10287397300876622,"213":0.03139867276626043,"214":-0.00657990996442345,"215":0.03077206869908267,"216":-0.2238835358488669,"217":-0.20424646355630593,"218":0.022175224924966028,"219":-0.09015475623998243,"220":0.0535050784114369,"221":0.09234528175567268,"222":0.0178285345799705,"223":0.13781083881347678,"224":0.12785357232696198,"225":0.037133386283784695,"226":-0.014409838112155399,"227":-0.050026374989424575,"228":0.000466722336815889,"229":-0.020735151768373778,"230":0.027749111157988463,"231":0.0299049577874684,"232":-0.15310512120941286,"233":-0.017233605117794367,"234":0.00024151356942023303,"235":-0.05444570892374779,"236":0.18056001337575484,"237":-0.003003754125096002,"238":-0.13283348971805256,"239":-0.1309869547122619,"240":0.0512489975192018,"241":-0.06556470787104177,"242":-0.1385773319936665,"243":-0.03839130957724361,"244":0.18403595151441207,"245":-0.11290767665621713,"246":-0.09303843092723516,"247":-0.1807796706369887,"248":0.00967528421544636,"249":0.10262598271113701,"250":0.05833563023725342,"251":0.12334144639282811,"252":-0.10453889713913153,"253":0.04084225298456586,"254":-0.044725874526981145,"255":-0.11521800827679286}},{"sx":1,"sy":1,"depth":256,"w":{"0":0.04370762027723814,"1":0.042408914607592385,"2":-0.020191406109481624,"3":-0.0791464015347675,"4":0.10096263040047022,"5":-0.08037088838186657,"6":-0.10851311035922698,"7":-0.0725797704567486,"8":0.02905351902086474,"9":-0.13171306111182837,"10":-0.03966159642657215,"11":-0.05074712252856988,"12":0.04623877816042754,"13":-0.13727372370591212,"14":-0.2183340155555585,"15":-0.124842454063976,"16":0.040603396431395405,"17":0.1261237887325465,"18":0.037138725885820796,"19":-0.14304230090884468,"20":-0.1004506893207933,"21":0.005364614465753045,"22":-0.2069779111511186,"23":-0.0430919354784564,"24":-0.038684291174485644,"25":0.09391995674153389,"26":-0.05030075149242709,"27":-0.23289849853938746,"28":-0.04381571075998453,"29":-0.15843583951610518,"30":0.09183530084500464,"31":-0.1577701539452159,"32":-0.06407113281627605,"33":0.12173967283185518,"34":0.1254879430787102,"35":-0.10551841900797922,"36":-0.0015072064663820411,"37":0.20306489547159,"38":0.035331643818218295,"39":0.09287767290735652,"40":0.04216345131642328,"41":0.0867212319472407,"42":0.041185683888453686,"43":0.2089773461169972,"44":-0.1460318158795365,"45":-0.22190147533384744,"46":0.10600162951267418,"47":0.060929014501478175,"48":0.023451223045280706,"49":0.08631667800979216,"50":-0.03335274046831621,"51":-0.05048368973431161,"52":-0.02088571040939199,"53":-0.007766034828096187,"54":0.05002827898004903,"55":0.23555135721244402,"56":0.09776506410856257,"57":0.1149522960498601,"58":-0.16593700516637772,"59":-0.020606262462467908,"60":-0.01224421756539684,"61":-0.008730727495495083,"62":0.06368936302346162,"63":0.166272852680442,"64":-0.13989792588004324,"65":-0.014373141992031324,"66":-0.08843064799214861,"67":-0.12449879426952724,"68":-0.2810165602753167,"69":-0.0708217205033586,"70":-0.14916284408422478,"71":0.03804525812867656,"72":-0.12212569037056907,"73":-0.13578170541682102,"74":-0.08281975490448706,"75":-0.01793936373701082,"76":-0.023057330152109593,"77":0.02216217783411051,"78":-0.1308039969267506,"79":-0.17431847544827672,"80":-0.1504749320764871,"81":0.10544324360747896,"82":-0.07813368799611682,"83":-0.2144097840201945,"84":-0.13217434439855358,"85":-0.09243623296014677,"86":-0.09949120525887321,"87":-0.10326242086271857,"88":-0.23913651947550255,"89":0.07238798857711676,"90":-0.10918214512651148,"91":-0.020826809317524227,"92":-0.02285411299788718,"93":-0.12373754782116193,"94":-0.01546995477274858,