{"layers":[{"out_depth":1,"out_sx":24,"out_sy":24,"layer_type":"input"},{"sx":5,"sy":5,"stride":1,"in_depth":1,"out_depth":8,"out_sx":24,"out_sy":24,"layer_type":"conv","l1_decay_mul":0,"l2_decay_mul":1,"pad":2,"filters":[{"sx":5,"sy":5,"depth":1,"w":{"0":-0.12192099138097716,"1":0.20630873375345388,"2":0.20770681050077514,"3":-0.025090854479478585,"4":-0.16701290591340384,"5":-0.20391694628241921,"6":0.2379960877940519,"7":0.09721721720260115,"8":-0.05442719619459597,"9":-0.15036594511917623,"10":0.013883770971401439,"11":0.21192160714619196,"12":0.1412759002151114,"13":0.03605407055798568,"14":-0.5043072379006608,"15":0.14324569690272068,"16":0.3190583476178301,"17":-0.4154802741088643,"18":0.14983923352441716,"19":-0.3422543439048684,"20":0.3073990922776782,"21":0.2771496332895938,"22":-0.3090691482159328,"23":0.02089412192904099,"24":-0.31213748781512657}},{"sx":5,"sy":5,"depth":1,"w":{"0":0.10058493237117358,"1":0.036368546098568835,"2":-0.25261907362003033,"3":0.07480146381975414,"4":-0.07533339767993306,"5":0.006487127838025378,"6":-0.12482888600124424,"7":0.18490101797183797,"8":-0.029876028138855194,"9":0.10553773731687084,"10":-0.3674855662379826,"11":-0.20588504865368204,"12":-0.20356548611043318,"13":-0.02871649223634227,"14":0.5415375746117584,"15":-0.1974640566896328,"16":-0.26004875591633947,"17":-0.004545198211851245,"18":0.0018897475469171307,"19":0.255268828137382,"20":-0.28885049321903156,"21":-0.06022566712481088,"22":-0.04821292465233214,"23":0.6183347086661826,"24":0.005323233091961174}},{"sx":5,"sy":5,"depth":1,"w":{"0":0.4777683516589535,"1":-0.24627134755312616,"2":0.23499896924241312,"3":0.26418297827235604,"4":-0.09683931940718085,"5":-0.06283814182228277,"6":0.2467961374497546,"7":0.08633468276324621,"8":0.03135529081624748,"9":0.213701619783864,"10":0.414803240010208,"11":0.1910428485969126,"12":0.12136204773754405,"13":0.27486312656570117,"14":-0.27938445413321156,"15":-0.030280048486366576,"16":0.2004108888000014,"17":0.17318699450797523,"18":0.07896055843494776,"19":-0.02145507942151988,"20":0.21015725498475318,"21":0.2961372095305113,"22":0.2782463679866222,"23":0.13390721746147172,"24":-0.04693851425606876}},{"sx":5,"sy":5,"depth":1,"w":{"0":-0.07038269072652727,"1":-0.03676880008456015,"2":0.2564634436059463,"3":0.29277689168610194,"4":0.40156038656121074,"5":0.20950422664110802,"6":0.4008977272252269,"7":0.23619554530759349,"8":0.19585344465075855,"9":0.28397595177271295,"10":-0.1446755479407599,"11":0.09111113369516274,"12":0.00896786474416658,"13":0.21849480136523736,"14":0.3037718625702462,"15":-0.16032487073850063,"16":-0.3559192405487651,"17":-0.163921419408713,"18":-0.01888637848287202,"19":-0.3732199695437927,"20":0.02300938927137331,"21":-0.28532430862230446,"22":0.005299022895916812,"23":-0.14257906595579373,"24":-0.13949345502971913}},{"sx":5,"sy":5,"depth":1,"w":{"0":-0.22388134220194286,"1":0.5442058830090652,"2":0.38241436575290294,"3":0.19122106789413643,"4":0.3165376152409185,"5":0.2936262780012375,"6":-0.14759281974707716,"7":0.19975801312253375,"8":0.038833323049566715,"9":-0.18362046078216213,"10":0.13095741512976752,"11":0.1414444979622322,"12":0.3505279547923254,"13":-0.04514510562467053,"14":0.3478054269291906,"15":0.2490236755960192,"16":0.43834506663360034,"17":0.25744766764126,"18":0.2428096786104103,"19":-0.04822195334409818,"20":0.048383827510803626,"21":0.3253242695159457,"22":0.33745120432117764,"23":0.32959249054843237,"24":-0.22372108920086717}},{"sx":5,"sy":5,"depth":1,"w":{"0":0.19397505156955513,"1":0.05313903425236271,"2":0.2880152609424448,"3":0.2179463721327568,"4":0.3530256887547805,"5":0.1171472929114899,"6":0.0978489291643848,"7":-0.1799852123191412,"8":0.15224307883309293,"9":-0.18062789725028738,"10":0.010577974072665804,"11":-0.2608660364700962,"12":0.001047962314408811,"13":-0.2741862396431515,"14":-0.14885239445728807,"15":-0.008072201576679035,"16":-0.15866827733497735,"17":0.0715032050664284,"18":-0.3353260696611767,"19":-0.18575125945899684,"20":0.32548345477864893,"21":-0.13058835569237226,"22":-0.16923753728228572,"23":-0.043066018970782285,"24":-0.05373872194553249}},{"sx":5,"sy":5,"depth":1,"w":{"0":0.15348206201079767,"1":-0.03261863342540412,"2":0.12522728953770895,"3":-0.06228400030225065,"4":-0.3128423508975708,"5":0.04388822601317387,"6":0.08582720483342471,"7":0.05206356920508458,"8":-0.16847909044469023,"9":-0.058087764854074464,"10":0.23274156698859205,"11":0.19048520680698477,"12":-0.08785516018291167,"13":-0.22699747788791186,"14":-0.3314726365627277,"15":0.5023690870680899,"16":0.3483180678215396,"17":-0.15546168237159316,"18":-0.4443848366212992,"19":-0.22704129870359938,"20":0.21371216059006864,"21":0.19426147919641795,"22":-0.46488978153372046,"23":-0.11595130508261421,"24":-0.419621866483673}},{"sx":5,"sy":5,"depth":1,"w":{"0":0.2704893164688006,"1":0.16292391365326625,"2":-0.11046047375722583,"3":-0.12732825784865046,"4":-0.030177895742081438,"5":0.1151167760524827,"6":-0.4334323214780832,"7":-0.12115943413259839,"8":0.19934597120177097,"9":-0.12693851639703874,"10":-0.01380449919518917,"11":-0.017982709226124962,"12":-0.0730405445373328,"13":0.29276092298921563,"14":0.2346736336081469,"15":0.015669405703474408,"16":0.6705488690630549,"17":-0.0033116350923278527,"18":0.1687418812065925,"19":0.30876954707064463,"20":0.14814127778119432,"21":0.2509633259684538,"22":0.2810815145559217,"23":0.2127647825360297,"24":-0.005563782836781709}}],"biases":{"sx":1,"sy":1,"depth":8,"w":{"0":0.1216468117582312,"1":0.056704946387869326,"2":0.024890206262677038,"3":0.07504068270738651,"4":0.019872597504109767,"5":0.1432514276152821,"6":0.1519164858881279,"7":-0.00800170761980562}}},{"out_depth":8,"out_sx":24,"out_sy":24,"layer_type":"relu"},{"sx":2,"sy":2,"stride":2,"in_depth":8,"out_depth":8,"out_sx":12,"out_sy":12,"layer_type":"pool","pad":0},{"sx":5,"sy":5,"stride":1,"in_depth":8,"out_depth":16,"out_sx":12,"out_sy":12,"layer_type":"conv","l1_decay_mul":0,"l2_decay_mul":1,"pad":2,"filters":[{"sx":5,"sy":5,"depth":8,"w":{"0":0.0069543967412700755,"1":-0.01376588722775697,"2":0.11248778503909301,"3":-0.04522973452579237,"4":0.031721337008224236,"5":0.01280667953067461,"6":0.09763271887189004,"7":-0.04433744114159848,"8":-0.0996801210455233,"9":-0.059723227670692124,"10":0.05945803877086635,"11":-0.03274833331558652,"12":-0.014276711031459569,"13":-0.041865260980541746,"14":0.0447757139079545,"15":0.028727405036021583,"16":0.00334550646441651,"17":-0.032609094581261384,"18":-0.014102380816106487,"19":0.09037615044449818,"20":-0.14965296232347822,"21":-0.006130509034119518,"22":-0.00981812431229866,"23":0.04191068541916846,"24":0.08111684358499115,"25":0.033378316574480614,"26":-0.03822984195390546,"27":-0.061320074894707303,"28":0.035967056045674836,"29":0.024316509529484213,"30":-0.07595296281082348,"31":-0.10954034168219873,"32":0.10523958389368578,"33":-0.01505599996032553,"34":-0.08622819565076906,"35":-0.15699239763038877,"36":0.03866561146350807,"37":0.05616163213979238,"38":0.004824519599221458,"39":-0.04376265805146705,"40":0.0693438231863102,"41":-0.04810251662958104,"42":0.027554191566287144,"43":-0.006171083309468386,"44":-0.11761797984965768,"45":-0.008952247650523104,"46":0.06229046783184955,"47":-0.03647458362790287,"48":0.10580218274225049,"49":-0.009101740562158771,"50":0.0923670529962053,"51":0.025385015159303432,"52":-0.08108159834518734,"53":0.03649656374860852,"54":-0.10044842699786477,"55":-0.14378204791484855,"56":-0.0034958786271202347,"57":-0.021221058475910208,"58":-0.027132382588779154,"59":0.016071351536798267,"60":-0.021978133849051663,"61":-0.12382079289028831,"62":0.09032222565295252,"63":0.12795383739745106,"64":-0.10722499425548422,"65":0.03179077908103164,"66":-0.09703167943963789,"67":0.008443310766346761,"68":-0.03635129208420254,"69":0.07036299875738819,"70":0.14303560537138002,"71":-0.02050295935455042,"72":-0.09047873254269372,"73":0.13233688755156348,"74":-0.008421789105314817,"75":-0.11452122562642614,"76":-0.023973103589480755,"77":-0.05212991443854938,"78":-0.012443325231077945,"79":-0.0366805476382335,"80":0.007372409821866635,"81":-0.11344502563338607,"82":0.06989192745434301,"83":-0.04575604845908881,"84":-0.057735876503125144,"85":-0.03482311499523305,"86":-0.0477916510609843,"87":0.030352377591116333,"88":0.01406900339257212,"89":-0.16400075451798118,"90":-0.003998597579377059,"91":-0.10841661497096552,"92":0.08363553027109219,"93":0.03987238382417405,"94":0.003978219095476805,"95":-0.007117099166615649,"96":0.03934797295475504,"97":-0.0015928337846421161,"98":0.1199517617076404,"99":0.0727607100944198,"100":-0.12479382731173642,"101":-0.043837227672362505,"102":-0.05091066381244482,"103":-0.10832438490667375,"104":-0.0655673567038737,"105":-0.03436221319636606,"106":-0.027011157805836357,"107":-0.028038753156933705,"108":0.019297578527931326,"109":0.036750520148486954,"110":0.009092796046594557,"111":-0.011151255303984994,"112":0.0236872213848211,"113":0.06422910056084909,"114":-0.11923009518862979,"115":-0.04020519595950234,"116":-0.015522916863856076,"117":-0.14044152003135238,"118":0.023893292980564213,"119":-0.1721070536543459,"120":0.007269960730794859,"121":-0.02663793545462416,"122":0.016774870161645968,"123":0.05936358974314746,"124":0.08215683929689702,"125":-0.0631577235552851,"126":0.029215866149312694,"127":0.08757981797095692,"128":0.09286280146030161,"129":0.011925653996720933,"130":-0.09820371437841516,"131":-0.09278209572389015,"132":0.12776529592550448,"133":0.007308675524896046,"134":0.06872204142510666,"135":-0.06433863269123141,"136":0.05267076418369,"137":0.03207297938971863,"138":0.08987937378270121,"139":-0.04587085458111172,"140":0.004965517007735533,"141":-0.04573517615128383,"142":0.07912054642070307,"143":-0.06621736943540829,"144":0.06874737007333755,"145":0.0894010106121557,"146":0.007747086504460344,"147":-0.07894111578988276,"148":-0.028060796378647827,"149":-0.09471292860220154,"150":-0.051576719717329585,"151":0.012640431947917766,"152":0.14169913720126526,"153":-0.0719984264186622,"154":-0.022840423588611127,"155":0.08647505864942938,"156":0.03447054704129237,"157":-0.15085724290087363,"158":-0.013327032529729048,"159":0.013854493933323078,"160":-0.008892746222064665,"161":0.10173546460265487,"162":0.08087113935188489,"163":0.045504120058965224,"164":0.025700159831491397,"165":0.12297587217919546,"166":0.08655611466207049,"167":-0.008439266733465137,"168":0.0877039861652369,"169":-0.12225669824934242,"170":0.017971372346467302,"171":-0.04971497847161137,"172":-0.02372042270626168,"173":0.0946044359533254,"174":0.043698755990510346,"175":0.10162917360366254,"176":0.04577907343412271,"177":-0.004862994473905953,"178":-0.045003730098016496,"179":-0.04622135418184042,"180":-0.028634916166724488,"181":0.00835906716095533,"182":0.09949094272577744,"183":0.05386968418511494,"184":-0.015588313011898555,"185":-0.054540348284156964,"186":0.024555343271684592,"187":-0.038859160770667193,"188":-0.025470596098233857,"189":-0.05534380071093076,"190":-0.04753651229773598,"191":-0.15334209473281843,"192":0.11653370284005335,"193":0.06653183664371896,"194":0.059968735766837186,"195":-0.04942422972547635,"196":-0.05463000188198328,"197":0.017034703302608357,"198":-0.008908222725612546,"199":-0.046850508226164045}},{"sx":5,"sy":5,"depth":8,"w":{"0":0.024997337361411808,"1":-0.0480509403396073,"2":-0.12599324413737592,"3":-0.10344967149366786,"4":-0.057314301237798,"5":-0.01414355997647947,"6":0.011197930579832037,"7":0.0236660000985785,"8":-0.0568810060361842,"9":0.04863871118873833,"10":-0.016625189188735255,"11":-0.060867473441065086,"12":-0.10440732158264532,"13":-0.05714040826155286,"14":-0.03887414256188533,"15":-0.07052048660976563,"16":0.006432129769801602,"17":0.07133194183917616,"18":-0.07331008966931256,"19":-0.1009442638557799,"20":-0.1491394354238224,"21":-0.14909046884500643,"22":-0.03291755182475819,"23":-0.17346568869579068,"24":-0.053777213900273735,"25":-0.057480415297685473,"26":0.020334710564338464,"27":-0.18870607689291297,"28":-0.02949941050751262,"29":-0.0880723627879592,"30":0.005844474180016797,"31":0.013876191921076229,"32":0.13825710187118032,"33":0.02336981065845234,"34":-0.01793764551542113,"35":0.025494106104315573,"36":0.1520060931162545,"37":0.030134915380922556,"38":-0.041931211403271926,"39":-0.02084776981710889,"40":0.019413064077629456,"41":-0.09847008142423672,"42":0.06808165996083582,"43":-0.017711999397789502,"44":0.032955659494430925,"45":-0.013678716355230228,"46":0.09416725210325502,"47":0.09442260334404085,"48":0.00797403184175817,"49":0.0075053495457805975,"50":-0.060906098190230316,"51":-0.01565703571338732,"52":0.04393210342984544,"53":-0.038057201927475436,"54":0.13486049536057773,"55":0.05488234641494437,"56":0.026273033958896616,"57":-0.021336159332406516,"58":-0.07776976002814469,"59":-0.02727266270482925,"60":-0.12669998231422128,"61":-0.03416174708645148,"62":0.049700073949027264,"63":0.018636802992161375,"64":0.025313707797324954,"65":0.022420873545442744,"66":-0.08796217443321414,"67":0.07084412193856347,"68":-0.05304570014764925,"69":0.05632815081561241,"70":-0.045217444247041515,"71":0.06475272726988443,"72":-0.011343872221643042,"73":-0.1292872640830244,"74":0.11777079148729852,"75":-0.12984903702991651,"76":0.08414525707947218,"77":0.12816435372450694,"78":-0.013930152939928173,"79":-0.015751247444687776,"80":0.05784084945210512,"81":0.06450006881602315,"82":0.2239984245219707,"83":-0.034330422376261494,"84":0.008423151094922062,"85":-0.02328727661847841,"86":-0.024803175586570903,"87":0.07817079242735572,"88":0.09884835952617281,"89":-0.14455207759367597,"90":0.011727006806424302,"91":-0.1118639487001955,"92":0.1376474321896695,"93":-0.046494015537780924,"94":0.04879451726777316,"95":-0.08425944003804005,"96":-0.06681482395817295,"97":-0.06717639104761394,"98":-0.054279167504880405,"99":-0.13243769907432493,"100":-0.10207691924032551,"101":0.06178627133348864,"102":-0.06001116455001952,"103":-0.09121788673102996,"104":-0.03149958835884086,"105":-0.01815945386356596,"106":-0.04457058330574698,"107":-0.02023457746837711,"108":-0.029063502313169714,"109":-0.16970964532507612,"110":0.049798785169238656,"111":0.10339277271919181,"112":0.0032374140838974646,"113":-0.06612640025936041,"114":-0.008497036884185162,"115":0.015065689444747319,"116":-0.006078654876599568,"117":-0.18184951915293923,"118":-0.1160090090570846,"119":-0.12763438401612273,"120":0.020835300022007307,"121":0.02656785852273067,"122":0.037354016335417836,"123":-0.04038036829510172,"124":0.09688260951203768,"125":0.024058936860741162,"126":0.22285143118081566,"127":0.09193510136908951,"128":0.0429341210902914,"129":0.00670863188364699,"130":0.04533399231535879,"131":-0.09181259468307389,"132":-0.08739923712819841,"133":0.03692531642278275,"134":0.13892000424503506,"135":-0.027399574785816005,"136":0.1164852994848975,"137":-0.052238366431594664,"138":-0.035828447924290935,"139":-0.0033428116737506683,"140":-0.009434118597643038,"141":0.06950332697720064,"142":0.028301499367916837,"143":-0.010303517647791097,"144":-0.002604842341605403,"145":0.07218483046145403,"146":-0.05404088359787869,"147":0.010070924711531372,"148":0.03690902194478576,"149":0.011800521150815507,"150":0.060316233030708356,"151":-0.1120638902385265,"152":-0.0915895664835709,"153":0.18346781971155057,"154":-0.1202204130343789,"155":0.09609418465665354,"156":-0.0436326709049164,"157":-0.006018578437163668,"158":-0.0392039424453359,"159":0.0197239591486435,"160":0.08277031560117908,"161":-0.18827643456086168,"162":-0.015589509831795413,"163":-0.037181488798966975,"164":0.09200980695437092,"165":-0.08817263749147954,"166":0.14091830374082354,"167":0.10737642438598582,"168":0.10962795135608024,"169":0.07536647410598703,"170":0.14020964619443158,"171":0.04019665909046238,"172":0.05212066653586074,"173":0.021818890282129848,"174":0.05401114863331556,"175":-0.06609488930313205,"176":-0.0623399392468243,"177":-0.009343652519348343,"178":-0.041948076199780526,"179":0.02848518205796893,"180":-0.1826783640831701,"181":-0.08990766617076622,"182":0.08984240609037637,"183":0.10548433043247281,"184":0.09752278820253477,"185":0.02416782958275,"186":0.08742823713322945,"187":-0.0373242068647816,"188":-0.058416020940668376,"189":-0.004374437007909295,"190":-0.12855471138715044,"191":-0.14403416665746838,"192":-0.06900981226173958,"193":0.06592861491716809,"194":0.013662449564543617,"195":-0.08153651353933883,"196":0.1465198557186842,"197":-0.0743057243849777,"198":0.03057719573574935,"199":0.016436852347162186}},{"sx":5,"sy":5,"depth":8,"w":{"0":-0.016635807877438055,"1":-0.18590758519841802,"2":0.018190325907102775,"3":0.08259058857424487,"4":-0.051915971935350816,"5":0.11780398923308821,"6":-0.018583442974375135,"7":-0.10500312979782937,"8":-0.0539844971900949,"9":-0.09030232630506087,"10":0.019145362504390598,"11":-0.09735045217617376,"12":-0.0378842774663906,"13":0.09394529164930317,"14":0.008352814421539151,"15":-0.13747700662889198,"16":0.1081274109437011,"17":0.012414373946358994,"18":-0.020133194558719203,"19":0.09527334583794092,"20":-0.07497777738540927,"21":0.10113551056853837,"22":-0.020029603886431623,"23":0.10844051701840951,"24":0.10895892885930857,"25":-0.008213687925154707,"26":-0.010723400383080834,"27":-0.13161966764318375,"28":-0.20168292828122214,"29":0.04305007935926245,"30":-0.08241212109548218,"31":-0.0912881834642832,"32":0.009214012197641598,"33":0.06162799019949096,"34":-0.06025443845415886,"35":-0.04667242033589225,"36":0.04635327578886119,"37":-0.028901864022012117,"38":-0.01273007666276378,"39":0.022945860127729777,"40":-0.08402700004329325,"41":-0.03705499341261143,"42":-0.05225756365930842,"43":-0.01905560683974463,"44":-0.05405399271018848,"45":0.03760191037193324,"46":0.060153267951659754,"47":-0.1720170920201945,"48":0.2100831835729995,"49":0.05657097624368835,"50":-0.06426542943910869,"51":0.027349111060755427,"52":-0.07245743154524734,"53":-0.12277112627740949,"54":-0.008810466495578921,"55":0.037415573995254206,"56":-0.05845284439389274,"57":-0.17728471728057973,"58":0.04285216043699492,"59":-0.015853582466068977,"60":-0.0650387565609726,"61":-0.10427779761898863,"62":0.03769734179264525,"63":-0.018711646539125146,"64":0.012539448171641732,"65":0.06221514837828524,"66":-0.10487454106445881,"67":-0.11424353032816097,"68":-0.021578476168551415,"69":-0.04521892595521197,"70":-0.0348237237517462,"71":0.009174726892671358,"72":-0.14196771575174919,"73":0.013101981862186017,"74":-0.08449825903414623,"75":-0.1328525778231525,"76":0.006219412261298866,"77":-0.08001529939543385,"78":0.12662059072316323,"79":0.07491089152894187,"80":-0.03942422478014837,"81":-0.024056591380194052,"82":-0.03819648058018059,"83":0.02662744802389897,"84":0.0062865627962322675,"85":-0.053766917124511746,"86":-0.0038038365033045427,"87":-0.1619516827645822,"88":0.04258257215694369,"89":-0.045187965097847595,"90":0.0006612551490056334,"91":-0.0746893298178744,"92":0.10608703622742581,"93":0.031060470798763676,"94":0.0055306967555676925,"95":0.004745604744631333,"96":0.01511148555612838,"97":-0.06770192641320534,"98":-0.04176778843749048,"99":-0.02384408284712418,"100":-0.008580521463820844,"101":-0.06923447244092724,"102":0.07487409335205159,"103":0.010082299626240314,"104":0.020090510776380802,"105":0.08574938595467223,"106":0.0890870079561601,"107":-0.06616119794808423,"108":-0.015222189342620856,"109":-0.10928003409192467,"110":0.0022693211871973075,"111":0.08393784516706204,"112":-0.014853096492337474,"113":-0.03726890780296423,"114":0.021612274446335084,"115":0.1171061134700204,"116":-0.024233532316271067,"117":-0.07527072043569731,"118":-0.0300934733317862,"119":-0.06711348311904632,"120":-0.059872078321319924,"121":-0.059756277689874016,"122":0.029579080735861008,"123":0.06318030749981558,"124":0.03439436180800744,"125":-0.14711171204143064,"126":-0.06682835068692516,"127":0.13289570442793883,"128":-0.0963651583795827,"129":0.025927654057243277,"130":0.06586458209000623,"131":-0.0482134710679083,"132":-0.03680253851519037,"133":0.09484966476198592,"134":-0.04921509061632512,"135":-0.036235593120497664,"136":-0.07002288935650262,"137":-0.07598582937677412,"138":0.031198651384926352,"139":0.001264025143433927,"140":-0.010953097491158534,"141":0.03356909475350386,"142":0.07710679568391889,"143":0.04888260560374129,"144":0.09576833126494326,"145":-0.12157023048334567,"146":0.10687242542117248,"147":-0.04460580031367936,"148":-0.07995552639733441,"149":-0.013434758528440569,"150":0.10392445957797819,"151":0.11983791113377337,"152":-0.037813132362955665,"153":-0.10074049684352845,"154":-0.10721390392012257,"155":-0.06472769973661592,"156":0.07842953942944941,"157":-0.003006002903753094,"158":-0.05070547778025683,"159":0.0022572527316289,"160":-0.03219561015292211,"161":0.07077803041366797,"162":-0.04922577166480703,"163":-0.05680680860572801,"164":0.04307122421958678,"165":0.10857649962953492,"166":-0.021444039756892838,"167":0.07641706024306906,"168":-0.043582202720035254,"169":0.09412218564560212,"170":0.055870346384835824,"171":0.03565054222520241,"172":0.20578187114386123,"173":-0.19339069394661895,"174":-0.031899642429506166,"175":0.05305292146041145,"176":0.13446969924956922,"177":0.07709985250596431,"178":0.010442768623540797,"179":-0.054510389011795245,"180":0.04231877043689705,"181":-0.10478336061073637,"182":-0.02522931699885613,"183":0.09651463856604618,"184":-0.03717634781765673,"185":-0.0365575597861928,"186":0.08722050419192265,"187":-0.06651576518057878,"188":0.020447784034477126,"189":0.13809453376763056,"190":0.04731761260906344,"191":0.005653266697835449,"192":0.14333470176287513,"193":0.015278440475684935,"194":-0.04366922349328473,"195":-0.18958265500407312,"196":0.07406082719133703,"197":0.07433464943345214,"198":0.02953115798810588,"199":-0.08982142714948517}},{"sx":5,"sy":5,"depth":8,"w":{"0":-0.039486286264498995,"1":-0.06916852158719948,"2":0.06787335658445431,"3":0.1112603609051058,"4":0.06357286357459072,"5":0.017289585712630513,"6":0.013162908748333178,"7":-0.09732704604804168,"8":-0.023840529674971106,"9":-0.08144483853619865,"10":0.03195753313923099,"11":0.11107454694820433,"12":0.06288098116376799,"13":0.0017276318765316867,"14":0.04345448546325508,"15":0.019087977718802076,"16":0.10590813642568173,"17":-0.06675441220494836,"18":-0.02293665508418837,"19":-0.12901083806843153,"20":0.024767674653994886,"21":0.06226558794850176,"22":-0.025199936799951982,"23":-0.18919893031336874,"24":0.005917605031765213,"25":-0.0706510061427168,"26":0.13198163358586035,"27":-0.09735771291125787,"28":-0.06937518803117149,"29":0.08466395727966651,"30":-0.06606131223116825,"31":-0.08125033913752816,"32":-0.015848855845929072,"33":0.1254750244074368,"34":0.038535649963791926,"35":0.04519912366990511,"36":0.05823256697189012,"37":-0.04703970947174317,"38":0.17548680127028296,"39":-0.06978185626001958,"40":-0.0848312960921261,"41":-0.08728443595535992,"42":-0.05595661651186841,"43":0.10264640598720376,"44":-0.0946847469995263,"45":-0.03577183431467692,"46":0.009998063073804277,"47":-0.027282805151234664,"48":0.00045948301240975216,"49":-0.02348481847020832,"50":-0.04903688910515255,"51":-0.023941863155393556,"52":0.02155093266101668,"53":0.04028969951002108,"54":0.04681235056837443,"55":-0.018038231230570967,"56":-0.018068917813852385,"57":-0.03131389296790953,"58":-0.05750677810200427,"59":-0.035771105177112315,"60":0.04878097980880288,"61":-0.027668722836741107,"62":0.04548028707788951,"63":0.02635686491938232,"64":-0.07561610968193423,"65":-0.0261608485775652,"66":-0.03132949711968158,"67":-0.031303708983525365,"68":-0.07591006089815223,"69":-0.03775011664915954,"70":-0.027477620666253533,"71":0.01207118061221695,"72":-0.001301610937635507,"73":0.18466476545385313,"74":-0.028311089669714937,"75":0.034651792208913845,"76":-0.021354571655542783,"77":-0.04778412482113018,"78":-0.10084245109060556,"79":0.05073389519884895,"80":0.13094592634329894,"81":0.07083004262705352,"82":-0.07616734243822704,"83":0.03017621009341834,"84":-0.03310748807898576,"85":-0.03312484168509121,"86":-0.03973931972401543,"87":0.020039888572456855,"88":-0.08267464891930373,"89":0.03914567649178362,"90":-0.025770013536767656,"91":-0.011232798970318673,"92":-0.005798004718849493,"93":-0.1410498644945632,"94":-0.08537015490472388,"95":0.08551734096857048,"96":-0.1555569253940282,"97":-0.16348781712819943,"98":-0.1514755639747851,"99":0.006791201387278254,"100":0.006568257093823037,"101":-0.07745487570505805,"102":-0.019020880007233384,"103":-0.034433231021775694,"104":-0.009147085907714887,"105":0.006482972227865595,"106":-0.034292077962256924,"107":-0.08670746146832908,"108":-0.06473686950592261,"109":0.0027984366214496587,"110":0.03249651577602652,"111":0.005118912030751847,"112":-0.0797723474810825,"113":0.1322661271397911,"114":-0.01278393878129499,"115":0.05961509394412439,"116":0.05115260966732122,"117":-0.17952225358966675,"118":-0.14023307546848127,"119":0.16421590064262612,"120":0.04247192901404367,"121":0.017707551868229164,"122":-0.12436811652447192,"123":-0.00770202025711917,"124":0.018776038145461423,"125":0.10162482629357178,"126":0.057335262558216825,"127":0.059125062253095356,"128":0.007269716133385439,"129":-0.17008786807829723,"130":-0.1628723082849869,"131":0.0002385510697125396,"132":-0.1503789666549016,"133":0.039481120094383385,"134":-0.07941842123864949,"135":-0.0532740172568722,"136":-0.025482023053938277,"137":-0.01298474091759475,"138":-0.0416642634448289,"139":-0.1696787191964385,"140":-0.12938543504064398,"141":-0.05731593247009426,"142":-0.026255898255645897,"143":-0.01659187965064268,"144":0.026503561951017683,"145":0.09648740074609558,"146":-0.06045126209206006,"147":-0.17683335803907607,"148":0.005077440011075136,"149":0.02352440998283201,"150":-0.026562949343729977,"151":0.07776919196738198,"152":0.03907681932590307,"153":0.19535930051703962,"154":0.1746319225532745,"155":0.13121228978137164,"156":0.16009612608574772,"157":-0.17828150170557303,"158":0.01244591642765868,"159":-0.04522382995744764,"160":0.11178685018782852,"161":-0.056323939910611534,"162":0.012573012537454707,"163":0.13726871354067255,"164":-0.04045525299638639,"165":-0.011483529024620156,"166":0.024454291787015782,"167":-0.025359921104700103,"168":-0.01628472482583114,"169":-0.0438015362263939,"170":-0.024024385090760214,"171":-0.13404938634040783,"172":-0.08117584072180542,"173":0.025979472524743218,"174":-0.01715854138244855,"175":-0.16814032904010812,"176":-0.039927531934598685,"177":-0.009906965475465098,"178":-0.07135597884978401,"179":-0.08471399342238994,"180":-0.0965497431646996,"181":0.04259456249241377,"182":0.001476303896133635,"183":-0.038098629495307276,"184":-0.021041670693226544,"185":0.13812396503582847,"186":-0.04844438061297738,"187":-0.12510089142938424,"188":0.024545916619119326,"189":-0.04791221371722663,"190":-0.07333301810639294,"191":0.017024390412494074,"192":0.10157210555359866,"193":0.13139102325198349,"194":0.19415268387004114,"195":-0.07794165196142115,"196":0.11735667547397557,"197":-0.1247181389192862,"198":0.09018791896820173,"199":0.0016606321782730565}},{"sx":5,"sy":5,"depth":8,"w":{"0":-0.030570198982256113,"1":0.16736861239187212,"2":-0.11951477417820604,"3":-0.08221272285380893,"4":0.041767438411017904,"5":0.037456880562109315,"6":0.020124707123086363,"7":0.028129869200887444,"8":-0.0011483918876177526,"9":0.15534977160033084,"10":0.11606701181902727,"11":0.08805374349809422,"12":0.01826100965351521,"13":0.1065810235673013,"14":0.025605779564192143,"15":-0.01823981435435947,"16":0.30346127291166447,"17":-0.0770953693973761,"18":0.07898570694279547,"19":0.006424541033485502,"20":-0.0002700978376431228,"21":0.015000253919428884,"22":0.09973546270167875,"23":-0.07535439677498892,"24":0.18855403180363625,"25":-0.08724249633659646,"26":0.03451502996075573,"27":-0.19304589021943205,"28":0.07065930059566805,"29":-0.07710148686935003,"30":0.1925344670819884,"31":-0.10919940057473078,"32":-0.06315739437225783,"33":-0.15697502835914276,"34":-0.18752083912803544,"35":-0.243616766973187,"36":-0.08408627785552578,"37":0.02870231623858322,"38":0.1145018630850766,"39":-0.052524899242887016,"40":0.08393154286634846,"41":0.01738288904351111,"42":-0.06497698084657162,"43":0.08085675245456841,"44":-0.07220166595743015,"45":-0.12030086139956629,"46":0.04979278562906243,"47":0.016702752829417803,"48":0.15045319233850232,"49":-0.027513919221987714,"50":0.17775214249592772,"51":-0.02083523075480859,"52":-0.011777614676793783,"53":0.20355557355508405,"54":-0.009633218657613494,"55":0.08804320930282991,"56":0.06748512005820406,"57":-0.07663334179971544,"58":0.05710627448734193,"59":-0.06054709193680188,"60":-0.029811550957876406,"61":0.08580582006744943,"62":0.18070165488469925,"63":-0.0033248438896399638,"64":0.12178119917019226,"65":-0.0768687997017333,"66":0.01430558999316432,"67":-0.17261717689151446,"68":-0.08339543343773284,"69":-0.03199529001974147,"70":0.009855767214376442,"71":-0.1479267875289951,"72":-0.10017146379280135,"73":-0.07712195662970286,"74":-0.08866636404595638,"75":-0.1814118152522418,"76":-0.3330785321714348,"77":-0.058468273574401354,"78":0.171756487541279,"79":-0.17956806409263443,"80":0.0470290518316729,"81":0.16815110525982732,"82":-0.009447550832014272,"83":-0.07206405046391402,"84":-0.02102325966494544,"85":-0.05397521275863881,"86":-0.03370116966662464,"87":0.04653462825795587,"88":0.18907633191619436,"89":-0.008072709791912826,"90":0.018207336020060434,"91":0.016738587614492755,"92":-0.004205257288229241,"93":-0.08177513514674843,"94":0.028575730261964114,"95":-0.07008432065160199,"96":0.04692066814660454,"97":-0.1297069723153285,"98":-0.14835649815465488,"99":-0.13920697592660966,"100":-0.13087482198032813,"101":-0.03203367286024481,"102":-0.01530403375183358,"103":-0.013892681362904353,"104":-0.02959544227627482,"105":0.10856083063804044,"106":-0.15653710779852134,"107":-0.3587515022873986,"108":-0.15979120808888675,"109":-0.08744094731519497,"110":-0.00563854064357675,"111":-0.1673889973185496,"112":-0.05963332798663357,"113":0.2711197253207103,"114":-0.11229763079997998,"115":-0.07680718188380843,"116":-0.12342766954349065,"117":-0.030310857993190634,"118":-0.08467748421869695,"119":0.16299051193048975,"120":0.1382037411868625,"121":-0.09348461366778353,"122":-0.09496355861946212,"123":-0.020661801366094103,"124":-0.015842754434716826,"125":0.06568859876200314,"126":-0.04005163027955829,"127":-0.08140593200207626,"128":-0.08282124460673118,"129":-0.05763602070072955,"130":0.004344117875998803,"131":-0.1470416795725903,"132":-0.04864276908122622,"133":-0.0366966151825594,"134":-0.04580835594055279,"135":-0.08880303882869982,"136":-0.0036631949223684453,"137":-0.10539608016553705,"138":-0.17527638899735284,"139":-0.07324942080711117,"140":-0.09808633955132291,"141":0.0007098359613536666,"142":-0.07017905743029149,"143":0.004738347864097348,"144":-0.02922615456606874,"145":0.002317306210229258,"146":-0.08875054729520725,"147":0.009418741689549688,"148":-0.09061094322035435,"149":0.05001998072546798,"150":-0.10088856347825667,"151":0.056687263103842006,"152":-0.016527241433811225,"153":0.11526960140708173,"154":0.06637083958553304,"155":0.025562136689757188,"156":0.11733752791818165,"157":-0.038884506445105195,"158":-0.18743238673149465,"159":0.17574802314969074,"160":-0.10900040980919809,"161":0.018750813755172617,"162":0.07616445371614279,"163":0.006771680617470846,"164":-0.0006762598548073447,"165":-0.006898994398347154,"166":-0.08739866220694205,"167":0.07322201400483759,"168":0.044912276333313204,"169":-0.1562510038197534,"170":-0.03407667649469243,"171":-0.1466382903500077,"172":-0.10598576979668951,"173":0.0036972600548869907,"174":-0.04053317282072871,"175":-0.07091097553034548,"176":0.0922560029233496,"177":0.1057848717195604,"178":0.019004579683649082,"179":-0.19074022825605594,"180":-0.03430831998196174,"181":-0.027103218845637583,"182":0.030450203551693623,"183":0.1365160631559822,"184":-0.04866251522685641,"185":0.062056201921241325,"186":0.1102972111067273,"187":-0.002410601707325197,"188":0.19240294247251868,"189":-0.11275057182495296,"190":0.1507900889145068,"191":0.12043734759267058,"192":0.1494114770911256,"193":-0.06048853235118113,"194":0.22964291807288958,"195":0.1119963150324406,"196":-0.07084248029182098,"197":0.02466557997158432,"198":0.1449125766179884,"199":0.1510579475918245}},{"sx":5,"sy":5,"depth":8,"w":{"0":0.08039314156827405,"1":0.09277544050838651,"2":0.1316955568378643,"3":-0.0876142795536708,"4":0.035278987859450155,"5":0.05011891083962652,"6":-0.010259986867444799,"7":0.0896433546463367,"8":0.018025784266123196,"9":0.06214680044362757,"10":0.04720644812488262,"11":-0.054136869340600795,"12":0.03870306257568638,"13":0.003906285893936855,"14":0.22229874825450383,"15":0.04687353795835379,"16":-0.07259502965765893,"17":0.07049366172707383,"18":-0.019346094420021134,"19":-0.009547608633254085,"20":0.06991714989844199,"21":0.011958677960170345,"22":-0.03907908879441659,"23":0.18003507990074205,"24":-0.02298230030050596,"25":0.021474264716538616,"26":0.0015435819747321297,"27":0.06946159066989992,"28":-0.03903427496139515,"29":0.09032610115258106,"30":0.07155938159075259,"31":0.04334327768593401,"32":-0.025148739631595328,"33":0.02083091595016021,"34":0.06779656022526169,"35":-0.029855672507593575,"36":0.101714149671833,"37":-0.006822800941741664,"38":-0.1940032756632716,"39":0.02725301826178427,"40":0.09258623667467604,"41":0.07901009649163548,"42":0.051225106770749346,"43":0.02389133734326555,"44":0.13305471238774935,"45":-0.08787009073288377,"46":-0.03374886563189351,"47":0.020698157377383404,"48":0.07548277043984263,"49":0.07502664004687226,"50":-0.15727928768990132,"51":0.18459419923798093,"52":0.05312170561434571,"53":0.0022107062302129917,"54":-0.0010546850472090714,"55":0.057058826948114774,"56":0.033521320368437475,"57":-0.06172590623513379,"58":0.06433952285826271,"59":-0.012789166934541117,"60":0.05273079506505746,"61":0.02200732088138443,"62":-0.1789540603229309,"63":0.10714765706029629,"64":-0.051216215309305944,"65":-0.07196180020800504,"66":0.06381423310082313,"67":0.12562416096799797,"68":0.00212037849386318,"69":0.0025639315593761355,"70":-0.21481900950994265,"71":0.10300701305919861,"72":-0.015152553549734651,"73":-0.09460008490001424,"74":0.04533171319713287,"75":-0.05508124855070122,"76":-0.10785617094743227,"77":0.002618569916343484,"78":-0.05061181205577826,"79":0.018721353123560262,"80":-0.1058449129859692,"81":-0.07863232534475678,"82":0.03620726925336485,"83":0.05226399801010774,"84":0.026611588386156154,"85":0.022429521829754558,"86":-0.15948065353080587,"87":0.10707911824099241,"88":-0.03857359027597524,"89":-0.06127084826477114,"90":-0.10857217190581826,"91":0.096942443580916,"92":-0.040326632104753575,"93":-0.12873987014767613,"94":-0.1367498777612606,"95":-0.06347482337680377,"96":-0.006214416565916391,"97":-0.13285290564275526,"98":0.08386062083617134,"99":0.15920265497138558,"100":-0.0198455051233836,"101":0.14545458817660922,"102":-0.045109846474618895,"103":0.03970801497904508,"104":-0.17853381132643933,"105":0.09347285036743924,"106":-0.04913761748190908,"107":0.11187844085921449,"108":-0.03865683843731686,"109":0.12934816318010786,"110":-0.008890328446165642,"111":-0.047231196591209036,"112":0.11131515172152523,"113":0.13537973452059068,"114":0.13039827268075171,"115":0.015879069251856993,"116":-0.1062072999368304,"117":0.1691216678125363,"118":0.022542860209320514,"119":-0.07964298145173346,"120":0.027411125348905163,"121":0.0376463005399436,"122":-0.04570294591457642,"123":-0.07546317083531891,"124":-0.07121408319206506,"125":0.1005630258611054,"126":0.00671136663114527,"127":-0.10982201176681254,"128":-0.044861552693187555,"129":0.007972054871865752,"130":0.003491785451196208,"131":-0.02744975347631246,"132":0.011563806201435343,"133":0.15787471869024253,"134":-0.11138364436982426,"135":0.011063393463862224,"136":0.027211749764063743,"137":-0.056183191999603505,"138":-0.05070664293048792,"139":-0.005632577951408327,"140":-0.08995292708970505,"141":0.014816754421382859,"142":-0.08896573672234084,"143":0.051260531314576044,"144":-0.002963735407122488,"145":0.0019205616171711205,"146":-0.0841856147052869,"147":-0.03250805978060497,"148":0.017277558460642318,"149":0.032001022490038826,"150":0.14034331023766322,"151":-0.09313537982253896,"152":-0.0927906631523187,"153":-0.11593472894975694,"154":-0.06941917858893558,"155":-0.08261378208862037,"156":-0.011013487591679045,"157":0.008556743427367543,"158":0.1204850649669432,"159":-0.03468684261056802,"160":0.1354077834157409,"161":-0.02563646644029811,"162":-0.05078186496950062,"163":-0.12382182681415208,"164":-0.14732735095624466,"165":-0.11164045809309914,"166":0.051346744032484785,"167":0.06907418087343223,"168":0.020225285216182432,"169":-0.06865551368834902,"170":-0.02699513666248919,"171":-0.18611432016448629,"172":-0.03176672088727676,"173":-0.045297613845374944,"174":-0.12301937469332698,"175":-0.11645446087169682,"176":0.046474455308342266,"177":-0.10762779136245329,"178":-0.0327678457299001,"179":-0.011645185014789538,"180":0.033186993675372936,"181":-0.13240104970343097,"182":-0.11576598126071422,"183":-0.06147835502396964,"184":0.037707286666116654,"185":0.0592595735867622,"186":-0.11031935356356318,"187":0.020207219770059983,"188":-0.0652142314364855,"189":0.019828927736561117,"190":0.04097113908752464,"191":-0.012198789363486472,"192":-0.06240772555960137,"193":0.003952381961565825,"194":-0.06929945858314505,"195":-0.11844049927442321,"196":-0.047064220754744535,"197":-0.0698997915718215,"198":-0.18399044276692325,"199":0.07421928289846141}},{"sx":5,"sy":5,"depth":8,"w":{"0":-0.08325276631033617,"1":0.1102941796145687,"2":-0.04228342776171586,"3":-0.017677546547363206,"4":0.00339214130886156,"5":-0.1989233045656787,"6":-0.15207867382660845,"7":0.12724853994524155,"8":-0.03578067305248474,"9":-0.02692111143782075,"10":0.04825525782945679,"11":-0.015592943214914718,"12":0.1374408130664679,"13":-0.11763504576743217,"14":-0.03556236888820944,"15":-0.0043272354387588995,"16":0.08965934750715202,"17":-0.10262709402294547,"18":0.15605411673265604,"19":-0.0726855742186285,"20":-0.0668870547810164,"21":-0.016870010163960582,"22":-0.15614005737226966,"23":0.03880191168262891,"24":-0.1332042017758113,"25":-0.09301423183969071,"26":-0.00004203890051809531,"27":-0.05888368545981458,"28":0.033893062819574084,"29":-0.13348767958407898,"30":-0.10880237231770545,"31":0.0028914037525776936,"32":-0.055548692982741434,"33":0.02504280446080046,"34":-0.034499358847065835,"35":0.019095300791248784,"36":-0.04045762072644759,"37":0.003755312238363964,"38":-0.013042086213105123,"39":-0.09367883224819765,"40":-0.14100851661474453,"41":-0.07090494963071205,"42":-0.05376476020993005,"43":0.03436500608257976,"44":-0.005326026717419759,"45":-0.02840375385268601,"46":-0.1481425597723498,"47":0.07042422926925093,"48":-0.030166307452518262,"49":0.04632817373975479,"50":0.05253560203017946,"51":0.0818280365573174,"52":0.08115701548795684,"53":-0.11018741845687374,"54":0.007709572627384567,"55":-0.0347883600439189,"56":-0.009178552284712335,"57":-0.0250678006974269,"58":0.17044635833106958,"59":0.1044393115046361,"60":-0.02388394499923272,"61":0.1567312769273433,"62":-0.1693580398223107,"63":0.07430324856362266,"64":-0.17001818582556238,"65":-0.015695942928392638,"66":-0.007368441066469085,"67":-0.1471247067821258,"68":0.0328112859217538,"69":0.05829676586107869,"70":-0.0936814123534485,"71":0.06831918917860569,"72":-0.08294277184719814,"73":0.052643732118595306,"74":0.017631952360329238,"75":-0.08831991278691974,"76":0.04576626008675551,"77":-0.05292993872470331,"78":-0.10100880991331442,"79":-0.033308035939123654,"80":0.02225472768670491,"81":-0.08902111351021078,"82":0.02029108574398209,"83":0.09789877247422786,"84":0.025554623204026076,"85":-0.08835314480340424,"86":0.04578613958487702,"87":-0.12933189082787272,"88":-0.05195907972474415,"89":-0.14217245864720404,"90":-0.05499403776791684,"91":0.06466751813085536,"92":-0.0033062229352183474,"93":0.15851393194841706,"94":-0.03111381682394197,"95":-0.011986167119384158,"96":-0.03949491817237573,"97":0.05016953536848613,"98":0.011403041249105137,"99":0.0005297925995294784,"100":-0.10587788743825738,"101":-0.04738614586483539,"102":-0.1255951340385822,"103":0.06316406066598558,"104":-0.16669976624988833,"105":0.09108098201094023,"106":-0.046768616658813336,"107":0.0008994852181098733,"108":0.11363597792589494,"109":-0.22095537564194337,"110":-0.0437570444139544,"111":0.1002375534636783,"112":-0.17221855057086333,"113":-0.04964205028462266,"114":0.10975339118504755,"115":0.11918843430902248,"116":0.07964555564244863,"117":-0.06949785140960547,"118":-0.13228098854406037,"119":0.11183230644810925,"120":-0.12072522538946612,"121":0.02500431709290828,"122":0.052116520984017665,"123":-0.03156183196862664,"124":0.03251274675182526,"125":-0.03206616595284578,"126":0.009799726668232835,"127":0.12070179861787823,"128":0.017717542491100247,"129":0.0024865042833629772,"130":-0.05043950024337286,"131":0.05610972718839772,"132":-0.01557475166654309,"133":0.04746631231413677,"134":-0.1714294958846854,"135":0.10840069826587462,"136":-0.07369675325603013,"137":0.020819829221872255,"138":0.05144536878409495,"139":-0.04416593808635395,"140":-0.00797855299974343,"141":-0.04981020759280765,"142":-0.21762412139202242,"143":0.10369686567378637,"144":0.03210573540178764,"145":-0.05150528324192732,"146":0.08392370110841155,"147":0.01513855690409448,"148":0.00562416135838446,"149":-0.050432680733855484,"150":0.07851865917832618,"151":-0.11537444966914508,"152":-0.09974894375453956,"153":-0.012867398202017122,"154":0.03877587025547362,"155":0.00040319536252234425,"156":0.08909224143041304,"157":-0.1085432292402464,"158":-0.1739141202432762,"159":-0.0003095708551103184,"160":-0.1650617796565798,"161":-0.04661178288171369,"162":-0.11485663019077627,"163":-0.02057700631566473,"164":-0.04109906499748193,"165":-0.11525538623445591,"166":-0.05163787492256811,"167":-0.04667676332272587,"168":0.023352467648120045,"169":0.002153251204918086,"170":-0.06435605829177435,"171":-0.13375695002130195,"172":0.015169550674864505,"173":-0.04197229001263044,"174":-0.16183103726238918,"175":-0.0720233180358095,"176":0.130455647628574,"177":-0.04638695319601878,"178":-0.031397866520106,"179":-0.08975604730908782,"180":0.07067399518282602,"181":0.01932913639422651,"182":0.03781176884972845,"183":0.007029842523316176,"184":0.0049425752533921756,"185":-0.025455246657752513,"186":0.07433828783002625,"187":-0.0007569433371965601,"188":0.0167326442743073,"189":-0.0296133652785114,"190":-0.12822208579852876,"191":-0.03700010659080763,"192":-0.23619370076346827,"193":-0.12205216107019697,"194":-0.011523736383308461,"195":-0.0894258576818597,"196":0.026493556504798687,"197":-0.1854613160025131,"198":-0.12320743751400183,"199":0.025382410962612054}},{"sx":5,"sy":5,"depth":8,"w":{"0":-0.05375558753368541,"1":-0.07600238560358404,"2":-0.1247717333053791,"3":0.12562588129309463,"4":0.11024877951522759,"5":0.18244989418592286,"6":-0.19841378724646722,"7":0.02565947605809188,"8":0.05595903659991979,"9":0.05937641129994665,"10":0.008596834471951044,"11":0.05575622372535959,"12":0.07814159448248162,"13":0.13285552030784448,"14":-0.06521238473555682,"15":-0.09305627799094057,"16":-0.02013796236307311,"17":0.12460481745178409,"18":-0.1503684893072742,"19":0.14151029395370918,"20":0.052678479411267874,"21":0.02864227660261954,"22":-0.06346314391516175,"23":-0.036788380569654736,"24":0.030888507176284732,"25":0.0668615004073948,"26":0.1233254644166618,"27":0.18689790544962193,"28":0.04322533641624032,"29":-0.0719648092670557,"30":0.1043282343513288,"31":-0.1482204647625593,"32":0.2150425481457734,"33":-0.09613110543904974,"34":-0.04676743501827385,"35":-0.16790693357583833,"36":0.056412532036129115,"37":0.014647362047995159,"38":0.10063448886919764,"39":0.07651277940616726,"40":-0.037711624529495585,"41":0.05154876191780823,"42":-0.0497555619865519,"43":-0.05080900245834757,"44":0.055863985998194116,"45":-0.04483450270766973,"46":-0.04228690462507837,"47":-0.07021164651646808,"48":0.01256802696360763,"49":-0.078379437217785,"50":-0.1398136878161152,"51":-0.02276285712335189,"52":-0.0018699348592415488,"53":-0.012644415203688983,"54":-0.03625234483568872,"55":-0.05071865199120435,"56":-0.09054234184634288,"57":0.04632890163031541,"58":-0.15432518990824112,"59":-0.022857065940703716,"60":0.009463689262035543,"61":-0.07148090445728811,"62":-0.13473960577852953,"63":0.06167815723509419,"64":0.06430147691898405,"65":0.026857295026314995,"66":-0.00854248105236468,"67":0.07757491931569911,"68":-0.0191455176125336,"69":-0.032489992671613295,"70":0.058563519177786724,"71":0.06907747759917168,"72":0.08822136551982702,"73":-0.2112574201417831,"74":0.08013504780043014,"75":0.0008373760706896433,"76":-0.0689481796288209,"77":0.12392804386019515,"78":0.1560867037376115,"79":0.05434731598397154,"80":0.1371759769578201,"81":-0.16174064784549194,"82":0.031821948892714516,"83":-0.043195601501700945,"84":-0.02067325615871397,"85":0.05001732048777566,"86":0.06826256171952497,"87":0.027935030973330836,"88":0.021407709592861594,"89":-0.053717490765003525,"90":-0.02285999702899642,"91":-0.038458460921944826,"92":-0.16368235146213864,"93":-0.22681612745003196,"94":-0.09330336296625234,"95":-0.00744788875967098,"96":-0.14356401232284377,"97":0.07287585426962023,"98":-0.029345248411956043,"99":0.07272853214379195,"100":0.003718617649157722,"101":-0.142680425089926,"102":-0.0665628017516124,"103":-0.009541494403568393,"104":0.15991063315837806,"105":-0.08148521981355329,"106":0.03485911996576838,"107":-0.06718498159693069,"108":0.052422353245881625,"109":-0.07279105870111612,"110":0.05807514967700355,"111":-0.1447592976760917,"112":0.19179033532522458,"113":-0.1699491185748417,"114":0.02206629160314063,"115":-0.07297794979560537,"116":0.15088032287735875,"117":-0.02440982248930161,"118":0.22854628439744182,"119":0.04870039225934083,"120":0.06197062248833627,"121":-0.1518997445143495,"122":-0.077769079859861,"123":-0.02278266078572701,"124":-0.01095590159594641,"125":0.0412895131845785,"126":0.09424045645333659,"127":-0.026588042840143374,"128":-0.13933849314263574,"129":0.13127803277369376,"130":-0.03828997725334867,"131":-0.005079312123908814,"132":0.06996966600442611,"133":0.04882720276185279,"134":0.03271495641647245,"135":-0.05206094193153298,"136":-0.12565708772572282,"137":0.1895078650470173,"138":-0.04244621953443062,"139":0.028868616019604228,"140":0.05196852484060548,"141":-0.07658776484746521,"142":0.01581003106360587,"143":0.011236658437210058,"144":0.21398438329958008,"145":-0.055797138971736895,"146":-0.12410808124850917,"147":-0.026177433892965795,"148":-0.056560458735339283,"149":0.07815331490145756,"150":0.19623077371829573,"151":-0.0344307749592131,"152":-0.044610042236645046,"153":0.03221854819405468,"154":-0.06622589092271448,"155":-0.11002157258927678,"156":-0.025393708064151414,"157":0.10470201108435974,"158":0.08421655451769,"159":0.1290760307112311,"160":-0.009826914799220007,"161":-0.045767269000848695,"162":0.004424236718707981,"163":0.047266555161421545,"164":0.09456471554279335,"165":0.04104760626105699,"166":0.11252253490438117,"167":0.013795534280715062,"168":0.036054739710595786,"169":0.06243444407361214,"170":-0.03719405287766604,"171":-0.07847526996380058,"172":0.048837738129884144,"173":-0.06878876978202196,"174":-0.07566706853581999,"175":0.01021033170612693,"176":0.04520511366505665,"177":0.007861595198741158,"178":0.037758933573884414,"179":0.021728617977100503,"180":-0.00165468422274522,"181":-0.030400073031157878,"182":-0.007924565776052484,"183":0.03493648766878229,"184":0.05168223495200991,"185":-0.05469076323560563,"186":-0.020084890505870635,"187":-0.08119669302513878,"188":-0.054666134807899426,"189":-0.11310130343693746,"190":0.0870766579436535,"191":0.09030208817481337,"192":-0.14614765178537292,"193":0.0901752916047645,"194":-0.00488198577501398,"195":-0.03974388272222465,"196":0.07538073291934305,"197":0.014946068562456907,"198":0.00015913752664658241,"199":-0.00603660939845563}},{"sx":5,"sy":5,"depth":8,"w":{"0":0.02679813457693539,"1":0.01626299988146629,"2":0.06544505100800396,"3":0.07270283991466465,"4":0.04219436058769772,"5":-0.14024863854294492,"6":-0.005614477031103404,"7":0.011812132961084524,"8":0.1781049615608982,"9":-0.08671264582846185,"10":0.06746552532304552,"11":0.10530910579938708,"12":0.048027618098573276,"13":0.10632618446194854,"14":0.010014608173409118,"15":-0.04838022132760582,"16":0.041310921843400995,"17":0.01742070742168965,"18":0.015222524047000112,"19":0.02125377746346028,"20":0.020952714941469643,"21":0.09955699270514932,"22":0.06527783167843407,"23":0.11077678402051243,"24":0.05916507011276386,"25":0.05495831768233097,"26":-0.01955870297987915,"27":0.0813876280979798,"28":0.038648428056137475,"29":0.18587598299354918,"30":0.16745586607843532,"31":-0.06409405856575175,"32":-0.07473355150975784,"33":-0.027999675684197877,"34":-0.07530715130571745,"35":0.009310446084250341,"36":0.09938837584988056,"37":-0.009986806520859152,"38":0.056483575724355264,"39":-0.06575676993458947,"40":0.1599845235325335,"41":-0.0305977483946097,"42":0.07933506876141957,"43":0.046677747698133196,"44":0.05026015831073277,"45":0.127707155489741,"46":0.05984298315466922,"47":-0.023007516205361705,"48":0.14694368216689688,"49":-0.019589345651443928,"50":-0.013731986411997023,"51":0.09146946894883572,"52":-0.07700003451137036,"53":0.08953909801819442,"54":0.03170876463702274,"55":-0.06443887450127113,"56":-0.10643586147350162,"57":0.03522790248719219,"58":0.06339543254185305,"59":0.03163891995076375,"60":-0.0402482446328304,"61":0.19762038611254715,"62":-0.008533305989432133,"63":-0.07436217224709255,"64":-0.060799999600549284,"65":-0.08830845199696712,"66":-0.010317845512608843,"67":-0.08167580833731444,"68":-0.12329217535255022,"69":0.028832522446906792,"70":-0.024827964475103534,"71":-0.13669211546220056,"72":0.003029304957386497,"73":-0.058454341556612874,"74":-0.025050397637201755,"75":-0.06726872994438718,"76":-0.10337462092723562,"77":-0.025432740808436556,"78":0.07605502392073649,"79":-0.2791774568471437,"80":0.1972624436382782,"81":0.058153800552068584,"82":-0.02972368635910626,"83":-0.09274796801646502,"84":-0.0662677891428495,"85":-0.08279053214175204,"86":0.09075251351604949,"87":0.04246418290201573,"88":0.02480045795748853,"89":-0.03403184501861811,"90":0.010709363659510487,"91":-0.0247436335733304,"92":-0.06137972745575346,"93":0.026308935894106274,"94":0.0008516169926654988,"95":-0.12445967357179452,"96":-0.05780511758469588,"97":-0.005040718197196198,"98":-0.13469818828902017,"99":-0.0033304961148152724,"100":-0.12289547535157735,"101":-0.06872320796345358,"102":-0.1412408200055429,"103":-0.011513420705930111,"104":-0.08293456275332668,"105":-0.15481799335769683,"106":-0.011934922786353282,"107":-0.10549348736683484,"108":-0.05085902969714179,"109":0.04786066084417784,"110":0.04246209579223427,"111":-0.14385850304883452,"112":0.04494701166726258,"113":0.10844588132825932,"114":-0.11158079678958006,"115":-0.025453160308599346,"116":-0.034828242134257385,"117":0.0477557263793714,"118":-0.018035677305317036,"119":0.1198511292780299,"120":0.17521067570659843,"121":-0.1473598204043545,"122":0.11896564649640891,"123":0.048378009116811595,"124":-0.0022545061407613894,"125":0.016414779123579356,"126":0.1270843344060045,"127":0.10414761537054108,"128":-0.056923150047953806,"129":0.0965318882900662,"130":-0.04902805513509451,"131":-0.20216160413002826,"132":-0.07763265265891553,"133":-0.07918899338165554,"134":0.12977456657420447,"135":-0.04331980936390335,"136":-0.04119568590987512,"137":-0.06801177234205767,"138":-0.023777964287861796,"139":-0.13488194511417154,"140":-0.11568022409149875,"141":0.027507128499709946,"142":-0.06519141634948329,"143":-0.0032035367107056886,"144":0.03404209793283753,"145":0.08354646824408425,"146":-0.007773986328878183,"147":0.11565641182037625,"148":-0.14075134104298753,"149":0.022256126676700846,"150":-0.026343863422715635,"151":-0.0011189472931402683,"152":0.0002346151585608117,"153":0.04832872319961488,"154":0.07295083716959065,"155":0.045899325926048236,"156":0.04506101364495455,"157":-0.03127515954197621,"158":0.030173667780010776,"159":0.0761043447182449,"160":0.0018817301886401815,"161":-0.09287296978008523,"162":0.17998764425483094,"163":-0.12935559453841317,"164":0.07375730213911873,"165":-0.031626469156152005,"166":0.24660180471406393,"167":0.014365077708033401,"168":0.04151673277004504,"169":0.009150258698844768,"170":-0.11349914920173855,"171":-0.028436472059656735,"172":0.06864310845457913,"173":-0.006433634643097503,"174":0.07728290477740156,"175":-0.053830316094580666,"176":0.1106567919030169,"177":-0.003012535739391044,"178":-0.09247119919323028,"179":0.1258547352412636,"180":0.016977066185334188,"181":-0.07180650042867211,"182":0.11006093608132211,"183":-0.13906243637415117,"184":0.03145219601190298,"185":0.14480683766603158,"186":0.03017943465496159,"187":-0.09822072116693169,"188":-0.04321019698999275,"189":0.07087942607415902,"190":-0.17890710718950684,"191":-0.04149103035604123,"192":0.09250650622771849,"193":0.14387105770943706,"194":0.009622570187970275,"195":0.1718006548769984,"196":0.0718651884289489,"197":-0.14389092479820095,"198":-0.09011750171588273,"199":0.053908448325508354}},{"sx":5,"sy":5,"depth":8,"w":{"0":0.017194882518826952,"1":-0.2413343708664627,"2":0.052561991352957985,"3":-0.23867858956816435,"4":-0.09786543344354792,"5":-0.030959630624299475,"6":0.10525547566524511,"7":-0.033315795361397005,"8":0.011325336571892955,"9":0.038254391455402166,"10":-0.08954567488554396,"11":-0.21630021804256502,"12":-0.1233961976751256,"13":0.0016150201691900686,"14":-0.05961504189896356,"15":-0.08706888395948482,"16":-0.02840666958966994,"17":-0.16722168349519087,"18":-0.07534723993462152,"19":0.00002568462385432995,"20":-0.07587027855604905,"21":-0.08972987471843547,"22":0.08171701893603449,"23":-0.19308524392753698,"24":-0.05930552563340445,"25":0.057427941669067596,"26":-0.03288453233325087,"27":0.012128230708059386,"28":-0.05559493454699397,"29":-0.019220274765174218,"30":-0.0007356887920587475,"31":-0.02881562376563819,"32":0.020157329080157615,"33":-0.006979609189771143,"34":0.04146673817614062,"35":-0.06641149437142206,"36":-0.054662557703135835,"37":-0.09040199471603991,"38":-0.06382933721957174,"39":-0.08022698546774418,"40":0.09656416184874438,"41":-0.008792356190571891,"42":-0.07568871208659865,"43":-0.14874126669895466,"44":-0.023238105504080297,"45":-0.0356857065112858,"46":0.09288088934886791,"47":0.02077956200277197,"48":0.033709460279620206,"49":-0.11022256154820569,"50":-0.09402197071464403,"51":-0.05796825347733921,"52":-0.03667123352708117,"53":0.0777469447613656,"54":0.1255092758533213,"55":0.06913894932507791,"56":-0.01808451192271696,"57":-0.052249356591671556,"58":-0.07683898873725785,"59":-0.04260500700616228,"60":0.015064657300583038,"61":0.022196999370267506,"62":-0.06474211551263877,"63":-0.06628409326746543,"64":-0.01977690985254521,"65":0.2158727490160915,"66":-0.048241471991436864,"67":-0.00553823255115481,"68":0.003092525279993732,"69":-0.12810956593463468,"70":-0.09446062793634806,"71":-0.03855098885562423,"72":-0.03301222958377543,"73":-0.06267754781559404,"74":0.010841647916337186,"75":-0.04484880705504673,"76":0.0846862110045282,"77":-0.03961355199188157,"78":-0.0004888659245309112,"79":-0.003406606406567799,"80":-0.18451387256125568,"81":-0.045533471684582334,"82":0.12834618550227728,"83":-0.1280655317771374,"84":0.0676522196619106,"85":-0.010717393918158163,"86":-0.08030955619368291,"87":0.0275804909874727,"88":0.05944244157125359,"89":-0.03171125542072049,"90":0.08253967724023584,"91":-0.04342653638551848,"92":-0.018196544604946463,"93":-0.008411761106273855,"94":0.06516996026528712,"95":0.04981533691568885,"96":0.014298925303878364,"97":-0.059394788123419695,"98":-0.017060934637017078,"99":-0.04561592309118686,"100":0.04848334168625268,"101":-0.18764594298602952,"102":0.027428554457098596,"103":0.06208613733610105,"104":-0.09389567199372863,"105":-0.04847916573944647,"106":-0.04980885203634438,"107":0.13215485347952277,"108":-0.06755272730383931,"109":-0.14906221646854573,"110":-0.16328892967494385,"111":0.04141770484727308,"112":0.05119846229908503,"113":0.08894889076248039,"114":0.019621179028529643,"115":0.04912870457729985,"116":0.047752324022608,"117":-0.05745937605372388,"118":-0.006059087905139421,"119":0.03325036310990764,"120":0.13958070323957594,"121":-0.024048251782815975,"122":0.19573707001071045,"123":0.10868311792934733,"124":0.03483355073273485,"125":0.004762875961208331,"126":0.08648759133238645,"127":0.1256735477172743,"128":0.0050849819760482775,"129":-0.07452318419499618,"130":0.03992069119254046,"131":0.022480534570608793,"132":0.0583168346826954,"133":0.04218857757182827,"134":0.02800481782858008,"135":0.0023423417040595402,"136":-0.09299009288236706,"137":-0.04838729500609469,"138":0.11009806830288864,"139":-0.0503250171041389,"140":0.07814077453749972,"141":-0.12906392163337133,"142":0.023619023222087372,"143":0.018136594654093566,"144":-0.011834076197890238,"145":-0.14408092017044108,"146":0.13443681055831513,"147":0.04532715751425888,"148":-0.10766101212245154,"149":0.03546265399932787,"150":0.016676858181602486,"151":0.0008341874387733637,"152":-0.09414828869372167,"153":0.011457391006820904,"154":0.14698659575959214,"155":-0.0556034076902921,"156":0.131482539769905,"157":-0.014141284937200517,"158":-0.0561954838213532,"159":0.03586425506042847,"160":0.016964188375147328,"161":0.027968581234640154,"162":-0.026491944370536934,"163":0.14111762497509675,"164":0.06477121311006342,"165":0.055002907431259726,"166":-0.006310576651008703,"167":-0.0762402422492632,"168":-0.02159332818278119,"169":-0.045275651618590707,"170":-0.0413692538238371,"171":0.006825346670477813,"172":-0.08055957746765377,"173":0.006891932840910426,"174":-0.10288627125614545,"175":0.0785465837702099,"176":-0.14986141356322732,"177":0.041252042008472725,"178":-0.010176686303393745,"179":0.07590460752048625,"180":-0.07074468878587578,"181":0.04146124893710749,"182":-0.1412681373120424,"183":0.13031157717457473,"184":-0.07005965630830585,"185":-0.07753718537167407,"186":-0.06467643243443025,"187":-0.06666342303649131,"188":0.004712594474435165,"189":0.06776406492026925,"190":-0.030205006751349302,"191":-0.015062876450534935,"192":0.09132455466677608,"193":-0.02507363828571718,"194":-0.13182995928887545,"195":0.06191497273629762,"196":-0.039423181109481786,"197":0.11555547236559215,"198":0.045824117007842134,"199":-0.09907868216716302}},{"sx":5,"sy":5,"depth":8,"w":{"0":0.04678287804309243,"1":0.0642617850122508,"2":-0.06930785022377745,"3":0.06936050703415043,"4":-0.08452143496239602,"5":-0.03210176998420814,"6":-0.0673824517275663,"7":-0.08326962021778869,"8":0.11596967354343016,"9":-0.04456529775720897,"10":-0.00815166168798574,"11":0.06102562977323756,"12":-0.0802259098857467,"13":-0.03021510417866097,"14":0.09965838620514808,"15":0.02459720380839087,"16":-0.004515122609333062,"17":-0.08339618584036172,"18":-0.03895847173021289,"19":-0.07267392399817536,"20":0.16283656262404855,"21":0.1007799147273205,"22":0.10778060721292372,"23":0.051881202294385365,"24":-0.059432384171603785,"25":0.026087398821544816,"26":-0.07189953357272824,"27":-0.017897231939537787,"28":-0.009192823087561334,"29":0.04377475373816251,"30":-0.07827230910497751,"31":-0.03661136692396699,"32":0.1044048910263734,"33":0.11383122211116645,"34":-0.10228355981132338,"35":-0.15777249494368686,"36":0.03531150885615829,"37":0.0019188863809954594,"38":-0.05699515074509299,"39":0.0019867105916478267,"40":0.030481844305306115,"41":0.040484356702398305,"42":0.03142820100732788,"43":-0.13289798299954778,"44":0.07656759665860549,"45":-0.0691840706757776,"46":-0.12700176996332171,"47":-0.22041708750584843,"48":0.020578545079552164,"49":0.07148432253350875,"50":-0.03854224269422052,"51":-0.0035722268598954586,"52":0.04266547390913566,"53":0.00946094828245681,"54":-0.07335221899067071,"55":-0.10359499424219673,"56":-0.026952201754265225,"57":0.06779379239711397,"58":-0.028495453170690178,"59":0.02157310954030664,"60":-0.0703147618913494,"61":-0.018036356345539965,"62":-0.014392378918408295,"63":-0.05318825119859264,"64":-0.039582062318373225,"65":0.001800379060567502,"66":0.044553409174373546,"67":0.0050643745824635895,"68":-0.13045860049514324,"69":-0.026160266647302383,"70":0.020287212258777908,"71":0.1665122835955717,"72":-0.021661833452510257,"73":-0.04939919837080213,"74":0.057807816857170874,"75":0.1365936621720715,"76":0.01177300074530969,"77":0.08524567440663432,"78":-0.03750799203188666,"79":0.061431211630005776,"80":0.049381284193941985,"81":0.04030524489367268,"82":-0.13911112524643646,"83":0.03345733164193557,"84":-0.06282455405873753,"85":-0.05422893825514267,"86":0.04880682008021972,"87":0.11400968149903243,"88":0.022774258555130447,"89":0.05482296110427503,"90":0.13040716343762948,"91":-0.14251677743406388,"92":-0.0011284107791352878,"93":0.016945852723356778,"94":-0.05271728303781257,"95":-0.1288673404433702,"96":-0.01379345934591815,"97":-0.03901573806932943,"98":-0.04659018940177601,"99":0.1305951688968414,"100":-0.181217641648732,"101":-0.057317862711891654,"102":0.0019986083603375027,"103":0.040473630226239024,"104":-0.001735373071781535,"105":-0.15934342500703524,"106":-0.15495755816047596,"107":0.03873853969270784,"108":-0.15121733807898283,"109":0.069870311594715,"110":-0.07502494137149573,"111":-0.18771137097127494,"112":-0.12443659650361305,"113":0.005361684798578936,"114":-0.19191648303619407,"115":0.2637342937285819,"116":-0.11640558328704112,"117":0.1974170884364759,"118":-0.032158983607296215,"119":-0.0809185260103586,"120":0.04764834059396651,"121":-0.10990279193109335,"122":0.03524897422065863,"123":-0.03313164074880044,"124":0.010603157208448795,"125":-0.05073919809323773,"126":-0.037284548506632965,"127":0.05558411852311939,"128":-0.049423418964723576,"129":-0.10308364479910431,"130":0.048196097961933124,"131":-0.01510333103209944,"132":0.14283798589550134,"133":-0.10133148719165243,"134":-0.10810252404511042,"135":0.06017758319982494,"136":-0.005931615978710417,"137":-0.0884824828911793,"138":0.0032439821053369183,"139":0.018724759093864916,"140":-0.10023326518352978,"141":0.013253719123879586,"142":-0.1120650459060032,"143":-0.029996892104557603,"144":0.05640698419741295,"145":-0.11023161722898858,"146":-0.0031859294594719766,"147":0.024851335479795265,"148":0.03463879637630367,"149":0.012642428361685668,"150":0.027407160020452695,"151":0.034943314215671165,"152":0.10981482721844515,"153":-0.03631985718075953,"154":-0.013668084500660488,"155":-0.0801721623878211,"156":-0.1573775773247541,"157":0.06934609065123606,"158":0.0685171118047927,"159":0.007818619783199626,"160":-0.06814263012641052,"161":0.05408097702004731,"162":0.08057905351817246,"163":-0.09138062395500088,"164":0.06157937493680773,"165":-0.17425699895778485,"166":-0.10466081975673831,"167":0.15509828862170805,"168":-0.25275618275611184,"169":-0.008884153475273347,"170":0.1266088817385236,"171":0.005198798165067547,"172":0.08972411132653935,"173":-0.09665163644786406,"174":-0.19930661600723232,"175":0.12420684818631228,"176":-0.24269309457151497,"177":-0.059106444841456336,"178":0.11653958890176391,"179":-0.11008912040196257,"180":-0.031389516041176936,"181":-0.10944332212717235,"182":-0.18007543265135825,"183":0.2780621551575864,"184":-0.055403122593695654,"185":-0.07796088335114076,"186":-0.03141364094841438,"187":-0.11274761823405786,"188":0.1120042880010903,"189":-0.05334999625674341,"190":0.10011602056721652,"191":0.1452058369204753,"192":-0.007269125986727398,"193":-0.15817358559108072,"194":0.18760000512728184,"195":-0.08933407518722591,"196":0.08114809096084283,"197":-0.07023101853670383,"198":0.0562022358658386,"199":0.14594502271397183}},{"sx":5,"sy":5,"depth":8,"w":{"0":-0.10445566849734475,"1":-0.007201102036210787,"2":0.11938691919255975,"3":-0.02154356315120136,"4":0.04369977002775943,"5":-0.11784526203990132,"6":-0.07124933819080063,"7":0.08283391868948273,"8":-0.10127383862857128,"9":0.021062439633266882,"10":0.08157307528897995,"11":-0.1439272804977553,"12":0.05016537883663178,"13":-0.03953859572772533,"14":-0.10142604690010042,"15":-0.002272021747446268,"16":0.16561589545954578,"17":0.03615150378991056,"18":0.012074044199347704,"19":-0.01854420507102798,"20":-0.018675521667328478,"21":-0.007982182341892335,"22":-0.14613852176383535,"23":0.008922120243508934,"24":0.0043627639143832475,"25":-0.13265316429999552,"26":-0.07549152785289821,"27":0.030887813177853662,"28":-0.06837297054013687,"29":0.00806864786791542,"30":-0.033744292333513254,"31":0.06500967455708997,"32":-0.0000660727525222532,"33":-0.11718863247967484,"34":-0.052916449563138214,"35":0.12556767901503885,"36":0.06996592927836646,"37":0.012452856356791294,"38":0.1917109901912849,"39":0.045658178093199255,"40":0.004216095310133728,"41":-0.08429265081225275,"42":0.027048067948828008,"43":-0.10167705978482579,"44":-0.017666570686750992,"45":-0.1723839287410369,"46":-0.1269135386062321,"47":0.05405757285946972,"48":0.07685218201587952,"49":0.025696622767377164,"50":0.12456946299492606,"51":0.057580634738918626,"52":-0.02865903228459454,"53":-0.01346615284146356,"54":-0.08466797930171037,"55":-0.05289308919426779,"56":0.010107111395516332,"57":-0.0035573112033397128,"58":0.007259539794474387,"59":-0.17569050919072682,"60":0.07634329268190479,"61":0.0589293495265435,"62":0.03634025612470144,"63":0.00956311285413242,"64":0.06154731994124788,"65":-0.0207797924084513,"66":-0.13965513456760448,"67":0.06659008545499813,"68":0.08778218106545832,"69":0.09727042875820605,"70":0.02225044085691437,"71":-0.08002898112882645,"72":0.06782801659810082,"73":0.04932952212197875,"74":-0.17253249275204866,"75":0.031215934203372105,"76":-0.1594594820139693,"77":0.14512243536855834,"78":0.04793504351693256,"79":-0.006001798418341676,"80":-0.019091978359585437,"81":0.10687987657432728,"82":0.0585191921604566,"83":-0.012582625188143622,"84":-0.21263202393567285,"85":0.07161598990060221,"86":-0.1017625381787501,"87":0.016897225502178048,"88":-0.19417913011845755,"89":-0.11637872819663223,"90":0.09423065393324309,"91":0.049003926551176843,"92":-0.030176657598729475,"93":0.09581461201225946,"94":-0.08928250181079928,"95":0.015350660090143185,"96":0.02079078853546432,"97":0.0927756321180033,"98":-0.007384136346897541,"99":0.03502255563517653,"100":0.03806193508675096,"101":-0.09410169526953976,"102":0.07233243020258613,"103":-0.031222098488042242,"104":0.12432396333799291,"105":-0.09494264604462303,"106":-0.14678344646495822,"107":-0.08758746998960419,"108":0.047424784222291815,"109":0.23943819457955445,"110":0.09434704881597675,"111":-0.029447194105527763,"112":0.055521398071260525,"113":0.025103815376029032,"114":-0.19057676248999741,"115":-0.17971207149742893,"116":-0.2452018074801372,"117":-0.016241935278271925,"118":0.10612635837679227,"119":0.06388325019361317,"120":-0.03204773999272544,"121":-0.06297833734642119,"122":-0.1341229948121834,"123":-0.07700893272339746,"124":0.04044880481556702,"125":0.004589769564005,"126":-0.07260209472751954,"127":-0.058359717781902895,"128":-0.0006969446620532834,"129":0.1191650110593763,"130":-0.033899890114352293,"131":0.1799325070882439,"132":0.013036195976083654,"133":-0.04513986776356562,"134":-0.14804711240358967,"135":0.11774572821189797,"136":0.14716192084467106,"137":-0.10377336750467096,"138":0.0785333038365992,"139":-0.11315811223050284,"140":-0.00040420102302750165,"141":0.0207774696636008,"142":0.12125895058548523,"143":0.1920575653332787,"144":-0.006132178401405536,"145":-0.13790397204299615,"146":-0.05081071431869302,"147":-0.12148866086706728,"148":-0.08818367827913862,"149":0.13865973729157663,"150":0.16773809744808163,"151":0.10267390698673245,"152":-0.0173706219990366,"153":-0.007220083963605413,"154":-0.024507040000046477,"155":-0.047736799216212704,"156":-0.2200338103704276,"157":0.014764994559784726,"158":0.00016842754508892242,"159":-0.16246314418307464,"160":-0.15222060511853328,"161":0.16573410367548871,"162":-0.12038300919094143,"163":0.12808081017823747,"164":-0.10554698613303988,"165":-0.1253475524018404,"166":-0.09317608148797121,"167":0.09019504736469658,"168":-0.09748711769454911,"169":0.12288193101125741,"170":0.057459202921526085,"171":0.07205047765846348,"172":0.12821938462302354,"173":-0.06301018590445585,"174":-0.06309420930463772,"175":0.024672069572336534,"176":0.2333866505597339,"177":-0.05814088346245349,"178":0.13095991411388125,"179":-0.08665600508926599,"180":0.20618593689992712,"181":0.01749230596896858,"182":0.26279248397893457,"183":-0.06804183604535434,"184":0.16513362376680432,"185":-0.0074791694156031915,"186":0.11059860878947522,"187":-0.062232462060934066,"188":-0.05040532164127591,"189":0.08739328173494337,"190":0.0730323551290385,"191":0.06409167987122091,"192":-0.04058903707740812,"193":0.15857016445903932,"194":-0.1689671863259961,"195":-0.042942094702918744,"196":-0.18105234254379904,"197":0.10717595602384566,"198":-0.1037397529016112,"199":-0.08983965657499587}},{"sx":5,"sy":5,"depth":8,"w":{"0":-0.032220679408992196,"1":0.015264024559273085,"2":-0.12819690761339028,"3":-0.13605984053459644,"4":-0.05123043306069396,"5":-0.1165396837104466,"6":0.020445383572940616,"7":-0.017135237640047814,"8":-0.05645424503430237,"9":-0.07491994804005654,"10":-0.14710847621016201,"11":-0.044327164226719326,"12":-0.06397748077642477,"13":-0.07866414909344492,"14":0.009829958105160096,"15":-0.012496183640694526,"16":-0.04467476482483362,"17":0.04808325214680179,"18":-0.06965786913819824,"19":-0.10003911442263563,"20":0.06373419637419298,"21":-0.02737800062167258,"22":-0.08642438120877599,"23":-0.014394323456093771,"24":-0.09289280343418435,"25":0.056718019562860926,"26":-0.011986071230150488,"27":-0.007331253136423664,"28":-0.020328266453073132,"29":-0.07421058523721483,"30":-0.27555934849580477,"31":0.04224370709220601,"32":0.07677447642868931,"33":0.021726557474316864,"34":-0.01658905289900041,"35":0.16957462659749248,"36":-0.1956668477680662,"37":0.04101466825388774,"38":-0.09959154608631218,"39":-0.0580272164245193,"40":-0.03538223888704373,"41":-0.07075254404901585,"42":-0.06553367092076194,"43":-0.15781047914529447,"44":-0.0034697452047706325,"45":0.014896139997107007,"46":-0.08503388014521789,"47":0.08360114709537644,"48":-0.006757929260986644,"49":-0.15278161198746446,"50":-0.09713745351389576,"51":0.024011952058147483,"52":0.06860951536898997,"53":-0.08175297411474741,"54":-0.08099308041723878,"55":0.0365194524376846,"56":-0.03574125608089019,"57":0.06557374214744878,"58":0.12735667119183766,"59":0.03317274616801823,"60":0.13326442538394753,"61":0.0010065902356227773,"62":-0.19725140081232087,"63":0.013780837269120313,"64":-0.22270432662243206,"65":-0.0777596020335584,"66":0.07062932737774982,"67":-0.08984176707622883,"68":-0.06919558305173426,"69":-0.07145574142772788,"70":-0.21851284578724103,"71":0.08998341027984894,"72":-0.042960284752257126,"73":-0.03195035679188415,"74":0.15726778988187784,"75":0.001734344943869922,"76":-0.005812658998247204,"77":0.12758321794858443,"78":0.03216203776995126,"79":-0.011514174359995523,"80":-0.1566188667274997,"81":0.18401468722125142,"82":0.06895327184810487,"83":0.0010691123837664861,"84":0.1094329629899941,"85":-0.1412073311551677,"86":0.025123810919432814,"87":0.02745525270556743,"88":-0.015126468491122756,"89":-0.15409862777539504,"90":0.06570585305785308,"91":-0.11751381408858727,"92":0.008568639353768103,"93":-0.00710116740952693,"94":-0.04339148008704556,"95":0.1126477108347931,"96":-0.06150913109852254,"97":-0.010547215995739786,"98":0.03838884903888936,"99":-0.03264389123859943,"100":-0.11267276117125617,"101":0.03590047510323249,"102":-0.13313187340018828,"103":-0.013604044367043345,"104":-0.02278634264366442,"105":-0.023094989642035612,"106":-0.02598751750038964,"107":0.15935476607050247,"108":-0.07079308142491872,"109":0.003239851334064358,"110":-0.15592855386861562,"111":0.05911182894864154,"112":-0.06329444107923045,"113":-0.10425320121117321,"114":-0.034793840798473585,"115":0.06259990440676017,"116":0.005445560143786211,"117":0.09913748648703741,"118":0.055176535807719626,"119":0.02467002257541989,"120":-0.12842076583791606,"121":-0.0824831674108326,"122":0.018575525875023317,"123":0.12413728480496558,"124":-0.03890442271983988,"125":0.08322948064165024,"126":0.07696111666725662,"127":-0.24334910884418673,"128":0.013406074880084794,"129":-0.18670049145189818,"130":-0.008949740520212319,"131":0.039659522194916405,"132":0.08722864518697053,"133":0.11185864015930078,"134":-0.047702399326448736,"135":-0.10381627289554696,"136":0.003974720030606535,"137":0.014665544038158953,"138":0.038714788959114184,"139":0.1562649710629996,"140":0.023932021905693983,"141":0.11212192877603967,"142":-0.07315779638121003,"143":0.0765623077711127,"144":-0.03810775520213444,"145":-0.04048288158892529,"146":-0.005759559599391933,"147":0.17633132069116322,"148":0.024917752976243872,"149":0.11616221165766692,"150":-0.11604351586941367,"151":0.04616703740224105,"152":-0.17435721713162117,"153":0.017054189285551764,"154":0.06001106900637489,"155":0.14171838006906756,"156":0.008653238079605326,"157":0.05450199168045591,"158":-0.14575245381856064,"159":0.0697739481668746,"160":-0.15802648312878576,"161":0.05960209582436335,"162":0.047611943004419094,"163":0.029946656413637966,"164":-0.07891393523080195,"165":-0.04032988164811482,"166":-0.10905332769685042,"167":-0.06296231587601779,"168":-0.1155264334608391,"169":-0.03997130372077902,"170":0.03000651898003231,"171":0.020329449008687592,"172":-0.02592078102985198,"173":-0.04964207782676975,"174":-0.05130476620778401,"175":-0.09638065027834017,"176":-0.03226857844715428,"177":-0.08815952629359532,"178":-0.09848649366825564,"179":0.08485439229124594,"180":0.05722472065262585,"181":0.10573218194781427,"182":-0.17339322494740583,"183":0.028388738402793687,"184":-0.20943480460032957,"185":0.05717189332107795,"186":-0.08116268247932823,"187":0.06878527174864787,"188":-0.05823659232305565,"189":-0.02947086031551707,"190":-0.16264683152917372,"191":-0.004946862063301585,"192":-0.1020502647912686,"193":-0.03488796842418846,"194":-0.014639137553422402,"195":-0.007042062304614391,"196":-0.07832584170039751,"197":0.10027578900795873,"198":0.032060899082188635,"199":0.03191974571653309}},{"sx":5,"sy":5,"depth":8,"w":{"0":0.03191185765600019,"1":0.04971079896429881,"2":-0.024594122109724538,"3":0.10535550244990578,"4":0.05179201487934817,"5":0.08396426625192982,"6":0.03682493315942823,"7":0.05331903064247026,"8":-0.024379621477189573,"9":0.03280107112971623,"10":-0.08690831999916895,"11":-0.06450132864732429,"12":-0.04913256118330302,"13":0.2278374337237266,"14":-0.047318051278805014,"15":0.054217456820930605,"16":0.13931421725518586,"17":-0.013922898107270999,"18":0.006575777427094515,"19":-0.003573695862834394,"20":0.010740462352498788,"21":-0.04354058327947939,"22":0.014159601591443305,"23":0.06827918111733651,"24":0.011373989189994717,"25":-0.026214633682023248,"26":-0.07955184348210054,"27":0.017237352300541655,"28":0.046508153340419044,"29":-0.05394824795085373,"30":-0.06667508988733788,"31":-0.06994834626282984,"32":-0.07015316102635162,"33":-0.06956773173072577,"34":0.10163594625466078,"35":-0.05459742184367535,"36":-0.12121357073938527,"37":-0.08450870908062597,"38":0.046654335601649145,"39":0.12328975841262062,"40":0.15644587246742617,"41":-0.07586971098478572,"42":0.01828915898866189,"43":0.018034331802619277,"44":0.004324042646297411,"45":-0.10810462665811707,"46":-0.05161082798033664,"47":-0.04071942923853361,"48":0.03817415311261901,"49":-0.049777120238296675,"50":0.009695700197335068,"51":0.022844893470273638,"52":-0.012951615601643924,"53":0.02762087979561447,"54":-0.05712794872670625,"55":0.02227281354788345,"56":0.08880356843583435,"57":0.05711054171286772,"58":0.040758472352762046,"59":-0.00472044691195727,"60":-0.022448610815052013,"61":-0.0021271570143500153,"62":-0.019925493431114383,"63":-0.03512489895767666,"64":0.11294963329823685,"65":0.09369795749823014,"66":-0.03222401105003947,"67":-0.09678287344822843,"68":-0.11594189677984662,"69":0.10109751825390555,"70":-0.014657030162041918,"71":-0.08643873059160213,"72":0.013740076570214902,"73":0.09444983979359656,"74":-0.18783405509381843,"75":-0.1211616827867586,"76":-0.0677072460772968,"77":-0.03684062761449968,"78":0.06488917923659465,"79":-0.017590762478335686,"80":-0.0020624200500755606,"81":0.09897869011605763,"82":-0.08902666528715583,"83":-0.11259914278118087,"84":-0.10136987410438757,"85":-0.004739773434854112,"86":-0.11923445625504643,"87":0.03784600279585964,"88":-0.07993847502321014,"89":0.05806063244102237,"90":-0.011797357419499381,"91":-0.11332369258713472,"92":0.012695009624707326,"93":-0.011615867835763441,"94":-0.0023412543822569245,"95":-0.02922237514318727,"96":0.003608532758278241,"97":0.01728703069534515,"98":0.01439808333662919,"99":0.03411126810771469,"100":-0.17223658142739712,"101":0.045422411607828964,"102":-0.12342151639691866,"103":-0.10775151178318072,"104":0.011681388330081196,"105":-0.00447132809045216,"106":-0.1332623685820212,"107":0.06290624208319358,"108":-0.034586122075369805,"109":0.09064089244797799,"110":0.06487436702303709,"111":-0.04265112712728704,"112":0.018785538194717805,"113":0.11980525675364474,"114":-0.020889148138040034,"115":-0.08754738093340707,"116":-0.0004800401313119068,"117":-0.1396493677120264,"118":-0.03389027041261694,"119":0.07947327917512807,"120":-0.07936518172302555,"121":-0.024425347373091537,"122":0.05723310889561855,"123":-0.05478635934446473,"124":0.04879290194354442,"125":-0.0584028034522755,"126":0.0009588946946065581,"127":0.06054967660864596,"128":0.021878106630828287,"129":-0.0049355785031933485,"130":-0.0300495622416124,"131":0.0431685663307827,"132":0.062386660736466475,"133":0.01626610752880713,"134":-0.000015704254258902192,"135":-0.04831478943042037,"136":-0.04651707303135027,"137":-0.022350055584199367,"138":-0.08183695716902173,"139":0.030778776521486015,"140":-0.03854284679869749,"141":0.06330085535684497,"142":0.07226241702088278,"143":0.08808267174416734,"144":-0.0005850536465825085,"145":0.04767153364039661,"146":0.0537058453837042,"147":-0.0681773674755694,"148":-0.1384332885254865,"149":0.034260030840962914,"150":0.06358259803390717,"151":-0.028267918438647698,"152":0.1061246526364287,"153":0.06021015207108427,"154":0.008253229668009163,"155":-0.02313451632106937,"156":0.03419742373996879,"157":-0.06545316306964351,"158":0.07444058643780307,"159":0.0995229576342851,"160":-0.02000902507914441,"161":0.04855952073400564,"162":0.06265256735501619,"163":-0.058612042557604695,"164":0.0318149921396467,"165":0.053783400427471595,"166":0.06245877029359702,"167":0.045893363066085796,"168":0.04052340326786218,"169":0.051388798728206536,"170":0.016815885171109678,"171":-0.025620156516563023,"172":0.014808461497434498,"173":-0.0004289092596634185,"174":-0.018988834400857895,"175":-0.1335121449869864,"176":0.07471863352855587,"177":0.07707596298641621,"178":0.02659221994394992,"179":-0.06149607135761475,"180":-0.055769995104627726,"181":-0.0856760433573509,"182":0.0047867553704210265,"183":-0.011557873970994254,"184":0.09706298081884883,"185":0.07652425303753335,"186":-0.1192949109055992,"187":-0.003088580503219189,"188":-0.15645123075884007,"189":-0.10686549210298309,"190":-0.07086887927339325,"191":-0.09640589160102646,"192":0.016611859529277365,"193":0.17311468066413851,"194":0.1565955841051374,"195":-0.031317057136814846,"196":0.09061508996543916,"197":-0.055288368893617,"198":0.02298204270199992,"199":0.1134825136975045}},{"sx":5,"sy":5,"depth":8,"w":{"0":-0.007403073950874119,"1":-0.036721731686712285,"2":0.005091196854795755,"3":-0.04478626107613595,"4":0.16008949720972798,"5":0.020650292511759163,"6":0.06709841685499354,"7":-0.0640511513611672,"8":-0.11519317340336306,"9":0.01853738226647894,"10":0.05027410895600275,"11":-0.09550594004721562,"12":0.022975136666532593,"13":-0.09994532181330396,"14":-0.12424787829280562,"15":0.15929477339226128,"16":-0.15129317000627343,"17":0.02418578311525931,"18":0.1371227224548318,"19":0.029952931999795804,"20":0.046275896043890714,"21":-0.2117883058201557,"22":-0.16882740403862512,"23":0.20173410336845599,"24":-0.08274000679081057,"25":-0.07782539470285266,"26":0.03338424859384746,"27":-0.001519124484638654,"28":0.041934329401584064,"29":-0.14209858876198733,"30":-0.19247671929395216,"31":0.15167091634927285,"32":0.020082649337311728,"33":-0.1383658148354925,"34":0.08937708241339302,"35":0.08082795695497792,"36":-0.01299394082583068,"37":-0.08002458043660762,"38":-0.1086436671531376,"39":0.023728065616848527,"40":-0.19203130691514658,"41":0.007972335709621275,"42":0.16087057465078625,"43":0.13056655073893564,"44":0.1177499135648703,"45":-0.121367576461709,"46":-0.04789335959957887,"47":-0.11306032730461842,"48":-0.2327074533725076,"49":-0.1015455812866616,"50":0.014116304863793441,"51":0.0981423514356472,"52":0.022847804845422093,"53":-0.03161813725159282,"54":-0.17000835206135084,"55":-0.11039015792034318,"56":-0.22549633974696587,"57":-0.10642531445669932,"58":-0.04740291691867709,"59":0.2280088217086035,"60":0.0557750539534248,"61":0.050320984654378925,"62":-0.253630740287504,"63":-0.036085895041657594,"64":-0.18338552114238896,"65":-0.08342823304608915,"66":0.040957411685367595,"67":0.11802413389795097,"68":0.12189598455358315,"69":-0.07623640579781028,"70":-0.14607570112750118,"71":-0.028743929849503153,"72":-0.12101993874638588,"73":0.08972292488382799,"74":0.042569942941014106,"75":0.07530666752557258,"76":-0.03512750066940771,"77":-0.060385699449496656,"78":-0.1361952923945459,"79":0.021812119830473015,"80":-0.3287771743762991,"81":-0.07742580713171587,"82":-0.03847286848023809,"83":-0.035743297633334656,"84":-0.06011852600248939,"85":0.15853259354749707,"86":-0.13730327217369417,"87":-0.17853512928379547,"88":-0.17782970989050367,"89":-0.10778587362863525,"90":-0.0388793633502967,"91":0.098311885755002,"92":-0.025145936542953783,"93":0.1400839673283592,"94":-0.1912690368019681,"95":-0.11517304863576387,"96":0.07160156931762948,"97":-0.07016013330881193,"98":0.10345078305835749,"99":0.24674534094688363,"100":0.06327211515606224,"101":0.14285530100939683,"102":-0.23087783494176806,"103":-0.06842147344524363,"104":-0.03231194556038323,"105":0.07499300631148705,"106":0.0009085047959424891,"107":0.13263688581498606,"108":0.029482029421222692,"109":0.0892060661305144,"110":-0.1001972070327083,"111":0.014023109266915816,"112":-0.11789343937169888,"113":0.12013711447306016,"114":-0.06459072712831328,"115":0.07337764199318686,"116":-0.0305019478163206,"117":-0.12412736049450855,"118":-0.07548250680527971,"119":0.04284073045961549,"120":-0.08883030792230012,"121":-0.06782989842699783,"122":-0.10670256665850385,"123":-0.09725919433652,"124":-0.05077328699839461,"125":0.12456236105129126,"126":-0.09003862610559152,"127":-0.13420360021589542,"128":-0.0143144967657091,"129":-0.04646079002601376,"130":-0.1644467851691671,"131":-0.10987944674807372,"132":-0.1835649761173665,"133":-0.11323745363064963,"134":-0.1579334251868334,"135":-0.1129651352894081,"136":0.12150900211478952,"137":0.07903923312485671,"138":-0.1623254387901418,"139":-0.03266151223330959,"140":-0.12992152120246914,"141":0.01012886626863678,"142":-0.06707456665050779,"143":-0.05299735744468119,"144":0.06318210406996412,"145":0.14207857015431244,"146":-0.056581810189831404,"147":-0.11638672898344518,"148":-0.17631121560236357,"149":-0.18784629825916518,"150":-0.04900004580306179,"151":-0.034924027431925186,"152":0.09529577516328865,"153":0.11823146843818093,"154":0.0980463692318632,"155":0.1320964357370815,"156":0.09506571159459817,"157":-0.04414287268295446,"158":-0.10918394101487648,"159":0.012827110318831157,"160":-0.002146540951802222,"161":0.1863437426803002,"162":-0.04275195443021417,"163":-0.1778010551420921,"164":-0.0552772573925828,"165":-0.06382173831913686,"166":0.04488406913863087,"167":-0.08237659764008429,"168":0.1255173232171023,"169":-0.027816444092849887,"170":-0.10914193153176993,"171":-0.13288402735433116,"172":-0.02525686695053216,"173":-0.1989096867953404,"174":-0.10215110081502411,"175":-0.16350300850020136,"176":-0.015226359304855377,"177":0.09585844765410001,"178":-0.013881717055994702,"179":-0.11446173742984432,"180":-0.012878748138883202,"181":-0.22898747474914358,"182":-0.08195352172533668,"183":0.02549383950577475,"184":0.14557693151835013,"185":0.06326705178656022,"186":0.15415497166582218,"187":0.005977456868750822,"188":0.05031642643688778,"189":-0.11980537538978195,"190":0.09461244532502915,"191":-0.002124419521311772,"192":0.06831872983352634,"193":0.07901403724683902,"194":0.06433437828247893,"195":-0.09187085919113118,"196":0.005273763336337687,"197":-0.09727924507906856,"198":0.06850108682824098,"199":-0.05270627079681259}},{"sx":5,"sy":5,"depth":8,"w":{"0":0.09904776323798087,"1":-0.1072970946629048,"2":0.04430312691067761,"3":-0.0022901263448095238,"4":0.0032416164257407375,"5":-0.024863392113320552,"6":-0.1639800133720939,"7":-0.05089812626556296,"8":0.04054198841198668,"9":0.002932663665373484,"10":-0.05517458674288221,"11":0.043848795784533094,"12":0.022588363792898962,"13":-0.0427929026488296,"14":0.14263039830268937,"15":0.038139350466147345,"16":-0.0326360954178054,"17":-0.007997892999236448,"18":-0.03833717100215366,"19":-0.010914169700100021,"20":0.10838211994140716,"21":-0.02239068088057324,"22":-0.13612336526756547,"23":-0.009286899620029177,"24":-0.07413659008900993,"25":0.11637763751265187,"26":0.02351766649016798,"27":0.02541573290437782,"28":-0.06491383012846678,"29":0.04529909662223695,"30":0.002050614906580266,"31":0.031192616889593208,"32":0.003321442354546093,"33":0.039082346974175335,"34":-0.04144649203656025,"35":-0.07495238244567476,"36":0.09691375671310201,"37":-0.013006510918503161,"38":0.030676001215940586,"39":0.10364457506643829,"40":0.04561633273284048,"41":-0.0014451172764134294,"42":0.005747093919060581,"43":-0.04987453170058939,"44":-0.061806494081043696,"45":0.04944495816104184,"46":0.026379973553990542,"47":-0.03634363243682164,"48":-0.09171367775469909,"49":0.07351892334646494,"50":-0.07729161236962863,"51":-0.15688572932984374,"52":-0.26618530158269954,"53":0.09893319763483624,"54":-0.06734752288027887,"55":-0.08398191239247521,"56":-0.09345440141776784,"57":0.04514817348806603,"58":-0.1679655056703191,"59":-0.16319124599153487,"60":0.0014351214476688045,"61":-0.06873839474946816,"62":0.09821291036480741,"63":-0.07644338482226126,"64":-0.03859317830467726,"65":0.02272682548855307,"66":0.11559140696319817,"67":-0.014511499376011688,"68":0.05943490058824683,"69":-0.1674391102392533,"70":-0.20417099315304268,"71":0.10535418255517984,"72":-0.09417097307019417,"73":0.0452532236425044,"74":0.1299784858260064,"75":-0.061933527161989695,"76":0.04475936403517869,"77":-0.030534491656155474,"78":-0.03454493013788207,"79":-0.02183305432019322,"80":-0.06280146718288222,"81":0.004153376570509158,"82":-0.05045995691547811,"83":-0.1603670664734221,"84":-0.001160347191427508,"85":-0.03306552038210571,"86":-0.14480539587936558,"87":-0.041559043915789705,"88":-0.01952331730977457,"89":0.020184335416966237,"90":-0.07226515847068199,"91":-0.11151494145367331,"92":-0.02223094766823531,"93":-0.06997123900484915,"94":-0.006904040695122187,"95":-0.05614074266652401,"96":-0.15499553389769155,"97":0.019049833600288616,"98":-0.05863920930951477,"99":-0.16507401327452936,"100":-0.059821411402275364,"101":-0.1445529196919912,"102":-0.23310071351252035,"103":0.03771835370453563,"104":-0.015776890227893078,"105":0.11203124542862039,"106":0.018588227662928135,"107":-0.09147525204320463,"108":-0.05914155369869565,"109":-0.10251151866920746,"110":-0.054179828861713644,"111":0.18680724534195875,"112":0.15246281429767816,"113":-0.14115562621445443,"114":-0.08857457709582316,"115":0.04661044351122773,"116":0.10431473948739722,"117":0.00004483933902383525,"118":0.26729970402056563,"119":-0.10315420011045659,"120":0.07427042565741511,"121":0.05165394209715578,"122":-0.03515869537755425,"123":-0.11722682612298681,"124":-0.059836631957458856,"125":0.029489038628524075,"126":0.05212339526824506,"127":-0.011510384794491554,"128":-0.02494578319847184,"129":0.059078015937986984,"130":-0.0028655822364904433,"131":-0.018688824619143955,"132":0.006253423862194527,"133":-0.03323028265578774,"134":0.07906620134009806,"135":-0.016615408392565856,"136":0.025788181499715256,"137":0.04589383257559666,"138":0.011608167293526327,"139":0.019442464393255657,"140":0.057956778157524216,"141":-0.14509964615430218,"142":-0.029043844789963233,"143":0.06897058974451775,"144":0.09484451028666406,"145":-0.06158677948973007,"146":0.08437860730730379,"147":-0.01940113650506055,"148":0.03160010824227716,"149":0.0062752444968604834,"150":-0.041744602753701274,"151":0.013338369444470453,"152":0.31463523833949103,"153":-0.06252240541825833,"154":-0.15990477883149695,"155":0.09156749514270651,"156":0.031846103637690665,"157":0.0314301240542904,"158":0.16530323081844625,"159":0.006976820601770671,"160":0.08747663306592189,"161":0.0221668431793476,"162":0.035748959557831944,"163":0.09248078407951273,"164":-0.10624993832046398,"165":0.08383968414650159,"166":0.030154197750764097,"167":-0.03430525846696062,"168":-0.17215469084150067,"169":0.0033899014146019984,"170":0.017960907704546638,"171":0.03465605764173226,"172":-0.07787759831601923,"173":0.008590035045690333,"174":0.0009449578989255172,"175":0.04272995790350441,"176":0.12670627807394286,"177":0.05669403190312124,"178":-0.009401189923370728,"179":-0.057919780184273524,"180":0.01924981200388669,"181":-0.06619255411199795,"182":0.07404154579071255,"183":0.05312691825090905,"184":0.05134429112520526,"185":-0.04429939965455277,"186":0.004991401973259365,"187":-0.06497642592209732,"188":0.2157443411137911,"189":-0.06326396270030545,"190":0.06316870961144319,"191":-0.07317445582891018,"192":0.09158897121714502,"193":-0.08110378259898623,"194":-0.026732535341517108,"195":-0.11956934408236246,"196":-0.0012282774276332364,"197":-0.11930442398141587,"198":-0.11853814165000505,"199":-0.027270059342793605}}],"biases":{"sx":1,"sy":1,"depth":16,"w":{"0":0.07201505028569752,"1":0.09056466378706356,"2":0.08470289353621892,"3":0.05267269699401421,"4":0.062440686335447616,"5":0.06330074347311188,"6":0.0528779232836909,"7":0.085363490138899,"8":0.053122899674914875,"9":0.08701286377399757,"10":0.11786007865773532,"11":0.12193417850926881,"12":0.07451351832692574,"13":0.12046388481828396,"14":0.02721924408396218,"15":0.02999659530078606}}},{"out_depth":16,"out_sx":12,"out_sy":12,"layer_type":"relu"},{"sx":3,"sy":3,"stride":3,"in_depth":16,"out_depth":16,"out_sx":4,"out_sy":4,"layer_type":"pool","pad":0},{"out_depth":10,"out_sx":1,"out_sy":1,"layer_type":"fc","num_inputs":256,"l1_decay_mul":0,"l2_decay_mul":1,"filters":[{"sx":1,"sy":1,"depth":256,"w":{"0":0.004786709822221089,"1":0.14395796150105528,"2":-0.05234260093206461,"3":0.004005387658675139,"4":0.047369432538130245,"5":-0.07001985491755909,"6":0.023818037558589977,"7":-0.024396345194414863,"8":0.08013395845406272,"9":0.009004177744734134,"10":-0.007278430567078163,"11":0.026495803137365565,"12":0.056739793250664014,"13":0.10536500957796649,"14":-0.053136177230172166,"15":0.027417624884330055,"16":-0.014973913111398845,"17":-0.03127238729916297,"18":0.02227980504348645,"19":0.10053786052095438,"20":0.00541770215031394,"21":-0.13376039614067456,"22":0.03464400940269426,"23":-0.01616568094888801,"24":-0.07580022323736163,"25":-0.013152189221746949,"26":-0.006236498386447915,"27":-0.021940610109467053,"28":-0.012833501307054221,"29":0.07427160164587027,"30":0.0686180181236706,"31":0.021924032502234958,"32":-0.055760397570605545,"33":-0.011710286811047816,"34":-0.026450781523207192,"35":-0.04413958911199987,"36":0.011485245003602582,"37":0.03341628973284783,"38":0.015508019826120458,"39":0.02128402153157563,"40":-0.05752448625482979,"41":-0.019562776744611758,"42":0.022934573530324995,"43":-0.047852439316004886,"44":-0.02698701880619884,"45":-0.045173060150183755,"46":-0.008688556646577016,"47":0.0712203577578298,"48":-0.0140838011227989,"49":0.011541706011570618,"50":0.10919313593900248,"51":0.0022774678193027364,"52":-0.15231456511680488,"53":-0.18548471642707295,"54":0.030158175810692325,"55":-0.012018843837069876,"56":-0.02762478554939678,"57":0.015141401769912358,"58":0.16098850930212646,"59":0.0444458425668714,"60":0.02807863903842453,"61":0.0017543065016352888,"62":0.06285577642953982,"63":-0.06118094427282279,"64":0.08798502628729774,"65":0.02323507414959328,"66":0.14867627354964155,"67":0.09656902192052455,"68":0.14208478107535602,"69":-0.07341852116921582,"70":-0.016086647232604896,"71":-0.040314120497052644,"72":0.14001961965672,"73":0.015662384559238508,"74":-0.11708536009098224,"75":0.041932941442525185,"76":-0.03917198741064781,"77":0.08572544878809447,"78":0.08075761969408085,"79":0.24810924242824828,"80":-0.02574152234793361,"81":0.0007426523764770925,"82":0.10792019434857891,"83":-0.039244712547370865,"84":-0.04631646791910829,"85":0.014484461247025755,"86":-0.08999552871084444,"87":-0.057459089082602874,"88":-0.038599014739340534,"89":0.004052977369961273,"90":-0.04795149056285767,"91":0.003985231318139553,"92":-0.0821500471423433,"93":-0.09324875776646191,"94":-0.14562442824638291,"95":0.011312548865240229,"96":-0.09689859859494764,"97":-0.08801212096740153,"98":0.05627045011201209,"99":-0.035086697565100564,"100":-0.12438626051610006,"101":0.03652749604301239,"102":0.08128890023047226,"103":-0.009393236550689927,"104":0.07970682592941306,"105":-0.049567721976267645,"106":-0.22117349969355982,"107":-0.04447925894441636,"108":0.010011553526161624,"109":0.009727371260482382,"110":0.1363064217359146,"111":0.005726238167475014,"112":-0.08760613918940846,"113":0.040491078104666366,"114":-0.06262321468941136,"115":0.0031442942754973196,"116":-0.1509956486822734,"117":-0.033646877434142075,"118":0.08244306469179367,"119":0.0706365267927373,"120":-0.1490786389701187,"121":0.04149547734740436,"122":-0.041274615775427514,"123":0.09579642940965966,"124":0.005937937312766503,"125":0.01643374898866285,"126":0.08213764710882884,"127":0.06613277294866808,"128":0.014911389726279988,"129":-0.15450993897593793,"130":0.049500542683849014,"131":-0.09213794197736658,"132":-0.07892441611984877,"133":-0.16176626548084516,"134":0.009456931994624416,"135":0.007477185826271337,"136":-0.08805602161075694,"137":-0.07126228565236269,"138":-0.08478569766604295,"139":-0.13734612267308818,"140":0.0747084340109422,"141":-0.0800335245944758,"142":0.06782266788059793,"143":-0.034046110005541745,"144":-0.23472126333756943,"145":0.015491864029899235,"146":-0.06555283592745721,"147":-0.12708114024925138,"148":0.1925663035207067,"149":-0.08369669210957274,"150":-0.10382201541313944,"151":0.032871958149916114,"152":0.1667616025558682,"153":-0.054190250204682724,"154":-0.01777487077008933,"155":-0.009247088614106861,"156":-0.038392224181084914,"157":-0.06574614253008321,"158":-0.2817237915945176,"159":-0.11917483550512589,"160":0.08833228498835338,"161":-0.11007871586195296,"162":-0.0003127617739628863,"163":0.00584689483842667,"164":0.09212299081291649,"165":-0.036424858086810806,"166":-0.057750943953972615,"167":0.11164133719741157,"168":0.042305667109959186,"169":0.02849718675263534,"170":0.04386216098790382,"171":-0.16715322363338656,"172":-0.06955749855368765,"173":0.058457901668256665,"174":0.008376396144101492,"175":0.04255819664811321,"176":0.022884553417585815,"177":-0.1308625778153955,"178":-0.04368734128343178,"179":-0.08366395980830969,"180":0.09047252769625337,"181":-0.006861873209948075,"182":-0.06432740705399799,"183":-0.009095669005776614,"184":-0.045148384024296606,"185":-0.16651009448683857,"186":0.11604184666154989,"187":-0.009478428384683907,"188":0.029494416560165295,"189":-0.11474813886785597,"190":0.03629360316291784,"191":0.11057442516468673,"192":-0.2231477607715917,"193":0.055240291669866604,"194":0.01930671860668327,"195":-0.06414883822464391,"196":-0.12230209689077293,"197":0.04532926994492081,"198":0.13144289017858546,"199":0.018547118741047895,"200":-0.11682795862506706,"201":0.06174237252426942,"202":-0.0915745307666653,"203":-0.010134662502515046,"204":0.0425711996765841,"205":-0.07936091648705461,"206":0.06687158638597948,"207":0.0033019479093970017,"208":0.0468590467428045,"209":-0.04644821814420879,"210":-0.07997310415427322,"211":-0.1542499517905277,"212":-0.025298646566602453,"213":-0.004932107330238635,"214":0.05190125773349736,"215":-0.11011828915046931,"216":-0.09823313712057881,"217":0.06565183039635011,"218":0.02598335702362785,"219":0.005392628958309476,"220":-0.07198333470288096,"221":0.1090391260729092,"222":0.034322663908557656,"223":-0.12035452966539785,"224":-0.12064451613629226,"225":0.04083716013204792,"226":0.041016267399760255,"227":-0.00240111954418647,"228":-0.1168705727963645,"229":0.04139539030734667,"230":-0.025527436913755554,"231":-0.09083932428645868,"232":-0.12740473519620302,"233":0.0014112392512319613,"234":-0.005398704253228377,"235":0.0328401705816049,"236":0.23212660522195325,"237":0.12304061160717475,"238":0.04751120500289877,"239":0.023359876629028338,"240":-0.044179739175911344,"241":-0.14722582596537662,"242":-0.0523018219439606,"243":0.040591820046217086,"244":0.03293442563502276,"245":0.015419803210673565,"246":0.14981710039334187,"247":-0.0016200518936353124,"248":0.0645376416706641,"249":-0.15113341454417356,"250":-0.12558718253812373,"251":-0.003941046192276712,"252":0.10488902893361308,"253":0.004568894097820532,"254":0.06687733496825243,"255":-0.030282453524138414}},{"sx":1,"sy":1,"depth":256,"w":{"0":-0.0520783578079841,"1":-0.12503522700857214,"2":0.06393168106810826,"3":-0.23067021262285364,"4":-0.2138485706294087,"5":0.03980163147231281,"6":-0.15329446819689008,"7":0.0033444369249288996,"8":-0.08626349143777487,"9":-0.011610116754280857,"10":0.04559310026388462,"11":0.12155240864282084,"12":0.04030405402889531,"13":0.030067450484866053,"14":-0.15718520763500038,"15":-0.07454048235177396,"16":-0.10453499505896813,"17":-0.029266807422569374,"18":-0.07809700747695864,"19":0.06622993870695863,"20":0.0827722189228651,"21":0.006901239904632003,"22":0.013947312765719182,"23":0.029509445031049245,"24":0.029532805267369882,"25":0.002098406987300238,"26":-0.07126446954754549,"27":0.07823840560328973,"28":0.010578231737548141,"29":0.1346557602969557,"30":0.06871370095865939,"31":0.06035330204026438,"32":0.029057763530499988,"33":0.13643604658940514,"34":0.03623966354615823,"35":0.0868801908861381,"36":0.025673403528137215,"37":-0.12736205126421232,"38":-0.04468769461229054,"39":-0.042865607308951066,"40":0.02494552959029824,"41":-0.03567139838386954,"42":0.09608552306266278,"43":0.26078668778783837,"44":0.029934498130104133,"45":0.0114365080205761,"46":0.14686922027614457,"47":0.07528613513016462,"48":0.03669941082576244,"49":0.08245384951470014,"50":-0.04055700317966368,"51":0.08022633805754194,"52":-0.01503476206548901,"53":0.07846764105508014,"54":-0.02103847363510116,"55":0.14100915431155758,"56":0.09979098587390166,"57":0.04633303036968653,"58":-0.03219415939215693,"59":-0.15763861289720216,"60":-0.04809975085002675,"61":0.019745440400891615,"62":0.005120917219317964,"63":0.09155525862098657,"64":-0.05910622098706475,"65":-0.05033876928839326,"66":-0.027009098649881966,"67":-0.12015834219911062,"68":-0.13198223016494579,"69":-0.061336786167212366,"70":-0.13384092151256746,"71":0.03453164469619665,"72":0.09316157108092528,"73":-0.24565159588253468,"74":-0.037717293695749,"75":0.05826921939058615,"76":-0.03825708738891927,"77":-0.05880599084280238,"78":-0.18767856949242845,"79":-0.2788358342900048,"80":0.06168386648417428,"81":-0.04219567670963594,"82":0.03593833040031754,"83":0.12578945566378266,