{"layers":[{"out_depth":1,"out_sx":24,"out_sy":24,"layer_type":"input"},{"sx":5,"sy":5,"stride":1,"in_depth":1,"out_depth":8,"out_sx":24,"out_sy":24,"layer_type":"conv","l1_decay_mul":0,"l2_decay_mul":1,"pad":2,"filters":[{"sx":5,"sy":5,"depth":1,"w":{"0":-0.11682336762927985,"1":0.17967665772902858,"2":0.13692714753166257,"3":0.21686620798668066,"4":0.3141622689229051,"5":0.05726000190527435,"6":0.3183366771954718,"7":0.13261439909519085,"8":0.2117848787234432,"9":-0.1415855472098045,"10":0.170077562276704,"11":0.375075094511798,"12":0.03868851708876778,"13":-0.03239865233060658,"14":-0.04381659801573383,"15":-0.025597695200627046,"16":0.14878539471672522,"17":-0.056680832211887786,"18":-0.024081768371239484,"19":0.014157060477696376,"20":0.6728974885063865,"21":0.011608522582794777,"22":-0.1591914688663864,"23":-0.31517411990900607,"24":-0.37800138982365805}},{"sx":5,"sy":5,"depth":1,"w":{"0":0.2562407853967443,"1":0.19926136516137471,"2":-0.2699661597180765,"3":-0.4053030759509073,"4":-0.1385987279561574,"5":-0.29801360918552455,"6":-0.507725642495527,"7":-0.331812539016029,"8":-0.14434198542425003,"9":0.08798625639966788,"10":-0.2622634660097289,"11":0.043779257205169265,"12":0.016261865952859587,"13":0.37144279253603957,"14":0.01685882559620528,"15":0.3077758162375445,"16":0.24769650880684466,"17":0.2389044120281121,"18":-0.04509077546601381,"19":0.39215274977655307,"20":-0.08955569551854971,"21":-0.004824318271071888,"22":0.023591768779423934,"23":-0.019811911986404026,"24":-0.008062063938733353}},{"sx":5,"sy":5,"depth":1,"w":{"0":0.21271132287415853,"1":0.15733183543859097,"2":-0.003596039517101109,"3":-0.08991189098945841,"4":-0.6385994028598704,"5":0.05768283391644338,"6":0.2495807159494334,"7":-0.10119844795223414,"8":-0.06923657452539624,"9":-0.2077305743698317,"10":0.31705777793093576,"11":0.016953666950250308,"12":-0.0007234147309006203,"13":0.039830004372100956,"14":-0.6844363196755551,"15":0.05164549820479945,"16":0.6001416009332305,"17":-0.2670500154554621,"18":-0.24278895962481964,"19":-0.6004277696421656,"20":0.06813753614893,"21":0.4155674126490434,"22":0.23524037420829605,"23":-0.5223696381700775,"24":-0.24392008930769213}},{"sx":5,"sy":5,"depth":1,"w":{"0":0.057486353564885934,"1":0.46952753914077744,"2":0.24353158662301116,"3":0.4480846153692497,"4":0.23393834191445761,"5":0.04421549976894945,"6":0.23270781485276115,"7":0.5099804420926727,"8":0.4871072262224688,"9":0.4822450153793022,"10":-0.3542496550082951,"11":-0.12371327532819826,"12":-0.3656703908047838,"13":-0.0820284088122272,"14":0.3291077717133705,"15":-0.6035148385178908,"16":-0.21237641586016415,"17":-0.2145922256801053,"18":-0.5630878198958238,"19":-0.43492907073012793,"20":-0.37572988114861705,"21":-0.4371939952940972,"22":-0.4608540568665527,"23":-0.3898436694199633,"24":-0.15105354048497738}},{"sx":5,"sy":5,"depth":1,"w":{"0":0.4753069987165715,"1":-0.28546140016415855,"2":0.2642566144526634,"3":-0.41269615220043876,"4":-0.294459434810973,"5":-0.1785575329336502,"6":0.20232717909081024,"7":0.2773330276371016,"8":0.2004981599273546,"9":0.28108508325663045,"10":-0.15955470242184666,"11":0.02904259340944252,"12":-0.006669609716287621,"13":0.21946461793691216,"14":0.3616489876740178,"15":-0.2500046136741369,"16":-0.06783530438219097,"17":0.1260193718231775,"18":0.08741906668569176,"19":-0.014373554230344497,"20":0.03451709076042667,"21":-0.19862675544118288,"22":-0.6890293940495825,"23":-0.27429198751338196,"24":-0.18552687121189068}},{"sx":5,"sy":5,"depth":1,"w":{"0":0.4056811882891072,"1":-0.15976176393212474,"2":-0.15213532751848718,"3":0.23451924110948547,"4":-0.18127522680624866,"5":-0.1697554954350845,"6":0.1227753966406631,"7":0.03599539779197773,"8":-0.47792934386590413,"9":-0.1731912128176528,"10":-0.20534386104080832,"11":0.01716742825016553,"12":-0.15821905996868155,"13":-0.3040773731943278,"14":-0.00502427803563067,"15":-0.15488608531684872,"16":-0.07940209180468516,"17":-0.4091015746860412,"18":0.015901583715037044,"19":-0.027697335818091518,"20":-0.30550807882892606,"21":-0.1281936492021594,"22":-0.19364829304632936,"23":-0.07611543665929,"24":-0.42516651734134403}},{"sx":5,"sy":5,"depth":1,"w":{"0":-0.10923473739247337,"1":0.37314542555433944,"2":-0.5115105147073515,"3":0.04627614826327902,"4":-0.14001917273456901,"5":0.004421527880872175,"6":0.23585092895051368,"7":0.40648664769128584,"8":0.17708283033032765,"9":-0.1906405080289432,"10":0.06289769111806759,"11":0.3428480976855606,"12":0.13251629678320645,"13":0.31069474699315214,"14":0.2825079986584686,"15":0.38179860376167124,"16":0.045842113213516826,"17":0.31157365459787895,"18":0.28514856804969535,"19":0.27898934527829095,"20":-0.011188182683690876,"21":-0.055672089226382664,"22":-0.3028942062301634,"23":-0.3422685937806475,"24":-0.06636068104230684}},{"sx":5,"sy":5,"depth":1,"w":{"0":-0.11375330836107063,"1":-0.23361290397291085,"2":0.1172547052451241,"3":0.10395078797805299,"4":0.31641434131922447,"5":0.02542524637533329,"6":0.08637792447865918,"7":-0.0684970558123084,"8":-0.13695796008399944,"9":0.32248199259946103,"10":-0.1875337154122699,"11":-0.3869100268833182,"12":-0.25500968842162763,"13":-0.02708480484911326,"14":0.18030640139336637,"15":0.04630068478034429,"16":-0.1971585299819837,"17":-0.02078219596827784,"18":-0.23371523241780512,"19":0.5691790997395246,"20":-0.4642421609869944,"21":-0.3987287417646173,"22":0.09291766016476491,"23":0.08450588097210585,"24":0.32759358268699235}}],"biases":{"sx":1,"sy":1,"depth":8,"w":{"0":-0.03280425853926489,"1":0.0562428087537468,"2":0.1328288726055379,"3":0.16795332127622004,"4":0.017291909023178738,"5":0.34997294342048085,"6":-0.011479087111182201,"7":0.041802594761244635}}},{"out_depth":8,"out_sx":24,"out_sy":24,"layer_type":"relu"},{"sx":2,"sy":2,"stride":2,"in_depth":8,"out_depth":8,"out_sx":12,"out_sy":12,"layer_type":"pool","pad":0},{"sx":5,"sy":5,"stride":1,"in_depth":8,"out_depth":16,"out_sx":12,"out_sy":12,"layer_type":"conv","l1_decay_mul":0,"l2_decay_mul":1,"pad":2,"filters":[{"sx":5,"sy":5,"depth":8,"w":{"0":-0.07484820654360064,"1":-0.06261773693837427,"2":0.08470560210797329,"3":-0.0898685564538103,"4":-0.023145337890653074,"5":-0.13154841022478647,"6":-0.04915492447521855,"7":-0.10737589795327131,"8":-0.04529672757760211,"9":0.14384087132202159,"10":0.10615041573052153,"11":-0.17588604895346835,"12":-0.11322119435773761,"13":-0.0893077497373242,"14":0.02208933370201034,"15":-0.13975865440867097,"16":-0.002566447577307915,"17":0.009244676497405454,"18":-0.0692695005426271,"19":-0.21742983464435928,"20":-0.08004274825440066,"21":0.009083849388449219,"22":-0.023879713333365287,"23":0.04372840402004856,"24":0.18567520787151687,"25":0.03203119884581773,"26":0.027431145680808688,"27":0.000699263191525209,"28":-0.04336995880230878,"29":0.0093136806386772,"30":0.022902620036539704,"31":0.07006634472200683,"32":-0.014004988613880559,"33":0.16287566765323114,"34":-0.0758385117299703,"35":-0.08720990781664255,"36":-0.03309800593622496,"37":-0.07930594399915726,"38":0.06283357210187067,"39":-0.02239091795990511,"40":0.003927156473703678,"41":-0.009039799654071937,"42":-0.01829200668525067,"43":0.0938883176690584,"44":0.033710154203961125,"45":-0.02139331946663904,"46":0.001967549460154565,"47":-0.11401948283431033,"48":0.023683015699029204,"49":0.12603150404506952,"50":-0.03690217694572228,"51":-0.06080322861737209,"52":0.09039420405870127,"53":-0.11030888295696119,"54":0.006405097119394966,"55":0.19328347719972608,"56":0.12234848705976796,"57":0.02841379359624693,"58":-0.09988608391686035,"59":-0.16490025490619947,"60":-0.04383212592240346,"61":0.014932372821738185,"62":0.006690701670560488,"63":-0.005321247538713926,"64":-0.028820269243747716,"65":0.12405520504508698,"66":-0.18147924260959447,"67":-0.30179165429649185,"68":0.05379382508815083,"69":0.026608378408517222,"70":-0.11033573073836506,"71":0.042112305193273844,"72":0.07837917270259352,"73":0.07840188735759322,"74":-0.1283595921475882,"75":-0.1521923766971185,"76":0.005952506919292395,"77":-0.07818792487545782,"78":0.020837951638871487,"79":-0.04347296680040157,"80":0.054300358828475385,"81":-0.23920235500640047,"82":0.028548012961416593,"83":0.1374523848224292,"84":0.11309772686608364,"85":0.008097438573245587,"86":-0.011500442215881987,"87":-0.08753198600191162,"88":-0.12852770131052818,"89":-0.15674485399885474,"90":-0.1688863429023797,"91":0.21565645119493224,"92":0.09186211375879368,"93":-0.009453041605451643,"94":0.08420728360556334,"95":0.07033235206907999,"96":0.023758137205900268,"97":-0.09537641933325569,"98":-0.10474038040716324,"99":0.1477180817259456,"100":0.1602236149721989,"101":-0.10770199795287864,"102":0.00761575485424208,"103":0.09968776739061093,"104":0.03556186740573862,"105":0.01968503146413644,"106":-0.2247797947109933,"107":0.20583199770936253,"108":0.14749094316762418,"109":0.004728910134725698,"110":0.01919235156501743,"111":0.09148150097818006,"112":-0.08093895413145627,"113":-0.039539384087689096,"114":-0.15362316853746555,"115":0.04124174806577114,"116":0.16944010403110854,"117":0.08636447302901404,"118":-0.005940930697876575,"119":0.023630951693598103,"120":-0.1579941608508452,"121":-0.03757291378363607,"122":0.053639346779100074,"123":-0.01162367535904135,"124":-0.20862589512398602,"125":0.04748040642032391,"126":-0.07906094817498016,"127":-0.17777240575099892,"128":0.027092477111780484,"129":-0.17356621584393173,"130":0.026906106018724042,"131":-0.0027781311878612874,"132":-0.04805743542328941,"133":0.042156020522337356,"134":-0.1930158708419572,"135":0.010754981747724275,"136":-0.1519835172006638,"137":0.012676258524284306,"138":-0.18931312958093635,"139":0.0803703292959627,"140":-0.156546372699443,"141":0.011959675938040499,"142":-0.1943148470191526,"143":0.015128583729944953,"144":-0.04118579954059037,"145":0.10831974749960076,"146":-0.20647254397659465,"147":0.08534054616161778,"148":0.05730557418516729,"149":-0.08852668798934431,"150":-0.16277946284389622,"151":0.09219369601480361,"152":0.02371025754937843,"153":-0.05926319285359002,"154":-0.06357115134325843,"155":0.14373247793090344,"156":0.02821192391133135,"157":-0.12329025399794963,"158":-0.06103910912334753,"159":-0.003060890679695888,"160":-0.17495069202289742,"161":0.006643624193918335,"162":0.19006942521043826,"163":0.06425196333715251,"164":0.004796940706002435,"165":0.003835745228177898,"166":0.07177842205640816,"167":0.13709413413835145,"168":-0.03042220753213157,"169":0.10100098185350687,"170":0.009441326254631077,"171":-0.07309705335459661,"172":-0.05635578672533067,"173":-0.08617792480271212,"174":-0.2003534094818736,"175":0.1568519091898238,"176":-0.07571202893493899,"177":0.08699246461761194,"178":0.028244186466111855,"179":-0.1560905929280909,"180":-0.04316653164590084,"181":-0.05883210549723727,"182":-0.004729164180035807,"183":-0.012125855332831996,"184":0.036987999223431496,"185":0.017657589482025338,"186":0.16048246307105693,"187":-0.25350516106246584,"188":-0.1445453368021246,"189":0.051148764378593455,"190":-0.11785785370828022,"191":-0.08709980612783669,"192":-0.10101518305680648,"193":-0.011984377207234578,"194":0.03478602598875415,"195":-0.27611400478786485,"196":-0.004260140327980219,"197":-0.030945783007396168,"198":0.10869818847326052,"199":-0.036582503439019566}},{"sx":5,"sy":5,"depth":8,"w":{"0":0.10008734326572234,"1":0.047148479426344814,"2":0.1885033455924744,"3":-0.11712136722297939,"4":-0.15481843512162335,"5":0.04961968319371437,"6":-0.04234938132428707,"7":-0.1682764181025518,"8":0.0007071719499971787,"9":-0.009057984342619911,"10":-0.06300914936122708,"11":-0.09292549270262736,"12":0.016927395492239036,"13":0.013415814356508435,"14":0.1347192907079216,"15":0.03883670680500552,"16":-0.10995636331714129,"17":-0.02954823129879634,"18":-0.052274837967379834,"19":0.0738721721643229,"20":-0.00029347933428426187,"21":0.021744418936924303,"22":-0.062355314175744324,"23":-0.013165694646977293,"24":0.00015157474768092523,"25":-0.10946875578220752,"26":0.030887341537992438,"27":0.02583026387250658,"28":0.17541025971268254,"29":-0.005476353842513073,"30":-0.04286401581755034,"31":-0.03138605986572882,"32":0.043402971784954704,"33":-0.1648182296092069,"34":-0.06130725771528539,"35":0.22090913964633,"36":-0.03254469642260417,"37":0.18429105596757012,"38":-0.05896818035338169,"39":-0.010219537412245981,"40":0.03035179694050274,"41":-0.10826540719863476,"42":0.027213784841506956,"43":0.011273016819827373,"44":-0.00021555539694311323,"45":0.0004788995421347447,"46":0.12258331459277029,"47":-0.18517914498361113,"48":-0.04677125824163131,"49":-0.06020535177075598,"50":-0.04138536619238266,"51":-0.02089321772176189,"52":-0.056655370375194636,"53":0.1591025215618446,"54":-0.00504335972853931,"55":-0.06911007958517563,"56":0.014944711089001073,"57":0.05834924713238282,"58":-0.16922685784686492,"59":-0.054909785624674946,"60":-0.009368706219768274,"61":0.006165736044383117,"62":-0.10654663697111308,"63":-0.20026855693685874,"64":-0.11048508695500615,"65":0.01749075088315935,"66":0.003287206421552076,"67":0.0020896310630596293,"68":0.06341224173839742,"69":-0.06024317309405182,"70":-0.11415903293645784,"71":-0.026172846918606087,"72":-0.14016723712490373,"73":0.17991211466192739,"74":0.13541241425677775,"75":-0.07822247749364034,"76":-0.08519358232907746,"77":0.03850139489545985,"78":-0.02129835063667945,"79":-0.08028000320249812,"80":0.1631074919444263,"81":-0.023952328191756873,"82":0.1282648501428014,"83":-0.015748173847048363,"84":-0.049277888792814036,"85":-0.038634145298720175,"86":-0.06998515241342451,"87":0.07338451646576814,"88":0.03319785618208464,"89":-0.17050156644039385,"90":0.09511982335138236,"91":0.0062178941862017795,"92":-0.0785400835161029,"93":0.04909813784459061,"94":-0.19767605822050338,"95":-0.07889914239278749,"96":-0.02275844640481893,"97":-0.03317025326063186,"98":-0.16667042889614841,"99":-0.1505835003069711,"100":0.05940385605653972,"101":-0.07646639438888725,"102":-0.014959512571149946,"103":0.035260122870342234,"104":-0.08793226810596584,"105":0.007891756725246848,"106":-0.03913848706348448,"107":0.016883824418152827,"108":0.13508397947280323,"109":0.03554388987109356,"110":-0.05870682096008513,"111":-0.08869446777213025,"112":-0.06783866583575456,"113":0.07606415197358381,"114":-0.00038972511468553846,"115":0.09924240469929706,"116":-0.027867575343373162,"117":0.19650848590128803,"118":0.04922546828922052,"119":0.15903526893809092,"120":0.06431445370782804,"121":-0.03225710104817418,"122":0.16882789631476264,"123":-0.030203382725439102,"124":0.08350470850104752,"125":-0.0017226225512397527,"126":-0.015436095142440867,"127":-0.11077977777074985,"128":-0.14408557395997798,"129":-0.09974958882117284,"130":-0.020829249090461858,"131":0.04930992785306575,"132":-0.0024001128222932546,"133":0.177745718484628,"134":0.018137012395024157,"135":0.09491632881732666,"136":-0.10790608884526814,"137":-0.004047985471662236,"138":-0.07575701362127112,"139":-0.01949161833374978,"140":0.13654222878858358,"141":0.04525948479539081,"142":-0.15621042522838954,"143":-0.07807122033798478,"144":-0.21860833928123777,"145":0.06502580673135899,"146":-0.03973346395173498,"147":-0.07060166995217598,"148":0.005599400991216153,"149":-0.04605062648755768,"150":-0.05743841529438864,"151":-0.06865798437000604,"152":0.011236906129012736,"153":-0.05071596324825721,"154":0.09405058475038398,"155":0.01591234995387794,"156":0.06470182955265649,"157":-0.04492092815774265,"158":-0.06766727463870749,"159":-0.0771939287175399,"160":-0.03298916529027954,"161":0.014938079963199985,"162":0.046375489037067806,"163":-0.05350731624955731,"164":-0.1074174555923012,"165":0.0668654317791303,"166":0.12434082890841879,"167":-0.1793329658990382,"168":-0.020845169316448278,"169":0.013789715281726666,"170":-0.02919706443036985,"171":-0.08065437798069114,"172":0.068070552516443,"173":-0.07186363302998361,"174":-0.13600609979620723,"175":-0.004116194180843592,"176":-0.05575552196617801,"177":-0.0633400288634361,"178":0.03630339897023868,"179":-0.015226782893058457,"180":0.07103813260827449,"181":0.0897773536983128,"182":-0.16990407047166062,"183":-0.1309047250670912,"184":-0.05493567845368953,"185":0.101539618357513,"186":0.0065128210656875025,"187":-0.07364349788828463,"188":-0.029382502631435565,"189":0.1930372666439391,"190":-0.11576066657896285,"191":-0.13811672040325895,"192":-0.12303577794718017,"193":0.038342238610787616,"194":-0.0696446190193032,"195":0.09824387702747828,"196":0.13512460121201866,"197":0.03248491301981472,"198":-0.15484857961540935,"199":-0.012883560502570468}},{"sx":5,"sy":5,"depth":8,"w":{"0":-0.013298202063333464,"1":0.09995156655649144,"2":-0.17374021275409213,"3":0.12238325333033484,"4":0.1180290097147276,"5":-0.0019028654815252735,"6":0.07269153493451433,"7":-0.22473083516049022,"8":-0.08600055336722358,"9":0.22624196467633445,"10":-0.2963467983240455,"11":0.23464171848313561,"12":0.056197801322953704,"13":-0.053225551171568984,"14":-0.028522736542872677,"15":-0.16796640450020608,"16":-0.03245370867034575,"17":0.1813761578155322,"18":-0.15072380752949902,"19":0.18014847456576386,"20":0.14033294083394665,"21":0.1756472539002455,"22":0.00028595092209402623,"23":-0.03808955114706506,"24":-0.03991960237297921,"25":-0.01391497965025362,"26":0.002287442742310417,"27":0.12430699832112593,"28":0.0555393538237885,"29":0.014901193260046741,"30":0.10212799212068546,"31":0.07242708081642463,"32":-0.09177111687621874,"33":-0.16377921323242195,"34":-0.15802397855556688,"35":-0.1048381945205767,"36":-0.08184389130328522,"37":-0.0338733316518227,"38":0.005955702841025128,"39":-0.17973161213242986,"40":-0.04541415002415102,"41":-0.0004907762901918368,"42":-0.08957080186847316,"43":0.00713632144267929,"44":-0.015960092685235037,"45":0.01582856505163059,"46":-0.02487809272426034,"47":-0.1193475625789532,"48":0.01061006419302709,"49":-0.2013347919505568,"50":0.09091834229446175,"51":0.17565170158606422,"52":0.02291408397157215,"53":0.07056149370388802,"54":-0.0930094196591646,"55":-0.2014982803533835,"56":-0.14209422329791205,"57":-0.010754151727042182,"58":-0.11605867457267886,"59":0.04022265645276797,"60":0.036999558422975025,"61":0.006091050869001961,"62":-0.16683751350027134,"63":0.03019006023996657,"64":-0.03049537970271537,"65":-0.11771240208621822,"66":-0.16875092448839923,"67":0.10026174857758095,"68":0.25601712230583007,"69":0.044797766366305426,"70":0.06042426259784981,"71":0.04024207128513133,"72":-0.09024609578844425,"73":0.02711992016220924,"74":-0.11926508193878778,"75":0.0007463424349467987,"76":0.022927806047100558,"77":0.11379277843796984,"78":0.07838256778608817,"79":-0.005742483542707764,"80":-0.08971203376699498,"81":-0.020097438431085527,"82":0.1425356746210125,"83":0.00490293107578078,"84":-0.01344985023881879,"85":-0.16357129944416968,"86":0.2672070491525792,"87":-0.13638304507293517,"88":-0.09976680870218224,"89":-0.17371269430336614,"90":0.45641527755494415,"91":-0.12621396443835686,"92":-0.04064990589920072,"93":-0.24436996668150393,"94":-0.1402478677289437,"95":-0.08438351880996448,"96":0.03241273136794366,"97":-0.22889781804553921,"98":0.12304650753292706,"99":0.0651746525988462,"100":-0.05139133651283407,"101":-0.04946241345782862,"102":-0.17216503683835874,"103":-0.14768661549824377,"104":-0.04090990738775464,"105":-0.07797162961660856,"106":-0.14418635127201238,"107":0.1485669981984228,"108":0.06103751222018093,"109":0.02678081004585162,"110":-0.10372714699366506,"111":0.06772432459644379,"112":-0.08143641929215226,"113":-0.08940416373345564,"114":-0.10912098354682752,"115":0.0709815596196287,"116":-0.015706604741174326,"117":-0.21974513955139297,"118":0.001937585479725983,"119":0.12949715086376382,"120":0.12312609565013574,"121":-0.05711463339709571,"122":-0.04810730826657922,"123":0.16391512491972707,"124":0.1664330703258336,"125":-0.005823018046581565,"126":0.21300507171838953,"127":0.23906693375627164,"128":-0.0684338367772597,"129":-0.1097582305605752,"130":0.26974995824248843,"131":-0.25445697322606864,"132":-0.07612799991160828,"133":-0.13526949931554894,"134":0.07909286175893827,"135":-0.17549135751346412,"136":0.05095214427632282,"137":-0.16238661529060625,"138":0.2964570335047857,"139":-0.17289571352746208,"140":-0.10436684770941697,"141":-0.1757133064244547,"142":-0.06116589360191975,"143":-0.12338026016332505,"144":0.003655689607135757,"145":-0.08160962859490895,"146":-0.02431352742097796,"147":-0.13679756647704475,"148":-0.03803986044467942,"149":-0.06824493435954605,"150":-0.03035032907495159,"151":0.03521965868158248,"152":-0.04120383966127653,"153":0.04526005857319694,"154":-0.11584038759148291,"155":-0.07905653537827245,"156":0.06311355778089504,"157":-0.08113942915694362,"158":0.01914993835591397,"159":0.13688878638646632,"160":-0.05838609877395207,"161":-0.1286351592531453,"162":0.07474900948606107,"163":-0.2164131017330103,"164":-0.10738119718143377,"165":-0.23403185534764856,"166":-0.012296907602884554,"167":0.37761994108612035,"168":0.23056449650151067,"169":-0.269767816298743,"170":0.24207797842514925,"171":-0.2886181367761625,"172":0.01900757077989031,"173":-0.27701716244791147,"174":-0.01470154621424051,"175":-0.006382297008100625,"176":0.16999284115938,"177":-0.2489180321694804,"178":0.20035845911440603,"179":-0.32373619043503216,"180":-0.09683735358880322,"181":-0.2733681693111162,"182":0.13520406739108132,"183":0.000667729998815242,"184":-0.07457241915860391,"185":-0.04336962581877705,"186":-0.10396160426908756,"187":-0.03954524785370416,"188":-0.00019477012856422684,"189":0.04801003164261786,"190":-0.07160942166737498,"191":0.045220209854644526,"192":-0.11118147065708724,"193":0.07833776440110103,"194":-0.07370388173838674,"195":-0.1278782900614274,"196":-0.1441253931561268,"197":-0.052932767031955416,"198":0.11490015871317819,"199":0.1931338663942737}},{"sx":5,"sy":5,"depth":8,"w":{"0":0.07103281235130786,"1":0.010066893674404276,"2":-0.12136794282329737,"3":-0.06111156661167862,"4":-0.0709855604642769,"5":-0.1310906080139894,"6":-0.027253279266672467,"7":-0.026435809373753477,"8":0.029372576801365922,"9":0.20240830722892617,"10":-0.10810019118903369,"11":-0.16753821775403,"12":-0.04586519030530225,"13":-0.021847094178239115,"14":0.00708624849719713,"15":0.013296463799605569,"16":-0.07980724830371651,"17":0.1822920446865474,"18":-0.09782889724895565,"19":-0.20505635464481414,"20":0.06469342754519933,"21":-0.020234660716930274,"22":0.09490159542829799,"23":-0.10157882213226156,"24":-0.22643476130426723,"25":0.20923284102508835,"26":-0.02329251329470835,"27":-0.1354906598527343,"28":-0.11017146932185277,"29":0.04144760838017569,"30":0.055892679644342046,"31":-0.21517594539977075,"32":-0.2955462516989262,"33":0.08229612029650812,"34":0.013860433356659738,"35":-0.1009387556822788,"36":-0.09655805915283538,"37":0.08481081795276803,"38":-0.18903788108336594,"39":-0.2445954658980185,"40":0.09098362701313513,"41":0.0872471827184376,"42":-0.21903081592003795,"43":-0.16998104383318732,"44":-0.11225559011399368,"45":-0.01834003107511213,"46":0.060727415547071666,"47":0.02048693619597376,"48":0.065676074879488,"49":-0.03167255279809932,"50":-0.005236294794995086,"51":0.049146835265353725,"52":0.10551085326019437,"53":0.04855557561943406,"54":0.07087101941696552,"55":-0.06570031705132728,"56":0.04989380022865844,"57":0.24036873384086044,"58":-0.15986992820820856,"59":0.20639857511794496,"60":0.07424805363920085,"61":-0.0709155648485666,"62":-0.06055841351031355,"63":-0.10569793217566105,"64":-0.08605792056298864,"65":0.12752928233058464,"66":-0.08220382396583183,"67":0.13266721168801252,"68":0.1263645315397881,"69":0.020238342275101604,"70":0.20638937016139058,"71":-0.12675383685438935,"72":-0.08193157887137817,"73":0.11317516895483579,"74":-0.030940045731149515,"75":-0.04851631643746594,"76":0.11586707205243577,"77":-0.03786917752604228,"78":0.18603799440240826,"79":-0.0991837360780614,"80":-0.004767239429222729,"81":0.18073134945310187,"82":-0.03661354203072372,"83":-0.1415019163067818,"84":-0.07876200845836005,"85":-0.07445271865683042,"86":-0.0009422338172802999,"87":0.0021199517969008644,"88":0.05233282009352071,"89":0.0842311403439558,"90":-0.12350195258171702,"91":0.15769828056432492,"92":0.06433741246811432,"93":0.020743260255041623,"94":-0.08416169328770991,"95":0.04833421356536071,"96":-0.15156311940969322,"97":-0.013859098529902497,"98":-0.14454088851044022,"99":0.3011084161788244,"100":-0.012800738656322499,"101":-0.07379145189948022,"102":-0.09675318937115365,"103":-0.026186371080834412,"104":-0.02344672248029645,"105":0.052544632467462944,"106":0.07360501800320969,"107":0.17658903020780709,"108":0.010113169954921111,"109":-0.03248708522420077,"110":-0.10322603960835122,"111":-0.023353032888030856,"112":-0.02239566249700893,"113":0.05535362537873999,"114":-0.07243284127807768,"115":0.03681517588672948,"116":-0.02641194780261684,"117":-0.07145499238094133,"118":0.06113752688977018,"119":0.08423952518368996,"120":0.07178012388005486,"121":0.006131431498619482,"122":-0.05416905870033339,"123":-0.21268354078013177,"124":0.15904859447959657,"125":-0.10296788566760541,"126":0.24396129299324265,"127":-0.09828227608308958,"128":-0.03667707281309582,"129":0.17639869930046126,"130":0.027968703650600245,"131":-0.11475984783426038,"132":0.07419815990217801,"133":-0.11378343081708706,"134":0.26670981273886585,"135":-0.13557738494974395,"136":0.00758229866341587,"137":0.09149800065070682,"138":0.07981133527708893,"139":-0.05657287287435533,"140":0.017038455918674998,"141":-0.14172500951945224,"142":0.10651221163646117,"143":0.014317373320491515,"144":-0.0021273796908332786,"145":0.1357510419973346,"146":0.08497475096243394,"147":-0.0133518259797034,"148":-0.11334082668193436,"149":-0.09314879226727783,"150":-0.10591311891016031,"151":-0.12834731139081212,"152":-0.02372312297616323,"153":-0.1895771900190103,"154":-0.055202653500928026,"155":-0.12921607572221255,"156":-0.0466129338494799,"157":0.021758806628415676,"158":0.001770310933698522,"159":-0.0396393054894897,"160":0.055266837927082806,"161":-0.015951153669529393,"162":-0.1201694176049419,"163":0.023612237074691123,"164":0.17539769324941853,"165":-0.03795807208919063,"166":0.10994508605597801,"167":-0.04719390040649867,"168":-0.04003736692055066,"169":0.023967807451123896,"170":-0.14512164106925007,"171":0.14404416876744414,"172":0.057659662133977246,"173":-0.21147450290086423,"174":0.041311737125739934,"175":0.08067835679836922,"176":0.01600518681351293,"177":0.0871827754319049,"178":-0.02133794142977115,"179":0.19140558903985413,"180":-0.09189587087383323,"181":-0.10718288453939182,"182":0.1089680253806616,"183":-0.14596114866034382,"184":0.046191032275011444,"185":0.0529129945438391,"186":-0.03506492985687856,"187":0.03272265100586145,"188":0.07134047663738023,"189":-0.030468915688984057,"190":-0.01791949604504717,"191":-0.05817341154468134,"192":0.1411528249744362,"193":0.0319062815077742,"194":-0.019215542595180088,"195":-0.035737561460735916,"196":-0.124934606703335,"197":-0.10912117054911256,"198":-0.04502544482703829,"199":-0.019992082301896117}},{"sx":5,"sy":5,"depth":8,"w":{"0":0.027229850695479455,"1":0.04363021111857169,"2":-0.08978186560711886,"3":-0.2157291743498093,"4":-0.05578420600880412,"5":0.0406626874072222,"6":0.020592518005545433,"7":0.023602767801572118,"8":0.011365696208846515,"9":0.11497556207520075,"10":-0.19336607973043374,"11":-0.09886875873521037,"12":-0.03375458215979041,"13":-0.05944029571863789,"14":0.10568055715634529,"15":-0.16278709093267238,"16":-0.0010328265190293318,"17":-0.1714163060159825,"18":-0.19891362241781788,"19":-0.0573296441618145,"20":0.024908390822583462,"21":-0.09713102825548567,"22":0.06606579586297828,"23":-0.01995777809602331,"24":-0.06842225727083405,"25":-0.2324243560198477,"26":0.030525151096769627,"27":-0.09537706973791701,"28":-0.009021063107843343,"29":-0.16814747205633265,"30":0.10254497275736589,"31":-0.07152689579966959,"32":-0.08606325252143958,"33":-0.07995135735820492,"34":0.040257494739838404,"35":-0.249140202971202,"36":0.012664130376503317,"37":-0.10047858701035454,"38":0.038161357881388074,"39":-0.0011681326802517366,"40":0.11294867810288961,"41":0.1703751335746816,"42":-0.07323714130359801,"43":-0.1341561540125955,"44":-0.1111946113035643,"45":-0.09709628384533804,"46":-0.021451181244527436,"47":-0.0035655209688879638,"48":0.13332538710971978,"49":0.022845107620100485,"50":-0.10285443734945686,"51":-0.04403436800036193,"52":0.0326905360089415,"53":0.027044570883836494,"54":-0.1511522678589133,"55":-0.10463611181830042,"56":0.05175766934415562,"57":-0.03886617722659554,"58":0.029951704513302698,"59":0.07940082333497422,"60":-0.050165478423167764,"61":-0.04914820712388428,"62":0.09784526934636456,"63":0.050893893431133826,"64":-0.051723769820102045,"65":-0.02511287252814702,"66":0.08163970461918858,"67":0.001121578780568546,"68":0.11377751344939584,"69":0.014098243230263912,"70":0.04500586628898748,"71":-0.04597442777491212,"72":0.016896977291627795,"73":-0.07953866014881826,"74":-0.06342817939673152,"75":0.043523248857003906,"76":0.044870084180143606,"77":-0.14467785798137364,"78":0.07907268958349391,"79":-0.005361512289196852,"80":-0.0007272592169185522,"81":0.0005823326471613747,"82":-0.14113346960659728,"83":-0.030598342991569563,"84":0.05397055733479806,"85":-0.04603150688017098,"86":-0.015253007985534611,"87":-0.09965743539010302,"88":0.12943812346364542,"89":0.13622591450631238,"90":-0.19141544205396357,"91":-0.08144999773129102,"92":0.18322657796165343,"93":-0.06316711320315167,"94":0.08552866699961416,"95":-0.2700376968010639,"96":0.03851968528285501,"97":0.037481186015635985,"98":-0.14110662499702506,"99":0.047271865193746904,"100":-0.028687509744067613,"101":-0.1463245692504036,"102":0.10011120586751147,"103":-0.044695163558198144,"104":0.16972575898826753,"105":-0.08251565561569216,"106":-0.10279035832482591,"107":0.12207248222859243,"108":-0.04918927378186055,"109":0.0350439294271038,"110":0.18300236795634128,"111":0.06326343398803456,"112":0.14631920023703485,"113":-0.01731474384138188,"114":-0.03003993207110565,"115":0.17844557012908194,"116":0.12532328538726964,"117":-0.1012167780052326,"118":0.043424587813751,"119":0.1640644259842128,"120":0.038939509141397474,"121":-0.05036450690142646,"122":-0.03703977487604153,"123":0.1101675185877959,"124":0.28761406830808955,"125":0.012861806815731545,"126":0.2163647056674799,"127":-0.10931650410808222,"128":0.041592307035662406,"129":0.1315412149565961,"130":-0.1483637406540575,"131":0.24126421364375913,"132":0.0983388215531444,"133":-0.029933862506359103,"134":0.09623521236060656,"135":-0.040651042652662256,"136":-0.015292862009538699,"137":0.024348883382069697,"138":-0.08356205188645693,"139":0.1753471010471479,"140":-0.146681331047742,"141":0.0049607990566321175,"142":0.025961437507838293,"143":-0.012624882674754909,"144":-0.11769350467320558,"145":0.2069502253753347,"146":-0.11551104071890642,"147":0.07865389084152434,"148":0.001638774321621796,"149":-0.04215532539046531,"150":0.014554074632950652,"151":-0.03826309594643033,"152":-0.13081730217629223,"153":-0.04350730577501672,"154":-0.1153318031928643,"155":0.18992894487733286,"156":-0.005393607093164075,"157":0.10955704942270898,"158":-0.12263469859099049,"159":-0.059402269504647505,"160":-0.03405120246618169,"161":-0.03728508900888312,"162":-0.03623667692644661,"163":-0.005326484915920967,"164":-0.05311326295907477,"165":-0.014289105546587192,"166":-0.028391197887659682,"167":-0.0524694328858082,"168":0.06631986611900383,"169":0.0903249956171575,"170":0.07215136863711613,"171":-0.008214659684753527,"172":0.02946792234935277,"173":0.026499565691830984,"174":-0.17835049676946982,"175":-0.11968810412798107,"176":-0.06916305159225088,"177":0.04729823322862503,"178":-0.039317817101052095,"179":0.06694102948582098,"180":0.07120979361244163,"181":0.10882704775643258,"182":-0.13551828711553393,"183":0.06147019692476253,"184":-0.13553892314475846,"185":-0.18778156465640894,"186":0.00006758742169913723,"187":-0.13819004727567558,"188":0.03234067628258243,"189":0.0719699783727804,"190":-0.2154412241023062,"191":-0.03349190752151096,"192":-0.11050103618811333,"193":0.017546527490345267,"194":-0.011251739848463635,"195":-0.09712877512978983,"196":-0.12174380787505311,"197":-0.044440950729763055,"198":-0.10410426065162105,"199":-0.03222735162376235}},{"sx":5,"sy":5,"depth":8,"w":{"0":-0.03031407209001674,"1":0.04196410891314467,"2":0.006219617155604682,"3":-0.05755912434122659,"4":0.007538042448024471,"5":-0.21165143883230236,"6":0.09402332050791906,"7":-0.04308406984411911,"8":-0.04391059021728368,"9":0.09543077777679523,"10":-0.01640527175881087,"11":0.11668288171028506,"12":0.1050455725256698,"13":-0.06411025317725504,"14":0.026505011770468042,"15":-0.06169642134756165,"16":0.09004631972999935,"17":-0.05691191699288269,"18":-0.005604806706207505,"19":-0.05661687459835017,"20":0.016919034131607055,"21":0.02479399725212095,"22":0.1689856448163976,"23":-0.06017814433783906,"24":0.03592886773078357,"25":-0.044614314237737054,"26":-0.06644463490308283,"27":0.09852292050977117,"28":0.08653259147779589,"29":-0.06371374024888227,"30":-0.0682545985397346,"31":-0.050758995498301165,"32":-0.010371774050802812,"33":-0.09831819229678139,"34":-0.16763678684282124,"35":0.021517247313300118,"36":-0.06352443656332171,"37":0.03515438246512926,"38":0.005846829935921517,"39":0.02256196821926218,"40":-0.01911513610044443,"41":-0.004224467586473004,"42":-0.050021621277743136,"43":0.06865984025064079,"44":-0.038423225510616714,"45":-0.13845257698137806,"46":0.00748872500369375,"47":0.1758174211807227,"48":0.1813929400191744,"49":0.04125491165250294,"50":0.22362546817553816,"51":0.08459394236039539,"52":0.12954701509654276,"53":-0.11529550832529203,"54":0.0468755808286852,"55":-0.07184379194853535,"56":0.06832125329341968,"57":-0.03924120558024648,"58":0.01784952330422511,"59":0.11374705631637376,"60":-0.04084077977716271,"61":-0.016279811295704088,"62":0.07756970649949134,"63":0.013178778052220274,"64":-0.006752202369806028,"65":0.08466024928754756,"66":-0.08570649307912717,"67":0.030982442069536147,"68":0.060716072357916574,"69":-0.02979005751249431,"70":-0.20185857578250757,"71":-0.0440470715464288,"72":-0.020381820246169434,"73":-0.024122644389332544,"74":-0.044605970388341326,"75":-0.009798984846961354,"76":-0.02892527584194644,"77":0.03906206773116724,"78":-0.16624897967531999,"79":-0.02104002189577823,"80":-0.1673198890908933,"81":-0.16538141212325944,"82":0.06166596784647453,"83":-0.28460765549482725,"84":-0.021764415776840546,"85":-0.015865585071677395,"86":0.017784553545725907,"87":0.1320912542347178,"88":-0.0024445723520246927,"89":-0.08650041235490964,"90":0.06143795594683172,"91":-0.0841333104543612,"92":-0.04935929442217089,"93":-0.0659051716354292,"94":0.04306485688606653,"95":-0.24461517298118457,"96":0.027085956186949728,"97":-0.12327034830036997,"98":-0.027495437702904028,"99":-0.024925543125819093,"100":-0.0243548309011038,"101":-0.20961516213063525,"102":0.024230101078393875,"103":-0.16767061298273103,"104":-0.1112094251537403,"105":0.003889634356235994,"106":-0.11646627867403098,"107":0.009039728526702788,"108":-0.011721300367832959,"109":0.006213412670730148,"110":-0.11205364470445868,"111":-0.10908411122061432,"112":-0.1754626447402378,"113":-0.0886907526330852,"114":-0.0889312824236261,"115":-0.03644342158656228,"116":-0.05452538536128374,"117":0.002989723714282978,"118":-0.20482278385754182,"119":-0.18449267518389614,"120":-0.009389138168455014,"121":-0.04747977329637778,"122":0.025800689286550386,"123":-0.18618899363886496,"124":-0.08520234185476809,"125":-0.011937485021263117,"126":0.06369375181385976,"127":-0.009788200104400922,"128":0.1547394074637654,"129":-0.09107954799128025,"130":0.2369679857741252,"131":-0.044594229685337876,"132":-0.004357553080219539,"133":-0.1404775869437874,"134":0.1304641925643418,"135":-0.14290873292004289,"136":0.10340285557308111,"137":-0.048536389170877416,"138":0.04608302894611019,"139":-0.052160378913421464,"140":0.02258896159975069,"141":-0.0577054011140309,"142":-0.10596306549810519,"143":0.12091021854228563,"144":-0.0899342266920446,"145":-0.1125981703415822,"146":-0.09576937358946187,"147":-0.02346407068835344,"148":-0.055409664408895644,"149":0.07658197436309577,"150":-0.10540118108468904,"151":-0.12026516688452316,"152":-0.17297890083507844,"153":-0.12790239859910876,"154":-0.03989763637371917,"155":-0.03627216962101727,"156":-0.10769101842513056,"157":0.1117817532247559,"158":-0.26629749823408366,"159":-0.020328015972753702,"160":0.008618688396411663,"161":-0.0829132165589376,"162":-0.020338614010808324,"163":0.015338298887566012,"164":-0.1014741536975144,"165":-0.07241160762295566,"166":0.049752632603729516,"167":0.004356855398096543,"168":0.18484561912181946,"169":-0.043320485460891754,"170":-0.00128342799371302,"171":-0.14047796066560683,"172":-0.039034951009553995,"173":0.0004902102505557416,"174":0.09539435974582196,"175":0.11897462529503042,"176":-0.03522155771782712,"177":0.12524241098196318,"178":-0.12357397815336246,"179":-0.06749614822072995,"180":0.07480414885795496,"181":0.098773091323786,"182":-0.06982484991813638,"183":0.08408069576822652,"184":-0.059066750117931714,"185":0.14797418368800183,"186":-0.036889578283457486,"187":-0.14625438268579774,"188":-0.09571985771522268,"189":0.07614761415053789,"190":0.029493218771076427,"191":-0.1620750791422903,"192":-0.07529215877389504,"193":0.08655418523562584,"194":-0.03530478564927103,"195":-0.13662434338469098,"196":0.03529351057820403,"197":0.11314781642725645,"198":-0.16692347150735448,"199":0.0017801322510704943}},{"sx":5,"sy":5,"depth":8,"w":{"0":-0.0835686805665463,"1":0.017397465736392687,"2":-0.06250756699246397,"3":0.12927089359812438,"4":0.20696621958569672,"5":0.03876301394882344,"6":0.16105377230983042,"7":-0.11643750879911131,"8":-0.12161535497810895,"9":0.03270328480406286,"10":0.04034808789063849,"11":-0.05231173283062189,"12":0.05780845005036748,"13":-0.03946915827142823,"14":-0.01194168358460211,"15":-0.11026480098536727,"16":-0.05477853422179657,"17":-0.044236603196881163,"18":0.13106335673533032,"19":-0.24129484572383605,"20":-0.16899727552655,"21":-0.08241781357039711,"22":-0.1277731875441695,"23":-0.14867501154044444,"24":-0.026408344074927537,"25":-0.011364908925492188,"26":-0.02236373866807353,"27":0.1177622382640704,"28":0.10868015490118374,"29":0.0252827592656774,"30":-0.14600318198752105,"31":-0.1311551303101022,"32":-0.1452012977778884,"33":-0.05143594442219219,"34":-0.07654253554077639,"35":0.1025346922513521,"36":0.15479703313301807,"37":0.09775102404064293,"38":-0.10097710932802616,"39":0.012167453998523273,"40":0.08987852992614112,"41":0.04349879420913398,"42":-0.11826057189152249,"43":0.3048053446433398,"44":0.10030090804794355,"45":-0.015329429341593573,"46":0.07909109025770407,"47":0.12821979512159892,"48":-0.08831435818304577,"49":-0.050668185111076645,"50":-0.16057144315871766,"51":0.2223941395946764,"52":0.19635122371538977,"53":-0.08548754812380574,"54":0.11520988144145321,"55":0.10639035366019264,"56":-0.030260497889228175,"57":-0.17118395779141746,"58":-0.11016953946921414,"59":-0.1593500939172337,"60":-0.00007329908909283617,"61":-0.1264316312262838,"62":0.013903468291094862,"63":0.06147627283015723,"64":-0.08218620269235216,"65":-0.09102584449687978,"66":0.014988370149232728,"67":-0.16844559701440814,"68":-0.009173462059499524,"69":-0.06350812492467636,"70":-0.1450412547780745,"71":-0.05172414086010164,"72":-0.05478683951993191,"73":-0.11047062036200404,"74":0.09562146945922487,"75":-0.11637677153824608,"76":0.07312815756282946,"77":0.03204548322058698,"78":-0.08338444555302181,"79":-0.03376363730257977,"80":0.10662402253124952,"81":0.01915216812743109,"82":-0.017798288805563306,"83":0.029213954528032438,"84":-0.0187285994356672,"85":-0.03760302858061741,"86":-0.052555146064515834,"87":0.2760411425248468,"88":-0.03718895388340132,"89":0.07982949342163695,"90":0.040269449648728986,"91":0.058730842737932866,"92":0.06367412171998693,"93":-0.1414924553869909,"94":0.04970309925989923,"95":0.18672635985338168,"96":0.04251873077184565,"97":0.026361839145100496,"98":0.023396780557136197,"99":-0.09275348484834434,"100":-0.022048851600487904,"101":-0.21239421312183,"102":-0.04644537453882001,"103":0.11706365048342945,"104":0.11135812806411308,"105":0.13388205648304125,"106":-0.0939960897699195,"107":-0.1236826605597773,"108":0.08601570148240811,"109":-0.18030805971932073,"110":0.027365930446476394,"111":0.08425979644666762,"112":-0.09936433111960656,"113":0.07385661791849249,"114":-0.009193322171297796,"115":-0.027299359634064442,"116":0.054792803993669516,"117":-0.15448238095421568,"118":0.06737158971480973,"119":-0.0829210807143652,"120":-0.021711968900537726,"121":0.3046891845577986,"122":-0.09068903371144037,"123":-0.15565158595277961,"124":0.005518345504448381,"125":-0.06273423239310752,"126":0.025746309423470306,"127":-0.06634482073143683,"128":0.1346751932289671,"129":0.10167134382042095,"130":-0.08700636772968547,"131":-0.2517178431960878,"132":0.05181490028389604,"133":-0.09853049817689102,"134":0.10471386736693208,"135":-0.12817298754177245,"136":0.09647024551269302,"137":-0.008244229589205008,"138":-0.11012740886782099,"139":0.09450219958971343,"140":0.042525259467409315,"141":-0.07740089809820157,"142":0.07974663874858472,"143":0.039308318393545684,"144":0.08152062121011372,"145":0.0869952202000415,"146":0.000782905596988381,"147":0.06056567233481409,"148":-0.0011309876344334996,"149":-0.006957882360921986,"150":0.07849623523672408,"151":0.025131272539261656,"152":0.017580865417483944,"153":0.07386482491711557,"154":-0.07047461789586996,"155":0.051339180831090694,"156":0.02718573325473034,"157":-0.1098907763062219,"158":0.13663436534605466,"159":0.006184233335512684,"160":0.06642448634614459,"161":0.16106536244929742,"162":0.030794489179101787,"163":-0.08106138984702052,"164":0.00035732788352943294,"165":-0.09933439646688264,"166":0.04909977355700422,"167":-0.19309826971613836,"168":-0.04128292435159263,"169":0.1113001527287162,"170":0.08778513026455734,"171":-0.05403398307314014,"172":-0.06988307486206799,"173":-0.18100686765405483,"174":-0.0017874906078550398,"175":-0.05702218032309473,"176":0.08496840902136873,"177":0.1304579156246763,"178":-0.0625978521868119,"179":-0.020537321292904323,"180":-0.08099816722483684,"181":0.035601826893910914,"182":-0.05662386506287526,"183":-0.06604163710610964,"184":0.0290818845047302,"185":0.06581139222901675,"186":0.06432512843247563,"187":-0.011452861473272027,"188":0.09312658290963184,"189":0.014773211427751603,"190":-0.1736429026202317,"191":0.08260801725633421,"192":-0.07924609850764255,"193":-0.06287341637289401,"194":0.07205228233103575,"195":-0.03528465114023745,"196":0.04203813596566609,"197":-0.1122231484124463,"198":-0.11894573912652973,"199":-0.039319129683960195}},{"sx":5,"sy":5,"depth":8,"w":{"0":0.032303060388883864,"1":0.0020301277687629687,"2":0.09170996690706172,"3":-0.13404967703049786,"4":-0.2033311253396183,"5":0.05856015509674016,"6":0.007830907551225945,"7":-0.05610027202305679,"8":-0.013027815614004096,"9":-0.08391862892554224,"10":-0.010340253995864275,"11":-0.022416380683597827,"12":-0.0017050627143418236,"13":-0.08605505223898605,"14":-0.11119412646678666,"15":-0.060127870440634106,"16":-0.1154415980684975,"17":-0.23857128723826088,"18":-0.051215820896698974,"19":-0.0654748680680106,"20":-0.05356011062261679,"21":-0.03037410095900084,"22":-0.09106673334410725,"23":-0.025436327817129692,"24":0.03227394471803,"25":-0.09797825383670813,"26":0.03294868664367523,"27":-0.06620941278638481,"28":0.01587469146274429,"29":0.0014002876497806044,"30":-0.2316895935898588,"31":0.03754907219516801,"32":-0.05672836924944575,"33":-0.00788117477319268,"34":-0.0021275201096503066,"35":-0.1323038701315747,"36":-0.10302857109361481,"37":0.047940104558486456,"38":0.08272086048196015,"39":-0.02486883507227806,"40":0.02927009253226503,"41":-0.06498633322278798,"42":0.17632521230484868,"43":-0.10444099324011348,"44":-0.07309685242625896,"45":0.04891269197344967,"46":-0.01901035253176148,"47":0.07698286670811742,"48":0.04352961624035796,"49":-0.0576490142292923,"50":0.00245682197807022,"51":-0.10211722418429604,"52":-0.07182872321450541,"53":0.08221174621603748,"54":-0.03793843149279252,"55":-0.10716827355612604,"56":-0.052069308902438556,"57":-0.02736095928382661,"58":-0.010543626699325702,"59":-0.08355682997649096,"60":-0.03263022108385804,"61":0.15515239131135963,"62":-0.11513957829371778,"63":0.04069601139033954,"64":-0.1801989068777838,"65":0.07579088457706548,"66":-0.07753293661546252,"67":-0.10713963957576335,"68":-0.20964432004014338,"69":0.006278517379883055,"70":-0.13455752080439454,"71":0.1442007812609785,"72":-0.015522623422788661,"73":0.159579468447004,"74":0.06813493442369545,"75":-0.1376100451246015,"76":-0.10337764648160419,"77":-0.0007187669697019017,"78":-0.017533108406370866,"79":0.04640708780170085,"80":-0.002777471358641345,"81":-0.22383307523222998,"82":0.3608594336921454,"83":0.09950595861642982,"84":0.006384722354856676,"85":-0.06998603822952798,"86":0.012865938434669924,"87":-0.05402063785274994,"88":0.12051983073755726,"89":-0.15675595734902556,"90":0.24555141524097332,"91":-0.016129009602685512,"92":-0.10068795141965056,"93":-0.015881007293961587,"94":-0.13259291101965015,"95":-0.10615063526538465,"96":-0.06459039672299154,"97":0.08872173341176866,"98":-0.01915259613834263,"99":-0.25007468676368094,"100":-0.12537672313778755,"101":-0.13596372830602382,"102":-0.014379034237727694,"103":0.16968640871843563,"104":-0.045267633529283154,"105":0.08662861003777914,"106":0.05572163878646596,"107":-0.11730291116165355,"108":0.012730019151111887,"109":0.01296651683129125,"110":-0.049150721809554966,"111":0.0988654150256753,"112":0.23384353577898706,"113":0.10420796991207128,"114":0.09170954619118311,"115":-0.07929360579686401,"116":-0.03173382183084086,"117":-0.005951361825702604,"118":-0.0029495910474212975,"119":-0.009811631908001765,"120":0.03390311289653525,"121":-0.14480968054531798,"122":0.20142294592782856,"123":-0.1973116516570073,"124":-0.041544557169792995,"125":-0.17601389983698296,"126":-0.07624139862576701,"127":-0.1270061309633582,"128":-0.026249678962468357,"129":-0.043786934412238056,"130":0.12757675027661994,"131":-0.1754044300267799,"132":-0.013675035101447661,"133":-0.09779152984649579,"134":-0.07433127908015294,"135":0.08268221141795382,"136":-0.15583858999374745,"137":0.030010171927042126,"138":-0.03269872344769262,"139":0.06528553915526167,"140":-0.2323544858018913,"141":-0.21830959966968375,"142":-0.16821357494475092,"143":0.1975363476959487,"144":0.2665233966541304,"145":0.07907723355893155,"146":0.028364638114381772,"147":-0.19184409508613334,"148":-0.223282527571952,"149":-0.17450098719182508,"150":-0.010446490571938812,"151":0.00021570879274624994,"152":0.07542825068112702,"153":-0.06373069686786527,"154":0.16200711852975494,"155":0.013500448434302731,"156":-0.050708223014830564,"157":-0.13563901949041937,"158":0.18826940726649727,"159":-0.017990574258540032,"160":0.09039310005988424,"161":-0.06644391375651539,"162":0.1658194225349899,"163":-0.21762333913642615,"164":-0.19599952349576288,"165":-0.0005247092008354524,"166":-0.06345788082461275,"167":-0.09257442279836071,"168":-0.1555986422773124,"169":0.015323879293999657,"170":0.051176366336306595,"171":-0.08451978683760882,"172":0.10194500164734945,"173":-0.08846889067573944,"174":-0.1332643184061356,"175":0.15979404995184263,"176":-0.12401349339100676,"177":-0.04002163000713737,"178":-0.019230379784436275,"179":-0.02053997850775318,"180":-0.1746783187723915,"181":-0.14315688925364609,"182":-0.027494653782977337,"183":0.23087995531605687,"184":0.16160015560890825,"185":-0.029252981188893534,"186":0.1194410067345382,"187":-0.12400345172840237,"188":-0.09111604451971948,"189":-0.022035006647912466,"190":0.0075430972822222355,"191":0.03562479214664093,"192":0.03225778243625564,"193":-0.08120934627262633,"194":0.15095295240391288,"195":-0.11284865544161615,"196":-0.03364038829518046,"197":0.15750820378614763,"198":-0.059342284633862,"199":-0.13059398122529697}},{"sx":5,"sy":5,"depth":8,"w":{"0":-0.12531272362754947,"1":-0.09250813976539021,"2":-0.05316727669881944,"3":0.12522979854512636,"4":0.07171193452569564,"5":0.05888128963460417,"6":-0.07786947237262896,"7":-0.1493089272330845,"8":-0.10241179563172123,"9":-0.11979728872664727,"10":-0.0646540461216116,"11":0.016757799161393496,"12":-0.049054616657426775,"13":0.18399588270583694,"14":-0.13210734270822677,"15":-0.13255572376811225,"16":-0.09853809782478735,"17":0.04534861701527751,"18":-0.013250326004127275,"19":0.08239798294891403,"20":-0.081209961826315,"21":0.12834128591233346,"22":-0.10408662807866582,"23":-0.020502216723204292,"24":-0.0057056664434659635,"25":-0.04370714404093037,"26":-0.06147770670433019,"27":-0.07376949618043924,"28":-0.10124900400309453,"29":0.08405675620247995,"30":0.0568144562062348,"31":0.17205802208012205,"32":0.08266565303717492,"33":0.04063662051749106,"34":0.08935671901067103,"35":-0.17256101324865597,"36":0.012427949661943117,"37":-0.01825662673871436,"38":0.048607646130995455,"39":0.07177219655241628,"40":0.04876212393132247,"41":-0.1554461829842713,"42":-0.08048556345966995,"43":-0.04593948700638117,"44":-0.07083870226459414,"45":0.033843887633871195,"46":-0.037174631810086047,"47":-0.37957418671148063,"48":-0.13024453560110383,"49":0.1090329059146883,"50":-0.12252764378937636,"51":-0.010232497582244269,"52":-0.1418520891947231,"53":-0.059646439752420705,"54":-0.05764939218214792,"55":0.20243423860091084,"56":-0.14578864373038206,"57":0.1180128419644981,"58":-0.21206096272278455,"59":-0.19790542240740966,"60":-0.09794544352721905,"61":-0.09856661716015379,"62":-0.015112061864255313,"63":0.15295959985162655,"64":0.1662568129881571,"65":0.12617505471628288,"66":-0.06333443054818272,"67":-0.16992160814191712,"68":-0.016197070385480378,"69":-0.06351422606837208,"70":0.1997196647046108,"71":0.20646903583993148,"72":0.24651984802663485,"73":0.08905702205373141,"74":0.20217877922030336,"75":-0.22723865805178892,"76":0.05731638836447859,"77":-0.1196461456485901,"78":0.11603053260775667,"79":-0.0774638822627012,"80":-0.020841210840026915,"81":-0.040840686019511255,"82":-0.036790191595376366,"83":-0.048384736362344,"84":0.0029550991772120394,"85":-0.06194834299169109,"86":-0.06616745028629122,"87":0.08806981602422063,"88":0.013300116557962195,"89":0.1406801973022052,"90":-0.05156181779724584,"91":-0.14797017536747012,"92":-0.06479583654602127,"93":-0.07579376354001476,"94":-0.08523988556038967,"95":0.20132908925652243,"96":-0.0031793379564376196,"97":0.024133659544178922,"98":0.027095043518427935,"99":-0.17284234775965093,"100":-0.022676608333729125,"101":-0.0533666144515056,"102":0.00934687109044248,"103":0.12581737712281563,"104":0.15125462784969346,"105":0.03146470753127486,"106":0.024643623844249857,"107":-0.1858796215002012,"108":-0.08878773304629348,"109":-0.058439238702219884,"110":0.06255680836684635,"111":-0.2679386264733387,"112":0.1525593309900208,"113":-0.06684453367546846,"114":0.10168683277646415,"115":-0.033080334202766765,"116":0.1064800851070037,"117":-0.06783253077671975,"118":0.1050229784941009,"119":0.03433293538539165,"120":-0.07828944874848388,"121":0.001248540719498924,"122":-0.06515194680278241,"123":0.0918364474964877,"124":-0.07549704272607555,"125":0.01133981912494275,"126":-0.09735954540297763,"127":0.0117903900076919,"128":0.03638350207889291,"129":-0.012656510836322899,"130":-0.08301005812585154,"131":-0.1113215054677273,"132":0.005595789597459032,"133":-0.1547668567533932,"134":-0.08111859319233619,"135":0.10474448554815868,"136":0.12528555725176616,"137":-0.006220700592272943,"138":-0.006447818843016024,"139":-0.2765392882109127,"140":0.0194085785535274,"141":-0.14513680782229688,"142":0.0421844260146624,"143":0.05247783168894574,"144":0.15452907180036965,"145":-0.21435353970647,"146":0.15454558195901102,"147":-0.18907786157190776,"148":-0.10183527950675159,"149":-0.000029642694470237907,"150":-0.007468597381506352,"151":-0.18072019796719724,"152":0.00556210310569036,"153":0.09034690423580438,"154":0.008927195711086773,"155":-0.061394761043969626,"156":-0.02198033999170645,"157":-0.05627580896930369,"158":-0.06996411555088829,"159":-0.001451162000280264,"160":-0.10988708996061043,"161":0.14420328507723848,"162":-0.060360749410176065,"163":-0.08084981281048796,"164":0.010240693617794998,"165":0.11467504209694475,"166":-0.2192851487305183,"167":0.03501335389193977,"168":0.12271513678498205,"169":-0.01806547794851628,"170":-0.009515313595980618,"171":-0.004933052867818688,"172":-0.11476003843646977,"173":-0.05074225329199952,"174":0.06995183060338002,"175":0.18971254791806955,"176":0.17166882205253317,"177":-0.061929415678377696,"178":0.048057985741936274,"179":-0.07711077634907045,"180":-0.04025565147707943,"181":-0.1019126941013258,"182":0.01465424607013936,"183":-0.05847684349617263,"184":0.030040250061786847,"185":0.04100957844106731,"186":0.10306352318295328,"187":-0.21654972290390556,"188":0.0705013522007164,"189":-0.13915782498329368,"190":0.03735693303696947,"191":-0.1366921126465377,"192":-0.1422852832877933,"193":0.10570691606910745,"194":-0.13849569647516818,"195":-0.07609765614873479,"196":-0.0966763002450414,"197":-0.026263267633910153,"198":-0.1478922370125628,"199":0.05464955445779676}},{"sx":5,"sy":5,"depth":8,"w":{"0":0.07701497275618917,"1":0.11654766805148561,"2":-0.0028595919550244977,"3":0.005086724109348249,"4":0.062231652217616375,"5":-0.06231599390371962,"6":0.21433032910569777,"7":-0.060654591263937636,"8":0.13946808948402997,"9":-0.022649246986687518,"10":0.07667679442352844,"11":0.126653059841655,"12":-0.0685542865871395,"13":0.032790428213924444,"14":0.10213806473144332,"15":-0.08859036923349728,"16":0.1086316996699698,"17":-0.0646388226690924,"18":0.0264671814333573,"19":0.1695804002885944,"20":-0.02290926487409078,"21":0.14561091743705956,"22":-0.13924187249134196,"23":-0.0005239095189276293,"24":-0.0011513462956808398,"25":-0.02119783747912224,"26":-0.04145097969468406,"27":0.037704476380533446,"28":-0.19850952602899205,"29":0.185463696233366,"30":-0.11994511951710086,"31":-0.08556904166443938,"32":-0.1726717026862584,"33":-0.09748592235054349,"34":-0.1210269221097388,"35":-0.13139612611981694,"36":-0.15120479476246862,"37":-0.1409008199097573,"38":0.001121094846809145,"39":0.21873963302643556,"40":0.17411422946814104,"41":-0.003032678323167439,"42":0.05937121307011937,"43":0.24439664551951498,"44":-0.06228750602594475,"45":0.057890050277084985,"46":0.07647291500367741,"47":0.04304129941390264,"48":-0.07191726278444358,"49":0.054863942040547266,"50":-0.015370729426614127,"51":0.15453894766251908,"52":-0.15184350219863546,"53":-0.01790688350534979,"54":0.03205345034866295,"55":0.014045180828015718,"56":0.07370325135803948,"57":0.214479818711643,"58":-0.03297285183491144,"59":-0.05670249672868282,"60":0.06663434488248718,"61":0.057730217776145336,"62":-0.06826055820711069,"63":-0.009802478891865207,"64":-0.14627068726185619,"65":0.013266015499532798,"66":0.09724697123106674,"67":-0.03270747085053239,"68":-0.13391128463398674,"69":0.10212331143076867,"70":-0.040137390364646655,"71":0.14460157715071562,"72":-0.012559143632526505,"73":-0.020987888458789277,"74":0.06553502906703017,"75":-0.11981717131448051,"76":-0.11156941507934219,"77":-0.07509209667112957,"78":-0.031233583512726648,"79":0.01852961838242182,"80":-0.09287822020673077,"81":0.04509183981805688,"82":0.002224078047064486,"83":0.07558108797993773,"84":0.04300554411960971,"85":-0.018331952241657585,"86":-0.010626976061808983,"87":-0.19204821063910865,"88":0.013149065464193766,"89":-0.06869661801327386,"90":-0.023310347189118622,"91":-0.06514234023956766,"92":-0.03127835656258294,"93":0.16508754856178606,"94":-0.04785869093635255,"95":-0.10331100833595448,"96":-0.22165227652653363,"97":-0.0015403290967327557,"98":-0.15654711978344546,"99":-0.11169034839429431,"100":-0.20933352105082795,"101":0.08208256565718322,"102":-0.21877882576464133,"103":-0.05626316290796502,"104":-0.10344223200331533,"105":0.07606351130719655,"106":-0.1580557236092688,"107":-0.1674941264236192,"108":-0.13356099639382776,"109":-0.03492894877529403,"110":-0.0352754046697002,"111":0.13486155709227982,"112":0.16648934695118292,"113":-0.010199744122283203,"114":-0.027660680256535862,"115":-0.32576831796904704,"116":-0.14672223518646288,"117":-0.13962603470386872,"118":-0.0568335652505315,"119":-0.07306780355409376,"120":-0.17949358684625483,"121":0.09916426173229125,"122":0.0865548644373325,"123":0.10879888752721752,"124":-0.029463520901330278,"125":0.05740986551095657,"126":-0.10404197099956268,"127":-0.11494429281391406,"128":-0.0498036159045957,"129":-0.032194240106802975,"130":-0.04407956616189593,"131":-0.16754958414936288,"132":-0.12209943113887657,"133":0.028775778627736753,"134":-0.22480848506899534,"135":0.0637671499749249,"136":-0.14780151169580105,"137":0.011199179627830923,"138":-0.024149780036777282,"139":-0.2856797283138184,"140":-0.15922731651486907,"141":0.043792557979999605,"142":-0.14731853545944315,"143":0.0780556351396794,"144":-0.03613600054077546,"145":0.0688357075618513,"146":-0.014445300771745339,"147":-0.2651574494029411,"148":-0.03509478275228662,"149":0.015420705259744824,"150":-0.027846730150428232,"151":0.21814144138415026,"152":0.21884719252843132,"153":0.07193092015267472,"154":0.0584766449872528,"155":-0.15506818348322227,"156":-0.18481898651986323,"157":-0.17747063551264056,"158":-0.05372474339000779,"159":0.05782626187492408,"160":-0.09762786785251862,"161":0.09768373953978551,"162":0.027899702469659112,"163":0.02217713422081879,"164":-0.18377723099142182,"165":-0.01720120078247064,"166":-0.05666119334995635,"167":-0.1045479085862033,"168":-0.1323684845084424,"169":-0.03284113522049393,"170":0.06780415827340042,"171":-0.1562541320928915,"172":-0.132795233086921,"173":0.031768385923488705,"174":-0.18566644829336543,"175":0.008968200445318038,"176":-0.0013432898355581098,"177":0.07234519239203274,"178":0.012787308780229087,"179":-0.2242422632231089,"180":-0.11358566280170963,"181":-0.13120136248850447,"182":-0.13041896832573752,"183":0.11799672397978182,"184":-0.008471740878732823,"185":-0.02663980578855321,"186":0.18534510275946867,"187":-0.08535516403179039,"188":-0.4031820471531843,"189":-0.0343788747448735,"190":0.0035599812694657733,"191":0.08323477405911933,"192":0.24238663679823597,"193":-0.13263613411737485,"194":0.19641054369414496,"195":-0.2795604839226316,"196":-0.1260408192188498,"197":0.05893309209584921,"198":0.00249306008138257,"199":-0.029293059809509008}},{"sx":5,"sy":5,"depth":8,"w":{"0":-0.2626032264991051,"1":-0.10643978495307148,"2":-0.1424006406026635,"3":-0.05851911888589365,"4":-0.025966171068125554,"5":0.05187690395676006,"6":-0.16845302266156847,"7":-0.003919212990154206,"8":-0.1846404042017089,"9":0.15645374390789515,"10":-0.1181642966820748,"11":-0.12823070397138034,"12":-0.11889491074981805,"13":0.09184896171766689,"14":0.027772600993963864,"15":0.1949404007709025,"16":0.005717186399472279,"17":-0.13313076641543115,"18":-0.04098665014360344,"19":-0.1269646142482388,"20":-0.18768695117963213,"21":0.0239338453467897,"22":0.008667883658437358,"23":0.0489336833267705,"24":0.08504097827323741,"25":-0.08430947658830086,"26":0.0901419405093579,"27":-0.130927796340468,"28":-0.1408224056522657,"29":0.16580226809903936,"30":0.04016317928317364,"31":-0.048081356465487,"32":-0.03591187014173972,"33":-0.05558956260493439,"34":0.04210039381694267,"35":-0.08239829973534696,"36":-0.07180895355000196,"37":0.09812772881046292,"38":0.04837534737080396,"39":-0.11962357700966186,"40":-0.1773650166007669,"41":-0.037897206989665595,"42":0.010861637003290434,"43":-0.01746785912224156,"44":-0.12102905897104642,"45":0.11488977688019276,"46":-0.277861087540944,"47":0.09037029133416367,"48":-0.20725467916946383,"49":0.05669907148791559,"50":-0.10429583971434413,"51":-0.08663925714763092,"52":-0.02467092435388482,"53":0.06545589108714193,"54":-0.03234050205272508,"55":0.21557705356686588,"56":0.08235563640482099,"57":0.055010605198769505,"58":0.011127178903020798,"59":-0.02692757390394456,"60":-0.06047084046770154,"61":-0.04411058824903217,"62":-0.0074443343934854815,"63":-0.0847610642604781,"64":0.021328065737124657,"65":-0.10289930648020762,"66":-0.03657281687658493,"67":-0.006544519768270958,"68":-0.015477796506703308,"69":0.2067561876257468,"70":0.0019407024052733972,"71":-0.1595108591512472,"72":0.07732643037243658,"73":-0.040024139483681144,"74":-0.0018209744271792064,"75":-0.011888126313244093,"76":0.0991691171474903,"77":0.02337086119068037,"78":-0.18857963477485212,"79":-0.23371572678923513,"80":-0.03559990504619698,"81":0.0030918060989317125,"82":0.1608091955805575,"83":-0.12269702748755344,"84":-0.06881825756746564,"85":-0.01937914403671184,"86":-0.12058329897962168,"87":0.042462289964596764,"88":-0.010488350443644275,"89":0.01697527545855648,"90":0.13282939194952473,"91":-0.07293989169804986,"92":-0.02442625221114681,"93":-0.034481978483477026,"94":0.02870730162479409,"95":-0.0010389482293173087,"96":0.16586526684747352,"97":-0.1509063543993571,"98":0.024487679885268055,"99":0.037546534702522644,"100":-0.16848626520394341,"101":0.02683131213072902,"102":-0.02594571709881231,"103":-0.04719028286695599,"104":-0.04098468954337459,"105":-0.04140250292077713,"106":0.07755074455284046,"107":-0.0952077886299588,"108":-0.04914449517172203,"109":-0.08323614930783312,"110":-0.1282086823597534,"111":-0.0677598890885994,"112":-0.08555342195030428,"113":0.03535302118532618,"114":0.06102846672071877,"115":0.025746446107500237,"116":-0.07512009040941273,"117":0.05899784401600961,"118":-0.17666665685808985,"119":0.1136841907622857,"120":-0.16012320646064174,"121":0.14297980565258137,"122":0.09384519457926382,"123":-0.09172549073323549,"124":0.06622493375821786,"125":-0.05581555523205952,"126":0.1048178132106289,"127":-0.007547228220370586,"128":0.09983455920671006,"129":-0.043315610177271105,"130":0.047687659045951014,"131":0.047421202447430304,"132":-0.04217407454233927,"133":-0.19375690068570897,"134":-0.014402762018007978,"135":0.12318491624233685,"136":0.1776604884616962,"137":-0.09714817636240348,"138":0.19954616467048675,"139":-0.027086952218812795,"140":0.149549930403874,"141":0.01021539984366064,"142":0.08100856548662573,"143":-0.06877164901574963,"144":-0.00743019783588011,"145":-0.029540947635797184,"146":0.09959203473225829,"147":-0.04163571627020129,"148":-0.059599231798994734,"149":-0.06840639486801685,"150":-0.1479505686154762,"151":-0.011992374814554846,"152":-0.08110914886555476,"153":0.029283245146572403,"154":0.061743953110999915,"155":-0.18694602908093194,"156":0.012800756971966669,"157":-0.1121577589704528,"158":-0.04603918675444503,"159":-0.05678552184507415,"160":-0.08065240963256526,"161":-0.14779628531611744,"162":0.010251851970480412,"163":-0.09954495421975683,"164":-0.0466577545687153,"165":0.04081441626503259,"166":-0.01745536458613629,"167":0.21137121766595338,"168":-0.02985340563211249,"169":-0.09171176474371304,"170":0.1718290582014818,"171":-0.0811436921276579,"172":-0.03565177183419728,"173":-0.01627137180255724,"174":-0.025394200198081314,"175":0.05748375381568911,"176":0.06496521904970969,"177":-0.11477874509997431,"178":0.2380418954701562,"179":-0.16066248594021393,"180":-0.06269348499814194,"181":-0.04792937232991621,"182":0.03352598712614798,"183":-0.17385928812251067,"184":0.023645061222910907,"185":0.11715708822167709,"186":-0.06115162034845988,"187":-0.022612250120242643,"188":0.19487369330743975,"189":0.09726719289652248,"190":-0.0488370898829616,"191":-0.04464687630017121,"192":0.0432805611151745,"193":-0.021045951226800037,"194":-0.1532476545119529,"195":-0.11612410857375578,"196":0.05580180870695887,"197":-0.06250267483930844,"198":0.07162933372059975,"199":0.08957352681067918}},{"sx":5,"sy":5,"depth":8,"w":{"0":-0.1272714416479809,"1":0.055590321144308744,"2":0.07962667441855163,"3":0.04392434750013101,"4":0.09982435030215528,"5":-0.018082474298027416,"6":-0.06337011001237597,"7":0.031045479799395603,"8":-0.02953949173714342,"9":-0.07727547973089875,"10":-0.20673507824865112,"11":-0.028286931172112333,"12":-0.08777259712303521,"13":0.025085756674184133,"14":-0.10298796715259692,"15":0.09286608937084215,"16":0.0645247553782204,"17":0.10576480044681524,"18":-0.11550495791709918,"19":-0.14603086070439483,"20":-0.024727434069380407,"21":-0.08042269683907413,"22":0.048415735796500485,"23":0.12715377068548964,"24":0.08217622873400593,"25":-0.09814929369453189,"26":-0.11681956674053258,"27":-0.07985887005156306,"28":0.006574779834529457,"29":-0.014489901892243428,"30":0.08317735722783481,"31":0.07505104760075862,"32":0.12363841036186998,"33":-0.09626023703851877,"34":-0.06516018800680556,"35":0.014136918166438674,"36":0.026291747635883378,"37":-0.2262420499293717,"38":0.1292804199305518,"39":0.01670956733837547,"40":-0.17419897976412146,"41":0.1228403349263752,"42":0.005807207868463618,"43":-0.04457809844630758,"44":0.03589458322234345,"45":0.09592963124735611,"46":-0.10496468473624684,"47":0.0006511959736402283,"48":0.04181257171192175,"49":0.08639073568057354,"50":-0.09375352470279268,"51":-0.13561690211079333,"52":0.00395012252106929,"53":0.011389907054227068,"54":0.011227536860157797,"55":-0.0766922258105648,"56":-0.038489131232621286,"57":-0.08697864624668883,"58":-0.05330795044094469,"59":0.056479304556863945,"60":-0.014142266824033063,"61":-0.09508413574892906,"62":-0.009595817220732304,"63":0.08803399104878452,"64":-0.00998464341519355,"65":-0.17483010497309764,"66":0.011523837700069522,"67":0.030468017241074234,"68":0.1521568199146251,"69":0.05114472398605938,"70":-0.0496725067615191,"71":0.11188058210850504,"72":-0.010208335297032314,"73":0.0102768400316916,"74":-0.08235812639026371,"75":-0.1194309200235513,"76":-0.05390798839308128,"77":-0.10738916761907026,"78":0.011741165154625808,"79":-0.04852136698694481,"80":0.05622300488153031,"81":0.04051469665594929,"82":-0.09887065894133698,"83":-0.0904876096033972,"84":-0.13729919271461427,"85":0.06270189268652594,"86":-0.06368720734230125,"87":-0.04678507513282452,"88":0.050188260866419636,"89":0.058016828734463406,"90":0.08168200820261819,"91":-0.1761427964333458,"92":-0.039195927150312566,"93":0.09778291781648824,"94":0.0004695059799146406,"95":-0.037710985615329054,"96":-0.10525954059029186,"97":-0.11433934732352935,"98":-0.061658687149572254,"99":0.0655409816252909,"100":-0.14865523958757212,"101":-0.09092359032610903,"102":-0.06730808175973216,"103":0.03801082334885676,"104":0.06455639524606772,"105":-0.13240055300218465,"106":-0.2236249981248655,"107":-0.058709148350964795,"108":0.12409723871974772,"109":-0.039479953737656635,"110":-0.0009200568747361592,"111":0.00578233826220618,"112":-0.07467573832031008,"113":0.07165060099616205,"114":-0.1644783480554488,"115":0.10916088516200269,"116":0.08181313968354836,"117":-0.21843884952330195,"118":0.14941695976968897,"119":-0.06325711065046725,"120":0.09818131600755212,"121":0.029107874241268903,"122":-0.05026568497386886,"123":-0.1862354193522209,"124":-0.02674610415181628,"125":-0.06804886902882115,"126":-0.04894324571965274,"127":-0.05562994473318332,"128":0.10602386203235549,"129":0.052726744649622605,"130":0.12597492388606477,"131":-0.11606424379183924,"132":-0.017487031729632882,"133":-0.0751669710917681,"134":0.12348447084432211,"135":-0.1968588077417537,"136":0.05211647759463257,"137":-0.2156703331813716,"138":0.06613977760043273,"139":-0.024387692945029456,"140":0.03746255106202185,"141":0.03995720401930093,"142":-0.04531552220691699,"143":0.09354597544881023,"144":0.024802282556931284,"145":0.008654724133630767,"146":-0.1249559261677147,"147":0.0026928974989578326,"148":0.030771415413849004,"149":0.011388066279039499,"150":-0.27878847728127565,"151":-0.0008572881729565027,"152":-0.04137715172286856,"153":-0.10012345857714897,"154":-0.13529744895500273,"155":0.22451645558048358,"156":-0.0365011384087104,"157":-0.13979292105331811,"158":0.11259492077757911,"159":0.10307624886525936,"160":0.09349971966185928,"161":0.00775054577730726,"162":0.14274475399911518,"163":-0.18669867885129168,"164":-0.0720501718308746,"165":-0.005661864713856745,"166":0.011507850773316427,"167":-0.1399546295804587,"168":0.1113225656536809,"169":-0.020963150463906885,"170":0.10751453125207582,"171":-0.0689937185464181,"172":0.03291746760841708,"173":0.12203823753023081,"174":-0.00504068283882152,"175":-0.1043707537075714,"176":-0.019355022913789887,"177":0.06436087606060212,"178":0.017792053239167608,"179":-0.1712982136984565,"180":0.0018803703528517516,"181":-0.012670117550020966,"182":-0.05692715617904137,"183":-0.04368557819391412,"184":-0.10583928786344447,"185":0.045211361279260356,"186":0.14089730134404274,"187":-0.012557569349433586,"188":0.03926477462955618,"189":-0.04623998072352901,"190":-0.19536977499487357,"191":-0.06417574085159777,"192":-0.012948272381893286,"193":-0.051016780577196184,"194":0.09181204049045785,"195":-0.010049074462578484,"196":-0.10919377903060026,"197":-0.007171252284223096,"198":-0.1133842135739693,"199":-0.14288498079074566}},{"sx":5,"sy":5,"depth":8,"w":{"0":-0.03139860598666748,"1":-0.08311495210212676,"2":-0.04225512565311261,"3":0.002536609544830414,"4":0.03338821395587135,"5":0.03978555879442895,"6":0.023882962338527828,"7":0.02811587293482237,"8":-0.13140340281702295,"9":0.10150826963953108,"10":0.054679822204912534,"11":-0.1342636069000257,"12":-0.0905936583973793,"13":-0.030379908916064232,"14":0.04608307727106926,"15":-0.013193744816070304,"16":-0.01670944690690687,"17":0.13815709874058568,"18":-0.05579707372050618,"19":-0.15970208429843546,"20":-0.09864602609882535,"21":-0.010710969431291038,"22":-0.03045698580896531,"23":-0.026588634907631598,"24":-0.04126636861708259,"25":0.1749664021578929,"26":-0.214792150035989,"27":-0.1733014653296523,"28":-0.06195922381854825,"29":-0.0037327117761665335,"30":-0.07129226565851463,"31":-0.022491484330552203,"32":0.05371212310602138,"33":0.1734307664597725,"34":-0.07305427382184278,"35":-0.09582579617467629,"36":-0.04896623705788995,"37":-0.02111621623506862,"38":0.09107743945496324,"39":0.013194187466400553,"40":0.004455743437689251,"41":0.08259366338750056,"42":0.08607242070142444,"43":0.06933515492775731,"44":0.11404644860915551,"45":0.005587126787760402,"46":0.10517755973453244,"47":0.06422649594876553,"48":-0.08679146892628586,"49":0.03871586063224804,"50":0.009555830518757687,"51":-0.11886524465441076,"52":0.12800279292995972,"53":0.051377559609087076,"54":0.08962018313030397,"55":-0.17031530212082377,"56":0.07236503571375222,"57":0.11983067036502569,"58":0.04451442697487367,"59":0.015122317210480966,"60":0.1160915394551225,"61":-0.1197270665690828,"62":0.002346446470544665,"63":-0.0723596560884178,"64":0.023864635182830232,"65":0.09347794925493044,"66":-0.023942337987831852,"67":0.026773136774890145,"68":-0.10900765088325487,"69":-0.015205182023607782,"70":0.10899246818373977,"71":0.026120310187587086,"72":0.10362195025895284,"73":0.07955699248753356,"74":-0.006665427092588319,"75":0.05616794350608766,"76":-0.014768584879190144,"77":-0.03383954971280453,"78":0.002469146458855152,"79":-0.06269965071066379,"80":-0.002192986329671311,"81":-0.11275774436060432,"82":-0.10839583093960442,"83":0.0046801465295832805,"84":0.2549388557315727,"85":-0.16556097287758167,"86":-0.01493786715783054,"87":0.06030591332832254,"88":-0.05215856762896753,"89":0.013292218620533083,"90":-0.02340322907233919,"91":0.1890269913362751,"92":0.12362941552991676,"93":-0.21714451178303504,"94":-0.20052906467570578,"95":0.09487017095412063,"96":-0.026439139433894476,"97":-0.028588016943610562,"98":-0.05777862542655878,"99":0.18356605985172103,"100":0.1870863469011767,"101":-0.07345041583987622,"102":0.08757785626783994,"103":-0.102183498966556,"104":0.21138859721208322,"105":0.10709215926019043,"106":0.04960127797931519,"107":-0.07626515600106684,"108":-0.12043944240203114,"109":0.026037483068983156,"110":0.042942876681612695,"111":-0.0837551310043137,"112":0.028572079490510164,"113":-0.04703592734342093,"114":0.015517024204190964,"115":-0.02092952681598812,"116":0.01150329225544451,"117":0.10769822738030377,"118":-0.0760862274430547,"119":-0.14381080733509954,"120":-0.009470094702641551,"121":-0.0879458897025935,"122":-0.03938012548764487,"123":-0.04865280639008416,"124":0.01385682980457278,"125":0.04285793640848394,"126":0.011206534401239325,"127":-0.00763588263880827,"128":-0.001938163518773356,"129":0.06649131189815834,"130":-0.057411195968252386,"131":-0.027663678642776236,"132":-0.057251814643314955,"133":0.0049681557389949045,"134":-0.09751964049549358,"135":0.15971112184138936,"136":-0.17952542251253104,"137":0.03584125644423619,"138":0.1254859607667689,"139":-0.07763157992700381,"140":0.03372465516644509,"141":0.04333848948412223,"142":-0.09357395367405054,"143":0.030817609477355967,"144":-0.07705698660038623,"145":-0.01505282477826321,"146":-0.17415510346407542,"147":-0.15076777420376278,"148":-0.035006717110660314,"149":0.14391191095565978,"150":-0.2595379282024357,"151":-0.07452544101642775,"152":-0.08669759974143747,"153":0.09926960624021575,"154":-0.16446522443908568,"155":-0.028057583971350854,"156":0.050046047584252594,"157":0.07085046411812224,"158":0.05833504160465851,"159":-0.11457754129936985,"160":-0.017914370605845213,"161":0.04186272306562044,"162":-0.028819518837604557,"163":-0.08499225292521509,"164":-0.025795500065958835,"165":-0.007204421169019121,"166":0.01608889535937869,"167":0.004291437032849058,"168":-0.02894359524067787,"169":0.00601592771793254,"170":0.09139415898939228,"171":-0.038711850955538,"172":0.021149902417332368,"173":0.012382519159793248,"174":-0.14563653038786548,"175":0.21408312424643086,"176":0.12107256538569665,"177":0.035294529800736565,"178":-0.09899649303350941,"179":-0.12701249993873684,"180":-0.08239176669011318,"181":0.06265689175115818,"182":-0.08064936602591533,"183":-0.04576048226938138,"184":0.023750966379892314,"185":0.08045987979002989,"186":-0.08319848894924507,"187":-0.19606885201409877,"188":0.059835736705733174,"189":0.021389243614993326,"190":0.01829873723782819,"191":-0.00859626925887818,"192":0.11219061654889234,"193":0.05209777047306426,"194":-0.09608686743927745,"195":-0.13657779571407552,"196":-0.06234314715887343,"197":-0.021915830190598232,"198":0.0801481524909087,"199":-0.02438228091085486}},{"sx":5,"sy":5,"depth":8,"w":{"0":0.0013253194003495243,"1":0.04416062138037321,"2":0.003811469867256117,"3":0.0623737851406396,"4":0.13360702130724816,"5":0.09238329346262371,"6":-0.19384919779542042,"7":0.06146310336822838,"8":-0.09389380725569102,"9":-0.0969529765948509,"10":0.0007942469812544204,"11":0.026493987633450244,"12":-0.13309803067668763,"13":0.07257674110222442,"14":-0.06697255829337131,"15":0.01218324073664375,"16":-0.05734793150325628,"17":-0.18926086106785509,"18":-0.06214025728392486,"19":0.049373530711004227,"20":-0.07059951932887293,"21":0.045579021397157415,"22":-0.03891474411662755,"23":-0.09725906947388027,"24":0.014907225666383932,"25":-0.11639080215894303,"26":-0.003971129612777102,"27":0.15961144197029598,"28":-0.08891413330333077,"29":0.09209005719811036,"30":-0.2713624445658254,"31":-0.1226630959798347,"32":-0.1112343454321224,"33":-0.09447881980946284,"34":-0.06360312845953255,"35":0.1455307457138026,"36":0.022817566833164566,"37":0.10791153505235121,"38":-0.168081426107455,"39":-0.13087428924366118,"40":-0.1371698396053445,"41":-0.02348892796672344,"42":-0.027757070802093296,"43":-0.005849835980915463,"44":-0.09431418782484768,"45":0.04604004221918075,"46":-0.07279643932587698,"47":-0.01946746666320517,"48":0.05001971402794701,"49":-0.08449474563685488,"50":0.033803322781507376,"51":-0.12057486897517813,"52":-0.10486259440395788,"53":-0.025461364701041638,"54":-0.03155199570409353,"55":-0.08480961364329388,"56":-0.16542188236269748,"57":-0.06762811388020416,"58":-0.12135486398168492,"59":-0.1383443754301112,"60":-0.05180981847560962,"61":0.0723548026545552,"62":-0.20079882744910174,"63":0.01802184667757341,"64":-0.14110434429788826,"65":0.013840382408830156,"66":-0.196887711702143,"67":-0.122851460527951,"68":-0.03982594100473564,"69":0.09232603901801992,"70":-0.07485279964900507,"71":0.015707093598092692,"72":-0.2784582791278622,"73":-0.00003119677927979287,"74":-0.12124591866707347,"75":-0.04923183303310462,"76":-0.2485767384792764,"77":0.019912481819539713,"78":-0.1623245977129789,"79":0.07352782707060457,"80":0.010433375894031111,"81":0.0947519644645027,"82":-0.008346118913565358,"83":-0.09109411378040051,"84":-0.04614697350541599,"85":0.03686174929648754,"86":0.09606811909154955,"87":-0.0646828896764739,"88":-0.10329751671168624,"89":0.09885863557411526,"90":0.042664706560402305,"91":-0.041243459650795344,"92":-0.07961012899199543,"93":-0.22941354469944764,"94":0.07537473205456395,"95":-0.08017106973640514,"96":-0.021672527588608066,"97":0.12869797411914166,"98":-0.14872352837614577,"99":-0.028063430817193258,"100":0.10466537556963891,"101":-0.03486061187675289,"102":0.15684287055973237,"103":0.03484612681708337,"104":0.036655248656947984,"105":0.25534508991491894,"106":-0.1841821557912123,"107":-0.03749978786743988,"108":0.2320492821608176,"109":-0.10283076066274452,"110":0.217587864296061,"111":-0.14800878370316556,"112":0.020552149412733457,"113":0.178959519700426,"114":-0.08887526489039783,"115":-0.050420594643697886,"116":0.12703891354867516,"117":-0.11068850109841627,"118":0.07761433164006143,"119":-0.09854218171093126,"120":-0.003065011454865355,"121":0.1476747609919259,"122":-0.09807417545660457,"123":0.08069793126607565,"124":0.12000556311861123,"125":0.1162069799354646,"126":0.06498621471737802,"127":-0.11525693801734146,"128":0.00958669156138572,"129":0.02202644441064998,"130":-0.09307076675691828,"131":0.09765413728978599,"132":0.14821089553416236,"133":0.04867985997966637,"134":0.07932501082842595,"135":0.028469189935235267,"136":0.014461384432302361,"137":0.16508532516871205,"138":-0.10458344301010378,"139":0.17079516776255133,"140":0.14446921638541657,"141":-0.1942029086628106,"142":0.05820849459273749,"143":-0.04401134316094679,"144":0.03433350807382958,"145":0.005305029041678632,"146":-0.24401484802975873,"147":0.21996028715017038,"148":0.21559202691373852,"149":-0.07624799539769454,"150":0.07598171161595803,"151":0.05534301634127644,"152":0.10012396922506284,"153":-0.22959123365808812,"154":-0.1648776082327529,"155":0.20584419544226806,"156":0.023347899411960443,"157":-0.007177154117658847,"158":0.04690693690988169,"159":0.08031114018682295,"160":0.05426493515593299,"161":-0.04832445845455699,"162":0.0206558961947765,"163":0.1196873506249992,"164":0.010431853708929203,"165":-0.06915350455093522,"166":-0.0048118631150156944,"167":-0.1540515698344004,"168":-0.01825499610045775,"169":0.021897843775702478,"170":-0.039152447664179225,"171":0.0709322750549018,"172":0.022075340257680046,"173":0.044996706773911495,"174":-0.137162984059149,"175":-0.039199778591813846,"176":-0.0046849769100438116,"177":-0.1021418083764273,"178":-0.03653923258100414,"179":0.1869053603099433,"180":0.029541933169321865,"181":0.07977481702184142,"182":-0.08722130774214498,"183":0.08846608893508835,"184":-0.03185753673517218,"185":0.05336129972005672,"186":-0.06818237256751673,"187":0.06771827041113436,"188":-0.09956361462602373,"189":-0.05951549763205511,"190":-0.18912741479549483,"191":0.11809239885934456,"192":0.00267621573152444,"193":-0.04626330609079741,"194":-0.13730104209916386,"195":-0.04067509546499601,"196":-0.24679216577795576,"197":-0.014370192856801252,"198":-0.18735972052389233,"199":0.03377598601202161}},{"sx":5,"sy":5,"depth":8,"w":{"0":-0.08941373893434765,"1":0.07331390286394596,"2":-0.058396261163693196,"3":0.08613222355569496,"4":0.15368619864497443,"5":0.03687826789750075,"6":0.003545637489919094,"7":0.11579206207166112,"8":-0.03483595949155731,"9":-0.07380914666968866,"10":-0.05917936848168012,"11":0.11754464872401346,"12":0.1569839441805682,"13":-0.11100126992251573,"14":-0.012060715712899968,"15":0.10132253168216024,"16":-0.20510874733672313,"17":0.0938304796839354,"18":-0.11422663459512455,"19":-0.010313190814081736,"20":0.16497796155910802,"21":-0.12804285665994986,"22":0.0887511690430709,"23":-0.024157505446195104,"24":-0.028514737447553902,"25":0.18053926363628547,"26":-0.2549343260483859,"27":-0.21172392978437532,"28":0.10178940156707351,"29":-0.13669710839003507,"30":0.19939664104472582,"31":-0.001079016725512937,"32":-0.17060580916962617,"33":0.18598432262196746,"34":-0.04418336804426707,"35":-0.13001883721107646,"36":-0.09715263392554806,"37":-0.34004279135402776,"38":0.05004253713365449,"39":-0.25279352746260825,"40":-0.12016323978669695,"41":-0.09940348171695035,"42":-0.07196004613507126,"43":0.16571071959552153,"44":-0.016167009459023305,"45":0.01448214368038217,"46":-0.11553451395160041,"47":0.06222608156970512,"48":-0.09426082298478085,"49":0.062365174051587466,"50":-0.19598469935756538,"51":0.17529585798608868,"52":0.11387247103043098,"53":-0.17776328700747307,"54":-0.10666162749741954,"55":-0.03325650448474946,"56":0.0848398952288041,"57":-0.015198467540022749,"58":-0.043689287379578785,"59":0.3519822877940637,"60":0.17292093352111707,"61":-0.18984932947011798,"62":0.055989605214086,"63":0.08600671492028614,"64":0.1245695692090289,"65":-0.052703766146994735,"66":-0.11354644495964984,"67":0.429733884698814,"68":0.06095082331087591,"69":-0.23240677521170092,"70":0.05208880992257368,"71":0.04016430972479577,"72":0.08209811629351593,"73":-0.20312726393693425,"74":-0.2656778994028435,"75":-0.06848864870614287,"76":-0.303643779352529,"77":-0.15717361966922208,"78":0.10087729831735436,"79":0.023714868100798796,"80":-0.06268129768006436,"81":-0.0596204309424088,"82":-0.13761809302170297,"83":-0.05486733691676445,"84":0.057597930647824744,"85":-0.1321886006867261,"86":-0.03893393552207081,"87":0.02256034437909265,"88":0.11093656259875087,"89":-0.15959117255319288,"90":-0.19877817298043549,"91":0.08780695302930686,"92":-0.10171532571399143,"93":-0.09333753250194775,"94":-0.09382487927228655,"95":0.09255312406946549,"96":-0.07488654407281838,"97":-0.08681694780808391,"98":-0.12811228085045742,"99":0.24578700378344473,"100":-0.12041475375933695,"101":-0.1445110103124364,"102":-0.05975944034403306,"103":-0.1126915410709372,"104":-0.07922474178799124,"105":0.07865384036393876,"106":-0.09724716235120191,"107":0.018418682835512023,"108":-0.04164587241689874,"109":-0.12661208766742987,"110":-0.14833027635888688,"111":0.24824695839992758,"112":-0.12158948505480661,"113":0.06409675965532016,"114":-0.09791286577117664,"115":-0.29155327599811665,"116":-0.048000728346123615,"117":-0.3824511774762495,"118":0.08666884496565623,"119":0.17901493690301992,"120":-0.2009172285554511,"121":0.0172443176693408,"122":-0.16511715601899402,"123":0.02450224860005593,"124":0.025747749189609887,"125":-0.08418546852216423,"126":-0.05341055085963305,"127":-0.07674338144208907,"128":-0.012129781959571368,"129":-0.10821601712180993,"130":-0.18550937099447884,"131":0.0014968759310566636,"132":-0.09808887837201306,"133":-0.07691687257828869,"134":-0.3544554738871902,"135":0.06801789679119769,"136":-0.14458043694676784,"137":0.09958954977582476,"138":-0.0030586989537542504,"139":-0.1124511687351219,"140":-0.07052769855009292,"141":0.05090719292235942,"142":-0.16894701556485847,"143":0.05008910442579514,"144":-0.08142184655834042,"145":-0.00959237064531962,"146":-0.0376243634903987,"147":-0.14141522606401788,"148":0.09331173697657137,"149":0.0261357360400319,"150":-0.060532451683931954,"151":0.07726469461335707,"152":0.1499632251044242,"153":0.10292790778404319,"154":-0.06907173321760965,"155":-0.361218305658652,"156":-0.15664867278162117,"157":-0.20459486365181237,"158":0.1782656613598781,"159":-0.006370334165871878,"160":0.0008469430209369221,"161":0.023331994085968064,"162":-0.04900537468479563,"163":0.1087230676770871,"164":-0.08608446226776896,"165":-0.08262714864602409,"166":0.005999868381125555,"167":0.035385383716188816,"168":0.02618458008346279,"169":0.1486024990605138,"170":0.021793307194889512,"171":-0.1416294501531248,"172":-0.1467729535050626,"173":-0.06982460033628249,"174":-0.18740539314965013,"175":-0.15826871914634608,"176":-0.07710158845521925,"177":0.02433366756495984,"178":0.10985517216421495,"179":-0.061805632074761654,"180":0.05085502300843365,"181":-0.08886838023351222,"182":-0.009399733348609671,"183":0.044393215826649714,"184":0.0533996451157598,"185":0.04536574721444587,"186":-0.002148086890136224,"187":-0.2153228613515272,"188":-0.10911337676034912,"189":-0.06877698802270342,"190":0.08769949807842715,"191":0.1652332424503083,"192":0.3019112515848882,"193":-0.1653618494215645,"194":0.05413667152406212,"195":-0.2659058938066555,"196":-0.24302398971339723,"197":-0.004062555021254667,"198":0.03698632200688555,"199":0.018577856111566902}},{"sx":5,"sy":5,"depth":8,"w":{"0":-0.1774987833912467,"1":-0.16590011476437627,"2":-0.07015941673029416,"3":0.027392613872370686,"4":0.029284717336707098,"5":0.0477780051961355,"6":0.08145073213293877,"7":0.006728809050136453,"8":0.04343080634919575,"9":0.014642000902300488,"10":0.11051967878395225,"11":-0.17687517338207437,"12":-0.049229564892100286,"13":0.007354108359215278,"14":0.11967827923848576,"15":0.040395741095562356,"16":0.06060244388979199,"17":-0.03435691522332868,"18":0.26345465904155174,"19":-0.13560961520678272,"20":-0.1561845901621304,"21":-0.08709547392881152,"22":0.02067413948536876,"23":0.005389412593250825,"24":0.14228151680060871,"25":-0.12825202944327452,"26":-0.01993040100781503,"27":-0.25534154614544036,"28":0.038777544752277945,"29":-0.14141046313990915,"30":0.08531105803889173,"31":-0.02960541845598183,"32":0.028469697099751282,"33":0.03485215861899404,"34":0.08772032546281361,"35":-0.02715153412027066,"36":-0.0984508726683468,"37":-0.08556167032185027,"38":0.006562859191079023,"39":-0.023623213345635243,"40":-0.16122832515196225,"41":-0.12864632943940668,"42":-0.16590007263203968,"43":-0.045425969005819127,"44":-0.007305883736822072,"45":0.1009890074193557,"46":-0.116897365030363,"47":0.31490527942278124,"48":-0.060430202654557674,"49":-0.09993560963572257,"50":-0.012962085871283644,"51":-0.10574454981437395,"52":-0.14435395521554817,"53":0.05098373715800187,"54":0.0508816754629351,"55":0.08822793563639877,"56":0.18303151620064848,"57":-0.023695000949703306,"58":0.13129817221079254,"59":-0.2491507349993832,"60":-0.0894044012892676,"61":-0.08066125160743952,"62":-0.06102614825513094,"63":-0.09984666349331722,"64":0.09054745760707977,"65":0.07054307872092214,"66":0.05685698946185489,"67":-0.1350332732854176,"68":0.07975303948499296,"69":-0.22170876901440387,"70":0.0889738887140458,"71":-0.11547591567989368,"72":0.029349716241210966,"73":0.023779621154631624,"74":0.04699574691782577,"75":-0.0465168341763475,"76":-0.08576459547957958,"77":-0.23501515313526028,"78":-0.007956791009414129,"79":-0.019178841764963216,"80":-0.1785187358576177,"81":-0.01539238595260112,"82":-0.13604961262613452,"83":-0.09779852938869212,"84":-0.10568106916171446,"85":-0.0836927196112893,"86":-0.14473313900941068,"87":0.2762434473892962,"88":0.1034998427415419,"89":-0.007904003754862141,"90":-0.07362330998728799,"91":-0.160260679085642,"92":-0.13298990708468542,"93":-0.10816847082896874,"94":0.06680379833688244,"95":0.04924757307226653,"96":0.00537725502823677,"97":-0.01123442233216286,"98":0.1726482115297098,"99":-0.19333457560765874,"100":0.00869028882907243,"101":-0.22049106438205607,"102":0.10308110872008842,"103":-0.05549464372840348,"104":0.12399957784173657,"105":-0.032986397665557776,"106":-0.11769029430169643,"107":0.04883993314395191,"108":0.04078178162461138,"109":-0.10346336224211468,"110":0.19088883918464195,"111":-0.0910445295109524,"112":-0.14062243722598647,"113":0.16919074499118647,"114":-0.09637630173773146,"115":-0.023994340838068506,"116":-0.07301671310461148,"117":-0.10923364051550638,"118":0.041809549635890404,"119":0.03178638751854873,"120":-0.21805660471537808,"121":0.06096581842438571,"122":-0.1471046712858734,"123":-0.10077871167924506,"124":0.022782972114587994,"125":-0.06068839105763761,"126":-0.12808834407110076,"127":0.24637236930263404,"128":0.04249800644946522,"129":-0.10118692939960805,"130":0.14689198818156596,"131":-0.16241786041904982,"132":0.03344836293667956,"133":-0.09691200747751573,"134":-0.03924763930535515,"135":0.08555687282210446,"136":0.03375525261019169,"137":-0.2657034176296092,"138":0.2330968960340294,"139":-0.24439890354952093,"140":-0.049740917831652076,"141":-0.08464471656976982,"142":0.015257960516978992,"143":-0.07187141822561156,"144":0.04713348385615963,"145":0.06541193882550093,"146":0.09413563614553476,"147":-0.10780716740747044,"148":0.033306157604802315,"149":-0.11159264747310313,"150":-0.01048477011260708,"151":0.030047501179407216,"152":0.008155266693791009,"153":-0.024905524210328173,"154":-0.1674179902855824,"155":-0.1627465580776356,"156":0.12146127709145783,"157":-0.09039356942735377,"158":-0.023002583004495473,"159":0.02525149654841098,"160":-0.18434148281526683,"161":-0.025593307409500478,"162":0.029486566826765363,"163":-0.04319506140294759,"164":-0.05969549802398173,"165":-0.021889438293823327,"166":-0.17712917813439966,"167":0.3191530759572636,"168":0.0054008852619781235,"169":-0.23731320115458937,"170":0.0944088292716885,"171":-0.09000658010974559,"172":-0.08960278089474717,"173":-0.17466381018946758,"174":0.13871122665616345,"175":0.1943061556359535,"176":0.037978746416070824,"177":-0.013764008974574013,"178":-0.0025151716584582923,"179":-0.14102281884787074,"180":-0.0230934457308314,"181":-0.05514822656426224,"182":0.038686190714118454,"183":-0.1365383632184591,"184":-0.01622402150756831,"185":-0.013814546798695086,"186":-0.1319584291843648,"187":-0.15854098951478093,"188":0.025537363697903298,"189":-0.10933431926514402,"190":0.05235185438203874,"191":-0.03882849683269353,"192":-0.01729070516018616,"193":0.15463181602849863,"194":-0.30390717820205443,"195":-0.02472439663434221,"196":0.12540914220787966,"197":-0.1199734044472749,"198":0.005221871090150748,"199":-0.08896136252510288}}],"biases":{"sx":1,"sy":1,"depth":16,"w":{"0":0.07021077337163655,"1":0.06926659829801492,"2":0.019675073336738503,"3":0.06377642546293465,"4":0.056193031032769764,"5":0.029395304177127882,"6":0.07321026644197096,"7":0.0804158561077272,"8":0.09093962287353129,"9":0.048513896225232785,"10":0.08014762965062922,"11":0.07088402040682994,"12":0.07263643384072334,"13":0.06244440205724351,"14":0.01339014796251513,"15":0.0649812046586483}}},{"out_depth":16,"out_sx":12,"out_sy":12,"layer_type":"relu"},{"sx":3,"sy":3,"stride":3,"in_depth":16,"out_depth":16,"out_sx":4,"out_sy":4,"layer_type":"pool","pad":0},{"out_depth":10,"out_sx":1,"out_sy":1,"layer_type":"fc","num_inputs":256,"l1_decay_mul":0,"l2_decay_mul":1,"filters":[{"sx":1,"sy":1,"depth":256,"w":{"0":-0.006004622337887798,"1":-0.10401638418938514,"2":0.05453919723692982,"3":-0.006380879772698684,"4":-0.021477877160623094,"5":-0.03376368520623302,"6":0.02041023987391498,"7":0.06474676607682492,"8":0.0014983232636595106,"9":-0.0010785055068487062,"10":0.043642129668131996,"11":-0.020517545959503312,"12":-0.03401748788350922,"13":-0.09199026119742688,"14":0.08181947322000115,"15":0.004777911733059686,"16":-0.11572926145582119,"17":-0.12678924857428472,"18":-0.1278834299524268,"19":-0.006499843779865503,"20":-0.014481518940792,"21":-0.14515394629546413,"22":-0.015441136146281738,"23":0.0403518457651747,"24":0.015519453643053816,"25":0.07747057190038889,"26":-0.11261349886070178,"27":-0.0022363503710483186,"28":0.034497381470758606,"29":-0.1297327155612056,"30":-0.05121296695703004,"31":-0.08572793809675928,"32":-0.09601203915422607,"33":-0.1771283408794229,"34":-0.040827529222333514,"35":0.014435109681460358,"36":-0.0591244827126596,"37":-0.04191870186411007,"38":-0.013163105165012888,"39":-0.1343954634734323,"40":-0.060122769493811914,"41":-0.1421992649172567,"42":-0.024359672088616453,"43":-0.010914961746673663,"44":-0.1158995841480516,"45":0.040690132903874104,"46":0.029527050861535682,"47":0.0445176030795287,"48":-0.0006140413133185738,"49":0.0931136283663326,"50":-0.007969934527584701,"51":0.08890664465593126,"52":-0.11401425857667781,"53":0.10400132363356529,"54":0.059661321155772794,"55":-0.060555395469098224,"56":-0.2122055023095236,"57":-0.2070900841937018,"58":-0.05051725417784122,"59":0.04936962468153651,"60":-0.046472022478294524,"61":-0.034898226676430236,"62":-0.039392662690887335,"63":-0.056564582950234046,"64":-0.26196781848723805,"65":-0.1060372701960873,"66":0.03535464793012625,"67":0.14007496545439344,"68":-0.12354670230856891,"69":-0.12292555846023304,"70":0.03222222099484663,"71":0.10804902405078372,"72":0.05088839024189403,"73":0.13711281546186507,"74":0.041487516226217776,"75":-0.13848702884058753,"76":-0.058111123027661686,"77":-0.12095340492473632,"78":0.11759907369655095,"79":-0.02418364487096036,"80":-0.06213253521350729,"81":0.0021722478535972944,"82":0.09461938610580878,"83":0.00016065675630067586,"84":0.17534718143099098,"85":0.3174518527895976,"86":-0.020102379668952654,"87":-0.010134614411534317,"88":0.11374779658317133,"89":0.21395525622185008,"90":-0.012908867490244884,"91":0.13906691984584887,"92":-0.043513359111944094,"93":0.025472196242810607,"94":-0.11157742381945078,"95":0.03850413997098257,"96":0.07494490534427371,"97":-0.015140884174288102,"98":0.013797590634188417,"99":-0.017580559372165638,"100":0.06751665712289916,"101":-0.23733220612726857,"102":-0.042657504538639306,"103":-0.025702665744995606,"104":-0.04106579635681311,"105":0.04458248072300351,"106":-0.09100450358797471,"107":0.2450215997483215,"108":-0.12671804802095768,"109":-0.0637100681303973,"110":0.05080424616803025,"111":0.01970652933929344,"112":0.0024286402931202574,"113":-0.021704663963796694,"114":0.08630736301919487,"115":-0.05756161173236153,"116":-0.03619961852891148,"117":-0.042342449559151084,"118":0.04673970061434227,"119":-0.04283653097577507,"120":-0.05396572541940788,"121":-0.11921518939563872,"122":-0.12819618433163765,"123":-0.07162780971747783,"124":-0.01829537033004605,"125":-0.06769358810610049,"126":0.14288348159790457,"127":0.15130084613505748,"128":-0.11316228314845035,"129":-0.13805824626960078,"130":-0.08322166907101086,"131":-0.09113743974527741,"132":0.026928026218693408,"133":-0.045869967645901,"134":0.034313377117583414,"135":0.11336649020149062,"136":0.012055141408922788,"137":0.003477999389114307,"138":0.05065805552998022,"139":-0.1025152290626216,"140":0.10475966185628048,"141":0.028514891222221544,"142":0.03986090024261882,"143":0.07630962886343495,"144":-0.24964047357434174,"145":0.10675182342691132,"146":-0.036804170147986905,"147":-0.1384451828673915,"148":-0.173654231715216,"149":0.14959503378966646,"150":-0.1116956768077221,"151":-0.0483383280071262,"152":0.0426998811514413,"153":-0.17000544780446256,"154":0.10585985676500538,"155":-0.06626089909976654,"156":-0.015500648891573054,"157":-0.1429150280854495,"158":-0.26448578968819536,"159":0.1701568308992455,"160":-0.10465775554595932,"161":0.014783327304842983,"162":-0.03968893574035087,"163":-0.0417025745107442,"164":-0.013165377831379277,"165":-0.2416408565412107,"166":-0.13324634207444808,"167":0.03650812243572499,"168":0.025851786451634284,"169":0.10753503286886046,"170":-0.04821820253040371,"171":-0.05117683289914818,"172":-0.20279548943297712,"173":0.008738356053087776,"174":-0.039537887439527165,"175":0.050574718230170596,"176":0.0038182879984108116,"177":-0.06038315475621826,"178":-0.11247763701861486,"179":-0.14596805375887204,"180":0.17405192708183395,"181":0.06667279766562603,"182":0.08167183589481607,"183":-0.09272993301654192,"184":0.07966060126201402,"185":-0.08249306765159843,"186":0.018373828571761272,"187":0.004239008080752012,"188":0.08675832545561718,"189":0.09821477833149268,"190":0.0036636613218946914,"191":0.18305890889484216,"192":0.036829981338619006,"193":-0.1413484520448681,"194":-0.04544147919836684,"195":-0.03809083217538973,"196":0.217839933567929,"197":-0.07581951208455436,"198":0.1547507467605173,"199":-0.08694542959631003,"200":-0.1486624887954673,"201":0.10704858628262733,"202":0.10250495882691028,"203":0.07256342462505805,"204":-0.09755975889709544,"205":-0.004312209389868795,"206":-0.04750335932187451,"207":0.053900826467780424,"208":-0.06129518615912147,"209":-0.07002153719120405,"210":0.03912424675202931,"211":0.09087007811792597,"212":-0.09033143182886116,"213":0.028685919740493768,"214":0.007195455044455762,"215":0.03156496392280641,"216":-0.19859935484166313,"217":-0.19997364497424544,"218":0.015101888341060027,"219":-0.0848598312860536,"220":0.06935273276459598,"221":0.11366074881703352,"222":0.040169886130836156,"223":0.10975424238033288,"224":0.1457620458955158,"225":0.06060874671492653,"226":0.0057263184013309765,"227":-0.0342820037220941,"228":0.009551751437534367,"229":-0.020789703649681954,"230":0.03360686086350726,"231":0.05333222693238882,"232":-0.12073991255682995,"233":-0.02355143411278947,"234":-0.015352878224902741,"235":-0.0022621584667809466,"236":0.18485951699020045,"237":0.01577436862062784,"238":-0.11687882105085473,"239":-0.09641766751279061,"240":0.07547232295369641,"241":-0.03938101901669924,"242":-0.08296428358765252,"243":-0.011512045680436678,"244":0.19580395007807744,"245":-0.0805447986689709,"246":-0.050186204591158835,"247":-0.11384699715561801,"248":-0.007157533746810195,"249":0.09797490116673528,"250":0.0569102596135397,"251":0.12434131930344001,"252":-0.08559213574928735,"253":0.05918838265785197,"254":-0.030018048536812537,"255":-0.06811103899025785}},{"sx":1,"sy":1,"depth":256,"w":{"0":0.04539862896827976,"1":0.04573992819868361,"2":-0.021979902545856897,"3":-0.07873155963995378,"4":0.1027826301355559,"5":-0.081168822235361,"6":-0.11656059134947075,"7":-0.0584515842935597,"8":0.03809666190753775,"9":-0.11127932224375305,"10":-0.03075839221842178,"11":-0.05463994193849752,"12":0.04685068603589256,"13":-0.1480205333160293,"14":-0.2151247586146464,"15":-0.1266436362514174,"16":0.049085661302447174,"17":0.12801696670805165,"18":0.02458932759424944,"19":-0.16191093242543403,"20":-0.09141403422592,"21":0.003696879393356381,"22":-0.1828739560741605,"23":-0.021415045735542423,"24":-0.024465311679128975,"25":0.11099754225564169,"26":-0.054627065532384264,"27":-0.2272224120102641,"28":-0.017999579639157326,"29":-0.15506293022289863,"30":0.11358561785783076,"31":-0.16984548908172678,"32":-0.06584397946486391,"33":0.09936136322943157,"34":0.14994729506825646,"35":-0.10350743341114338,"36":0.005811620294983866,"37":0.21000979886097268,"38":0.04368045478295321,"39":0.0694456986368903,"40":0.029752697416325996,"41":0.06374568631736631,"42":0.050149385239323926,"43":0.20651689302714915,"44":-0.12894866611985822,"45":-0.21605456944713344,"46":0.062379243072906605,"47":0.06539888819235111,"48":0.009971162290108486,"49":0.09311596686067819,"50":-0.02063204087334874,"51":-0.05090653597585878,"52":-0.03394396262655974,"53":-0.009230279591392688,"54":0.01961982793383975,"55":0.2431288378529113,"56":0.05767758166583004,"57":0.11312004461327096,"58":-0.1778060073331998,"59":-0.036052012644911986,"60":-0.0015349089034666897,"61":-0.01061675660645549,"62":0.06378501717244908,"63":0.13777798707661915,"64":-0.15022396882289002,"65":-0.007900229938201353,"66":-0.10469893661685824,"67":-0.12192123525947808,"68":-0.29219282781417594,"69":-0.07152260481294055,"70":-0.1455390840764712,"71":0.0484202639885686,"72":-0.11000417963277753,"73":-0.12346823461324849,"74":-0.06866700668947458,"75":-0.030708885763869792,"76":-0.018424258004334663,"77":0.015230997521934434,"78":-0.13797224381710857,"79":-0.17435618387771262,"80":-0.15607953318694534,"81":0.09457389763301394,"82":-0.04287901086248535,"83":-0.20043435368487786,"84":-0.14671729135241576,"85":-0.09189920660738575,"86":-0.10612218297182731,"87":-0.09596721325060711,"88":-0.21663768544458875,"89":0.07600207066369997,"90":-0.10061908142222416,"91":-0.015431629277350044,